<?xml version="1.0"?>
<opencv_storage>
<opencv_ml_ann_mlp>
  <format>3</format>
  <layer_sizes>
    240 100 40 8</layer_sizes>
  <activation_function>SIGMOID_SYM</activation_function>
  <f_param1>6.6666666666666663e-01</f_param1>
  <f_param2>1.7159000000000000e+00</f_param2>
  <min_val>-9.4999999999999996e-01</min_val>
  <max_val>9.4999999999999996e-01</max_val>
  <min_val1>-9.7999999999999998e-01</min_val1>
  <max_val1>9.7999999999999998e-01</max_val1>
  <training_params>
    <train_method>BACKPROP</train_method>
    <dw_scale>1.0000000000000000e-03</dw_scale>
    <moment_scale>0.</moment_scale>
    <term_criteria>
      <iterations>100</iterations></term_criteria></training_params>
  <input_scale>
    1.0173216772213881e+02 -5.9786050424161286e-01
    2.2761417758725452e+02 -6.8506838072604404e-01
    2.3142908192125557e+02 -1.1826255129740324e+00
    2.3368499234881375e+02 -9.0577461278651816e-01
    4.9624205165219206e+02 -1.4646184623167187e+00
    4.3729600949519886e+02 -1.2359080440015633e+00
    4.1146831978827180e+02 -1.4919313255818876e+00
    3.4518470463070082e+02 -1.1713913392520012e+00
    1.8013142413953531e+02 -9.0975244927416044e-01
    1.9858558131528764e+02 -7.6910197269779446e-01
    2.9987774438478584e+02 -1.2811197730782451e+00
    3.8104648193060467e+02 -1.0443795007308960e+00
    2.3594714009652927e+02 -1.0897233279487095e+00
    1.5575015253445213e+02 -7.3067390473084570e-01
    1.9527610103579940e+02 -9.4710865178385784e-01
    4.4978676407200601e+02 -1.3791851449612367e+00
    4.4342093207014494e+02 -1.2990142787753676e+00
    4.5972510281803068e+02 -1.7228052359494201e+00
    3.4550840465944049e+02 -1.1395436947468820e+00
    2.4245995753921486e+02 -8.3730178021015167e-01
    4.8892671685821864e+02 -1.4205370947366218e+00
    2.5316297439321636e+02 -1.0547146231221625e+00
    4.5388383253693928e+02 -1.4857915416037952e+00
    1.5423663909626751e+02 -1.0197670942334296e+00
    3.2394093403558452e+02 -1.0879760851395910e+00
    1.6363500673677942e+02 -7.2614624971337971e-01
    2.5362960973911527e+02 -1.2211766905852033e+00
    2.3208129037907014e+02 -1.2205704088348324e+00
    2.7603778696362707e+02 -1.0665403290691753e+00
    1.1179623354697983e+02 -9.2930640509970253e-01
    9.6142972504723062e+01 -6.2054387622629237e-01
    3.3124144153690270e+02 -1.2782055798842766e+00
    1.8927689906032157e+02 -5.4425230378890044e-01
    1.8173223352149068e+02 -1.1797513437184002e+00
    3.1742392899753673e+02 -1.1772623719261737e+00
    3.9611404491270514e+02 -1.4961032556705662e+00
    2.7859109531105958e+02 -9.5601628112027837e-01
    1.7257181436969327e+02 -7.8209297193556138e-01
    5.5369192561403293e+02 -1.2854015157415186e+00
    2.4047075101697476e+02 -1.3222969889613911e+00
    3.2974017659493285e+02 -9.3390287270719796e-01
    2.3771550948253116e+02 -1.1158336336183710e+00
    1.9994313970065684e+02 -9.3931489481605257e-01
    2.9380111464297107e+02 -1.0125637485269987e+00
    3.1910451991855206e+02 -1.1230635107339191e+00
    5.2895762723480672e+01 -3.0957135479690912e-01
    1.8890890234152974e+02 -1.0043346760896870e+00
    5.2206264888900080e+02 -1.3004970185431473e+00
    3.1712238413333284e+02 -1.1123090307430485e+00
    4.0155010866123911e+02 -1.3543662844062119e+00
    3.4521018908394717e+02 -1.0376041153840279e+00
    2.9330197611324519e+02 -9.3900710419873534e-01
    3.2413515333675497e+02 -1.3505556986893379e+00
    4.1787551673517339e+02 -1.5419443356353200e+00
    2.5564189649485115e+02 -1.0960161304327376e+00
    3.2270367608671148e+02 -1.4653831541032369e+00
    3.5536428799513601e+02 -1.0274267953878988e+00
    1.8582374982357129e+02 -7.8237662185366652e-01
    3.8094031280675551e+02 -1.1769084366103171e+00
    2.9155339017532305e+02 -1.0237232858535088e+00
    2.6040326642677672e+02 -1.3249834175842368e+00
    4.7583647922033094e+02 -1.4186100447806504e+00
    3.4708700489972381e+02 -9.4140033416165059e-01
    5.0374345375641906e+02 -1.3728556187688741e+00
    3.9957163703852547e+02 -1.4006597252229582e+00
    4.0985409984793830e+02 -1.2875182113892574e+00
    2.1651187902117783e+02 -1.1065410357646444e+00
    2.7267665968687140e+02 -9.7855987410109346e-01
    3.3870247262063526e+02 -1.0587841677901495e+00
    4.5647873033059568e+02 -1.5085570322518731e+00
    3.6774236473232685e+02 -1.2019755709659343e+00
    1.6910026619407844e+02 -8.8744101166456890e-01
    1.7381761463611193e+02 -1.0860299553466195e+00
    4.8635569362265312e+02 -1.1242263576446503e+00
    1.8061902341899193e+02 -8.3088369360477909e-01
    4.5511375273236916e+02 -1.4826919535955405e+00
    4.7645967186737533e+02 -1.1189518167917418e+00
    1.7194125678664312e+02 -6.9824002505008231e-01
    3.9521449981725135e+02 -8.1903069747583968e-01
    1.8606599264802733e+02 -1.1181285900870090e+00
    1.5926656508763804e+02 -9.5743339857684584e-01
    1.6184953705848923e+02 -1.0613090946162609e+00
    3.4521247939577046e+02 -1.0971088715854562e+00
    1.4988650435673301e+02 -1.1147350256259703e+00
    4.7668222000401710e+02 -1.4198165836921264e+00
    3.5187340790417664e+02 -1.0566015774406177e+00
    2.5345852646223949e+02 -1.1464122353090174e+00
    1.7616626381803064e+02 -1.0690206000088320e+00
    1.7308936756033165e+02 -1.0000296229401910e+00
    2.9917462770936118e+02 -1.3167372523837919e+00
    2.9189579613193786e+02 -1.1455298250266015e+00
    2.6564534470306586e+02 -1.1663164771630177e+00
    2.7959545317831555e+02 -1.1094486469524238e+00
    1.8138272799718729e+02 -1.3323878518573129e+00
    3.5977376577834491e+02 -1.1043418564788021e+00
    2.3298738684741886e+02 -9.1937111889883416e-01
    2.5101377885858531e+02 -1.2262057647704232e+00
    7.0890189965198360e+01 -5.9048863115956907e-01
    2.3654943854029077e+02 -7.9668263698545883e-01
    4.9008842904888331e+02 -1.4049316134759033e+00
    4.8975982556854967e+02 -1.6375646958326673e+00
    2.6685820679284245e+02 -1.1051470858529042e+00
    2.6356358511367625e+02 -9.9683539268465060e-01
    2.0419041070601264e+02 -1.2115724776208066e+00
    1.5587157626370808e+02 -7.3889639655200567e-01
    2.1558921536044980e+02 -1.0203380670330238e+00
    2.4263116869875077e+02 -7.9751860658528773e-01
    2.9543795860813827e+02 -1.1475774317606871e+00
    2.1276746049433910e+02 -1.0328865022092308e+00
    2.5923929924432491e+02 -1.0230309440496330e+00
    2.8039762217273687e+02 -1.1612298796233269e+00
    4.5568127513594476e+02 -1.3589324591238114e+00
    8.6619244209192971e+01 -1.1422687480092635e+00
    3.2498667791125519e+02 -1.0975211763745243e+00
    2.0039615794392697e+02 -6.2566433320011272e-01
    3.4738470936424505e+02 -1.1315472467927712e+00
    6.6817012424004361e+01 -5.4006084340858218e-01
    4.4761490581799995e+02 -1.3137395524393420e+00
    3.5911473200891362e+02 -1.0850739089266637e+00
    4.2366270090507720e+02 -1.1739834361808359e+00
    1.2644793986938902e+02 -1.0753860114666720e+00
    3.9852316420664505e+02 -1.4146982177503826e+00
    4.6953108863280471e+02 -9.9330072253388091e-01
    4.4451177412428109e+02 -1.1073410092365144e+00
    2.4219722497313361e+02 -7.2869139671654726e-01
    3.2557567605291268e+02 -1.0467576201560544e+00
    2.6729479722484047e+02 -1.2972052876699831e+00
    2.5774225884980916e+02 -1.2218898041280148e+00
    3.7386149934219452e+02 -1.2815027691719445e+00
    5.9255130615059784e+02 -1.3007863682647258e+00
    4.0576575294045364e+02 -1.1888479803152190e+00
    4.6702506490274595e+02 -1.2711398353262322e+00
    4.0756605598064294e+02 -1.3377468405543016e+00
    1.1759745590582736e+02 -6.6710846807015145e-01
    3.2201333843977687e+02 -9.3645656742659888e-01
    3.0090337922075719e+02 -1.0882438388596407e+00
    2.7343131174165694e+02 -1.2385846343662636e+00
    4.4735777105800543e+02 -1.4148018861074996e+00
    4.6947771117121346e+02 -1.4022792091902121e+00
    2.2151184401285695e+02 -1.3009464677457685e+00
    2.7627944559438015e+02 -8.2190274459422252e-01
    4.7288565584178053e+02 -1.4473489548282981e+00
    4.7435491601467510e+02 -8.2104541530868258e-01
    5.0574511993879076e+02 -1.7091873849142054e+00
    1.7766059480650893e+02 -9.8384309785500390e-01
    3.6029259753297453e+02 -1.4011971774714269e+00
    3.2199169794495936e+02 -9.5715245456086406e-01
    2.0041548275248115e+02 -1.1722880523093950e+00
    2.7707488611520080e+02 -1.2134394496615502e+00
    3.5361434956252532e+02 -1.1161630042638795e+00
    2.0432974628923660e+02 -9.8533122212971525e-01
    3.8262208713237487e+02 -1.4813270357487232e+00
    1.2280516628622010e+02 -9.0053606784863593e-01
    4.0103665587281904e+02 -1.1917301343414624e+00
    4.8858334666920166e+02 -1.3692619266899122e+00
    1.5456598019873664e+02 -9.7649434033665294e-01
    5.2725303789409315e+02 -1.2758467289128084e+00
    2.2575840141596524e+02 -8.8186613858537588e-01
    2.9806596780824123e+02 -1.0434454604125356e+00
    2.7937100907969551e+02 -1.1561244823294445e+00
    1.1490004523210060e+02 -7.6258755700254144e-01
    3.5278525818705640e+02 -1.1450907814670170e+00
    4.1910826025179790e+02 -1.2448093414203174e+00
    1.8651536226858559e+02 -9.3170036271616996e-01
    4.6322363548065448e+02 -1.3171790201832836e+00
    3.4953781731433673e+02 -1.2196889131128836e+00
    5.0314028438905223e+02 -1.1768890574182524e+00
    4.0434288957938895e+02 -8.6360380448312835e-01
    3.7234619969301878e+02 -1.2420953557036920e+00
    3.2555435376336442e+02 -8.6763268369832136e-01
    3.9234072813001717e+02 -1.0584970509130573e+00
    9.5924443809399833e+01 -7.4762919425325547e-01
    1.8036196153850150e+02 -8.1975044415517639e-01
    2.0184266856653679e+02 -8.2855438536913262e-01
    4.5792575539656059e+02 -9.6446305932326692e-01
    1.8911646285806131e+02 -8.9722762393883526e-01
    3.6637629917263234e+02 -1.2805201459772930e+00
    1.2608000278280882e+02 -8.3430261060407773e-01
    5.1739760896130190e+02 -1.4238316663799211e+00
    4.3301613650890323e+02 -1.3721819573115188e+00
    2.0390050480285774e+02 -7.3616371103049405e-01
    1.2489586910734842e+02 -9.9734839079164261e-01
    2.5873423428828096e+02 -1.0162649712520841e+00
    3.9159812662439003e+02 -1.2148362036276816e+00
    1.0585287576953998e+02 -5.4146230190318967e-01
    4.6040110280196217e+02 -1.0921064780566714e+00
    1.9660273126389922e+02 -1.2976081840578992e+00
    2.2244319040207856e+02 -1.0699983492109071e+00
    3.7341674371174048e+02 -1.3983448430401526e+00
    3.1625917078675070e+02 -1.3004490217337565e+00
    2.4963142805348593e+02 -1.2996378216676856e+00
    3.0657030577680075e+02 -1.1682431817244565e+00
    2.8664580277829765e+02 -1.0075784241638848e+00
    2.3587743786542785e+02 -7.6560680054380270e-01
    1.6793917039600080e+02 -9.6892543679908183e-01
    1.7891821002283550e+02 -1.0102825191339404e+00
    2.1072180176526214e+02 -8.3726575395652347e-01
    4.7782392313565924e+02 -1.1412104865092580e+00
    5.9946968228242156e+02 -1.1599163155531267e+00
    1.6856215790873745e+02 -1.2092980463263385e+00
    2.6154437909760549e+02 -1.0726224298552300e+00
    7.1925152339146706e+01 -4.5834732116163629e-01
    2.4740111867268476e+02 -7.1780010073548073e-01
    1.8421835488522072e+02 -1.1445959535690147e+00
    1.9394961700720910e+02 -8.4072105283768006e-01
    2.5039555857983663e+02 -1.2833520287002109e+00
    3.1649805089647026e+02 -1.1440089818817201e+00
    5.4077793608828324e+02 -1.3439434267394004e+00
    5.0853609232112996e+02 -1.2081126054040208e+00
    2.8060675962675714e+02 -1.2678760874635475e+00
    3.1725283677038556e+02 -1.0488791226688234e+00
    2.6475123911875011e+02 -9.1074632319463944e-01
    3.6742263829317653e+02 -1.2928443126346121e+00
    2.7039023965735356e+02 -9.4128751455313164e-01
    9.0657418780793407e+01 -6.8507529598348094e-01
    1.3290242583044372e+02 -9.6691389816901774e-01
    3.2940638453668396e+02 -1.1769094804205704e+00
    4.5690624989655549e+02 -1.2467047473241653e+00
    4.7708779371477169e+02 -1.1042937997993763e+00
    1.5469300456199011e+02 -8.7949303254042921e-01
    1.8207827388854335e+02 -8.5045562844065692e-01
    4.2352806196282671e+02 -1.2239710010960432e+00
    3.5330149296186613e+02 -1.1951948432056931e+00
    3.3328823554128587e+02 -9.1316743481414864e-01
    3.1820665910535394e+02 -1.0476298597334950e+00
    1.2158883701495822e+02 -9.1847517816907154e-01
    4.9909042551256493e+02 -1.2011274039811002e+00
    1.6552708204253770e+02 -8.2991865102627738e-01
    4.5849662563559605e+01 -6.6260763088725050e-01
    4.0275334428359054e+02 -1.1406947716688158e+00
    1.5432749364772030e+02 -7.5824238334642180e-01
    4.4960871330304349e+02 -1.5940504283659283e+00
    1.8790659292929811e+02 -1.0467587122239392e+00
    1.9366212832250852e+02 -9.1646193138574594e-01
    4.3335551202636117e+02 -1.3127346181969675e+00
    2.4633594625815360e+02 -1.1118443638485112e+00
    4.2048042023634002e+02 -1.1545810531941454e+00
    8.8941254159093617e+01 -6.6960489668373036e-01
    4.6612884095856163e+02 -1.1831333467985898e+00
    3.9145470585582905e+02 -1.3305143931354535e+00</input_scale>
  <output_scale>
    5.2631578947368418e-01 4.9999999999999994e-01 5.2631578947368418e-01
    4.9999999999999994e-01 5.2631578947368418e-01 4.9999999999999994e-01
    5.2631578947368418e-01 4.9999999999999994e-01 5.2631578947368418e-01
    4.9999999999999994e-01 5.2631578947368418e-01 4.9999999999999994e-01
    5.2631578947368418e-01 4.9999999999999994e-01 5.2631578947368418e-01
    4.9999999999999994e-01</output_scale>
  <inv_output_scale>
    1.8999999999999999e+00 -9.4999999999999996e-01
    1.8999999999999999e+00 -9.4999999999999996e-01
    1.8999999999999999e+00 -9.4999999999999996e-01
    1.8999999999999999e+00 -9.4999999999999996e-01
    1.8999999999999999e+00 -9.4999999999999996e-01
    1.8999999999999999e+00 -9.4999999999999996e-01
    1.8999999999999999e+00 -9.4999999999999996e-01
    1.8999999999999999e+00 -9.4999999999999996e-01</inv_output_scale>
  <weights>
    <_>
      7.9782761289061005e-03 2.1570574778387957e-02
      -3.8476399444790144e-02 -3.3582951175446046e-02
      -3.8350129407747828e-03 -2.5295702030749627e-03
      -7.3222759413523630e-02 -1.9782503672075853e-02
      -4.3266320729644286e-02 -2.0095357703090417e-02
      -7.7841009304920787e-03 1.4639177663413060e-02
      -8.3845015241483620e-02 1.2332523037723775e-03
      4.8193357240137895e-02 1.2106891772907355e-01
      -5.9217883445113154e-02 1.5711908622352024e-02
      -8.8066980932950158e-03 1.7532977873635523e-02
      -4.2620527380432753e-02 1.3327647619165378e-02
      1.8546214297717502e-02 3.5440873628325195e-02
      6.3260785176799039e-03 2.0462783190824587e-03
      1.1764276624093755e-02 4.0722720789409271e-02
      3.1810008246821488e-02 -1.0601574584860964e-02
      -3.8405150361817317e-03 -4.2957825618238896e-02
      4.2453908700536357e-02 -1.8042793528238558e-02
      -7.3218166372330988e-03 6.6226436935049079e-02
      4.7758802124439344e-02 -1.9559910719870375e-02
      -6.7369280283740271e-02 -1.2565215919251646e-02
      9.1579016228052271e-03 6.1966128585079140e-02
      -3.5630286245462999e-03 4.7247804979371873e-02
      4.1963510628354505e-03 -4.4867776204213713e-02
      2.7909395468647472e-02 3.5834754046416402e-02
      7.9269877334934831e-04 3.6044697010091296e-02
      7.6451173580998578e-03 2.8171012570977426e-03
      7.0367148790830237e-03 1.7178234025434749e-02
      7.6063137367531480e-03 1.5547115804988243e-02
      3.4248020382914149e-02 3.7813307446346582e-02
      -3.1872494330185672e-02 -2.6633309463045565e-02
      1.9124968667903999e-02 -3.3763734227530377e-03
      6.0451574089044689e-02 -2.8087709380226929e-02
      -2.9917889209514501e-03 6.4509611266738134e-04
      -6.8414977691445477e-03 -2.5259776793904187e-02
      7.9076955211448530e-02 8.0806532640997179e-03
      2.6920302673474768e-03 3.7587802894561047e-02
      4.1442676697695968e-02 -2.5585947153896532e-02
      5.7028517302172531e-02 5.5526701702706266e-02
      -1.2450866259380194e-02 -1.7191408733835997e-02
      2.4497153700325965e-02 -6.3776053131392688e-02
      1.8317196983861535e-02 -4.6321745554586916e-02
      -4.5971213781895948e-02 6.7395773810865867e-02
      5.6460329179172243e-02 -1.2871756164056508e-02
      -5.1510347100679414e-02 5.4235461278164712e-02
      -6.8613668727146623e-02 -1.8437489463981938e-02
      2.0529692359003578e-03 -4.4760072987402449e-02
      -2.6421174790024250e-02 -2.8144801047413175e-02
      4.8184585814629137e-02 1.3442984945845378e-02
      -9.2472039603243045e-02 1.4704417783612794e-01
      -2.5834854743375622e-02 -2.8055632448133527e-02
      -5.9747848786163458e-03 -1.1842339022185896e-02
      8.7034743023974639e-03 -1.6085102073833398e-02
      4.3191981264333670e-03 2.3193467001047532e-02
      1.0120665274940243e-02 -1.6276999246044789e-02
      -1.0389568578699821e-02 1.7562056905499536e-02
      -7.1615314847092958e-03 3.0672387896497670e-02
      2.6200134681717994e-02 -2.6380328099152483e-02
      -2.0515762535559444e-02 3.2082795181783468e-02
      -1.6684822456150942e-02 -2.8841978712642248e-02
      -3.9364405921512809e-02 3.3106420850467864e-03
      -3.0714859891598556e-02 -1.1473179258728091e-02
      -3.2302455576535605e-02 1.2578333904499264e-02
      -1.7697272760494098e-02 -5.4444911774098319e-02
      -9.0433390715226845e-03 3.7420596056516514e-02
      7.3649510683542014e-03 4.5251393112348505e-03
      1.3878957155367853e-02 -2.8230414610938590e-02
      2.8560955216425758e-02 1.2985844054469465e-02
      6.1157477271839653e-03 3.5393190078083139e-03
      -4.3268776219305902e-03 -2.8573444942182153e-03
      -4.1678440543201134e-02 -4.8636909734221245e-02
      1.8753212966850948e-02 -9.8395547083193827e-03
      -3.3662902796806381e-03 -7.6662653268210522e-03
      1.8941475593408311e-02 -2.5381923955082746e-02
      1.4512694132234437e-02 9.5333172592541263e-03
      -1.0616834425296415e-02 -2.3369033956484675e-03
      4.2366213304428071e-03 5.5050713855481709e-03
      -1.3164184937131625e-02 3.6618074455107272e-02
      1.6054467391419126e-02 3.2997029455264788e-02
      2.0210827318164249e-02 4.7667204752837235e-02
      -1.1312358293283630e-02 -2.9104356990302657e-04
      1.5086563692837446e-02 -1.4498457809154559e-02
      1.1690302482049747e-02 5.1007289224185744e-03
      2.2901089328419229e-02 -7.7862310793138266e-03
      6.9487465534518282e-03 1.4491336551438765e-02
      8.0140552820544258e-03 -2.5652647810200616e-02
      -9.7176227367780452e-03 3.4589394264653552e-02
      3.3390542014610010e-02 -1.1051576036767839e-02
      -6.0292397929516538e-02 7.5122396342949573e-03
      -4.1794478027538856e-02 3.8476247857835738e-02
      1.1377873138683176e-02 5.6604854517140112e-02
      -9.0221191688872014e-03 2.4051844646776142e-02
      -6.3227799244850585e-03 -7.3184949208856989e-04
      2.1077139832507405e-02 1.3877117993206661e-02
      -3.7586272645963254e-03 2.6613665978282897e-02
      -1.1328737433871949e-02 1.8123861790219926e-02
      1.4555534842160074e-02 1.6790391285514455e-03
      -6.2811719633600008e-02 -9.9338132807343799e-03
      2.4012629436528807e-02 -8.7726063356462873e-03
      -1.3817951899751258e-02 -4.7504416049404183e-02
      -2.3472875699262659e-02 2.4427469195682491e-02
      6.2185672714145735e-03 -1.3521340405235028e-03
      -7.2401547491303453e-02 -1.2745846438678157e-03
      -1.6128425524481908e-02 1.6478806893642114e-02
      -1.5280332254084362e-02 7.4043417492258845e-04
      -3.4873629040462560e-02 -1.7214035449100658e-02
      1.3332801006195312e-02 5.8290212577714121e-03
      1.7172910713929960e-03 1.4846401529062043e-02
      2.2845693463098749e-04 9.4567555962624221e-03
      -2.0143308435184387e-02 -6.1635041039301926e-04
      -5.9057932169817432e-04 -2.2967884308841197e-02
      -2.1854628277324598e-02 2.5464638170457805e-02
      6.9792934712226799e-03 -5.0465213964098936e-03
      6.1828555547969741e-03 6.2981062404965042e-03
      8.4061138320369634e-03 2.2006019268204880e-02
      1.3769579578756706e-02 3.4443521957580769e-02
      -1.6446144045883300e-02 -7.4015828307921697e-03
      -1.8224179193171184e-02 2.5664332221184569e-02
      -4.5509502029249346e-02 2.9640236168857748e-02
      1.2930076354163047e-02 5.8672069985615232e-03
      1.0648139146830625e-02 -1.1835518342533401e-02
      -1.6401692016826525e-02 -1.4518174109645990e-02
      -5.5016026581983912e-03 2.5156276565369887e-03
      3.1917834891244799e-02 -1.2356342556654484e-02
      -4.0389276647298904e-03 -7.5140950898247350e-02
      2.7972377041128919e-03 1.6103484636009992e-02
      -7.2898537017615879e-03 -2.1599929381372989e-02
      1.0589584671444710e-02 6.2584824994433904e-03
      1.5479523392877914e-02 1.3859196157996748e-02
      8.1942174104645080e-03 -1.7709914475793058e-03
      -1.4043247599535688e-02 -2.7969970266377166e-03
      2.8905005406339441e-03 3.2785088162893820e-02
      -5.9374823769928354e-03 -1.5192885985898422e-02
      -2.0058854299044006e-02 -2.3006348518222228e-03
      3.1564191161525625e-03 1.8921781737248976e-02
      1.8904403451546523e-02 3.0722880339492521e-03
      -1.8787670722576515e-02 -1.3691951395537482e-02
      -2.3645228843321289e-02 6.1219084989966959e-06
      4.9868444592367084e-02 9.9596629240079147e-03
      -1.9014578735675584e-02 5.8958493732203287e-03
      3.2796057592346835e-02 4.8633963419155879e-02
      -1.2540798404209602e-02 -3.2623969014465755e-04
      -2.1194058887953272e-02 1.7904759417568337e-02
      2.6648582021316723e-02 -2.5268943465111637e-04
      1.1700274189799633e-02 1.2730130471398668e-02
      -1.0975713333154412e-02 5.3780013167681329e-03
      1.6290031657971934e-02 -2.9220428551174179e-02
      5.3654366968065748e-02 -1.9641634023942669e-02
      -7.6703110476520585e-03 -1.2914573665703540e-02
      -9.3236307614916157e-03 -2.9593083083313852e-02
      -8.5161523689313949e-03 3.7903996094213785e-02
      1.2427311535097314e-02 2.4269068579378661e-02
      5.5742153230158138e-02 -7.5690456370936460e-03
      -5.9905880984394581e-02 -2.1973967599904280e-02
      -2.9256740247382597e-02 -1.5891667309093065e-02
      -1.0600621421577390e-02 8.8065930062692973e-03
      2.4709699102832432e-02 3.5642899313894994e-03
      -4.9335265981700439e-02 6.2849469703212812e-03
      1.5520445586259327e-02 3.5185866204011686e-02
      -2.2083904532743729e-02 1.9542221828622208e-02
      1.4127501177229341e-02 -3.4085256709679990e-02
      -1.2165662361336649e-02 3.0046661508229808e-02
      2.9852780264934972e-02 -9.6810952036088440e-03
      1.0399112589567314e-02 2.7117987009622351e-02
      6.0095366547798955e-03 -3.9691972740308092e-03
      3.4380336877030106e-02 1.3945436068319508e-02
      -1.3015060576699282e-02 -1.2366034228713864e-02
      3.7818257260701783e-03 -4.6080159660279386e-04
      3.2596359203365406e-02 2.8679784145281013e-02
      2.1172374847216621e-02 -5.9234923045199039e-03
      5.2540170100772001e-03 2.0210787697681320e-02
      -1.9150698375357454e-02 -2.5693416590973671e-03
      -1.7228862606331139e-02 2.7204289182394776e-02
      4.4920975864041904e-03 -2.6136531775440730e-02
      -1.0726759989617939e-02 1.3991454830721298e-01
      7.1137355065053953e-03 1.2133344399333444e-02
      -2.0996788467766803e-02 9.3966912712166520e-03
      4.8747821710137432e-02 2.3424760312328726e-03
      4.9860223026943797e-03 -7.3847084895610230e-03
      2.5887447125560282e-02 -9.6460373304318048e-03
      -1.1253279155089026e-02 1.2848073446622369e-03
      -1.4589752398068132e-03 6.1527705959846780e-02
      8.9883378898347119e-03 -1.8942648129494755e-02
      -1.4334365385674395e-02 -4.7140334989408516e-03
      -2.8042067807783538e-02 1.4750337954729074e-02
      4.0727904268509528e-03 2.5322085182306244e-02
      -3.4383975346271006e-03 -2.3319173902699046e-02
      -9.5735623962337826e-03 1.1381977580574944e-02
      5.0539945160128462e-02 2.8969226206079016e-02
      -4.1147607038627687e-03 -2.9089326043869268e-02
      -4.9502131483481820e-03 -3.1477381770303105e-02
      6.4711853569470830e-03 -1.1568205809949817e-02
      -2.7582418268898758e-02 1.9059676179437369e-02
      4.2044998315681252e-02 -2.6025393914515926e-02
      -1.6834495716590309e-02 7.9375025295916942e-03
      -5.6130655896513101e-02 1.1433118297938820e-02
      -3.9604468546243138e-02 -4.2513484131833854e-02
      -3.8007511870819500e-03 -2.0217451074882053e-02
      -2.3806415233797274e-02 -1.8082172302541378e-02
      -4.3195261253258670e-02 -1.4356837986259020e-02
      4.8487317646899982e-03 3.0194346085581185e-03
      -1.5160436789750128e-03 2.7231668277894777e-02
      -3.5796742145458853e-02 -9.6452415070785360e-03
      -5.5029037275295019e-03 -1.6248662482637562e-02
      3.2763227178635810e-03 -2.9056878169867700e-03
      -3.6663867121827481e-02 3.3650700490286067e-02
      -1.7705343825831429e-02 -6.3692180004699412e-03
      8.8030577218360748e-03 -3.3446408818525120e-02
      -1.2712378043009790e-02 2.7327810393036143e-03
      2.9185439389195739e-02 -1.4888065399552412e-03
      1.7935706227673147e-02 7.1401219129408715e-03
      1.1532907536716033e-02 -3.5322648137759614e-02
      -3.2726846473283104e-03 3.0907042329282792e-03
      -4.1927646205039006e-02 1.8848120918051572e-02
      1.8713201308422339e-02 -9.0237584743378865e-03
      -3.3725961045049366e-02 -2.0714148864150236e-02
      5.9629051883233254e-04 -2.9227821124969657e-02
      8.9914460561916851e-03 -1.2475948922083556e-02
      -2.5782194070735559e-03 -1.3322601073118232e-02
      3.4587699631945142e-02 -1.1754418559514021e-02
      -3.4555491195836716e-02 2.1044545940620284e-02
      -2.3690640736473544e-03 -3.6868155852955983e-02
      -2.4698241723962264e-02 6.8485627355243878e-03
      -1.6282287650349232e-02 2.3907935612973753e-02
      7.5000212302843211e-03 4.4312208263013873e-02
      2.1008160656119400e-02 -2.8347405683792872e-02
      4.0942213858582578e-02 2.7445111575683290e-02
      7.6906018019346116e-03 -5.6594581506141261e-05
      -1.4799237521036094e-02 -2.1311509527287352e-02
      -5.5099092359882501e-03 1.0322900771004784e-02
      -2.8019627865550315e-03 3.1127131768165513e-04
      1.5632682778291922e-02 -8.0991839574907753e-03
      1.7686814938143298e-02 3.9061674464625044e-03
      2.7004868492747436e-03 6.9681444547378809e-04
      2.0757771627833078e-02 -3.4323306048612604e-03
      -2.9501822721887328e-02 -1.0019334764726169e-02
      2.5115247913352869e-02 2.1749656434243619e-02
      2.4467334369584318e-02 -1.4287003921986050e-02
      4.5917797047635468e-02 1.9481421155113841e-02
      4.9499167548149696e-02 -1.6945218130916231e-02
      1.9350581873996301e-02 -9.8985687072896913e-02
      2.8130597484278774e-02 -1.5425252268852403e-03
      8.9039314367399848e-03 2.0338337767541365e-02
      -7.2069158070121597e-02 -2.2055380021329764e-02
      -4.1731952917860068e-02 3.0659557269788293e-04
      2.9341196378823160e-02 -3.0716889734906917e-02
      3.6505547457516094e-02 5.8183878731856972e-02
      3.0503761090524266e-02 8.1843916737192116e-03
      2.0878949614147300e-02 3.1365595391292009e-02
      2.3360435152976712e-03 1.1481148567239821e-02
      -3.8475699192374539e-03 -1.6600795890722438e-02
      5.3352854017790158e-03 -2.4587262166308227e-03
      -2.4511517699100677e-02 -5.4585095710081568e-03
      -2.8195796846448421e-03 3.6374090595852858e-03
      1.5100111913824495e-02 -1.9930816653171993e-02
      -2.8878230646067235e-03 -3.2602226237541158e-02
      3.3135957869615883e-03 4.2186182989010126e-02
      4.1315943303355730e-02 -1.6839804449310242e-02
      -2.0283123702528851e-02 5.5140188942454458e-03
      -2.5422137340539597e-03 -1.0500955665630172e-02
      -1.2754095701380898e-02 1.4371874471656018e-03
      -2.0061856453070733e-02 8.0226905722643720e-03
      -1.0062726395499702e-02 -1.0224200753855791e-02
      5.7054576762829694e-03 -4.0806294733941956e-02
      4.0995606370418840e-03 2.4701184616460301e-02
      1.2023031740117079e-03 2.2401192387201289e-02
      -1.8576697718940987e-04 -1.2228031496306309e-02
      -3.7944634287032587e-03 1.1332079333979776e-02
      2.3614874170078816e-03 1.7377374051018673e-02
      -3.8231095698111951e-03 -2.9017910802528577e-03
      -5.1939811183317319e-03 -2.4341250892768722e-02
      -1.0115711524885017e-02 -1.6032951422031420e-02
      1.7022611009298146e-02 1.2024111364248699e-02
      -1.6145690631685665e-03 -5.1336189413956025e-03
      -5.8134242714649887e-03 -1.4988184865077711e-01
      1.3655146012510368e-02 1.9355652039621959e-02
      -2.9254883345851603e-03 -8.9182409553177622e-04
      -6.0712738433728562e-03 1.0423123811641857e-02
      5.6774081561016638e-03 6.8672218164502127e-03
      -2.3986350594986725e-04 1.6961295095068728e-02
      -1.6741590126733225e-02 6.2595595941283642e-03
      6.6196051506702200e-03 3.1266346125811985e-03
      -9.8259568670723274e-03 1.5505180455559322e-03
      1.7135022456721716e-03 -6.8966755251768626e-03
      1.4555733929893086e-02 1.8955080876324901e-02
      4.8585382798586076e-02 -1.2492402974851192e-02
      -2.5491682638522781e-02 6.3735260405618213e-03
      4.6703850252981733e-03 3.0161853276884421e-03
      -1.4366660334565179e-02 -2.0119116683801425e-02
      -3.8289953220637947e-02 1.1071092291813533e-02
      -2.3653105620958410e-02 -8.1679645581922075e-02
      -3.8714662493218844e-03 3.8027717547489598e-02
      6.2928627872916908e-03 -1.8774111361138240e-03
      3.4046132171660047e-02 8.6937697741959891e-03
      1.7093612834928870e-02 -7.1511518791873051e-03
      -4.6273095509978442e-03 9.1384680755291110e-03
      1.8717705633611002e-03 -2.0782397233762705e-02
      -3.9321676958727902e-02 -1.5045912886283029e-02
      -3.0058171061263408e-03 1.3708151420379407e-02
      3.5855023163773076e-03 7.3002664711509305e-02
      -3.5596793485526985e-03 8.2046664794468427e-03
      1.8359849949062583e-02 1.8916479969218306e-02
      -7.1081896969823977e-02 -1.2254562745363375e-02
      9.0051741018481405e-03 -1.3742652155967540e-02
      -1.4408728922237971e-02 -1.8983157405980489e-02
      -3.7324430024261793e-02 7.6863002139653858e-02
      -1.9635007247731863e-03 -1.2728736553563038e-02
      -1.3732758774085231e-02 -2.4208057582476395e-02
      -1.3652563447695019e-02 -5.2745612636684947e-03
      1.6851983837099571e-02 -1.7917053122884476e-02
      1.7109102295741895e-03 -1.9193276142404250e-02
      6.3397982384460544e-03 -1.6711504694449930e-02
      2.7426520473653156e-03 9.1968320032899268e-04
      -2.0530716275640789e-02 -5.5534434653993735e-03
      1.1920922458960946e-02 -2.0520596628617712e-02
      -1.5968323062704237e-02 7.2610748297019037e-03
      -8.6785560041884296e-03 -1.2678379670351719e-02
      3.4024619666441533e-02 -8.1655129059970081e-03
      -1.0785630414362179e-02 -7.2276423502884019e-03
      3.9076067650968722e-02 -1.4949802386886014e-02
      3.5446031279139914e-03 -5.0452118697346337e-04
      -1.1481742474551663e-02 -5.4118155542426993e-02
      -5.9057849942377987e-03 1.5045978640849183e-02
      1.2991403161149674e-02 6.9387568365381798e-03
      1.6099310894444132e-02 2.9982213081511271e-02
      1.7649748567187186e-02 -2.2121590937572606e-02
      1.8370875620865101e-02 1.1108201091227923e-02
      4.7002265145845643e-02 1.3020481601177698e-02
      -1.7578865688110994e-02 -2.2312740644533053e-02
      1.0250172784138371e-02 1.8685469689947890e-02
      -4.2780256112908222e-03 3.8039056344563488e-03
      8.3013444409913619e-03 1.4480723508194333e-02
      1.2218803155853665e-02 1.5481284273257146e-02
      -3.3481466649583659e-03 2.2467547116491082e-03
      1.7545125819854335e-02 6.4260506076281448e-03
      -2.6645701947060212e-02 -8.7092053022588493e-03
      4.6514748352444258e-03 6.7279590889536981e-03
      1.3091159833763931e-02 1.6259702708242577e-02
      7.7898807889613078e-02 2.2400459640297354e-02
      5.4175808397668645e-03 3.3950557902632264e-04
      2.7766181882040861e-02 -3.6920506013922161e-02
      7.8364776394423217e-03 -4.4872985418349066e-03
      -1.7473968749393593e-03 1.0465295893439348e-02
      -1.4897950147349636e-03 -1.8612671702762599e-02
      -2.6021165890854278e-02 9.2470739743343872e-03
      -1.1125077094638494e-02 -8.5857658415887383e-03
      2.4882793839343446e-02 1.1991174146067774e-02
      4.6377852167677314e-02 5.7145759291328266e-03
      4.0687827823244300e-04 1.8913589157009306e-02
      -6.4639709454112964e-03 -7.4175241559404345e-02
      8.1791868276120568e-03 -1.7980695540470042e-02
      -1.6924907528620897e-02 -2.2063093448398429e-03
      -7.3879137259459382e-03 1.3211839614970895e-02
      6.4861626993775873e-02 9.0467063937778470e-03
      4.0959295362394538e-02 8.9390686117029501e-03
      3.4765722120771524e-02 6.7879270791682961e-02
      -1.8781636060196845e-02 -3.9982892648832757e-02
      -1.0295662247123527e-01 2.1005109767742253e-02
      -1.4485293333865773e-02 -4.1186422236748788e-02
      2.6045912139003122e-02 -3.0491952012778541e-02
      -1.5822408229079717e-02 3.0175017427700943e-02
      2.4516765717562703e-02 -4.7896486456762401e-02
      -2.7911982756686861e-02 1.7792591414759428e-02
      -1.9901564982810007e-02 1.0795650988928182e-03
      -2.9751609148429226e-02 -5.2318835163584293e-02
      -4.9157812598915650e-03 -3.5733455625367810e-02
      4.4781082012819023e-02 4.8137824068543458e-02
      5.6546156365843547e-03 -3.7565131775544332e-02
      -4.3048403007749994e-02 -6.6870026628871454e-02
      -1.0115875443926335e-02 1.5413432121530776e-03
      2.7871880525677625e-02 9.9205446417043961e-03
      4.6323725777381336e-02 1.2464891850738624e-02
      4.8021227614456770e-02 1.9734747603048348e-02
      -2.0626131358397873e-04 1.6080337956510812e-02
      -8.7162147331155612e-04 5.4035383493979176e-02
      -8.6906870569797394e-03 -4.5884704068218124e-02
      1.4715528113197344e-04 1.6037784581693353e-02
      3.9249056428265837e-02 1.0650465961410322e-02
      -3.2831011844345212e-02 -2.7344870493765796e-02
      -1.1704106026063242e-02 1.1167633361645066e-02
      1.9457318705641227e-02 -2.8196883020968270e-03
      -2.7619667164993516e-02 -1.2280755243272653e-02
      -2.1976696648253691e-02 1.0984588791557889e-02
      3.1254892245325613e-02 1.4302541175644810e-02
      -1.3292668679450491e-02 -2.3372706971322849e-02
      -7.1459565881738962e-02 -1.4392921875436710e-02
      1.8479975759689758e-02 2.5431576014723577e-02
      1.9253568261957128e-02 3.9307656419995007e-02
      1.6040878557350202e-02 1.0296983090969717e-02
      -1.8294854404181750e-02 1.5983662451955219e-02
      -7.3029315442164804e-03 -2.5993333146057996e-02
      -1.2269224217445630e-02 -2.5305273052804934e-02
      3.1337151568351956e-02 -4.4341722711701254e-02
      -1.0848364385804147e-03 -1.5385765438737951e-02
      8.6050293560224200e-03 7.6618262846523070e-03
      9.5896962882537021e-03 3.9143006728419305e-03
      -3.6275785660071627e-02 3.8742507347036173e-02
      3.6068767585067089e-04 1.7625755209634185e-02
      -8.6540184433188394e-03 9.5275560814047939e-03
      2.7619269580972751e-02 4.0442334607332711e-04
      4.0522926500582722e-02 -1.8013600219160115e-02
      -1.5028788427864065e-02 -7.8738353277605123e-03
      -2.7980152390886651e-02 -2.7408314153923634e-02
      6.7818782390374741e-02 3.8993699286824023e-02
      2.5868760067399934e-02 -2.4795962947806224e-02
      3.3320074904893075e-02 -6.9385493543741572e-02
      -2.8594635790007896e-02 4.6660641615365456e-03
      7.1514697998528484e-02 -3.4085608896985878e-02
      -5.1127180620235350e-02 -3.9118706656103182e-02
      -2.6887791781062341e-02 -4.3384789792751934e-02
      -4.6933021025420310e-02 6.0140923339909690e-02
      -3.0105481315633783e-02 -4.3364194983057942e-02
      -3.1880458910815757e-02 2.9218538195192028e-02
      -3.2988469578686168e-02 -6.9523518045200697e-02
      -3.0501891699325875e-02 2.4306415414420832e-02
      -5.4768307065780240e-04 -6.3889172248745522e-03
      2.7830236018685475e-02 1.8100869880165276e-02
      3.9715381858106040e-03 -2.5939513818306156e-02
      8.8487217672015492e-02 -1.9885594855525674e-02
      -4.2161825518981878e-02 3.7751522300304402e-02
      -3.6526751257820858e-02 -3.0975954960478461e-02
      3.9486948856852423e-02 -4.5090671033784099e-02
      5.8276760697907465e-02 1.5218418668259452e-02
      -4.0693587832016983e-03 -5.0693965379531143e-02
      3.1028720022800896e-02 -1.6149181271080451e-01
      -2.4770340837635862e-02 -2.8671818351562812e-02
      -1.9083414412015547e-02 8.8969812286920549e-03
      -2.8880703911033655e-02 3.6625458727858620e-02
      -1.8535093597289075e-02 3.8832397367016602e-02
      -2.5304340803151762e-02 6.4773059199708452e-02
      2.9229166356069858e-02 -9.9307580056820378e-03
      -8.0108488653197057e-03 -4.6531497093752962e-02
      -1.4682976172905329e-02 1.7528167541561206e-02
      4.0564930218868894e-02 2.7835398593600458e-02
      8.3316279439518328e-03 1.1561887402377317e-02
      1.1433977068088356e-02 -4.5167646930940754e-02
      -1.9166586309009161e-02 5.7056278755098236e-02
      5.6425366173548167e-02 -7.4596178706945468e-03
      -7.3722838848404956e-02 -3.1009850732589987e-02
      -4.5809590855657466e-02 4.3652844189955728e-02
      -3.8797620491619736e-02 -7.1535834233429102e-02
      -2.8125862188877821e-02 6.4966442542296318e-02
      -1.8130597711565593e-02 -2.7861909757017706e-02
      5.0921825761028475e-03 2.8464936390253402e-02
      -1.0469521399453940e-04 4.1545426606860829e-02
      -3.8771260619822385e-04 -2.0204183799922637e-03
      -4.9148028485554253e-02 3.1474676850532159e-02
      -6.3481881706835872e-02 1.4668414082779670e-02
      1.0802717874238343e-02 3.0271910339343660e-02
      -7.3538591224420009e-03 1.8032254760974073e-02
      -1.8958265034901482e-03 -8.2492990233298796e-03
      5.8900546827628450e-03 -1.2270883481841910e-02
      6.3248689969801361e-02 -3.0283110442958206e-03
      -3.2964947192603157e-02 -4.8666476384499570e-03
      -1.8826470254590416e-02 3.2826845014292984e-03
      2.6068694032602008e-02 -5.6808867527755394e-02
      1.0678161492888969e-02 2.8159934643675062e-02
      2.3613516855685225e-02 1.3707243831664240e-02
      6.9660403421584229e-03 3.2394348473532551e-03
      -2.3995711137167960e-02 1.8121066240116696e-02
      5.6827944529062938e-03 -3.2338326706891990e-02
      -2.4597455563221546e-02 4.5183658585035959e-02
      2.0162949922625632e-02 -6.9352851649630426e-03
      2.2893438228637285e-02 1.4262574526867803e-04
      2.6430612339911693e-03 1.5097663969343283e-02
      3.7851456772711248e-02 2.9654784421674952e-02
      -1.1334002138286250e-02 1.6553073675913504e-02
      -2.1750705979806009e-02 1.3546447532778071e-02
      7.1586901761514915e-02 1.6409947508590910e-02
      -3.5769518925516081e-02 1.1672308789798830e-02
      1.3338338764018285e-03 -5.6633689957229965e-03
      -8.3674821379245475e-03 1.3010778280600340e-02
      2.3241071347649675e-02 -5.3053044550193343e-02
      -1.6940977011496262e-02 -1.9345196290183424e-02
      -5.1397210307177373e-03 1.3434094825167305e-02
      -3.7886519495144528e-03 4.8466244311187366e-02
      -5.5245191827157439e-02 -3.2255296524106795e-02
      2.7130482896189439e-03 -1.8136499617124994e-02
      1.9137444236057691e-02 2.8086776100981144e-02
      1.1223600491851492e-02 -6.9342280410515733e-03
      -1.6763651668260386e-03 -1.5813782551444538e-02
      2.2727454729170636e-03 2.2033005417991348e-02
      -1.0651550732792101e-02 -2.0816603382804343e-02
      -3.8266396159576388e-03 -7.9099043045467582e-03
      -2.4270638710342012e-02 4.6752006481653730e-02
      3.5178466437259651e-02 7.9953114506582795e-03
      -2.5165687326484536e-02 -1.8273940029651711e-02
      -1.4418695420824804e-02 1.1955214389523091e-03
      3.0901154881400376e-02 -1.7894654495258809e-02
      2.5692474119648088e-03 -3.9102205557786027e-03
      -3.0857188832909960e-02 -1.3271518449043625e-02
      -2.9339043592276945e-02 1.0565112565370655e-02
      -2.9404557775323699e-02 -3.7213422385627801e-03
      6.8159426299884737e-02 1.6120950427473166e-02
      3.5106470319616299e-02 1.3058307142365818e-03
      -3.2667739984501870e-02 2.8486529312616488e-02
      -4.9568967431064953e-02 -6.2970212080328686e-02
      -2.5449962401016477e-02 -2.2433663005986343e-02
      -2.3600478677368392e-02 -6.8328711253766494e-02
      -2.1443405987675496e-02 1.1056383659135655e-02
      -1.0070498002063740e-02 1.6942696285651277e-02
      -6.2974851381918748e-03 -1.1867889026567470e-02
      3.1848201067678474e-02 1.9541734021484626e-03
      -1.6141411404082963e-02 -1.3402607770667992e-03
      4.1957779794315388e-03 3.0785476508038253e-02
      -2.7105907470933433e-02 5.7138807205065152e-02
      1.9212274812067304e-02 -2.7149106182404771e-02
      1.5975187027433841e-03 -5.7129827134343378e-03
      1.6693242545405107e-02 1.5257279226761384e-02
      9.0330654669784818e-03 1.0153331816494233e-02
      1.9972058332729806e-02 -8.7134726297665426e-03
      -2.4427902326722029e-03 -4.4889815179024279e-03
      1.6489680802066100e-03 3.8656674752852831e-03
      -8.8549290438721361e-03 6.4453861037132749e-03
      1.0492571549480087e-02 2.7981673567032401e-03
      -8.4990181038807622e-03 6.2498995578869274e-03
      8.0860764256828789e-03 -2.1715206656112776e-02
      -2.3335281005885233e-02 1.4180881389791809e-03
      -3.7072633942996439e-02 -4.0031669471986293e-03
      1.4867777752624997e-02 -1.8649831354306777e-02
      -3.5779209422548983e-03 1.9994860213951644e-02
      4.2436803044513909e-03 -1.5487991683283405e-02
      -1.8276200931927094e-02 -1.8661453841461138e-02
      1.2964093470971437e-02 7.3568923730166665e-03
      5.9726771096338767e-03 -3.7044978294984897e-02
      1.2908575797052934e-02 -8.5277347151289950e-04
      1.8480945193831734e-02 -4.0656244664944744e-03
      -3.7632127762929467e-03 -1.4102345378926582e-02
      1.4764278021708301e-02 4.1579889218985502e-03
      2.0098414150002339e-03 -9.1864786014999589e-03
      -2.6141907790289977e-03 -1.3305573280193351e-02
      1.4929059032213213e-02 -1.6001053106967547e-02
      2.9260219178044788e-02 -5.1578013236625100e-03
      3.7991031762660190e-03 -2.1335130683502634e-02
      4.3797232843094999e-03 2.2233626119082698e-04
      -1.2740969092587510e-02 4.3939762680139695e-03
      1.3902094905177518e-02 1.3827643852738406e-04
      2.0276175162702113e-03 -1.1857301524286917e-02
      2.1979647696418598e-02 1.8590989856641527e-02
      1.8782861659320454e-02 5.9010041159663783e-04
      1.1235088003458037e-02 7.5243343037992502e-03
      6.0093386666107201e-03 -1.2898447964469911e-02
      3.9195849754931136e-03 2.9638278136676750e-02
      1.3457814891312224e-03 -4.5190724264827639e-03
      -1.9455514160512447e-02 8.5577269508918079e-03
      1.2137024208604448e-02 -1.8898920945087785e-02
      1.4372531613768461e-02 1.1145934835244183e-02
      3.6762352863660273e-02 2.4458577156619829e-03
      9.1012969576910931e-03 -1.6726559150570235e-02
      2.0881204171905261e-02 2.6643672455774266e-02
      -3.0554207631721168e-02 4.3740813825186879e-03
      1.5027225343002522e-02 -1.3455533268915770e-02
      -5.2041867747517873e-02 -1.0160184398304401e-02
      1.8615257349872013e-02 2.8114449863639271e-02
      -5.4139694448931625e-03 -3.0569093164012334e-02
      -7.0684529270868364e-03 -1.2861054522360688e-02
      -1.2000822076285878e-02 2.4637772447470403e-02
      3.3558826297645436e-02 -3.0907059026883243e-02
      -1.5552332410874805e-02 -1.2367223947929140e-02
      5.3575603634095246e-03 -1.2316747444217010e-02
      -3.6600796424647225e-02 -5.8028786880054755e-03
      -1.8357771007167255e-02 -1.5623315421612290e-05
      -9.7804723565775627e-03 -6.4359900784197411e-03
      8.4519577009708486e-03 -1.6190502730234563e-02
      -2.7085132790064747e-03 -8.6611723988118689e-03
      4.7810745164746232e-03 3.2826564014836038e-02
      6.0751503787593308e-03 -5.6875362752840143e-03
      9.5719018623326233e-04 -7.7622510776321901e-03
      -4.0788494881458352e-02 -5.4127870890427260e-03
      3.5028514439487037e-03 1.9884824912028551e-03
      1.7481601594401251e-03 -4.5830217500121206e-03
      -5.1285641214764916e-03 -3.0893108549919890e-02
      -2.4198202341060068e-02 3.6316775848742530e-02
      -1.3167699257469967e-02 8.9082385310677442e-03
      4.1012503242939995e-03 7.2100621365161058e-02
      2.4925332872366455e-02 -1.7485166888330711e-02
      1.7261116564623952e-02 6.2684239666350701e-04
      1.0582827630614199e-02 5.8560068291715060e-04
      -9.5569958629773445e-03 -7.2592111715825023e-03
      -1.4498900139276391e-03 -1.5471449075414028e-03
      -9.7350506170807710e-05 -1.1255066525806297e-02
      7.2427466254730436e-03 7.0154021201555856e-03
      -1.4935793337770835e-02 -6.8569260324072151e-03
      7.1933757214650588e-03 1.5973379505998169e-03
      3.7449855126953906e-03 1.2220723507513926e-02
      -1.9849050570722577e-02 -1.1606151993107217e-02
      -7.1537482265973127e-03 6.3274521396528829e-03
      1.6674042806457292e-03 3.0468246553312331e-02
      2.6143425957872574e-02 -7.0390410255802630e-03
      -1.0925687964330019e-02 3.0061494049326140e-03
      -1.5490309548600445e-02 5.4122865087155442e-02
      -1.4505174414600159e-02 2.5233767792349482e-02
      4.0455516222255702e-03 1.7853127662167969e-03
      1.8749510927251425e-02 4.7810067123211760e-03
      2.5547968147829697e-02 -1.8251917529724842e-03
      -9.0547484235600512e-03 -9.1388134113960240e-03
      2.0898834036644692e-02 -1.0463194797319011e-02
      1.0702726304465091e-02 -6.2916503544157157e-03
      -1.4580456816866883e-02 2.0410226937712925e-02
      -9.0569668700691344e-03 3.7317020841128284e-02
      7.5714961252087588e-03 8.1570354003411300e-03
      -1.9917446568215692e-02 9.8554906901935427e-03
      -2.7037005326748468e-02 5.7019172244528833e-03
      -2.6916115094656554e-02 -1.4027627101975587e-02
      -8.8773215833594463e-03 3.8642535255589590e-02
      1.6703147239725924e-03 1.8264838768058740e-02
      1.2381888359384519e-02 -3.5367529712978137e-02
      2.6925524182167724e-03 5.7118473486530812e-03
      2.2024429404079553e-02 3.2309102509546196e-02
      1.4157881760601237e-02 2.2476499313852170e-02
      2.4070932266961425e-02 -1.5492092345952276e-02
      1.3921588560934532e-02 2.5657409217296214e-03
      1.2383079123530575e-02 8.5495513895718911e-03
      -8.6608320732398467e-03 1.5904247191239763e-02
      1.6122300383803218e-02 1.4928407134151644e-02
      -1.3180359373981990e-02 -8.5904987746355174e-03
      4.0316228069276197e-03 -3.8583282185987597e-02
      -2.1834234630459484e-02 7.1801071769281768e-03
      -4.9941250657917933e-03 1.4046008191696782e-02
      2.0235593472525137e-02 -5.2956004497759284e-03
      -1.4410107560106288e-02 4.2945610074171296e-02
      -2.2123210399843950e-04 2.6209563900192216e-03
      -1.1107376672903541e-02 -4.7053911051396620e-02
      5.3642021096060484e-03 1.2108130931872244e-02
      6.0423757998029470e-03 -8.5300777872842851e-03
      -1.0556107774043665e-02 1.8772364950938186e-02
      5.2917616554846059e-04 2.7050982877763119e-03
      -2.6455441393298636e-02 -2.5755721725784476e-02
      1.0426697852456014e-02 8.8267721383008813e-03
      8.9937935003510158e-03 -7.6574857523657031e-03
      7.8021417330612942e-04 -9.4240430488561136e-03
      2.0060094600682723e-02 -1.6986618931796843e-02
      3.6890558771305509e-02 -1.9189731182314304e-02
      -6.5854301372971465e-03 -2.3719698224156021e-02
      -3.5541004127690851e-03 -1.9718748776161531e-03
      -1.1473459309401980e-02 1.2095030528491379e-02
      1.7362161159383552e-02 1.3384152374249689e-03
      5.7532357106127258e-04 -3.1535746671053806e-02
      2.0749364404730148e-02 2.2552246935704127e-02
      4.8227251546389460e-02 -6.5780246328077160e-03
      2.9353965392900160e-02 1.5422269581012943e-02
      2.0096840970102350e-02 -2.1319034511150147e-02
      -1.4744887156437885e-03 3.0700197814035084e-02
      -4.2025234960051505e-02 -6.4763787427920480e-03
      -2.9820246924930245e-02 -3.5386810800875777e-04
      3.6277622011608966e-02 -1.8841404974802172e-02
      2.3215680916624754e-02 3.1762901416760587e-02
      3.0032679430256008e-02 8.4469743775114573e-03
      2.1924226875128308e-02 -3.4996103157135368e-02
      1.9041535057951767e-02 -2.1799442064224283e-03
      -4.1372876145392111e-02 9.4924110521498722e-03
      -1.9789390011102893e-02 -3.8256858458946566e-02
      -2.0234193928629834e-02 -3.1395022252530425e-03
      -7.7510696876789478e-03 5.4628103705477481e-03
      3.4465545703984336e-02 2.8890487549099991e-02
      -3.4893444735297555e-03 4.3528296631917075e-02
      2.2031794139047912e-02 2.9849625937672639e-02
      -2.0441966381636201e-02 3.4000442121333428e-02
      1.1954355338737246e-02 3.6249371214433578e-02
      -2.2049057454096840e-02 -7.3873648053625358e-03
      -5.2547342430090932e-02 5.8092922316455180e-02
      -1.1249168998513448e-02 7.8471062446738397e-03
      -1.0564684857987837e-02 -3.7417319668479193e-03
      3.0749714788405588e-02 -3.3517341521381326e-02
      -1.2272065200929275e-02 1.6409292082014880e-02
      2.6024348242248776e-02 -1.5758109224872252e-02
      1.9396656515005963e-02 6.9380598532034574e-04
      -1.1635789510277956e-02 2.2780480090927490e-02
      1.5367159165546387e-02 1.2264278344881412e-02
      -1.9399348751654569e-02 -3.8197589563200289e-02
      1.9746235200170822e-02 -9.3328621494933234e-02
      7.5947494118523955e-03 -1.0884794478726114e-02
      -1.8447992759598436e-02 4.9210670105301516e-02
      5.2780988720651005e-02 1.2325336810628973e-04
      -6.2181855853254446e-03 -6.7426708266309615e-02
      -1.6599676321187969e-02 2.5819163447497423e-03
      1.0060627917112689e-02 1.0122211737254859e-02
      1.3381968523526880e-03 3.4894188616791118e-02
      4.3830937751809809e-02 -5.5440674632989346e-03
      2.0867624079014858e-02 -2.1643616029780006e-02
      -4.2475634455329321e-02 1.1283692978812654e-02
      1.0249667270885046e-02 -9.1778274422233286e-03
      7.9942792766195276e-03 -7.9688747977088737e-03
      1.7716950829624073e-02 -1.2271492783269325e-02
      -1.4887358687460784e-02 -6.8394639880192690e-02
      9.4724334437750260e-03 -1.1034310093422563e-02
      -1.9129354417273543e-02 -2.8186891563993639e-02
      4.2379226669275452e-03 2.6847820121136466e-03
      -1.2120012992484565e-01 -2.8248211121571429e-03
      -2.7699774448704400e-02 2.8391927036341795e-02
      -9.6981706646406662e-03 6.6329367424757230e-02
      -1.6198828691701025e-02 -1.0674776637855021e-02
      4.3619704841228235e-02 -1.1171082654424142e-02
      3.3838288464793087e-02 1.1740487096599363e-02
      -2.4833952247939536e-03 1.0186861476856492e-02
      -2.1983284772385498e-02 5.3336417750691069e-02
      -4.2416416893258410e-02 -3.0216647044410370e-03
      -2.9642834375962802e-02 -2.6009144010535517e-03
      -5.9455915300962890e-03 3.5764758498362669e-03
      2.0747475144582247e-02 -7.5382152884282197e-02
      -3.7771112343104813e-03 2.8245710196050239e-02
      -1.3733682166494555e-02 1.8894356586205925e-02
      4.2934793311599183e-03 1.4460047704607841e-02
      -2.2228819537781035e-02 -2.4439296098129910e-02
      -3.4030390992805380e-02 1.8249420937395202e-02
      -2.1940711151822122e-02 -5.9371088669391541e-03
      -1.9230580510706349e-02 -3.5547659632480570e-02
      -8.8960588401380464e-02 1.9319034778468292e-02
      5.5597643457013450e-02 5.5889980218094805e-02
      -1.1792980058974830e-02 3.3143116247213097e-02
      3.9201215219228001e-02 9.2457924108721098e-02
      9.4074313842546359e-03 -3.0727786339564923e-03
      1.8637608995275990e-02 9.1845292744498677e-03
      -2.8363601974613871e-03 7.9051962924149399e-02
      2.2428877410638894e-02 2.9114846065007496e-02
      -1.2678077277151647e-02 -8.2212579940722313e-02
      -8.2061933695413529e-03 -3.4612728265496752e-02
      5.3654182014167152e-03 -4.0714682944733450e-03
      -5.2309142306143447e-02 4.9688645966972839e-02
      3.1607523580639556e-02 1.2031421670839400e-02
      -4.7281883587725039e-02 2.3632785343434163e-02
      1.8500895444917110e-02 1.2730775062043856e-01
      -4.5252697259413374e-02 2.1851538977791934e-02
      1.8292674904966855e-03 -7.4453093468579501e-03
      1.8537855482778240e-02 -9.3354164516436161e-02
      -1.4170326123522323e-02 -8.0674897441013922e-03
      2.6002641369137339e-02 -4.6926121478956395e-05
      -6.7835434295575467e-02 -1.8646143606149322e-02
      6.7634523867858634e-03 1.1501757766355777e-02
      -2.0278411758409047e-02 -7.7741292983984139e-03
      -9.6849397069918349e-03 -1.1148423596772553e-02
      5.9043020728714356e-03 -8.3345406478284756e-02
      3.3027255292356214e-02 -5.1724437801890068e-03
      -1.1816219700285398e-02 -3.0514006981951347e-04
      1.1260293237499833e-02 -6.3232797474072414e-02
      2.5333481987148191e-02 6.2873734906911897e-03
      3.6972209431939441e-02 5.2267563616173176e-03
      1.5473314342964589e-02 -6.1122470825155456e-02
      -1.6918598736956417e-01 1.3870342764402500e-02
      7.4593290975558918e-02 -3.2197798432699695e-02
      1.2138933406835854e-02 -8.9523761883987377e-02
      4.8301594877205575e-02 -6.3263737043218540e-02
      -4.3793658777797695e-03 5.9363858159244269e-02
      -8.3671321355086092e-02 -2.3586708108045053e-03
      -5.4042047409525569e-02 7.3095680576276386e-03
      3.7345868457995104e-02 -3.0981392761444997e-02
      1.1328500572236753e-02 1.9807838166838357e-02
      4.9397065708255472e-02 -6.8814399615173402e-03
      6.6541637904538417e-02 8.1508498582231581e-02
      8.7892687253177375e-03 3.7141205813653926e-02
      -1.1471439317702644e-02 -2.1295418759084420e-02
      -8.5710629102581232e-03 9.6232797747752385e-04
      2.8637729160077896e-02 -1.0140534045094464e-02
      -5.0742277508112861e-03 2.2926345689275557e-03
      1.2768155325891049e-03 1.6049154616571549e-03
      -2.7041907643475180e-02 2.7738958016656778e-02
      -4.0952000648058415e-03 7.6178762897844109e-03
      -5.4965501728264860e-03 -7.6783264917832678e-03
      1.3123368881535220e-03 7.9659666742019301e-03
      1.0291385392227639e-02 -9.4296741978735429e-03
      -9.3020562073977096e-03 -1.7214291396962754e-02
      -3.9531325867954653e-03 -1.4919021216003631e-02
      -1.3974426182172397e-02 7.0143246907615024e-03
      9.8773232006000092e-03 -7.8616401129130761e-03
      8.3865291902184193e-03 8.8288575452796138e-03
      -1.8419382536339679e-02 1.2748593533541698e-02
      5.5612112447992980e-03 -3.1365384042072078e-02
      -2.5721829801989421e-02 2.1743916546914883e-02
      -4.8993788783732055e-02 1.8736594908508541e-02
      1.5407766874960390e-02 -7.8986396744834507e-03
      -1.1556906580694170e-02 -1.0453338456517559e-02
      -7.3907082570697580e-03 -1.3910301302440725e-02
      -3.7176734188911702e-02 1.3095695397084354e-02
      2.9338396706079892e-02 1.5178568813174345e-02
      -9.6492170171384934e-04 5.5624035934653072e-02
      4.2007684112295874e-03 -3.1733231602923566e-02
      3.4961123215863768e-02 -1.2323043952100010e-03
      -5.3129585068378907e-03 6.1579800333203048e-04
      2.0464607953688173e-02 -3.8086066785549761e-03
      -1.4485178828714558e-02 -3.0350242849894165e-02
      -2.3907430691984043e-02 3.4300303223134453e-04
      1.3609534773070664e-02 -4.6343962829571593e-03
      1.3810187247479597e-02 1.9110988127881822e-02
      1.7764887604981973e-03 -2.1103862776498256e-03
      2.1026925941415350e-02 9.7574456071521554e-04
      -6.9519625912636039e-03 -1.2896762876241450e-02
      -2.9216090383765024e-03 -4.9046661868760080e-03
      3.9085266638415653e-04 -7.7372718763023341e-03
      5.8257454807782390e-02 -2.7764124133589356e-02
      -1.5687697338165895e-02 5.3797504088371969e-04
      -5.0360387176059632e-02 1.5312795425884623e-02
      1.4915544411232724e-03 -7.9439833413214450e-03
      2.7284248058219090e-02 1.8211194569489567e-02
      -6.8457291063836485e-03 4.4164131152757396e-03
      -5.0367883158954569e-03 -1.0967523267795215e-03
      -5.4468277068314879e-03 -1.1572021249898453e-02
      1.3271367004896853e-02 7.8954523216797599e-03
      7.4056663325434424e-03 5.0474420436018913e-03
      1.3032331882825198e-03 5.8354915789520838e-02
      1.1576489991386715e-02 2.5201390569337612e-02
      -1.6102481119851499e-02 -4.4511808168546966e-03
      7.2232046071015752e-03 2.1672498418778059e-02
      1.0109127025748053e-01 1.7757395342197748e-02
      -2.2306079948972029e-02 -2.3665387751852191e-02
      1.2523420771906608e-02 3.1597742028852218e-03
      1.2850298542101487e-02 -2.5460484086047758e-02
      -4.6041508721928929e-04 6.2843351451043316e-03
      -6.8814194518272290e-03 -1.3862369654538118e-03
      -2.0571300349340883e-02 -1.7607214734068344e-02
      1.1853132868288759e-02 8.0130876054892693e-04
      1.7552053797970889e-02 5.8646342211652767e-04
      1.3286535117218870e-02 1.4484127705561328e-03
      1.0056973061844251e-02 -2.2934041300961442e-02
      -2.0259240033529510e-02 3.7273015132930951e-02
      1.2848080935637976e-02 -1.6247748956532717e-02
      -1.4093173417693738e-02 5.2382044732754071e-04
      -7.4599855952470822e-03 -5.1153807251603936e-03
      -9.1286607173248439e-03 -3.8162697162206116e-03
      2.0601520120988374e-02 -1.1373419689757721e-03
      -7.9330259690419541e-03 2.2171204925854563e-03
      1.4797965584374278e-02 1.6463826398889589e-02
      -1.2007422431877727e-02 -9.4571275533099179e-03
      -9.0496011682857959e-03 3.3677676665220535e-02
      -2.0235774282442592e-02 2.0983991238500865e-02
      -5.1090245898467064e-03 -7.9608329160932675e-02
      9.0301300505252948e-03 8.7142090026405723e-03
      1.1174053855296975e-02 6.4972760015913292e-03
      1.2802204486451387e-02 2.9842761065441373e-03
      -1.1715645286481242e-02 -1.2728375282925412e-02
      2.6584717320364895e-03 -5.1836116152160537e-03
      5.2883442624235954e-03 8.9345126650218747e-03
      4.8183818163943576e-04 4.2365006263034143e-03
      -7.8878691228496164e-03 8.9591016612615062e-03
      -4.7226088647108859e-03 1.0708657261846510e-02
      1.0102559630199209e-02 -1.1288244146295269e-02
      -9.1021763293970149e-03 8.7033786486574657e-03
      1.0826222890753540e-02 -1.2605605781567698e-02
      -1.1421821021522536e-02 1.5199896917045794e-02
      8.9039933839169839e-03 -1.4561791189998189e-04
      9.7121103925513087e-03 -1.3890353737150384e-02
      -9.2769660010244646e-03 2.7138011300337720e-02
      2.2445076492420061e-02 1.4340956486576415e-02
      1.2563827275639903e-02 -1.3257069703647369e-02
      -9.0777805554153643e-02 -8.6381820969909755e-03
      -2.8962233792308657e-03 -2.3718736544247825e-02
      6.7105065035709694e-03 -8.7991663428966561e-03
      3.1403965861472510e-02 2.5097540498478232e-03
      1.0419130153213592e-03 7.9757441898767201e-03
      -1.9328646176951919e-03 1.2828574440468973e-02
      1.1538241455584509e-02 -1.7566000253617681e-03
      2.8839840761145080e-02 -1.6641950999801741e-02
      -6.1294621133254745e-03 4.4031535161465464e-03
      1.5782444826963584e-02 7.2958010323805134e-03
      -2.3214755576535011e-02 -1.2339522571161138e-02
      5.8187810374396827e-03 2.8469085747790016e-02
      -6.9243497901976623e-03 3.2685182643088118e-02
      9.2933230887727817e-03 -2.1173448588689883e-02
      -1.2097995899240641e-03 1.1701592948946814e-02
      2.1900869027790371e-02 3.2435804004718224e-02
      2.7137810371153375e-05 1.6873208083990662e-02
      2.2246225490283725e-02 -7.0968538204429126e-03
      1.3122046517113279e-02 4.0797473726941749e-03
      1.7448842419485595e-02 7.9745647865036640e-04
      3.8647897123900900e-03 9.9623202442195372e-03
      1.8127508113963957e-02 -1.8528457132340021e-04
      -4.7913315970576536e-03 -8.3189626318993220e-03
      -7.4742804661277785e-03 -2.0685561600420951e-02
      -2.0774182472172994e-02 7.7240022451438807e-03
      -3.5482762036417509e-02 7.1183421664551836e-03
      1.8367448993372767e-02 -1.0302078135459830e-02
      -6.9842011380379845e-03 2.1975268889803685e-02
      6.3792229847846691e-03 1.5039718366043365e-02
      -2.8150480386410135e-02 -3.3077562161673450e-02
      1.4824115701746868e-02 -5.8464211165133023e-04
      -3.8442219278226524e-04 6.7679951460189902e-02
      7.8598083208176160e-04 -9.2481386190247667e-03
      5.4510068794796120e-03 -1.4601489815769626e-03
      1.1918362734087225e-03 -1.2578189097693444e-02
      1.2154178697470496e-02 -3.8356645273854777e-03
      2.9461478425328019e-03 -1.3483009395287788e-02
      8.9044219190662468e-04 -4.1800911948629716e-03
      1.0605347450814050e-02 9.5321768807430998e-03
      2.1280819627420854e-02 -9.8455511432631406e-04
      -3.5812059510476066e-03 -5.6755100586915698e-03
      -4.4001843093638404e-04 -6.8902661753547480e-03
      -2.6632293210800750e-02 8.9135567648881888e-03
      1.1776005333265309e-02 -8.1949577250363843e-03
      -1.5469595084005680e-02 -1.1457687181226401e-02
      2.5284955953510723e-02 8.9143073220866297e-03
      3.0828100273149354e-02 -1.8426245530983158e-02
      3.2350991327387342e-02 -3.8808899974448446e-02
      1.0708089746014515e-02 -1.3528665367037540e-02
      9.5039601747422837e-03 2.6895068933015298e-02
      -2.6987471299411567e-02 -4.4327493757500037e-03
      -9.3147093977764845e-03 -1.9997297299405910e-04
      7.5590938266090696e-03 -7.0738319695613332e-03
      3.4756082462854179e-02 1.5258423234947345e-02
      9.9215001547788825e-02 8.8773768222955593e-04
      7.1071520724328404e-03 -1.4662363005782152e-02
      3.3790823283208126e-03 -1.7392469029018441e-02
      -1.8121602535829878e-02 2.7557336255749306e-03
      4.5038901158437191e-03 -3.4741805509933715e-03
      -5.8418271454339241e-02 -1.3449833492655839e-02
      3.8873094556545841e-02 2.2482354214136330e-02
      -6.2503572193296442e-02 -2.7405018525165501e-02
      -5.3021008774174871e-02 7.7687029116902992e-02
      -4.4960483200291029e-03 -4.9598390612841534e-02
      -7.1833254306758368e-02 2.3831712637072549e-02
      2.4228387835981791e-02 2.7066508051859107e-03
      -3.7441293780671334e-02 1.1598723637177450e-02
      -1.0239215142424901e-02 -1.6524943049979892e-02
      -2.0579094606217475e-02 2.2629801746923660e-02
      2.5306130992786186e-02 1.8066053569595748e-02
      3.1531113120756390e-02 3.7493504845067749e-02
      -1.2959617726944320e-02 -4.5333299223149402e-02
      1.4569426388307046e-02 6.3075500112451431e-03
      7.2700872198312476e-03 3.0673239001195597e-02
      -2.6906118692406563e-03 -2.5378268499659865e-02
      -8.4773777138993534e-02 -1.2498950236962729e-02
      2.6418017758740659e-02 1.5619082549052157e-02
      1.9814139312890045e-02 3.4370100586931955e-02
      6.5490036633517436e-03 -5.0890631224989411e-03
      1.6274505424361225e-02 2.0845249236675197e-02
      4.5926455343400722e-02 -1.5234933596530746e-02
      1.9742241973934465e-02 4.2646731017372597e-02
      5.3992061727360489e-04 -5.3313069571665338e-02
      -1.8585933758554541e-02 -1.8266536003348016e-02
      5.6800390934122466e-02 -1.5450865445896045e-02
      -1.6525264213226032e-02 3.1781145752830314e-03
      -2.3325661654828540e-02 -1.0485721065170211e-02
      4.6346628353291551e-03 -3.4523750769328274e-02
      -1.1889929144307150e-02 3.2528502693731212e-02
      8.4889360313443202e-03 -1.3936463476170027e-02
      -2.3457588973288857e-02 5.9873365108579386e-03
      -3.1783212140375841e-02 -3.9394067202895289e-03
      -6.5475794842003388e-02 1.0330863270528665e-02
      -3.5678467996985218e-03 3.2995711238348102e-02
      -1.7851418912585099e-02 1.4760728043647184e-02
      2.0433247394832814e-02 2.8129114636650927e-02
      -3.0335392780686546e-02 -9.7314911013454981e-03
      -7.7302698018501962e-03 -8.5059268962803247e-02
      -2.5425478293890802e-02 -4.2653205547562877e-02
      -4.0872582614604629e-02 1.8843506455366428e-02
      3.6235466047131085e-02 -1.0056996060874160e-03
      -2.3362861662853500e-03 1.4921493549107743e-02
      -6.8993104421835746e-02 -1.2283433576330839e-02
      1.7913122684501820e-02 -1.7787106093159945e-02
      9.5843990991107825e-02 -7.1532018087606571e-03
      -2.7497968193503659e-02 7.1200095941826344e-02
      -4.7104600469867849e-02 -4.9486732581224102e-02
      1.8948291824741482e-02 -1.2703835410399225e-02
      -5.4084398801170525e-02 -2.9624976198173877e-02
      -2.2318420042985374e-02 1.2261284467266553e-02
      7.6187112190870640e-02 1.4467117772140176e-02
      3.1602725207093944e-02 4.6293243960370170e-02
      2.9087258884230655e-02 2.3003470924374759e-02
      -1.1438501664827171e-02 -7.5867532044556346e-02
      2.3389030051580544e-03 2.5563845162358163e-02
      3.5738708884661095e-02 -4.7679098129464158e-02
      1.3185757849857451e-02 8.7155756476900870e-03
      -2.3219279757334286e-03 5.6982575936802497e-02
      3.0113275691444178e-02 -5.6203512471952169e-02
      -1.1219939763743896e-02 2.3251668310264352e-02
      -2.8196698802500621e-02 1.3748414288949117e-02
      -2.2702519456312225e-02 -2.5842639075165142e-02
      -2.9160384306200601e-02 -5.9449464007396237e-02
      4.2928208055985816e-02 3.3908693794102655e-02
      -3.1618932714150165e-02 -3.3641770173873313e-02
      1.9789500604339670e-02 -5.7988228604404550e-02
      -2.4145096964056752e-02 -7.1941505405625841e-03
      -3.2331105237097630e-03 2.9984109110216921e-02
      5.4176849403795094e-02 2.3769564596811590e-02
      4.0015936913303504e-02 -4.4616409875746554e-02
      -1.9857035563196042e-03 2.6728580796868701e-02
      2.5287142452348161e-02 -1.3018413692960029e-01
      -3.0827643553293791e-02 -5.3526602806718275e-02
      -4.9405521700957673e-03 -4.6536946101618272e-03
      -4.1251824597386556e-02 -3.4456204401855511e-02
      -7.4190291644684750e-03 4.9097713588232292e-03
      -4.6605882696087786e-02 -1.1730547058614619e-03
      3.3737367387464343e-02 -1.2447126900023468e-02
      -3.1340668944279906e-02 -1.0125309921494491e-01
      2.0388675708202897e-03 1.3450033257395105e-02
      1.7237160475665664e-02 1.0751716728665921e-03
      -1.2323209891849762e-02 -6.2096595205202013e-02
      -6.6019266965543624e-02 -4.6630604913336093e-02
      1.9709554002881675e-02 2.7132053530954447e-02
      8.6690969556092057e-03 -1.3932957566736064e-02
      3.5420217356059200e-02 -1.2505796241704319e-02
      5.5034936178462071e-02 1.1503743250414034e-02
      1.4060645302710107e-02 1.2311879721393722e-01
      -5.0963739252027655e-03 -1.9335466606750850e-02
      3.5592478417459224e-02 -8.2121962317670671e-03
      -4.1020876470960178e-02 1.8058296977485046e-02
      -6.8711200904204147e-03 -3.4713421280988021e-03
      6.9527713381371578e-02 -9.1513631946561619e-03
      -2.7406609441775240e-02 7.3058220970905863e-02
      7.7069334897224367e-02 2.8520486807461269e-02
      1.5415030164154703e-02 -4.5120722499253522e-02
      6.8224047456223902e-02 1.6341178681436247e-01
      1.2915213188827377e-02 -1.5987512102353565e-03
      6.7075041200648083e-03 1.9998092402107814e-02
      -5.8716016361161763e-02 -6.8433578449856201e-03
      3.8361358360450633e-02 2.0149050569374855e-02
      -3.7104271787364390e-02 -1.8842140879543445e-02
      3.8234307230090567e-02 -1.7979027930577596e-02
      -3.8249275205499804e-02 -3.3103461555683097e-02
      5.8566654507633736e-02 -4.5767226417266250e-02
      -3.3314078020752889e-02 -2.1799321140417192e-02
      -6.5797762783413756e-04 -5.3074406684659172e-03
      1.5074861871809396e-02 -3.6986229444677600e-03
      -2.7226526283573916e-03 -1.4084213928763191e-02
      -1.1783990929748585e-02 5.3328046584600317e-02
      -2.9212458967864161e-02 -1.2230795804720198e-02
      -2.4859873331902389e-02 -5.9309243714620961e-03
      7.0100835268262327e-04 -3.7664233525314329e-03
      5.2195934054147534e-04 2.3679376389540967e-02
      2.2129534421870069e-02 -5.0875914818805421e-02
      2.8748346251469176e-02 -2.3012614684283506e-02
      -7.9883768434935200e-03 5.4523039926558450e-02
      -3.4148364657972066e-02 6.4065765548761158e-02
      1.5217195038794987e-02 -3.3673751830162880e-03
      7.9938469470170026e-02 -8.1078840889309087e-03
      -1.9480049504288270e-02 -4.6289643083354391e-02
      2.3744227651790194e-02 -6.6118138251002028e-03
      -1.6955010262886133e-02 1.5363507405692953e-02
      -2.9561093937475181e-02 -2.4705583123261396e-03
      -2.8677856169626748e-02 -2.9212384466590090e-02
      -6.2734541185735876e-02 1.1317910308463068e-02
      -3.6251131439527032e-02 8.4693724018490651e-02
      4.9885441068167995e-02 -2.9405556035175633e-02
      6.9976523822970066e-03 -1.7880709090991913e-02
      2.3869153115009486e-03 -2.8747220485839907e-02
      5.7661590893417942e-03 -1.7595303108183705e-02
      -6.0997334132520918e-03 4.7450188780141130e-02
      -4.4375779573098621e-02 1.5434491715914182e-02
      2.9356889602363177e-02 7.9102591574894701e-02
      2.4340911162787717e-02 -4.6164461947936546e-02
      5.6454518093580174e-03 2.5143696072258030e-02
      -4.3482960074570233e-02 -1.1907696201727524e-02
      3.5157309898932190e-02 2.4458214312420467e-02
      -1.6404780627297326e-02 4.2669880664135851e-02
      -3.7635315810545654e-02 -2.3657929177088735e-03
      2.1905245874313094e-02 4.3061997587028108e-03
      8.7683285806282995e-03 2.4309389272823532e-02
      -3.5085159811459273e-03 -4.3387547156014415e-02
      4.0822072677018494e-03 -6.2812213353387221e-03
      5.4623609414567863e-02 -5.9922443262120009e-03
      9.3137976389538000e-03 2.8953564233374844e-03
      -1.6084539479355058e-02 2.1187152197584290e-02
      1.0551379521898989e-02 6.1094949529021786e-04
      3.4190815338377271e-03 1.4077332605630318e-02
      8.5992135903907618e-04 1.1194273930229611e-02
      -4.8387987409342609e-02 -1.1046884161775882e-02
      -2.7711114176796177e-02 -8.0262704927589398e-03
      4.8874827877844760e-03 -1.2762905542302475e-02
      8.7479674079483493e-03 -1.0462852879010566e-02
      -7.2432526960421711e-02 1.1184787395791849e-02
      1.8920731848967400e-02 1.9679193817245082e-02
      -2.1822847566269760e-02 2.9960958836628387e-02
      2.1192970318380914e-02 -9.2649915125926734e-03
      -8.2482629636706304e-03 4.7695520283616913e-02
      2.1107475899027402e-02 -1.2301976104669425e-02
      3.9318714240506973e-02 5.6218145884272312e-02
      1.2663685825191721e-02 1.1708669987809584e-02
      5.5138042841515848e-03 -3.9061928464021295e-03
      -1.8754470614983188e-02 1.4718011190489291e-02
      -1.2772570729501928e-02 -5.3893798004275538e-03
      -4.7614831754328242e-02 4.7264086829364053e-02
      -2.2548639081457402e-02 1.4079328302127329e-02
      1.5491578606078008e-02 -6.5372507585709418e-03
      -9.8787366518377270e-03 3.9148501953261153e-02
      -1.0067782274423969e-02 4.1630066076585114e-02
      -5.1342710236443002e-03 -6.5488181927640396e-03
      -1.4790195182229533e-02 3.0688682638704019e-02
      -1.8324798743447834e-02 1.8793163975465946e-02
      -2.9271472298567938e-02 -1.7023190080284675e-02
      -1.3692159404584405e-02 -2.0100107667471188e-02
      8.5254895046208638e-05 1.4205803182814598e-02
      -1.0757452958356414e-02 -3.2575387491893155e-02
      -1.2490835241655141e-02 -1.1990336589653908e-02
      -1.2432327594320143e-02 1.5970040916975112e-02
      -1.2190043507008159e-02 -7.7651770044060041e-03
      -1.5245887389755340e-02 -2.3679961779453531e-03
      -2.2381059872128468e-02 -1.4081106035733150e-02
      3.7090306591273992e-02 2.2425777432645941e-02
      -1.0316308808196553e-02 -2.9295190888908439e-02
      -2.2604638937846283e-02 -5.2094689663125171e-03
      3.2056752749413851e-02 -4.5877113486468279e-03
      -2.4265915833041720e-03 -3.2082055855360878e-02
      -2.5757261281062094e-02 -1.1188236035218026e-01
      2.4431413572224467e-04 -1.6722039847648692e-02
      -3.0408268209648769e-02 1.0920628499647419e-02
      -2.1889359978639951e-02 1.6273619795844141e-03
      3.3816262821923225e-03 -1.0755176478278438e-02
      -1.6448720056703007e-02 1.1662370606977487e-02
      -2.5456833683072409e-02 -2.8928185215760887e-02
      1.3324568452135768e-02 -2.6854506042620883e-02
      5.6761466622349821e-03 2.8754345077295886e-02
      -1.1161604472528064e-02 -1.7018034870858241e-02
      3.9011028307070154e-03 1.0614305619624618e-02
      7.5978182821195717e-03 1.8732785035404393e-02
      -3.6992729019726826e-02 1.0193734132071485e-03
      4.2933987318609472e-02 1.6497570719832686e-02
      -8.8575348973558843e-03 -2.3651362353160968e-02
      1.3873665349451848e-02 -4.7533367027633902e-02
      -2.8627179043657084e-02 -8.2457825042352335e-03
      7.2187065423881647e-02 -3.5619739274516206e-02
      -3.6736991224443544e-02 -2.1684042665542701e-02
      2.1140304415212200e-02 -1.9600345854605856e-02
      9.8015684730852308e-03 -1.2807066104179419e-02
      1.7147765816128574e-03 -2.3219086219725665e-02
      -1.7277651934328900e-02 3.7056735107388515e-02
      -4.5056806672592903e-02 -3.6410652236716391e-02
      -7.0800465006905650e-03 5.8291615943994136e-03
      -1.9646657313386353e-02 -9.9774605467046421e-03
      7.0532638164870487e-03 -5.2159923268910681e-03
      4.3739864705317384e-02 -4.0908954182067289e-02
      5.8250113384894205e-04 -1.8733648207247069e-02
      1.8921279463596161e-02 3.6657715475787174e-02
      -4.1165345144877373e-02 2.8296174149289931e-02
      5.3427770728449956e-03 -1.5257974202241792e-02
      4.6261522980604028e-02 1.5574976865355732e-02
      -1.7976352069533460e-02 -1.7999715130726440e-02
      1.4791314332106457e-02 -4.7471915988553312e-03
      2.7745999616443553e-04 -3.4458342576735765e-04
      1.2295691484386557e-03 7.1630621785445537e-03
      -2.7368342343830551e-02 -3.5252319306274564e-03
      -4.9620344675228897e-02 9.5165521124622645e-03
      -2.3656751091451097e-02 6.1980811888376591e-02
      2.6028669011766391e-02 -1.1147607296771670e-02
      5.9603712163990258e-04 -9.9491503930991491e-03
      3.8463096139778226e-03 5.3909339327502326e-03
      1.2142054798999070e-03 -6.4617929129254566e-03
      5.2673579532763045e-03 2.2168400819044184e-02
      -8.3516167646873075e-03 7.6730615942677239e-04
      1.8652127750567616e-02 5.4789064353775944e-02
      3.9333604086749532e-02 -8.8428614307346168e-03
      -1.5147511725513305e-02 2.5516738140594103e-02
      -3.2200851450779555e-02 -3.7415234831814155e-03
      1.6527910663695099e-02 2.1030520081788667e-01
      8.1493837121480728e-03 4.1022898827845114e-02
      -1.4176906529536527e-02 2.2049234675317626e-03
      4.2375957398641815e-03 -1.1850125850084079e-03
      -5.2401950173879197e-03 1.6743511296840360e-02
      1.2574712723795209e-03 -4.2941328715501485e-02
      2.8621470228598289e-02 1.2052620529746197e-02
      -1.3284412948738205e-03 -6.3945200583318687e-03
      1.8306073800928028e-02 -2.4845758190552509e-03
      -1.2514803165334126e-02 3.0568106948618425e-02
      1.8159539983239863e-02 -1.2089941496730179e-02
      -1.3962810185173582e-02 -1.4535829545739376e-02
      1.2606197865830149e-01 6.0033728948242710e-03
      -3.7519293898768978e-02 -1.0207917353711789e-02
      3.5850716225618265e-02 5.5627509970096025e-03
      -2.7379160554530983e-02 -6.3404065894019420e-03
      1.0711314903050797e-02 1.4326737061243017e-02
      -4.0821938755183890e-02 8.9442417961323357e-03
      8.8001951594716427e-03 5.4109043835695826e-03
      -7.5964213293711509e-03 1.0775410235109367e-02
      6.5572330694023935e-03 3.6692426935079903e-02
      -9.7929807153783362e-03 1.9602288030466423e-02
      1.3323627905621714e-03 -3.5212934078605519e-02
      2.5251292639682368e-02 3.6228366146034259e-02
      3.0956604675693999e-02 4.5938343072641552e-02
      -8.9712318831321278e-03 1.1606604901479461e-03
      -1.9914145751992764e-02 -2.1999142551049299e-02
      -7.3418306270745803e-02 4.8228164225131390e-02
      -5.0637718459058442e-02 3.4828096810360913e-02
      -2.1475650200451762e-02 5.5918055598319855e-03
      1.1122676126517492e-02 -4.5636942773363179e-02
      7.0498559257841957e-03 -1.1300031426235256e-02
      -9.6301054791693833e-02 5.8405902917466257e-03
      2.7187526145784130e-03 1.4694904162857117e-02
      -7.3506282114030857e-03 -6.4613231607657778e-02
      -1.3300703999055450e-02 -3.5368837789718529e-03
      2.2836704190146800e-02 -9.5877821073285917e-03
      -2.4752994769658462e-02 5.9993416624622787e-03
      4.0156655531865572e-02 1.4579990897121314e-02
      -2.2802299357869000e-02 -5.3292595779187199e-02
      -2.3931269045534179e-02 2.0914315156519807e-02
      9.3207624824227613e-03 -2.8626336135434780e-02
      -9.9133427389034457e-03 3.0721822835087741e-02
      -8.1062233571226278e-04 -4.2488192710320102e-03
      2.1452974741279589e-02 -1.2062618152915475e-03
      3.6181110186695301e-02 -2.0820191717357394e-02
      -1.5125988188380788e-02 -4.7110314399764569e-02
      -2.3604612516535721e-02 -2.3668454953312157e-02
      -7.5459735316492915e-03 -7.6593391268007099e-02
      5.8024778995288552e-02 1.0586789566433887e-02
      -9.0967233494808397e-02 -4.3548985575862016e-02
      1.9211933154119488e-02 -2.3904073744958360e-02
      1.6719199348297631e-02 1.5156122522585785e-02
      -1.0717936537021854e-01 2.7783164918729904e-02
      -8.7823659026379994e-03 -3.3446766244932487e-02
      2.5050611183140514e-02 1.5258227315000289e-02
      -7.0149474231810359e-03 1.2018854026881427e-02
      -2.9088919904466066e-02 8.7823378616531146e-03
      1.5593708555145086e-02 4.9276821831343007e-02
      4.1409187331257147e-02 -4.8886940917494175e-02
      -3.0139656437491943e-02 1.9739130024373577e-02
      -6.4407289341130939e-03 -3.6169669714972347e-02
      -5.9514960784493705e-02 6.7565183572405128e-03
      1.0579590797543798e-02 1.6172236549803994e-02
      -1.3514355925223716e-02 5.0420553554660266e-03
      6.8349045720944093e-03 -6.9416333786493311e-04
      1.7033253446988826e-02 -7.9896436828602070e-03
      3.6459156166452893e-02 3.6006676138147287e-02
      2.4081730099730244e-02 6.5958769733671391e-03
      -2.3248911693181527e-02 1.4136274290700745e-02
      -4.6360847084552593e-03 -6.9248236366610833e-03
      -8.2879596240427126e-03 2.0974880010498440e-02
      1.2918989602046672e-02 1.1014653603644165e-02
      3.0715055047225381e-02 5.3532600495998957e-03
      -9.3580947214155063e-03 -6.7322700823033320e-03
      2.4753256236458909e-02 3.0364375211042832e-02
      -1.2317111784425022e-02 3.6711281483967434e-02
      -2.2886587952207514e-02 2.1501528076740945e-03
      1.3107623055345860e-02 -3.7022772057274497e-03
      -3.2838715122935798e-02 8.9993079973201724e-03
      2.3850318911730443e-02 -2.3081077697334199e-02
      2.5566564528402540e-04 -5.2767081743014643e-02
      3.6976432508405210e-02 -4.3049649882993930e-02
      3.3825672670958463e-02 -8.5273320060597641e-03
      -8.3691435111225270e-03 -9.0437019358076923e-02
      -1.4750781885073359e-02 -3.3975622378218072e-02
      -4.5370443839651567e-02 -3.8449037717399243e-02
      -3.2571235589704682e-03 -2.7023213516515841e-02
      2.9894388206745184e-02 2.3849745051718045e-02
      4.7004649916218035e-04 -1.9204171724544056e-02
      9.5096050919893094e-03 -1.6323231259103392e-02
      8.4294594754442162e-04 3.7671265696053694e-03
      -1.8770149627346069e-03 -2.7279647629885575e-02
      -1.7089383430363089e-02 -1.7057963730187295e-02
      -5.6402868268053678e-02 1.0159928548533691e-02
      -4.8770824892196583e-03 -1.0465664361115238e-02
      -1.5823251217516640e-02 -1.8212147355103347e-02
      -3.6208868270456912e-02 4.9872018117255975e-03
      2.8744494921946237e-02 1.3556142956543437e-03
      -3.3583554129391159e-02 4.9387232741646492e-03
      1.3562127793907390e-02 1.5226550251424123e-01
      -4.4696822293936622e-02 -1.8866727400981020e-03
      -7.9490747592683413e-03 -4.1873147453299108e-03
      1.8478400542550857e-02 2.6057614527259201e-02
      3.6043453666192771e-02 6.5168028549808920e-03
      -8.0628084883658160e-03 3.9176778133122654e-02
      -3.9108767902587896e-02 -8.7689779291045562e-03
      -3.1208049281981037e-02 -1.1951022139990814e-02
      -4.0215611194182620e-02 -6.3811419110331793e-02
      1.5037821134276772e-02 -6.2059760891870562e-02
      -1.6779598920332404e-02 4.3782511111632116e-02
      -1.0790399176529814e-02 6.3658460812793726e-03
      1.3350069298686028e-03 3.9361748466193881e-03
      1.5188821181789989e-02 -1.2626632014802981e-02
      -2.5990832534890634e-03 1.0833496435921334e-02
      -4.5098290363565618e-03 1.2644373457535061e-02
      -2.3450907808865468e-02 -2.2484798255763321e-02
      -3.4031160734666291e-02 -2.4504794511464353e-02
      9.7468010844823511e-03 3.8917211137949378e-03
      1.6604713092940284e-02 1.3341376809640963e-03
      1.6332031673033571e-03 3.3989129807806280e-02
      9.6433405113014251e-03 -3.8956806823085333e-02
      1.0852721643489569e-03 1.0020049426508283e-02
      -2.0555090841397446e-02 1.5876206061352906e-02
      1.0130202145766489e-02 -7.8249276119719043e-03
      -2.4812319863187552e-02 -4.8530636099897141e-02
      1.4608278680033060e-02 -7.4428571467347049e-03
      1.9560741425784140e-02 -2.7771314979555893e-02
      -3.9342003254223719e-02 -1.3604665626870769e-03
      2.4685782968388560e-02 -6.7196493461339725e-03
      -2.1125103145170885e-02 1.5148669269934020e-02
      1.6016085995977997e-02 4.5397499635375864e-02
      -6.3578048344521956e-03 1.9564313322802781e-02
      -2.9378082535122713e-02 2.6761807191639092e-02
      1.9619712949928217e-02 2.8063637438300280e-02
      5.5537727447739320e-03 -2.8374516104665615e-02
      4.7331195795004381e-02 2.1413807349889753e-02
      -1.9973056670742641e-02 -1.6727497332989602e-03
      -1.4775634601037022e-02 -2.1144862869775054e-02
      -1.6315221323472070e-02 1.3779801127406640e-02
      8.0982150724125505e-03 -2.0260471743831646e-03
      -4.7772238224595932e-03 -4.7186656723249565e-02
      2.1928822160298428e-02 1.2662589951375073e-02
      5.4147027332068715e-03 6.1286029711185774e-03
      1.9879854126571332e-02 -5.6163005294694632e-02
      -2.0373024418336761e-02 -1.8040188189604907e-02
      2.1318481795373861e-02 1.6183118728990951e-02
      1.7102565327209735e-02 -7.5220697194872390e-03
      8.6919851776254987e-03 6.5650236532238445e-03
      6.3610132963802621e-02 -7.0581882167013010e-03
      7.6664597274446753e-03 3.6878388206025556e-02
      5.0594142062740780e-02 -2.0988188620058728e-02
      1.6679785197884291e-02 2.1723983482335823e-02
      -7.6897329188168731e-02 -3.4356417366245054e-03
      -2.8204732329472810e-02 -7.6821983570180379e-03
      4.1646234375536266e-02 -2.2750776962876949e-02
      -5.9079496743478458e-03 3.6425254034086710e-02
      2.5276661240583236e-02 1.3746761763152277e-02
      4.0302197423974312e-02 5.1268291020375736e-02
      1.2552881214482310e-02 2.2020140097826219e-01
      1.0586767165583976e-03 -4.9448556899494608e-02
      -2.9409203281662698e-02 -2.3639730153302237e-02
      4.1908945377155782e-02 -2.6997105378177861e-02
      5.6207525615243285e-03 2.1289242356553020e-02
      1.8731175006876783e-02 2.3764056248234102e-02
      -6.3918666608667324e-02 7.1482051868092145e-02
      1.5930264979553427e-02 2.6406342343024840e-02
      -2.4200031203073125e-02 5.7630921017690906e-03
      2.5314675551264522e-02 6.1163047839251361e-02
      -1.2430776773499302e-02 -2.1321091234964572e-02
      -4.5006010079096194e-02 3.8938149698146123e-02
      -1.0599858641070058e-02 -3.2418407000327644e-02
      -2.1267883649936897e-02 2.1223445528410313e-02
      -8.6980715649164677e-03 -6.0744264231274506e-02
      3.0553956409517836e-03 2.1332278227992694e-02
      2.3963013678947806e-03 -1.9954140224062684e-02
      3.6582200846901371e-02 -4.1427182915994960e-02
      -1.4182186569023815e-02 2.7160356929848879e-02
      -8.8056731843454486e-02 2.5121313825361771e-02
      3.1241004511588032e-02 -4.1274525802216327e-02
      -2.0667464665394292e-02 -6.7705510737311556e-02
      3.7394441848217885e-02 1.0421635131855466e-02
      -4.0223440156145977e-02 4.4584651785078894e-02
      5.5448904582075971e-02 -1.1124775012829676e-02
      1.7684244390988844e-02 -9.7595837730832108e-02
      -7.8796943875888738e-03 -1.7326940841123108e-02
      4.7069765305518110e-02 1.5842908314284039e-02
      1.6584334062270658e-03 4.9722020328502606e-02
      3.1997203523583956e-02 1.7351429084504200e-02
      1.3270396669042879e-02 6.6952262268263792e-03
      -3.9050644358100253e-02 5.2623593366451053e-03
      1.8014292176197332e-02 -3.9504164089733403e-02
      2.8339052042329917e-02 8.7274274687098880e-03
      2.5970251781107768e-02 -9.6831040069616169e-04
      2.7812311250685431e-03 -5.9067891495580435e-02
      -7.6482666477218665e-03 -4.2279562466570886e-02
      6.8204308172356001e-05 8.4954702443945408e-03
      3.7870290152064001e-02 -6.6414332935744559e-03
      -7.2177849700624380e-02 3.4017580365286928e-03
      -1.1770490292108492e-02 3.8248925279346854e-02
      -9.0904458719217370e-03 1.7516507857296693e-01
      1.0398982865174319e-02 -1.3614601121501710e-02
      3.3986154193180747e-02 2.3986808446006544e-03
      -1.8715171724424584e-03 1.3403349251907656e-02
      -3.2784501122575964e-02 4.1138141145588350e-02
      -9.4210609167312952e-03 4.4985327025319141e-03
      5.2667504583416722e-02 2.9141512180671365e-02
      2.1303385378462495e-02 1.3447833130757932e-02
      3.1729417080244189e-02 1.5629326809438907e-02
      2.5722985770953055e-02 -5.2827311160241669e-02
      -2.2698504153159452e-02 5.0211003615623214e-03
      1.4671300916037340e-02 2.2890532549583158e-02
      -4.4277578856968695e-02 1.2594652518325268e-03
      -1.1519892460383365e-02 -1.1549850653117909e-02
      -5.4209513871335008e-03 4.9016228236969835e-03
      4.7899811900778112e-02 -5.2917831291857823e-03
      -1.6505879849227148e-03 2.1306415204546587e-02
      5.6966517385816082e-02 -2.2676949177219342e-02
      -3.0949642563474742e-02 -2.7801485032926253e-02
      7.1395260847395229e-03 -8.2199802277822878e-03
      1.5755295802785774e-02 -8.3707683820528053e-02
      -2.0945834434269463e-03 2.9013242605832355e-02
      -1.1335185131634952e-02 1.0773724520668300e-02
      -9.5760591494330281e-03 -2.8241368002135003e-02
      -2.7884994680682253e-02 -9.7242460175075707e-03
      2.7248800463839984e-02 3.8953896830157812e-02
      4.0940736799806665e-03 2.3887498689897174e-02
      2.5699105935563352e-02 -4.0551102528172824e-02
      3.3320310472311640e-02 -1.5307115350962118e-03
      -1.6069433957019839e-02 2.5216482562437900e-02
      8.3864109767092018e-03 1.0051359683906776e-02
      -3.5062306415482310e-02 -2.9935346807342188e-02
      6.2875996637865528e-02 3.1896314128380794e-02
      4.6647877080754517e-03 -2.0553600133664182e-02
      -2.0862165455658808e-02 -1.7649395475749619e-02
      7.6282600338589881e-03 6.4099917915378515e-02
      -3.6619771274875604e-02 7.8489807633358947e-03
      3.4637309634373656e-02 -8.8400879520004745e-04
      -3.2019947971056138e-02 -3.5983775727069060e-03
      2.6683395806090346e-02 4.3727797072438804e-02
      1.7689235213141745e-02 6.3588779449227804e-03
      -7.4260157708369307e-04 8.1932519974569490e-02
      -1.5256983552557304e-02 -2.9121689290712304e-02
      5.6874821035183456e-03 -1.0049025329658736e-02
      -2.5458445839156938e-02 1.7458016247884775e-02
      1.0213443161042874e-02 4.7491204064520051e-02
      -5.8502275615029235e-03 2.0647369080048040e-02
      1.5196332948404358e-02 1.5624117589256947e-02
      7.2683504112592071e-02 3.9720324152730635e-02
      -7.5346769807571198e-02 -1.6164847779929409e-02
      2.4558725146671092e-02 3.1265368706481070e-02
      -2.2407554610733734e-02 4.4034979658660496e-02
      -2.0899701935426118e-02 -4.3735366964842419e-02
      1.2161374355781593e-02 -9.8095337835140458e-03
      2.0370886504546475e-02 1.7604939281716261e-02
      -4.2971624092308508e-02 1.1118832995960616e-02
      -2.5995689616335752e-02 -4.0416914554206158e-02
      -7.9772553520562027e-03 -2.2725227956411777e-02
      -4.1262762417969168e-02 -5.8891061963470590e-02
      -1.0105722801474174e-02 -2.0019035101192656e-02
      4.3599125820759019e-02 4.6475418370179166e-03
      1.3242502277284787e-02 -3.9231967545104813e-03
      -1.3328015179244737e-01 1.6171213751865769e-03
      1.8374464714112426e-02 1.3393608270809078e-02
      -1.8926079319222036e-02 -2.6316863015793272e-02
      -1.8398727291545867e-02 -4.6127132925767381e-02
      -1.3707650163303215e-02 5.0455039836629269e-03
      5.2207459469773038e-02 -3.2890514857368000e-03
      -1.4251194382358631e-02 -1.5992964913088423e-02
      -4.7373036889995059e-03 -1.5823014828195817e-02
      -5.2933194521562017e-03 1.0369219818805798e-02
      2.0770322514483920e-03 -3.1203804375389567e-03
      5.8022465140598004e-03 1.5660328474670453e-03
      8.1379929241263396e-04 -2.8365778955962841e-02
      -6.1841678895228052e-03 1.2727382055397537e-03
      -3.7998639432497826e-03 4.4772296108428712e-03
      -6.9826404381006270e-03 9.5718339005294653e-03
      4.1648448473815450e-02 -4.0999737661215037e-03
      -6.7408649444987173e-02 -8.3452797176741828e-03
      -6.8434310847329330e-03 2.0130024740481266e-02
      9.8994016533396757e-04 5.9334235058892994e-03
      -3.7660005179051664e-04 -3.3044439121798316e-02
      4.6959092499710912e-02 -4.1280195722524686e-03
      4.4749989983096450e-03 6.9592855391993284e-03
      1.3407259241043178e-02 -1.3348545439067272e-01
      -7.1368478203415317e-03 -2.0879633182330312e-02
      -1.6574633391473213e-02 -1.3725478136395785e-02
      -3.6802425373751117e-03 -1.0644810577038464e-03
      -1.0514050762556078e-02 1.5480251032408762e-02
      -1.2655358152748075e-02 1.6282273517040105e-02
      1.4073884841971378e-02 -1.8768840138596692e-02
      -1.3729896218262930e-02 -1.5081722007609049e-02
      -6.7754724995749789e-03 9.3517981045539520e-03
      -5.4505114741439133e-03 2.3324278472014064e-03
      5.8303393070880706e-03 2.3669452515608511e-02
      -1.4940001202799068e-03 -1.9997232980396244e-02
      2.3212430290510625e-03 2.2695522675590801e-02
      -5.6435842440750988e-03 1.5615343405820485e-03
      3.9049885724272093e-02 5.4667177338688939e-03
      -2.3250423105091070e-02 9.3885016450407643e-03
      3.6274728171204286e-02 2.5771537716377130e-01
      -1.9344486259408801e-02 1.1608773949770352e-02
      -1.7188278578181310e-02 1.2672383533194618e-02
      5.2644871466093347e-02 1.5870746813660647e-02
      6.2429640399724812e-03 -9.7400344960395582e-03
      1.9945672244603215e-03 -4.0664449261427604e-03
      2.6259642122195545e-02 6.7828437669983747e-04
      -1.3834729443345082e-02 -8.3284499758271308e-03
      -4.7100789617098337e-03 -1.9834220670498445e-02
      -3.7042622451769950e-04 -6.8852547674485842e-03
      -1.6632065882702771e-03 5.1660946894392201e-04
      -1.9408358024838354e-02 -2.1649562067102862e-02
      5.3101886279981643e-02 -4.1278522203169933e-04
      6.0764578368885790e-02 2.9210905925529978e-02
      3.5123064933047170e-02 -1.0512153574005607e-02
      3.6384247159328871e-02 2.2699473817096708e-02
      -2.5520774333415815e-02 1.9856014867454228e-02
      4.1748439001801835e-02 -2.4013797276043507e-02
      -2.6238459168064755e-02 -4.6871617423684869e-02
      9.1790575526166877e-03 -3.8392210411679888e-02
      -3.8339506027784194e-02 1.7963208574106961e-02
      1.6188695662028936e-03 -4.0606205025249129e-02
      -3.7539085366308567e-02 1.5895973861239504e-02
      -3.3673926830606507e-02 -6.6213523760074208e-02
      -2.2154508452057041e-02 -1.2559025660614776e-02
      -8.9067506548369483e-03 -1.7092358745103585e-02
      3.2385226295371196e-02 3.9074374734161477e-02
      1.4750451897481913e-02 -2.3317696556671721e-02
      6.3466318110514397e-02 -4.5618267672749527e-02
      -1.7311861748282371e-02 4.9329398512761176e-04
      -1.7004505554833696e-02 -2.1960441454931649e-02
      2.8930571402165258e-02 -5.3942319459314280e-03
      4.0335304788652486e-02 1.4365675490240039e-03
      -1.8230145738485703e-02 -3.0557861556908868e-04
      1.4300152765809480e-02 6.2171821227711088e-02
      3.7266372306772686e-04 -4.1372972036014134e-03
      -5.2640639781801959e-03 4.0209311747216306e-03
      1.3904383743763999e-02 3.3373167572648479e-02
      -1.4899040294634599e-02 1.7341982024342867e-03
      -8.8962004523096237e-03 3.9451343517075257e-02
      1.2411503267064044e-02 4.1659307956926177e-03
      -1.1287359603865517e-02 -1.5039873984201270e-02
      -1.9507656498361697e-02 2.5485121876342470e-02
      2.5923760131135086e-02 2.2571339175867129e-02
      6.0642639886770442e-03 8.0329314952910600e-03
      -4.0571041793801395e-02 -3.3445257637835603e-02
      -8.2701320559597155e-03 3.7098253245414541e-02
      3.2766845385503562e-02 2.5066851340633519e-02
      -5.0982031752290505e-02 -9.8585137718111698e-03
      -1.6652961602278214e-02 4.1514142963989767e-02
      -2.0713694740552589e-02 -4.7865251142843589e-02
      -1.8310536953519418e-02 3.5934205499195015e-02
      2.3751004050523036e-02 -5.3178323003554580e-02
      7.0121338702199623e-02 3.3848738724743012e-03
      1.4145052114559298e-02 1.4799706293389127e-02
      7.0698080908023903e-03 -3.9467945551937954e-03
      -1.6579441911370590e-02 2.8176480520977959e-02
      -3.2854413898082448e-02 2.5195330059264026e-02
      2.8852240217419889e-03 -1.8857014938007368e-02
      3.0249935251077998e-03 5.2103128534189337e-02
      2.0202951524189206e-02 -1.4969999002273169e-02
      -7.5937755373744848e-03 -1.1030779184812142e-02
      -1.6748815719783147e-01 -1.7063725556870107e-02
      2.7673312577974306e-02 3.9823878229398799e-02
      -7.7789936670037502e-02 -3.4582320734409366e-02
      -3.9824543130856246e-02 -9.5456259205716862e-02
      -1.9224730772264675e-02 1.3454792623530725e-02
      3.2558341091126465e-02 -5.6105390681139896e-03
      9.2212553602545218e-03 3.5927380441002243e-02
      -4.4626252215954773e-02 -9.7619449084269342e-03
      -1.0723668106537203e-02 6.0902045357355716e-02
      -4.4440260931110608e-02 4.3886482908607673e-02
      2.5971553038217986e-02 2.2312363286863694e-02
      1.9568985066124259e-02 -1.2335258906254299e-02
      -1.7347816885394569e-03 5.7923332212061293e-02
      3.1062760095626109e-02 1.1584909179030376e-02
      -2.9687757137441446e-02 -7.4585532818140119e-03
      6.0105401433915136e-02 6.3753150170472884e-03
      -7.5703189807672294e-02 2.9477510449376087e-02
      -9.6150400286350145e-03 5.4464907515942428e-02
      -4.2309545563422229e-02 -1.5629802851575454e-02
      2.9032516734224079e-02 2.6992738033232922e-02
      3.1166330367134093e-02 -1.1846355453562017e-02
      1.7446549915847705e-02 -6.1366275108589663e-02
      2.2396737350187837e-02 -1.1245942350659932e-01
      -5.1648548071681434e-02 -7.5457008941985492e-03
      -6.2727010509109879e-02 -4.9313041664117457e-02
      -5.3044776821183581e-02 2.6991818431082054e-03
      1.8856294010541636e-02 7.5524002034868337e-02
      -2.3842909171828498e-02 2.7356811192573393e-02
      1.6355139128949484e-02 -4.7796506373453264e-02
      -9.3669266939344960e-03 -4.2949239094173780e-02
      2.6481651994377953e-02 -1.5495725599988122e-02
      -5.7260073326331103e-03 -4.5488661303902311e-03
      -1.1747770542168575e-02 4.6019773564043860e-02
      5.8216585418728470e-02 -2.8505390258961864e-02
      -1.0982011586062346e-02 3.4502812838824858e-02
      7.3394654493905568e-03 -5.0594444013534218e-02
      -5.6441137255551943e-04 3.7387818300756381e-02
      -5.4258727501770986e-02 1.2966868882191507e-02
      1.9427567964526261e-02 1.5275033554124390e-01
      -2.4406159712769389e-02 -4.9978785728301721e-03
      -7.4168387767167415e-02 4.4179954278975267e-02
      1.0744689798829835e-01 4.4594869216233617e-02
      -4.2463065746362185e-04 2.7819694629026271e-02
      -2.8743866170429518e-02 -3.7108713701643360e-03
      5.6829059039667465e-02 -4.3289399259286737e-02
      -2.9395576240529006e-02 -3.7426385708718070e-02
      1.5086525007892567e-02 4.0857052365521982e-03
      -6.3520519488353813e-02 -5.7919116392262139e-02
      -5.3761419417172392e-02 6.1380908501905848e-02
      4.0436398919512411e-03 -3.9982264248083661e-03
      5.8668145488596744e-03 2.5534369804653984e-02
      -4.0748914940466840e-02 -1.0093020180162920e-02
      5.3758362002160998e-02 1.1567641066290154e-02
      -3.8969962045901315e-03 6.5705705420566154e-02
      1.0784511397457973e-02 -2.0631346021745475e-02
      1.9842423173093517e-02 -3.2453430080855571e-02
      -2.4688675915356183e-02 -5.5533341449554199e-02
      4.4963074009702300e-02 4.5073964001358562e-03
      1.9941085685157144e-02 -7.0189089144653133e-02
      2.6994154995575181e-02 -5.1594004085019967e-03
      -1.4855648743849375e-02 -2.9445282518845359e-02
      -8.1914094188826336e-03 3.6530505309267818e-02
      1.3826293071846888e-02 -2.9228884742437337e-02
      -5.0972241161012434e-02 2.7800073940996262e-02
      -5.9468402872428841e-03 -4.9705472951093290e-03
      -6.8822333517705059e-02 2.1797946196924160e-02
      -3.8760244024876433e-02 -1.8527295409921880e-02
      7.0197120929808548e-03 -1.2642294765282639e-03
      3.7663374973377912e-02 3.9271370419015621e-02
      -2.4758772335245923e-02 -4.5715467231774991e-02
      -4.5936981392556850e-02 -6.6651757191619185e-02
      -4.3777162682939550e-03 4.8596024533816236e-02
      -1.6651836467957409e-02 -3.6502453432059462e-02
      3.8338075125395207e-02 -1.3685870019322852e-02
      3.6277809145671878e-02 5.3166922553693060e-03
      1.0930288706928521e-02 -2.6064408301466904e-02
      3.8350074141997518e-03 -2.7211807531284129e-02
      -2.2005933826175200e-02 -3.7942800093577277e-02
      8.3988069690413367e-03 1.6974017850040646e-02
      5.8887364805242058e-03 2.1043047854042693e-02
      -1.5628804973316951e-02 3.0524178607438255e-02
      -9.9019484584105897e-03 -1.0532023855541870e-02
      3.0111254944663036e-02 2.7521294748647302e-02
      -6.0099210716583376e-02 1.4334104806237733e-02
      9.8667998023823679e-03 -2.4794146726748512e-02
      -3.2618116127339856e-02 -1.5571699656180893e-04
      1.0132923637283033e-01 -3.9335606896554562e-02
      4.1829643858794972e-02 -6.9092952720193196e-03
      -1.4598194376924263e-02 -1.3587882495338258e-01
      1.1933761969926624e-02 1.6361595404864350e-02
      4.5051159208721180e-02 -1.4171769385251618e-02
      -5.0424478523286048e-02 2.7929031575455823e-03
      1.8766111285552944e-02 -3.0704677290785926e-02
      5.0045551632902946e-02 -1.4246187048204573e-02
      3.4451245075173650e-02 2.7659008418476960e-02
      7.1934847282383169e-02 1.8302848580615240e-02
      -2.2142585983479360e-02 2.7568867072302626e-02
      5.5392434571989196e-02 -4.2159288350533328e-02
      5.3302001245981315e-03 1.5844159308026563e-03
      2.9252758866700434e-02 2.3789811157682628e-02
      -1.1247302725136389e-02 -1.1672532275655238e-02
      -3.7309081230484445e-02 -1.7191654687663718e-02
      -5.3889527732974458e-02 -3.1212624730685822e-02
      -2.6843261391252454e-02 -3.5565930860928158e-02
      -9.4680167973387758e-03 2.3767009566344591e-02
      -3.3276436950711634e-02 -3.4280508554795378e-02
      1.6739237215349402e-02 6.4296507582606841e-02
      8.0146326572396367e-03 2.0513895661263055e-02
      1.6552822005128229e-02 -4.4663645833069254e-02
      -2.8297544631870970e-03 3.3400066017467686e-02
      2.0717214592293122e-02 -1.5449363665531670e-02
      2.2520215068994560e-02 4.3956205987370753e-02
      2.0676513349935824e-02 -1.4636090793375032e-02
      -1.5744625536382829e-02 1.8138483431931540e-02
      -2.5793961294498746e-02 -3.0379411813417329e-02
      9.6895298232748631e-02 -2.4971617413834767e-02
      -2.8223631632321826e-02 2.3145986688113299e-02
      5.0639372810736993e-02 -5.2276468081428719e-03
      -1.4662757049791031e-02 3.8554584528851452e-02
      -3.8420434106382774e-02 -8.3722957927648300e-04
      -4.3601701620777318e-02 -4.6552878002405892e-03
      -3.5779901184685936e-02 1.9064001442269225e-02
      -6.0707985384874496e-03 2.2012818716934748e-02
      4.0698070072112034e-02 4.9200074576974846e-03
