<?xml version="1.0"?>
<opencv_storage>
<opencv_ml_ann_mlp>
  <format>3</format>
  <layer_sizes>
    240 120 8</layer_sizes>
  <activation_function>SIGMOID_SYM</activation_function>
  <f_param1>6.6666666666666663e-01</f_param1>
  <f_param2>1.7159000000000000e+00</f_param2>
  <min_val>-9.4999999999999996e-01</min_val>
  <max_val>9.4999999999999996e-01</max_val>
  <min_val1>-9.7999999999999998e-01</min_val1>
  <max_val1>9.7999999999999998e-01</max_val1>
  <training_params>
    <train_method>BACKPROP</train_method>
    <dw_scale>1.0000000000000000e-02</dw_scale>
    <moment_scale>8.0000000000000004e-01</moment_scale>
    <term_criteria>
      <epsilon>1.0000000000000001e-05</epsilon>
      <iterations>200</iterations></term_criteria></training_params>
  <input_scale>
    2.5958942476195165e+02 -1.2464800052268670e+00
    4.6345643209916653e+02 -1.5731173108804204e+00
    3.0977487180479744e+02 -1.4470990551181053e+00
    1.4995010862074051e+02 -1.0086516485273322e+00
    3.6064879609148051e+02 -1.5605054657566062e+00
    7.2973203305448095e+01 -1.6923920554730371e-01
    5.7206751175712793e+02 -1.8855575424972046e+00
    5.7379572173806605e+02 -1.8063469969611101e+00
    4.0295912416069478e+02 -1.2728004697139916e+00
    4.8763615286441677e+02 -1.7345994626723933e+00
    3.1705623543187721e+02 -1.4151787273097358e+00
    3.1930799873836492e+02 -1.5113044485526350e+00
    5.2082767233306924e+02 -1.5183411135293361e+00
    2.2578329246962278e+02 -1.3921900162383523e+00
    5.2515061323940415e+02 -1.5290159567318635e+00
    3.1873501808254019e+02 -1.4495689411831720e+00
    4.8641364158830004e+02 -1.5434941822074981e+00
    2.7220181524581005e+02 -1.3478307457325995e+00
    5.4672948213065956e+02 -1.7549865607760553e+00
    3.5082910976247899e+02 -1.3952822605418551e+00
    4.5685071078797120e+02 -1.5760353998686549e+00
    4.5735644700401011e+01 -5.1953524902869519e-01
    4.6661935049376439e+02 -1.5453170275911767e+00
    5.5937745995627847e+02 -1.8173660270026339e+00
    5.1192517699783542e+02 -1.7412764260310152e+00
    5.5049870294520599e+02 -1.4973126952157849e+00
    2.1957893516440100e+02 -8.8006527163441506e-01
    1.9703429220419264e+02 -8.8809052349465112e-01
    5.8487797343875332e+02 -1.8376321596037632e+00
    2.8098347866178557e+02 -1.3611061657870744e+00
    2.3806944919045583e+02 -1.1223936575027500e+00
    3.5158741679371747e+02 -1.6001697980077798e+00
    5.1373409531068273e+02 -1.6803572234237847e+00
    2.6184974196632288e+02 -9.6374530873958153e-01
    2.5662463614011750e+02 -1.5030320805926627e+00
    2.2917987060672334e+02 -1.3613468584581823e+00
    2.3291422604981358e+02 -1.2669519412481247e+00
    3.6574601868714848e+02 -1.4617074931400222e+00
    4.7049440730866905e+02 -1.6347785207586243e+00
    4.4264851577588985e+02 -1.2732641211234594e+00
    4.2467068476295060e+02 -1.4986568739367088e+00
    2.3450763616970121e+02 -9.9643182377126038e-01
    1.9410822856063143e+02 -1.2040347072091324e+00
    3.6851892703938597e+02 -1.5657954178852749e+00
    5.0928397881909603e+02 -1.4786252462250040e+00
    5.3988207738037931e+02 -1.3286317248837605e+00
    2.3774283192126157e+02 -1.4611790704581691e+00
    4.7422087154318314e+02 -1.5091154900643997e+00
    4.1963883819813367e+02 -1.4543026800311818e+00
    4.5099286542609258e+02 -1.6592451143677402e+00
    4.6266254606372263e+02 -1.3144584483879966e+00
    8.3569798787898009e+01 -2.6746174311881821e-01
    3.8020230464489515e+02 -1.3416536691537977e+00
    6.5731023241420388e+01 -2.0151300655336002e-01
    3.2974394307965730e+02 -1.1783639102451138e+00
    2.3738363801219336e+02 -1.1144807471994744e+00
    3.7489549941332405e+02 -1.2046004703402216e+00
    4.0237627466589277e+02 -1.5688339894101917e+00
    4.4061190734571397e+02 -1.5704610024077275e+00
    3.8886317517477920e+02 -1.6823661925383391e+00
    4.5634512951442838e+02 -1.8800264519088155e+00
    4.2481179062606321e+02 -1.6134721473762283e+00
    4.1186797221924411e+02 -1.3635729918506336e+00
    3.8435804456434926e+02 -1.0888946183016155e+00
    3.5789550498339855e+02 -1.3066206369587849e+00
    2.7979467534953284e+02 -1.3825802366969564e+00
    5.5947273805490795e+02 -1.8100564325436712e+00
    2.8325827161163687e+02 -1.3127496957522051e+00
    6.1763640750885122e+02 -1.9306404584326544e+00
    3.0108927552849752e+02 -1.5428110896840546e+00
    5.0613404475307118e+02 -1.5957067340329352e+00
    4.9267744147359480e+01 -5.1482012349111572e-01
    2.4360014505370808e+02 -1.0560626364217678e+00
    2.3609531988409907e+02 -1.2214019137282282e+00
    3.8542044008446811e+02 -1.4654937036138578e+00
    3.6734364792881399e+02 -1.1717971813887764e+00
    5.4921888790563423e+02 -1.8546100278936968e+00
    4.2248104257645667e+02 -1.3756685069373711e+00
    3.9675486200071754e+02 -1.4812388014026892e+00
    2.6571610195308534e+02 -1.3181707352178627e+00
    2.5205346163513241e+02 -1.1995845083676213e+00
    2.1931698029886653e+02 -1.0659642578076074e+00
    2.4263107079918314e+02 -9.5980159700581980e-01
    2.2979465515239175e+02 -1.3545151197370531e+00
    8.4843097357129082e+01 -6.5863584840648715e-01
    5.0010832723839417e+02 -1.6899791775218078e+00
    4.9433251107897001e+02 -1.6310108518435489e+00
    3.7669507520806337e+02 -1.2214674385804183e+00
    3.2870148115685856e+02 -1.1549043614624190e+00
    1.8347329710320915e+02 -1.0555948111529319e+00
    4.2617295339788478e+02 -1.4454363776616483e+00
    5.1860808787857854e+02 -1.5611775909504866e+00
    2.5845142965512639e+02 -1.3757118133129695e+00
    5.8355957538789755e+02 -1.7487560255791312e+00
    3.1794419755358035e+02 -1.2977167173573285e+00
    1.0958167273338053e+02 -9.3324503823288607e-01
    2.6390407455872088e+02 -1.3858768937478880e+00
    3.2503050708371308e+02 -1.3651724297504160e+00
    3.8504720197997221e+02 -1.2696820946559384e+00
    4.9581046377846008e+02 -1.5727425427735005e+00
    4.0528880115046468e+02 -1.7466633054552045e+00
    2.3007466320221610e+02 -9.6529133241612963e-01
    3.7935565100053196e+02 -1.0373765177983370e+00
    3.1857563711825401e+02 -1.3614575809387404e+00
    4.9164177045513929e+02 -1.5464758976063830e+00
    2.5652512407009152e+02 -1.4815302094110812e+00
    5.7798121064261488e+02 -1.4711897542560706e+00
    3.0652054162818769e+02 -1.1023134640200292e+00
    4.2286124992991745e+02 -1.6800014251485735e+00
    2.9533493668442100e+02 -1.3075795557514751e+00
    3.0414812552484636e+02 -1.0729113311313900e+00
    4.2441394464161743e+02 -1.4686466585874389e+00
    3.7718937292735689e+02 -1.5217262469890569e+00
    3.2225578607797604e+02 -1.2273210665437386e+00
    4.8943522748845027e+02 -1.5662500317394534e+00
    4.5648047995869575e+02 -1.6061287056195128e+00
    5.1499759054880485e+02 -1.7341526336296091e+00
    4.1023425627207962e+02 -1.3872417977930103e+00
    1.1319536512173225e+02 -9.0591038212290764e-01
    5.9216444259604054e+02 -2.0385319893771210e+00
    4.1821246751824407e+02 -1.7914938997168424e+00
    4.1558125264134475e+02 -1.4833432739503036e+00
    4.6244918439447048e+02 -1.6629826840171402e+00
    3.6831671299902831e+02 -1.3315462725926213e+00
    4.9807514006680373e+02 -1.4985046271450044e+00
    4.1327210708032248e+02 -1.2290198266000718e+00
    5.6568638419454817e+02 -1.7044839670842924e+00
    4.5604047536757264e+02 -1.7250078136538394e+00
    1.8461685513101713e+02 -8.4148074876820456e-01
    4.2190197242641614e+02 -1.5149288297161334e+00
    4.3458380606015777e+02 -1.6944019924619971e+00
    4.0185653139063538e+02 -1.6962090138153891e+00
    1.1059608362544807e+02 -6.9277613086305312e-01
    5.6559661245931818e+02 -1.9264489159072482e+00
    2.9734378865034267e+02 -1.1875079569754527e+00
    4.0046722836271960e+02 -1.7669772365788692e+00
    1.3735303201340781e+02 -9.6184168284823235e-01
    2.8321088345182847e+02 -1.6391548348471792e+00
    6.0206458536782020e+02 -1.8269950857549582e+00
    3.3533324967906037e+02 -1.3300113177652122e+00
    4.3098327030400282e+02 -1.4046367817324901e+00
    2.8220601642899936e+02 -9.0333436292109948e-01
    5.5457224252759738e+02 -1.8700573141768080e+00
    5.1382828513996208e+02 -1.7249194028314017e+00
    4.0596708310957825e+02 -1.6687748334364274e+00
    4.6432074981268056e+02 -1.1867008109310522e+00
    5.0977405710948528e+02 -1.4177174479584262e+00
    4.2683976662625150e+02 -1.2922763368106867e+00
    6.2203413888336718e+02 -1.7011053283996636e+00
    3.4302685763635031e+02 -1.4280512069611906e+00
    3.8573964500445044e+02 -1.4343196099221256e+00
    3.8349960266899063e+02 -1.2363698314686695e+00
    4.0252774198773102e+02 -1.3395411091832401e+00
    5.5293173149957727e+02 -1.7211019291392868e+00
    2.8332306970685710e+02 -1.3884666058169259e+00
    5.7579811434858573e+02 -1.9777201005543386e+00
    4.4635215039955153e+02 -1.4989824614840399e+00
    5.8301180968886953e+01 -1.0087295130412450e+00
    4.9230784336210490e+02 -1.6320544334268603e+00
    4.1811910628980098e+02 -1.5495937310406296e+00
    5.9137065678919919e+02 -2.0572048231241400e+00
    4.4992390054526948e+02 -1.7274127624019839e+00
    3.8269588058873586e+02 -1.1349443642930088e+00
    3.1548599522813242e+02 -1.3024280762376750e+00
    4.1087499604130051e+02 -1.6165067516171243e+00
    4.2113634716415550e+02 -1.6269746832832772e+00
    3.2141978479037022e+02 -1.0787986784457162e+00
    2.8499569338355315e+02 -1.2862857748890746e+00
    4.2235019706471360e+02 -1.4040341845883362e+00
    5.5953688405569642e+02 -1.8033649405931915e+00
    4.4757880076869913e+02 -1.2605686447211990e+00
    4.6910699340204013e+02 -1.7171181220831364e+00
    5.0118046897579057e+02 -1.6164496324108988e+00
    5.6394756053263336e+01 -6.8297838901874175e-01
    3.9453766496934912e+02 -1.1666033770545932e+00
    1.9797444815322922e+02 -1.2087602785996550e+00
    6.5418586705002056e+01 -9.7935831205098711e-01
    4.9044959406709847e+02 -1.4773024483178683e+00
    5.7264543382243551e+02 -1.9539196138631709e+00
    3.5436811010179991e+02 -1.3953986586024292e+00
    5.4792073764043232e+02 -1.6564278294238011e+00
    1.5672714657821527e+02 -1.2085028285695973e+00
    4.4206945901110447e+02 -1.9199356519723243e+00
    5.0741489140382350e+02 -1.6661886744143382e+00
    6.0942906263446991e+02 -1.7204080471726344e+00
    4.3242038592001546e+02 -1.4107842139403082e+00
    4.1522653640295465e+02 -1.6823915501398261e+00
    5.0903051186224552e+01 -6.4435415940952889e-01
    3.5746772698413400e+02 -1.3732339890251704e+00
    5.1605045222756962e+02 -1.6329363395800793e+00
    4.5302565982732358e+02 -1.7007224355260491e+00
    2.6178279902910305e+02 -1.3854447596856192e+00
    5.7689484514270339e+02 -1.6103242891620859e+00
    2.4428362716944940e+02 -1.4248323100316607e+00
    3.4802808157986044e+02 -1.7270580969706768e+00
    1.7501572328984255e+02 -8.5684143356168752e-01
    5.9427235079540276e+02 -2.0199584208565939e+00
    5.3533551682418124e+02 -1.7684205530766479e+00
    1.9602462554117031e+02 -1.0575160380869351e+00
    4.2392244840074500e+02 -1.3266136388976801e+00
    3.7119444332543446e+02 -1.1450080518720465e+00
    5.9644293259856545e+02 -1.7986892489516102e+00
    3.6396486293656005e+02 -1.5122334565064983e+00
    1.8904166293414187e+02 -5.4412374934343488e-01
    2.3956023054342711e+02 -8.8874955481481555e-01
    3.7936123206724955e+02 -1.1310172996814858e+00
    4.0433646205108141e+02 -1.8387590710701887e+00
    2.1517148310317387e+02 -1.3832031636670306e+00
    5.6594047345657611e+02 -1.6372228988639757e+00
    8.0528191982676162e+01 -5.0749408671049145e-01
    4.2058266093949834e+02 -1.1641730429765182e+00
    4.4970923235103402e+02 -1.6024229513836687e+00
    1.9818113043184533e+02 -1.2045892031965835e+00
    2.9684571866576562e+02 -1.1431534911019927e+00
    2.8230145066073760e+02 -9.8858711769001228e-01
    4.8815249226454529e+02 -1.4720216379448652e+00
    2.4925886764929280e+02 -1.2913803233128360e+00
    3.1138351609654711e+02 -1.4459549418151778e+00
    3.7768065517446058e+02 -1.1463677006687538e+00
    3.5311121437209158e+02 -1.2239125528266908e+00
    5.1637308158235544e+02 -1.6902965425722516e+00
    5.8268386645906367e+02 -1.7163254575554143e+00
    4.8862082292716423e+02 -1.4969632132223420e+00
    3.3330384447847530e+02 -1.1415430352861251e+00
    6.0563700278385534e+02 -1.9814422952436939e+00
    2.8415862338036197e+02 -1.4051013346155952e+00
    5.4426849156937101e+02 -1.4666606066408261e+00
    2.9792704254647913e+02 -1.3863282541694599e+00
    4.1592343817087726e+02 -1.6987972135281426e+00
    3.3986026350047825e+02 -1.0744363164034396e+00
    2.3460697381337110e+02 -9.0716218245269187e-01
    2.1113444820199169e+02 -1.4770750093587637e+00
    4.5821569713353114e+02 -1.3676307262409240e+00
    8.1660802963658114e+01 -5.5163813901714998e-01
    3.2077055484324779e+02 -1.2088827482566806e+00
    4.8677658988644112e+02 -1.6604933474918455e+00
    3.6929709766305905e+02 -1.1810471224346835e+00
    5.4591003493056428e+02 -1.6802172910872064e+00
    5.2477069345529026e+02 -1.8620636373658523e+00
    5.6015538300965363e+02 -1.8375090901341409e+00</input_scale>
  <output_scale>
    5.2631578947368418e-01 4.9999999999999994e-01 5.2631578947368418e-01
    4.9999999999999994e-01 5.2631578947368418e-01 4.9999999999999994e-01
    5.2631578947368418e-01 4.9999999999999994e-01 5.2631578947368418e-01
    4.9999999999999994e-01 5.2631578947368418e-01 4.9999999999999994e-01
    5.2631578947368418e-01 4.9999999999999994e-01 5.2631578947368418e-01
    4.9999999999999994e-01</output_scale>
  <inv_output_scale>
    1.8999999999999999e+00 -9.4999999999999996e-01
    1.8999999999999999e+00 -9.4999999999999996e-01
    1.8999999999999999e+00 -9.4999999999999996e-01
    1.8999999999999999e+00 -9.4999999999999996e-01
    1.8999999999999999e+00 -9.4999999999999996e-01
    1.8999999999999999e+00 -9.4999999999999996e-01
    1.8999999999999999e+00 -9.4999999999999996e-01
    1.8999999999999999e+00 -9.4999999999999996e-01</inv_output_scale>
  <weights>
    <_>
      -1.4505056863493562e+00 -2.2829041461579153e-01
      6.8426275676339021e-02 -1.7145017764554646e-01
      2.8189613426226334e-01 3.0355093012155271e-01
      6.8328952962445455e-01 6.8208171320173561e-01
      1.3542388733393756e-01 1.6999897614331438e-01
      -1.0627848691754475e-01 -4.5715817418715399e-01
      -4.7952562381743162e-02 6.9068650353150129e-01
      -3.0915196400154632e-01 6.4506877818487829e-01
      1.0470586761530352e+00 -1.9981136636745897e-01
      -6.9337385369596338e-01 -1.5786675181908771e-01
      5.0530183444443655e-01 -4.1989358713191527e-01
      -8.4347976682264854e-03 -8.7730418562108026e-01
      8.8245709303896869e-01 -3.9358831037513203e-01
      -4.7014381965877525e-02 -1.1219547657883999e-01
      -1.9345296290819072e-01 2.4953135919031993e-01
      4.4107492549909899e-01 1.1649587178808549e+00
      1.3894721554186340e-01 -2.0493045426110310e-01
      -4.9007728882412221e-01 5.8760080488388344e-01
      7.5572103340857077e-01 6.1913527444893568e-01
      -8.1147598639617557e-01 -3.5043497088194270e-01
      -1.1074179316741463e-01 2.8473341491412679e-01
      2.1980842947249010e-01 -1.7217801760446361e-01
      6.9448989449286791e-01 3.2515792620201706e-01
      4.1180160278026359e-02 1.2022254190845206e-02
      -1.5800125220859276e-01 -1.4838203708273301e-01
      6.3620085321430742e-01 -9.8604043648633199e-01
      1.0805171456582102e-01 -4.3368657383930315e-01
      1.0960540828423311e-01 -7.4613607574908347e-01
      -8.3225111873587210e-01 2.0024337736914166e-01
      4.0423310107051030e-01 -6.5209641939831295e-02
      5.6743353837266075e-01 -2.2382572370298989e-02
      7.0606650137409477e-01 -4.1292586030102529e-01
      1.3052880990320065e-01 -8.4941503974469168e-01
      -5.6596554078221874e-02 -6.3180787331217569e-01
      2.0700888044918944e-02 -8.0310872401603595e-01
      7.1919059517434736e-01 3.1883536959671721e-01
      -3.4532913564282730e-01 2.2552378262283604e-01
      6.2195896683412955e-01 3.5487966881252642e-01
      -1.0474779311957665e-01 -4.5613642382626496e-01
      -3.3605211810228575e-01 3.1563149675660200e-02
      2.2033590357757951e-01 2.1746049253247515e-01
      1.3503943157165326e+00 1.3291580817801762e-01
      4.2272644531013248e-01 3.8483452518193217e-01
      -8.9632649483500415e-02 3.1777374416654486e-01
      3.8593394527982855e-01 4.1844633105308521e-01
      5.0689830797964797e-01 8.4975487250658654e-01
      3.7170380420939392e-01 3.8235405581701504e-01
      7.3744223042360035e-01 -4.9848202797225172e-01
      -1.2548387234483760e-01 2.8830663627900099e-01
      -8.6114398758629640e-02 1.9839573553424986e-01
      5.1245270024383049e-01 -3.2221688784884051e-01
      4.0597435860442355e-01 -2.1954570690861022e-01
      2.0424672600705623e-01 1.3852590003347376e-01
      4.4306652787373935e-01 4.3394225462868907e-01
      -9.3099972517229213e-01 -2.4255466471558887e-01
      1.9663082807333301e-01 1.1665698481318931e-01
      5.8364766399110382e-02 1.6647378187061621e-01
      9.4867309560107038e-01 3.4829029956475172e-01
      4.5872530192402711e-01 7.7527426458364357e-02
      7.0463368680444449e-02 -1.9505386372805186e-01
      -1.6737983005933937e-01 7.6647673681479178e-01
      7.5488844824335835e-02 -2.9428158903734080e-02
      1.1878023748555928e+00 3.9836788395960110e-01
      -7.3821260088789320e-01 -5.0239168764140696e-01
      7.5967183166862395e-01 7.2992684530105967e-01
      -3.2693921762242567e-01 -1.3247590082096447e-01
      3.3364761494506995e-01 -1.4499280070147377e-01
      -7.9812520878122206e-01 -8.5050634595114405e-01
      -1.9063442713905554e-01 -5.4766735014236390e-01
      -2.6606259664361581e-01 4.2765863089160144e-01
      9.3405938900943897e-02 2.7875702549082210e-01
      -7.3443701767633940e-01 1.9912566540787408e-01
      3.5362115784154696e-01 -2.0557853457390823e-01
      -2.3816594239748795e-01 2.8047409217606523e-01
      -3.6312053850033221e-01 -5.3274184778109335e-01
      -9.6747207198673402e-01 -8.5681202790851718e-01
      -1.9483202549518938e-01 -3.4058012314945024e-01
      2.1475983952387398e-01 6.3021639310417776e-01
      2.6999229730797858e-01 -4.8369269138527160e-01
      -2.9566469682816277e-01 -6.3936558347814521e-01
      1.6108125754750563e-01 2.6784360208847585e-01
      -2.9324965923901020e-01 -6.3015158538312188e-01
      -1.0503244015536428e+00 1.4715175297401298e-01
      1.0791568440417786e-01 1.0734942089689317e-01
      -9.2839923939377955e-01 -1.0569801672305721e+00
      -1.1889841963911647e+00 2.9164352845637653e-01
      1.4591731660469512e-01 -7.5693676009148603e-01
      -6.0147507146301060e-01 -6.8278296341846278e-01
      5.9394262041983814e-01 6.8088728940676879e-01
      7.0957912384450783e-01 -5.8283387400230657e-01
      -6.0260380068331687e-01 -6.0598811537539432e-01
      -1.0456644709745500e+00 1.0410054315174706e-01
      1.0988684663861879e-01 -2.1494990954921311e-01
      3.9374710710691252e-01 3.8281058412117541e-01
      6.4986148634382301e-01 1.3843288186601591e-02
      -6.8236730606897411e-01 -5.8280801878234978e-01
      -9.5717173875631012e-01 2.8388771705578995e-02
      -8.5787748011971740e-02 -4.7387467950773587e-01
      -3.3842599384333938e-01 1.2912779746835441e+00
      -8.6659810106390056e-01 1.6035793737228110e-01
      2.7595266824907344e-01 3.6913706135589408e-01
      -6.4441911747751268e-01 5.1744600388772122e-01
      -1.6541758680759525e-01 -3.9603497809930543e-01
      7.8213159452197020e-02 -4.5906911441438419e-01
      1.2955527860071780e+00 7.2653412547536445e-01
      -8.0544981150088635e-01 8.4136998823120784e-02
      3.1133318473477484e-01 -7.7510319124634819e-01
      3.6931605285059532e-01 5.9128987524195653e-02
      1.1116993930001138e+00 -7.9884479069461367e-01
      -1.0103894274473464e-01 1.3356560664722170e-01
      5.9724579476545803e-01 5.9303197902135352e-01
      9.2880756349983815e-02 -8.4730508423000928e-01
      -1.0909369016726462e+00 7.7682566660000363e-01
      -3.3698855975629903e-02 -5.3201683305962755e-01
      -4.8402287013816425e-01 -6.3479462697744071e-01
      6.8088406815986258e-01 3.5623847261007524e-01
      3.4773378214303985e-01 -3.0829341839949384e-02
      4.3798759310724888e-01 7.3551816045997254e-01
      -3.8204522713207240e-01 2.4457578410872677e-01
      2.1618657757131546e-01 2.0535252755348524e-01
      -4.1395789677356465e-01 -5.4645180866992848e-01
      5.5595612739986944e-01 5.5197344445275875e-01
      8.5362519374136880e-01 8.3580138111318791e-01
      3.4548196332091685e-01 -2.5993813418100092e-01
      3.8034126912467375e-01 -1.3075623268763785e+00
      9.3645263642009768e-01 1.0582557990092154e+00
      -2.3315785627091939e-01 1.0704435921804915e-01
      -8.0356710256080224e-02 1.4703668772787348e-01
      5.4012670779101235e-01 7.9997365514149543e-01
      2.8292312748450466e-01 -5.2488752869132116e-01
      1.1059379944307521e-01 5.1797292996635613e-01
      1.1387611921156560e-01 4.8059321719190423e-01
      1.0870327243926277e-01 8.3664243694705209e-01
      1.9079136150672976e-01 -3.1250393226754053e-01
      -7.8620819392965513e-01 -3.0571667570962224e-01
      3.3827673504581643e-02 -9.6191476554602626e-02
      5.0615613623866618e-01 9.2025029316822060e-01
      4.8436485185552536e-01 -1.8101569062330555e-01
      1.2769754138663661e-01 -4.0400572285854258e-01
      4.7443368451220491e-02 -8.0080826479005704e-02
      2.8471297105596211e-01 8.3508751364838230e-01
      7.1343599864535157e-01 2.2266885516275460e-02
      -2.1839164187083035e-01 -6.5239015635870923e-01
      -7.7577965214576705e-01 -7.3968555462274743e-01
      3.5724011640686043e-01 -6.0312515776846587e-01
      7.1109677836788032e-01 -2.5035265071287061e-01
      -7.3045268751856263e-01 2.5542123408950418e-01
      1.4742054577282659e-01 5.3785316033806196e-01
      -1.2961840847901077e-01 7.5671168196590965e-01
      -1.9263706077879805e-03 -7.8317619608057965e-01
      8.5250928594357997e-02 8.4971973149495150e-01
      8.1384879171146965e-02 1.1479373442176624e-01
      -3.6629570532144481e-02 2.1635507481606135e-02
      1.0250510600049523e-01 7.3644616213192640e-02
      9.4515264585529601e-01 2.3602231633118184e-01
      -4.3647031447881063e-01 1.7913963107957023e-01
      3.0086502782567121e-01 -1.2676382671216513e+00
      -4.0522930273094787e-01 -7.6862379624771970e-01
      3.5803246644013836e-01 9.8741050401911223e-03
      -9.1212326607512301e-02 -3.8407248719030329e-01
      2.1614168738823486e-01 4.9284398366192778e-02
      -3.8127976013308845e-01 4.1440631215812129e-01
      -1.4983198214189192e-01 1.9156942508254479e-01
      -4.5194676585795535e-01 -3.0688321537291441e-01
      3.4136305457544247e-01 -3.8283642650574962e-01
      5.8866184118998155e-01 4.8262691447101425e-01
      3.2143738889322163e-02 2.0265562645596788e-01
      -1.4200084586333823e-03 -5.1123806025231443e-02
      -1.6597864289149293e+00 -2.2911976098929955e-02
      -8.3179552552898911e-02 2.0991682805860695e-01
      -8.0737535429917340e-01 -1.9121137722010051e-01
      -4.9136232758817883e-01 -7.3653425277408952e-02
      -1.3287848687722408e-02 -2.6984141432296593e-01
      -3.9406310731384697e-01 3.9385180117399626e-01
      -4.8643360860525531e-01 -1.8741891929437787e-02
      -7.5080819984521931e-03 2.1003006745581500e-02
      5.8998403499013818e-01 1.8211566251358594e-01
      7.5055140121901814e-02 -3.8504123914165439e-01
      3.9926702772769546e-01 -6.7346979195052203e-01
      -8.3492201313797559e-02 -1.8541165341182134e-01
      7.8787352058930185e-02 -4.0278933013277113e-01
      -2.7063911589378498e-01 -3.5520860902226320e-01
      5.0476770566857933e-02 -1.0180408982781322e+00
      6.7490104880452684e-01 -6.0662395262009693e-02
      3.9227909115200643e-01 -3.4314968059697593e-01
      -3.7087024843169719e-01 -6.7942587607592164e-01
      8.8145266376523229e-03 5.9356346294365077e-03
      -7.9796326368233428e-01 2.7694534390941083e-01
      5.6500938483330021e-01 -6.8317873963109821e-01
      3.3784498681389313e-01 -2.5493014017139576e-01
      1.0593878226372327e-01 7.4007301887954358e-01
      -3.3375852567513090e-02 -3.9703807574963412e-01
      -6.2244308808690008e-01 -1.1972235199716095e+00
      -4.6807730878245257e-01 -2.6120996228050758e-01
      6.4732355058167690e-01 2.3544258873913829e-01
      7.9128045960107488e-02 2.0864776086459547e-01
      4.0134373063691497e-01 -3.5487000860092943e-01
      -5.6339787009452380e-01 7.2830184089334815e-01
      2.1512937153054498e-01 3.1916087477201283e-01
      2.8176925876717424e-01 1.0321639379931682e+00
      -4.1614244950308815e-01 2.1220696354971738e-01
      1.5962576999584392e+00 -2.9250299982665973e-01
      1.9136818283953072e+00 1.5871581407954796e-01
      1.1211751666187676e-01 -3.1201514729083772e-02
      -1.7031225752199225e-01 3.7740717483710673e-01
      5.3223939664765596e-01 2.3413689271758847e-01
      3.8430496590595997e-01 4.1124587801310653e-01
      2.7117719673464574e-01 1.2561260256544310e-01
      3.2556148478811020e-01 4.0087363259895875e-01
      4.1037986917317859e-01 5.1565736971801579e-01
      7.9135402827184220e-01 1.5463734964187819e+00
      -3.2524134290820794e-02 4.3285940221727898e-01
      -2.5536620037229618e-01 -6.1068274886461194e-01
      2.3742434580939176e-01 -9.9110541051624512e-01
      2.5994369987947824e-01 -8.6235640434451633e-01
      6.6719943840695701e-03 -9.6812931173794262e-02
      9.1855290727445904e-01 -2.7165895872292456e-01
      3.2873190755213566e-01 -6.0855668935466171e-02
      9.4268906829587315e-02 -2.1403593745469007e-01
      -9.8339950194085632e-02 -3.4624532935067377e-02
      -1.9586563627879683e-01 2.8921713342682248e-01
      1.6481188686276631e+00 -4.0953347160696907e-01
      2.1336663270672923e-01 2.3649415327576020e-01
      -7.1582867975612563e-01 -4.0039107381759254e-01
      -2.8263869596466301e-01 -3.9235087821895653e-01
      6.7383049450521559e-01 7.1851353157323694e-01
      -1.3222175270098355e-01 -3.8063527402614095e-02
      1.0283823231910101e+00 -4.4597193562282554e-02
      -5.6447929670831021e-01 -6.4498285136201173e-03
      6.9879851301277074e-01 2.7988045824437480e-01
      2.0519179171235793e-01 -4.7085701775101635e-01
      4.2322417139726520e-01 -9.1293953091685276e-01
      -6.3805631521881567e-02 4.9475701763915032e-02
      1.6556147836812685e-01 -2.3708625201996561e-01
      -2.8089475637507139e-01 -7.0960352013533914e-02
      3.4581078826882256e-01 -9.2307080135668101e-02
      2.2432756772561485e-01 -1.7734107429275306e-01
      -3.6413599330838087e-01 4.9329173371400203e-01
      7.6720280725296874e-01 5.0546889815465268e-01
      6.2465818480023538e-01 -6.5773848495858012e-01
      8.6180023660261551e-01 -5.3456031624425970e-01
      6.2257398886614446e-01 -8.4995704771785016e-02
      -2.2866159672354039e-01 8.6472322013520586e-01
      4.5075178581797171e-01 -5.6648219612242789e-01
      1.2515824537189507e-01 -1.2649462633837497e-01
      9.1063492976705107e-01 1.1175391933728017e-01
      1.0087098597299870e-02 1.4591985529656223e-01
      -1.1976718503889150e+00 3.7611967348741886e-02
      -1.6638274191576079e+00 -3.9794675001898205e-01
      4.5108143489983415e-01 8.6588299554869019e-01
      2.6129213858749023e-01 4.9246374609277216e-01
      2.7178836430597492e-01 6.0978453710210734e-01
      5.6688728064381955e-01 -3.7539882345208636e-01
      -1.4936551672700102e-01 5.7381544641141580e-01
      -7.5295134665307939e-01 1.3430635396555582e-01
      -5.1742978409785245e-01 -6.6796520824284139e-02
      -7.8396731793280405e-01 -3.9617404286761215e-01
      -1.0284745132888540e+00 1.3675281992104191e+00
      1.3655933108003898e-01 -3.6907685383433447e-01
      6.8630666878395818e-01 -2.8624095792180371e-01
      7.2101486383848479e-01 6.3455472029523108e-01
      7.7817281180012132e-01 -2.9025211938514275e-02
      -1.5761967598773199e-01 -1.5870754576961593e-01
      -3.7339966441397443e-01 -4.3859322188361460e-01
      3.2032370808823912e-01 1.8295718024765489e-01
      -5.9437725614424385e-03 -2.4356112979187006e-01
      1.2361685375325049e-01 1.0770390171311017e+00
      3.2678015066804428e-01 1.4727663338593297e-01
      8.5858528930101236e-02 9.2559685749297893e-01
      8.5247646184778636e-01 2.1674440764196147e-02
      4.8340459252160900e-01 -1.8428963271796532e+00
      1.1487343105056897e+00 -6.7453659633444796e-01
      1.1333214610609927e+00 9.0700033724319973e-01
      6.7223268848446691e-02 1.4562052582112328e-01
      -5.6748723374895327e-01 -5.6641188066452941e-01
      6.2586499540399146e-02 -9.0387813785951654e-01
      7.2647741904691476e-01 -4.2968624216997725e-01
      5.2254797509874573e-01 5.9173309537950941e-02
      7.9141572955650819e-01 -5.2540997452802385e-01
      8.1944339778996367e-01 -3.5092778132001429e-01
      1.8355509396568553e-01 -8.2990484927833630e-01
      7.8344607549489087e-01 -1.5776648077560154e-01
      -2.5789397748394527e-01 4.0369051420625818e-01
      -1.0414505576314483e+00 -7.2792821748171088e-01
      1.5708721390910287e+00 -1.4643064453581893e+00
      -2.1219452029977096e-01 1.1381614650393583e+00
      2.8068654437007112e-01 -4.1712586109527361e-01
      -6.7420706027461787e-03 3.3350331023668922e-01
      -5.9728568921438885e-01 -4.0585279207411834e-01
      -4.7656670710648824e-01 2.6403333640605658e-01
      6.8323468302393398e-01 -4.2065664601801356e-01
      -7.4290004641675922e-01 6.0248391809271151e-01
      -5.6930138336528824e-01 7.9029773494617783e-01
      -4.7370772331833239e-01 -2.7736483238986293e-01
      8.0225468536156619e-01 7.1304665042038107e-01
      2.5919552319794048e-01 -2.6855796118355402e-01
      1.0065743699165970e+00 1.0669192346750975e+00
      -1.9726575903405191e-01 -3.9108702788415889e-01
      -6.0735141582732888e-01 7.0348832656220467e-02
      -2.7266272797082086e-01 -3.9232049169114241e-01
      7.9998172096577580e-01 -1.5105927686602685e-01
      4.7919074190615862e-01 -2.8308554700315908e-01
      -1.3370546198118360e-01 -1.5538846451002308e-01
      -1.6870728659010625e-02 -8.1431342259548489e-01
      -5.8438402609064098e-02 -4.9081515295167188e-02
      4.6561262590904573e-01 -5.5076505326208960e-02
      7.9403839744719085e-01 -1.9526358796865176e-01
      -1.2907379866219714e-02 1.3138670733641925e-01
      -8.1482764626663304e-02 2.1786684639278148e-01
      8.0160035529772342e-02 -2.3748071352227323e-01
      -3.1997668471580115e-01 -3.7491140216698587e-01
      4.3537972983444623e-01 8.5163367926542013e-02
      -1.0524296413653036e+00 6.0008266446300262e-01
      1.4647303296473341e-01 -3.6799910113798739e-01
      3.5936927034638289e-01 -1.1205836762501659e-01
      -5.1489579351434134e-01 -2.1417555034691452e-01
      2.1052978025868238e-01 1.9506941194380963e-02
      5.9903397965360727e-01 4.3657609070782311e-01
      -2.8328750023395394e-01 -7.9594505049842379e-01
      4.3391652010389975e-01 2.4881393544213093e-01
      3.1643958793687077e-01 8.0610818401456918e-01
      2.4394472471379403e-01 6.4717907211354592e-02
      -7.0288132765450240e-01 -2.1448343311045978e-01
      3.6956601795507077e-01 4.3234428406693798e-01
      4.8479463059836703e-01 5.3037149481725832e-01
      -1.1488917473927411e-01 -3.8838013277534950e-01
      1.0459728965193674e-01 -4.5951059749784373e-01
      -2.0751584192089786e-01 1.4453937902359359e-01
      1.9771490136838635e-01 -1.7557778362333462e-01
      4.7734264023937892e-02 -3.0265272968226792e-01
      -6.2848373892266229e-01 -4.9819521891655527e-01
      -2.4213749378217207e-02 3.1717661118425966e-01
      -4.5047391188352987e-01 -5.3607422292074755e-02
      3.4389712699054481e-01 7.1842591132889422e-01
      -1.0020427936267604e+00 3.3129759001570758e-01
      2.0547040795617855e-01 -4.1507576081640957e-01
      -1.4882444822052955e-02 -3.6668233891059410e-01
      -1.4957735477133999e-01 -3.6954267168517896e-01
      -3.4205140533149025e-01 2.3005458399705751e-02
      8.8221885081528131e-02 -3.7004107383345486e-01
      7.1373415652722677e-02 3.3667368143015103e-02
      -5.9150838108993997e-01 6.0046513956553846e-02
      2.5360046718051704e-01 1.3196552118923391e-02
      -9.0954676010311111e-02 -1.9197674595403455e-01
      7.4824048859840253e-01 -5.0121589511738424e-02
      2.1670260043087666e-01 5.1317043481251762e-03
      1.8661207364088703e-01 -6.2992271284121870e-01
      -2.8044584464600308e-01 3.6671378480461170e-01
      -3.8033438729740054e-01 4.8679979599707590e-01
      4.2620638685837597e-01 -1.9606513619135239e-02
      5.2104206078003545e-01 1.1741892355564874e-01
      1.4551993485455847e-01 2.6523994626688407e-01
      5.2568638786583843e-01 -1.1993249333954546e-01
      3.2291595512124523e-02 -2.6302360174699280e-01
      4.8940194140043825e-01 6.3385723999874655e-01
      7.2718832784355858e-01 3.1345391303476777e-01
      -2.2352154541758265e-01 -3.4031038646922945e-01
      2.7479428683106011e-01 3.5101063694083175e-02
      5.9143123115828400e-01 -5.1874994663680762e-01
      7.0371277113176672e-02 2.7808026864226615e-01
      2.5782998828311682e-01 5.0220660923384774e-01
      -7.8054313900065064e-01 -3.2841103271912347e-01
      5.9530510940586046e-01 -5.1931429068661850e-01
      8.6278964533128133e-01 -1.2164356850111557e+00
      3.5107877375499930e-01 -6.0908362749575423e-02
      7.8774264443456157e-03 9.7811806127046687e-03
      -5.0773057293590784e-01 -4.4558443176113066e-01
      7.7446381924311614e-01 3.8119377026939255e-01
      3.7451945231407163e-01 -2.2062927092443556e+00
      -9.5884917089701249e-01 2.6355691059125097e-01
      4.8234361326821346e-01 1.0597981940253855e-01
      2.4999596122601037e-01 -1.5415698751808982e-01
      -2.9030134848434225e-01 1.5562681984700276e-02
      -9.7448626235918101e-01 7.8252456726174446e-01
      1.2310302083730967e-01 6.2204851431431873e-01
      8.1426517950774957e-01 1.8776798466915406e-01
      8.4885846749085903e-01 6.6242405131469673e-01
      -3.3604621989097860e-01 4.9224569457446343e-01
      1.7887518513258116e-01 9.6395096703200600e-01
      -4.1038965437970931e-01 7.8238105167353203e-02
      -3.5272974229923820e-01 1.1874990127973543e-02
      1.0537892464449504e-01 -7.1611595529654426e-01
      1.0997203136050042e+00 -6.3812492414311472e-02
      8.6020652637811246e-01 4.8931204582739984e-01
      2.8043976002160065e-01 2.3364585014008649e-01
      -5.1633903047861185e-01 2.3572605346237080e-01
      -4.7319248674231112e-01 -2.0710582599923588e-01
      -8.2604104974534875e-01 -3.0040091972892197e-01
      -8.2886705625962220e-01 -7.9202380723501276e-02
      1.4918189555316078e-01 3.5476108457082850e-01
      9.8533791168132678e-01 6.3585457926590738e-01
      -9.3343661419987500e-01 2.2558865750794146e-01
      -9.6785914932485051e-01 3.1582772560753880e-01
      1.6101097097172275e-02 6.6369951493733537e-01
      -4.7054180272214176e-02 -5.2770923123697994e-02
      -4.9377312400043305e-01 4.0995760338838955e-01
      -3.4121894097011563e-01 -2.4512452867065990e-01
      3.0737401470424613e-01 -7.3192690517724299e-02
      7.2992200574274224e-01 -8.5607822203429690e-02
      7.5101915047209256e-01 1.1699858269817212e+00
      1.3126238907973792e-02 -6.1992622457249336e-01
      6.1513217832446698e-01 -1.1908199022029364e+00
      -5.6879719993649269e-01 -1.9314686388130448e-01
      7.7053395180835560e-01 7.1777293206616466e-01
      -8.2714536471422032e-02 -1.1035094901049953e+00
      -9.2507772674780753e-01 1.1927954658227464e+00
      9.3133222489021728e-01 4.9129500584329233e-01
      -3.4972688442592670e-01 8.2729155699236584e-02
      1.0701752865312833e-01 -3.8638406736126962e-01
      -6.5223672129689247e-01 -3.1359188610889149e-01
      -9.8084904059485237e-02 -4.1391298591246750e-01
      9.2584576959821607e-01 -1.0127918267734899e+00
      -2.9903326452176232e-01 7.5117803874489242e-02
      5.6698232568154261e-01 -2.0654428496972635e-01
      5.2285499580379302e-01 -2.7248531206806748e-01
      -4.5316688997448207e-01 5.5685000493273806e-01
      1.5340052401447080e+00 4.3744397743593899e-01
      1.7416453362731124e-01 -8.0830040675326942e-01
      7.3471237489855942e-02 -2.4389953128794326e-01
      -6.6363530597841069e-01 -1.0057312795929026e-02
      -4.8265562054833644e-01 7.1941522624149246e-01
      -1.4641809870154066e-01 5.2700938573146956e-02
      -4.7849459103912073e-01 -6.2289790145695934e-01
      1.4017762787996766e+00 4.3317136547552905e-02
      2.5428141199670129e-01 -3.8353455161830780e-01
      -4.9066035816418346e-01 5.4575555118357300e-01
      -1.0862147400710774e-01 2.3903377517867933e-01
      -3.2475652061766214e-01 -1.6887319203459167e-01
      -7.6178425305873942e-01 -3.7684507387698180e-01
      -9.4495332149504596e-01 7.5163215607420919e-01
      1.4304281193752738e-01 -5.5172951296315764e-01
      -4.5657465777033474e-02 1.7539444318023789e-01
      7.0652377460945548e-01 2.9774197440181971e-01
      4.4042194726597261e-01 5.3622291504029507e-01
      7.8569117818099832e-01 3.1044324833315601e-01
      4.9510403362319594e-01 -1.6507051013180676e-01
      1.6174726674700524e-01 -6.3064620317642683e-01
      -6.5115038298626415e-01 3.6134961741578053e-01
      -3.6426959327916736e-01 -1.5030190709506164e-01
      -9.2263899681716355e-01 -8.9538911117442044e-01
      1.4555110207670915e-01 1.0297063019139243e+00
      -4.2983149889346683e-01 4.6931138129013794e-01
      -4.1796398834673086e-02 2.7317053696271731e-01
      -5.3858963049958775e-01 -2.0049690973948248e-01
      3.7729177235513356e-01 6.6232259651966086e-01
      -6.8971743319106382e-01 -9.5683355222170668e-02
      4.4195318833952135e-01 6.8415652949219186e-01
      5.8655462340421027e-01 -1.9055706053850816e-01
      -8.0314132621723044e-01 -5.2671789191424834e-01
      -9.2136014727793225e-01 -1.2005926075653792e+00
      -7.1233120049503107e-01 -1.1591474085574063e+00
      -6.8489714932799717e-01 -1.3004726969530181e-01
      -3.2108856051147472e-01 -5.8269835097848978e-02
      -1.0526976119301680e-01 -1.2705202083290185e-01
      8.1146534026979938e-02 3.3664881117836881e-01
      3.1585110276414596e-01 4.9120018322658993e-01
      -1.1084903105794837e+00 4.7687921810963113e-01
      7.4789310862304753e-02 -2.4321261993355911e-01
      -8.1469853566485739e-01 4.8965549082076071e-01
      5.8626777794672980e-01 -5.8788888682358797e-01
      -4.9128048667697988e-02 -1.4404662464291618e-01
      -1.0303811219635046e+00 -5.0887741290177557e-01
      -1.0510221389150953e-01 -6.1392139685033220e-01
      2.0935652535200977e-01 5.4134369026948526e-01
      -1.2032689036895025e-01 -8.1654333181608230e-01
      -2.2040837842154890e-01 -8.8030305176927093e-01
      9.5856932359329586e-02 -1.0629156971805629e+00
      -6.0351101869499191e-01 1.8053864759554161e-01
      -6.7905035059020702e-01 -3.1754817882277642e-01
      -2.0979258255488463e-03 8.3073129700359050e-01
      4.4998979679917095e-01 1.8650047647484147e-01
      1.8663723282221836e-01 7.2348468567363677e-01
      1.9407073015919768e-01 2.2906135165492114e-01
      7.6266381509176207e-01 1.1480309782695299e+00
      2.3465578770888468e-01 3.5530149136697026e-02
      -3.8977865588443517e-01 -2.4494625887715113e-01
      3.8738662606294239e-01 -5.8682399663646956e-01
      -1.6957462145925820e-01 -1.0044567429190780e+00
      -8.5543668457363797e-01 -7.3568006360358651e-01
      -2.8682653622240600e-01 -3.6060159757439109e-01
      1.1127400453874530e+00 -6.5307748789369946e-01
      8.2222441614997754e-01 -1.2565745198198239e-02
      9.3186119615263352e-01 3.2543996555589838e-01
      -6.3064786224645875e-01 4.0549797436726176e-01
      2.6219061974021080e-01 -3.6845020651855609e-01
      3.2018518731265266e-01 -1.3244914712907752e-01
      4.3191302997909359e-01 -9.8848378397330527e-03
      -2.7615163850488317e-01 -1.9019948484123841e-01
      5.9670468202254967e-01 1.1407549043637715e+00
      2.6189834826363673e-01 4.2218605574708323e-01
      2.7485413636562211e-01 -3.8780059525555716e-01
      5.9451420740202654e-01 -2.7023185778102293e-01
      3.2983149646303911e-01 5.3495187512599784e-01
      -2.5013495988702311e-01 -1.4316161407825043e-01
      -9.6791502656527251e-02 3.9837015570833473e-01
      9.6539061241148277e-02 -1.1865603103864625e-01
      -3.9570594092862470e-03 -9.8765306616940185e-01
      -4.1549162873890566e-01 -2.0435998919164999e-01
      -7.1523677165261301e-01 -6.8503064932988134e-01
      -1.6963105431911854e-01 -2.7269772839997813e-01
      1.7729371623418971e-01 -4.1791529602168642e-01
      -2.7575113199661311e-01 -1.0784103409519440e-01
      -1.7318340521929784e-01 -4.8819148446702720e-01
      9.2287842428525479e-01 3.5598810391397027e-02
      -8.5365640010081068e-02 2.3037195546878422e-01
      1.8485201683190672e-01 -1.9373022943652518e-01
      -4.0605540744606913e-02 4.7309741864078159e-01
      7.2617603922988705e-01 -3.1357780708995292e-01
      9.2284236831641819e-01 3.6323289645618623e-01
      5.4112602747058758e-01 -5.7308189397676079e-01
      -6.0947908862306277e-01 -2.1582830762637115e-01
      -7.0822786186567543e-01 9.3318743902135703e-01
      4.4361624924994209e-01 6.3905233088322144e-01
      -5.0864300974822217e-02 2.0336122545725560e-01
      -3.4320185137109838e-01 -2.4980535434948370e-01
      1.0615700948680279e-01 -4.5054766246980255e-01
      -1.5845292889648069e-01 -9.2427224692038379e-01
      -1.2598367044557111e+00 -7.1399691620110828e-01
      -3.7815313898401054e-01 8.2689515189572149e-01
      4.3999279027407084e-01 -3.6517284919209358e-02
      4.6530792202433097e-01 5.1468845715316536e-01
      5.9842474642632737e-01 1.6214224176764835e-01
      3.6356179080212847e-01 3.2200053051056204e-01
      -4.6091627914447500e-02 -7.4848891256568018e-01
      -5.0694253081916740e-01 5.7992519655369801e-01
      -2.1106636837307258e-01 -5.9193147328450435e-01
      3.3408352504996264e-01 1.0119421691384087e+00
      2.2696795599481623e-01 -3.2796400650206892e-01
      -5.8456007888397742e-02 4.2847476697206344e-01
      6.5037657271458549e-01 2.9271137066813085e-01
      -3.8672555741312004e-01 6.3807844536098979e-01
      1.6602095690512797e-02 -4.0146325547520856e-01
      4.1659284556377553e-02 1.9803408941909806e-01
      -2.9074710440182150e-01 1.0860354910144987e+00
      1.8871590811698885e-01 -2.0755575215381594e-01
      -5.8459256231572776e-01 3.5764529928357858e-01
      -8.6698613475949782e-01 1.0436574704145434e+00
      1.3302902867830665e-01 1.5193043004162690e-01
      2.0376104886062393e-01 1.3788854108756596e+00
      -6.5182100779500063e-01 -5.5989304920838409e-02
      -7.0136863309257735e-01 -6.3477531388600961e-02
      1.1847848584607301e-01 7.1769641655377325e-01
      -3.5463492732046165e-01 -3.8731342398148233e-01
      4.5265965396675018e-01 1.4529367907032539e-01
      -1.4927275512762578e-01 -3.0382757071498068e-01
      -4.0063173648126948e-01 3.8909530840534279e-02
      -3.8331243065574239e-01 2.0465594350425398e-01
      2.4542173614690388e-01 -3.3112934004230643e-01
      -3.3271524394012902e-01 -1.1347342359372963e+00
      -8.0895352955527378e-01 4.8937567660277642e-01
      8.0375395559754192e-01 1.7363855385795390e-01
      6.9436761646051592e-01 3.9372185493947814e-01
      7.0686605489436738e-01 -9.5206679862097709e-01
      7.2921503509299945e-01 -2.0321543927551430e-01
      -2.0031502137533005e-01 -4.2761558357188162e-01
      3.9163614845865169e-01 5.6585987210983868e-01
      -3.8350838640957208e-01 9.6538528149554256e-02
      6.3879705963965971e-01 -1.4295526192373840e-02
      -3.4429890716923467e-01 -5.1738048182143517e-02
      5.6071141152209425e-01 -2.1436124675920951e-01
      -7.1621056921516546e-01 -1.2207358668187801e-03
      -1.5501131563887094e-01 -5.3192108894706498e-02
      -8.2585918259261495e-02 4.5675717412191741e-01
      -1.9869516851686445e-01 3.3808717964686169e-01
      -4.0447553502749722e-01 -1.3368157941477518e-01
      4.0575688886752825e-01 1.8029577503416952e-01
      -3.3388455181607102e-01 4.7371593323574140e-01
      1.4538161596582730e-01 -6.8875916248587810e-01
      -2.0044105505266460e-01 3.3896929400116138e-01
      2.7386035283961824e-01 3.0227318442889256e-02
      -1.9132111321435519e+00 -5.4768180749831175e-01
      4.0824896018246393e-01 -6.6929200006123668e-01
      -1.8205152360946925e-01 1.1261958068640219e-02
      9.9150935596756515e-02 3.7788715186734900e-01
      -4.8073190395560239e-01 -1.1165696978781832e+00
      6.8683333382112621e-01 -1.5462346268161434e-01
      -3.7149354936257339e-01 4.4296205777567266e-01
      4.7018361921035895e-01 -1.2597082466957685e+00
      -1.6662621548379702e-01 -1.9929262665309305e-01
      -2.7976244043231369e-01 1.0796623025995860e+00
      -1.7422869311369635e+00 1.0786672082636616e-01
      2.3455963868747046e-01 5.9414488604798776e-01
      -4.6475211831174723e-01 1.5971360100606696e-01
      6.8509832288515138e-01 5.9289928602109554e-01
      4.2835051171192218e-01 -9.9426670793283489e-01
      -2.8260140391279137e-01 -5.7230516378043839e-01
      -4.9277742633914612e-01 -4.3775918105292827e-01
      6.2227114525367444e-01 2.4285663950490977e-02
      7.9277070588838949e-01 -1.0937932264869013e-02
      5.6387154859278599e-01 -2.1248391832114594e-01
      -7.8191296343573613e-01 6.0236970786297794e-01
      -1.1172883378714682e+00 3.1423622523675282e-01
      -1.0368318841931826e-01 -1.9942462394517227e-01
      2.4771032242420471e-01 1.9590918189584339e+00
      1.0127044246727253e+00 -1.4246898598624194e-01
      8.4452547815183854e-01 3.4879731278911830e-01
      1.0179381403677874e+00 5.6783762423890805e-01
      5.2649300492039050e-03 2.3855229439568661e-02
      -5.5692886448341128e-01 -1.2626370436241954e+00
      -2.6997008608180140e-01 3.2528496595517725e-01
      -7.2458801520399463e-02 4.2965031339643156e-01
      9.3176861081351159e-01 6.6915851419132810e-01
      1.3078602735293552e+00 6.7473414522755415e-01
      -8.1506404415570582e-02 1.5676436706584951e-01
      -1.6906488507832829e-01 -5.7744194008951710e-01
      2.2313714406444879e-01 1.0546374779064357e-01
      6.0758921317177605e-01 -2.1914589625513986e-01
      1.8798025928544465e-01 2.2745586716699362e-01
      7.7834025872055645e-01 8.2923622562511612e-01
      -7.8378211129224371e-02 2.7236338968731888e-01
      2.6753276797535447e-01 -1.0891877049565886e+00
      -3.9829243204855086e-01 2.9050918173934148e-01
      -4.4188880377050516e-01 5.2567241483636984e-01
      2.3108473844362081e-02 3.2691599883218392e-01
      -6.9629920084984342e-01 -3.1087030651035280e-01
      -1.1311822857834071e+00 6.3132363035717232e-02
      2.1163212762845919e-02 1.0024560214845682e-01
      1.4552647552603268e-01 -5.3647963155117495e-01
      2.2212561946531323e-01 -9.8885075519860277e-01
      -8.8345348351117103e-01 6.1748590101331213e-01
      -1.0916410792526063e+00 -2.3275985154228035e-01
      5.9266010585286105e-02 3.4583582364167414e-01
      2.7130181242210203e-02 2.6348184669448255e-01
      -5.6717213087714446e-01 -5.5411928636738950e-01
      -2.7261270277608679e-01 2.4530121996689086e-01
      1.6294760095471675e-01 -9.9594083113176621e-03
      -1.0426195703888874e+00 -3.6109195714060116e-01
      -2.1303136885702217e-01 3.9691554450966443e-01
      -1.3713227517999257e-01 7.1435836356586635e-01
      -2.8614763675469460e-02 -6.9469967821337653e-01
      -4.2145641366094985e-02 4.4370549785124086e-01
      -8.6674074631667353e-01 4.7269602798343002e-01
      -3.3795826975383270e-01 2.9850457276464359e-02
      2.3589839514194730e-01 -9.9653624646591754e-01
      1.4052796084202743e+00 3.3588865043859578e-01
      4.9837936656924639e-02 -4.7144310149993929e-02
      4.2660534063663352e-01 -6.7904208030072633e-01
      -3.4571390704287240e-02 -7.3149661528983445e-01
      -1.4151370976063424e-01 -8.3754176784273571e-01
      -4.7196588193728586e-02 -4.4497917821091748e-01
      5.3812774317093615e-01 1.3748339214511884e-01
      -8.8589547362269883e-01 6.8915743698285112e-02
      5.1182678797431247e-01 -4.5603129400145215e-01
      -6.1767619621135202e-02 -4.1229565946536162e-01
      3.2028373205006322e-01 1.1896959111717273e+00
      5.9090057135062901e-01 1.3414183339191091e-01
      4.4362942132962868e-01 3.2450535153070353e-01
      1.0980023903181468e+00 -2.2916326662284023e-01
      3.4753724988757978e-01 -1.8853414526059663e-02
      6.7474515708641311e-02 -2.6624707721347224e-01
      -9.5103502983899579e-01 2.6049843184917176e-01
      -5.2470573799205678e-01 3.0177813149697162e-02
      2.1147646021071786e-01 2.3550431294982069e-01
      3.4759412410266693e-01 -1.7441508114324582e+00
      -3.5911828374491472e-01 -2.3551079353798038e-01
      3.2171576740721342e-01 -1.0259327185934470e+00
      -2.0443973656108350e-01 5.3673388909646336e-01
      1.9384740906579950e-01 1.4018825204703336e-01
      -1.1842393374012573e-01 6.1797214794306228e-02
      -2.7071897838619019e-01 3.6048578633815154e-01
      -9.1754202692645281e-01 -4.3311341613969973e-01
      6.8118079606780979e-01 1.8397528684832823e-01
      7.8268904031393960e-01 1.0467261816133886e+00
      -1.7742891450981507e-01 -4.2098512598343719e-02
      3.1040133264494119e-01 -1.2329030265869103e+00
      5.1505667653077003e-01 8.2578897025744602e-01
      1.7231343903836693e-01 3.5366214558939135e-01
      1.9844507230164277e-01 1.4067740928284148e-01
      5.2447166345932661e-01 -1.4939213257543679e-01
      4.0320698700273057e-02 -9.7517903647136817e-01
      -6.2988214061948794e-02 5.5748539120021146e-01
      3.8205652322707051e-01 3.0838656969516198e-01
      -1.2159419046604295e-02 5.1915304273964846e-01
      -1.1525170559747798e-01 -1.3825716344282063e-01
      -1.0472763707836392e-01 6.5851468609348540e-01
      -2.3272829549927759e-01 -4.1385682366367710e-01
      -1.6002979132405986e-02 9.9088081848505227e-01
      4.7125467266275012e-01 -8.2685981037111356e-01
      1.7134541175237931e-02 -5.3470620623823728e-01
      2.2344782593732368e-01 -4.4948228067985330e-01
      -1.5696871966312628e-01 1.0492447082515350e+00
      1.3278804283646625e-01 -1.9229930931898384e-01
      -1.4321846465911112e-01 1.3495389317310671e-01
      -1.0363353180070072e+00 -1.0505584052973427e+00
      1.1723454754401726e-01 7.6074168204001813e-02
      -8.7829906930865329e-02 -1.2260583178016878e-01
      -1.0943583927294567e+00 1.7173318152578834e-01
      -2.9837921603548462e-01 4.6244879706145914e-01
      -1.7177134318245479e-01 1.0209763117595991e+00
      -2.0141636395233117e-01 -4.7893424630232795e-01
      -6.9141561250524786e-01 5.3786698832578350e-01
      -7.5058811459644892e-01 -3.7872707685564322e-01
      1.7009304725426722e-01 -1.3087301008897780e+00
      -3.4641781122898557e-01 -1.9016488320983227e-01
      9.9953363874776613e-01 5.0991483501659129e-01
      -7.5937326856063714e-01 -1.3437765023129766e-01
      -2.0384748163816552e-01 -1.2956263249971127e+00
      -6.3852193412150693e-01 -1.1025245357871895e-01
      -2.6454199745591178e-01 1.1015555286661836e-01
      -4.1026771628618397e-02 -4.5287101759327869e-01
      6.2652695193396394e-03 2.9377118600089963e-01
      -1.1964399572079261e+00 3.3364469088518106e-01
      -1.9271110686252266e-01 -4.1877205753394331e-01
      -9.0303011363647134e-01 -4.1423829326625625e-02
      -1.2416410567496396e-02 5.9951746922201976e-01
      1.3007066717885154e+00 4.4104539694238176e-01
      1.0601642964688436e-01 -6.5099824237779130e-02
      1.6071705455193894e-01 -4.9258045829664876e-01
      -1.0985588549571421e+00 8.9173439659385978e-01
      -9.5507929358591342e-02 -2.8999646201869844e-01
      -6.9737257581810919e-01 5.1334609575718082e-01
      -4.2618119303280455e-01 -4.6653051584250815e-01
      -2.7514113586125325e-02 -1.4617361044334548e-01
      -4.6998597552198906e-01 5.1259236174188372e-01
      -9.9617081276315145e-01 -1.5967857547300027e-01
      -1.7109843328132693e-01 -3.7524568052133306e-01
      3.6905730223939631e-01 2.1511062731247504e-01
      -1.7498493038415433e-01 -3.3356112273667848e-01
      -1.3131203492258750e-01 -2.3967847237685444e-01
      -1.1746655092241524e-01 -1.8569696196591576e-02
      -2.4786227824732737e-01 2.2015298404319356e-01
      -1.1247514133067289e+00 -7.1498240701347915e-01
      4.7407711960400595e-01 -6.6336702516908741e-01
      6.4730996702742283e-01 -6.0648857091767028e-01
      7.3962843319429072e-01 4.3417042641335848e-02
      1.2357505978428861e-01 4.6137962160746437e-01
      5.9785770557988838e-01 -2.5924199580222912e-01
      -3.3894203740153911e-01 3.9833738256865575e-01
      -1.3110627672547630e-02 -3.7899247710166578e-01
      -7.0595140310006288e-01 1.7121884406709398e-01
      -3.2831699876583909e-01 -8.3434889802925544e-02
      -2.7448250888301884e-01 2.9499051411367050e-01
      1.4466799284824994e+00 -8.0624903578897733e-01
      -3.6735535798893698e-01 2.5878768438312544e-01
      6.0233902097108605e-01 -9.1867275484714572e-01
      -2.7949852908773193e-01 6.5806054779581080e-01
      4.7498908338002049e-01 -7.7459805998793185e-01
      -4.0255036012300566e-01 6.5006162335194839e-01
      -9.5932424882223732e-01 1.1206496312454048e+00
      -2.8906554766323966e-01 -1.3076654209684286e+00
      -1.4146519355963538e+00 5.0232066595839564e-01
      3.4281562677525190e-01 -8.9740785521312497e-02
      -5.0511811430010600e-01 4.9570315683523641e-01
      -1.7693578167485491e-01 -2.4459350644959793e-01
      -6.6858515642853433e-01 -8.7825553710235471e-01
      -3.7881213300194483e-01 -1.9436616016332970e-02
      1.0409401396608536e-01 -4.2607305849593807e-01
      -2.1672567298745685e-01 4.4219309493403902e-01
      1.4679987210794681e-02 -3.2116854060848787e-01
      3.6051593095407480e-01 1.2914340403882272e+00
      1.4046562375972713e+00 -8.5332860141404912e-02
      -5.7268154932688786e-01 -6.9947721039670174e-01
      -4.0145616876070017e-01 2.4739035760985309e-01
      -2.5234317845042473e-02 -8.3667189037274037e-01
      -1.2040636135118805e+00 3.3386996264636409e-01
      -5.6305813923781489e-01 -1.2697674885617599e-01
      -1.2441646556178567e+00 1.2141704217284432e+00
      -1.7068731460745373e-01 -8.4250577668588997e-02
      -5.3284482768554586e-01 -2.0203188841379988e-01
      -8.8704691294675175e-02 6.8011502046292627e-01
      4.0919679106031509e-01 5.1363803305148809e-02
      -7.8037666018717355e-01 1.5981584208098892e-02
      -7.9939676223368838e-01 -1.7014787970809683e-01
      5.0950361066753713e-01 -1.5252692097064419e-01
      4.9965370501202963e-02 -1.4727672303791324e+00
      -9.1969621657484335e-01 -1.5066236267479045e+00
      -8.7504245604864672e-01 8.1402838102160335e-01
      2.8475481628097438e-01 -3.5168636661634906e-01
      -3.4861036478052651e-02 -6.1329057303203405e-01
      3.3239249024344153e-01 1.3256981515003904e-01
      3.3091367522642984e-01 -1.8922524664664125e-01
      3.9168153712246340e-01 1.8796529250087038e-01
      1.9238599599154049e-01 1.0101963198390735e+00
      -6.4191797944610371e-02 -1.2338019782697860e+00
      -5.8859193374423824e-01 -1.1918097050607586e+00
      -6.1876299720035666e-01 3.9219146922273823e-01
      8.3227350363185737e-01 4.6553095159683089e-01
      -2.9563035819293604e-01 4.9728589861499972e-01
      6.1323463074588656e-02 3.1720704956099466e-01
      7.9914228260073505e-01 2.3796050243378075e-01
      -3.9656502624384020e-02 -4.8736969596440964e-02
      -6.0691967344826736e-01 -6.7999744352645131e-01
      7.2528256942567442e-03 -1.4420343627816878e-01
      -7.5066012277891081e-01 -8.0268487198927008e-01
      1.9283584398883356e-02 1.0322623498092369e+00
      -8.3182548685006186e-01 3.9980598153095359e-01
      4.7788472156175127e-01 -5.2933417981039288e-01
      7.7269830400825723e-01 2.0731821030980199e-02
      -1.1518639816615003e-01 1.5227293042639849e-02
      -2.7470213112866126e-01 -6.4657717891836530e-01
      -7.6119092932512211e-01 -1.7100180822388567e+00
      2.1403051852718699e-01 -1.4844368017724874e+00
      7.6551104759078581e-01 -6.9090124414551446e-01
      7.2217316711525670e-01 1.4314511881184247e-01
      -9.9885928520589606e-01 1.5291809661677943e-02
      3.1608175694008554e-02 2.6534890736748556e-01
      -3.5016188426796330e-01 9.2265203653359473e-01
      5.0035147135693026e-01 1.5362829606327166e-01
      -3.0366930815656838e-02 9.4758211652756996e-02
      4.7586541045005593e-01 7.1332269854408126e-01
      -1.1243155695407210e+00 -5.8345648215156087e-01
      -2.2824510832634523e-01 8.6571148873949025e-02
      -5.5747486973213001e-01 8.3381103267843881e-01
      -1.7346292970776581e-01 -9.5815887600082172e-01
      1.9875068896503226e-01 -3.0623401054708305e-01
      3.9003771686148464e-01 6.6035648858907864e-02
      2.3094818569787744e-02 -1.1378914121990744e+00
      -9.7180428436572919e-01 -1.5029744429878469e-01
      -9.2544481455569383e-01 -3.6154799133844290e-01
      -3.7820841082056128e-01 -5.9582648381964787e-01
      8.2052819148359643e-02 -7.2885869279855639e-03
      -1.2152656739897078e-01 -1.1710460457483580e+00
      2.1992461500322763e-01 -9.3523925340607175e-02
      -6.6732461296231296e-02 9.0878195171051113e-01
      8.0573126609819690e-01 -7.1877768507205775e-01
      5.1534541325191840e-03 -9.8430543449530938e-01
      -9.3740928371667875e-01 9.5638492016676535e-01
      2.7259856313165520e-01 -4.3653627800734746e-01
      2.8538308480720370e-01 1.4236563352626921e+00
      -1.1419174682902915e+00 7.0370871493724108e-01
      9.3119500677429146e-01 -3.2060634095841048e-02
      -1.5651567121888910e-01 7.3499937293019213e-01
      -1.9399321363530089e-01 3.2245584987921977e-01
      9.4423959016638215e-01 1.1749053777811030e-01
      3.4845680970183174e-01 1.0639354628409821e+00
      1.6435908226953602e-01 2.6056925543882781e-01
      -1.5078463150109844e-01 3.7182286599007913e-01
      8.0921592511546103e-01 -1.0098590602915190e+00
      3.5707359936471844e-01 6.7679365204672959e-01
      2.3427448388131999e-01 5.5282128032467615e-01
      -3.9559334013774428e-01 1.0645166742714829e+00
      3.6524159222830954e-01 2.3199861750164388e-02
      -8.3250875979433259e-01 -1.1306931833696257e-01
      -2.9642864861142143e-01 -7.1278995204433337e-01
      3.8844333499840350e-01 2.7490863543862659e-01
      -4.9393998468721761e-01 2.0637460344396416e-01
      -9.3112483021324910e-01 8.4825320923390213e-01
      1.9867297149843685e-01 -8.7781025706813764e-01
      -4.4573112275645782e-01 -5.6877049687288150e-01
      -4.9018566763216009e-01 -4.0052645751756483e-01
      4.0691504359017527e-01 8.0268490641801771e-01
      -1.1596955115506389e+00 -7.7433454568016813e-01
      9.5624795860822787e-01 -9.0016029502135031e-01
      1.3731357933723571e+00 -2.0652845565723776e-01
      -4.6119855942588928e-01 2.4749307321542011e-01
      -8.5894356738517197e-02 1.5679487495647310e-01
      -3.8487123700438397e-01 -2.2522549894654631e-01
      -4.8124743573408768e-01 4.1029810225499774e-01
      4.2694723345437710e-02 -2.1862106215410537e+00
      -1.4906682248154038e-01 1.3736760385115984e-01
      -2.5040003982339880e+00 6.0816302705851133e-01
      8.5050007675910051e-03 -5.6514149126739588e-01
      -2.0156801453963333e+00 -5.1444707480925356e-01
      2.8483224435633281e-01 -1.1938601765989338e-02
      1.3866914144360614e+00 -9.5696461175009895e-01
      -5.7309052754492928e-01 -4.1007935786757843e-01
      1.6299583479586466e-01 1.0014944011963747e+00
      -1.3477385404544115e-01 -3.0778707007129119e-01
      -4.3809476971625000e-01 1.4687695374120135e+00
      5.1844514046284207e-01 -4.6891915958760338e-01
      2.2895613823724495e-01 4.9190034143092520e-01
      -4.7013846624924660e-01 1.3548616334942615e-01
      -5.8195724779683800e-01 6.8512228113619689e-01
      8.4422755573726260e-01 1.4451722265484221e-01
      2.9341731314391062e-01 -8.3971256103950842e-01
      1.3125650340043613e-01 4.9510915275198679e-02
      3.2068361155212645e-02 4.0237522904949530e-01
      -9.1793062178588854e-03 -7.3078254429265055e-01
      -1.3067246201474725e+00 2.3537704770331602e-01
      5.2722934746675409e-01 2.8367654997800695e+00
      8.1699067140301473e-01 -6.9322797337684761e-02
      -1.3689447320021193e+00 -7.8085238306102123e-01
      -1.0833568185972615e+00 -9.8430477069165501e-01
      5.4412463354077378e-01 -5.0518063902577337e-01
      -8.4631690819640182e-01 4.2836530131707540e-01
      -3.7549932976804939e-01 -8.8374753810817874e-01
      -2.5191443716692369e-01 6.5114157092637781e-01
      -6.0057143651386691e-01 6.0339145982606457e-01
      -4.4083683412204022e-01 1.0977103936802659e+00
      -1.1581776621603861e+00 5.9865156715390866e-01
      -3.8291123424526546e-01 3.6519557866505992e-01
      -1.2512601899024867e+00 3.4261034561689918e-01
      -1.2059193114310283e+00 -2.6704994991886805e-01
      -5.9072009248599922e-01 6.3915072993237398e-01
      1.5617607183933788e-01 -8.5605510833297616e-01
      -4.5384748297592403e-01 1.1871265572720645e-01
      8.4577684319901564e-02 -7.0415697617343551e-02
      -1.5884573527209736e-01 2.6349792365614988e-01
      1.7985101613159549e-01 1.2958942838131891e+00
      9.1215219560826388e-01 3.4377253328231272e-01
      2.7494682553864269e-01 -6.0733231740291695e-02
      5.9454139276774765e-01 -1.4372674635903848e-01
      4.8654076568120258e-01 1.0176284483494773e+00
      -6.9594136362652526e-01 -1.0641829849152895e+00
      -1.2900053942275358e+00 -1.7537984253100898e+00
      -1.0787161314127005e+00 5.1373492115840624e-01
      -4.9968284088357318e-01 -1.9539754696654496e-01
      -8.3172568861464258e-01 -3.7893849328234058e-02
      -2.4788112992992023e-01 2.5332608359495390e-01
      9.0297094210437734e-01 -9.1894421331327225e-01
      -1.2444887610641369e+00 -4.5330225292369214e-01
      2.8769744976176459e-01 -9.7378924384469587e-02
      -4.9124229429129807e-01 -7.3761312571614923e-01
      2.4639215914655882e-01 -5.4213289410870680e-01
      -3.4256773668958496e-01 6.1299637466419865e-01
      4.3406725430426246e-01 2.8160748891732951e-01
      2.8404047595077281e-01 -6.4928403431859172e-01
      -1.4972573331779304e-01 3.7204065749382526e-01
      1.4901370954238715e+00 -2.0810248106176515e-01
      5.2769597693031030e-02 -2.2288379670574585e-01
      4.2134296966638687e-02 -1.7182463092020550e-01
      3.1438644453130682e-01 -7.2370378690278581e-01
      -3.9383248940890031e-01 -2.7012811229992342e-02
      1.4316929035873580e+00 -4.4569113195453092e-02
      -3.5795103742357504e-01 -6.3370713510596566e-01
      7.4248890294358694e-01 8.4270361545916361e-01
      4.4807958757298527e-01 5.9901054034649170e-01
      4.2427260226489888e-01 -6.7466185976571447e-01
      1.7766719683624171e-01 9.0213405145182934e-01
      5.1290968864489783e-01 4.4702704463842363e-01
      5.9174536128619670e-01 -7.3740324609638377e-02
      6.3087679073812866e-02 -1.4758540806820647e-01
      1.6371849519639109e-01 -7.3005843524743666e-02
      -9.9918416524113804e-02 -1.0833310251109562e+00
      9.8165005618435752e-01 -4.8229252348351620e-01
      1.6751205390206370e-01 -3.4787398632134886e-01
      3.6813854611023628e-01 -6.9391765745283107e-01
      -2.1940760920496707e-01 1.3724880210856914e-02
      2.4229021915573365e-01 1.3736268760274026e-01
      -8.5541334098202571e-01 -1.9951932564466376e-01
      -6.6723440829233982e-01 6.0087657603053501e-01
      8.2078547225544696e-01 3.0253580273345970e-01
      -1.5602880839312285e+00 7.7129612932450176e-01
      -1.9310557873400302e-01 2.0567146383761895e-01
      7.7221798118392293e-01 -1.2778168493527392e-01
      5.5143210902743112e-01 -8.2067319843495912e-01
      5.9280372181878860e-01 1.8803985031136256e-01
      6.1142876104701738e-01 1.7491855085004551e+00
      3.3858454933949417e-01 -4.6705811236221001e-01
      7.9653623096039364e-02 2.2592302977516382e-01
      -3.0345946919477645e-01 -3.3636549424824941e-01
      1.3205414513649110e+00 2.4307424222953680e-01
      -2.1375656057461273e-01 -2.9617744323183920e-01
      -3.4181237461058378e-01 -6.8816735584209088e-01
      -2.8617830721864529e-01 3.0980167346326137e-01
      3.0271140645819022e-01 9.0402026962146609e-01
      -1.6659270819723235e-01 4.1895110495951876e-01
      -8.5425647388902148e-01 -7.3545490851556727e-01
      -1.3161796972735766e+00 3.7274724497252548e-01
      -3.0924160032125215e-02 2.4317660046916396e-02
      4.0205856151312752e-01 -8.5332437287570051e-01
      4.7101866420011412e-01 -8.4067530029952753e-01
      -9.1288105717162615e-02 1.1709686780002361e-01
      -1.2764810230084860e+00 4.9569422295103177e-01
      3.4157901001938629e-01 1.1418831398006807e-01
      -8.6690738231298448e-01 -6.6908345941381420e-01
      4.2966454338719984e-01 -7.5665494267262379e-01
      3.2732103915533384e-01 -1.3824529945807359e-01
      2.8832127541888491e-01 -3.5205583451092953e-01
      -3.5859762046737292e-01 -6.3862634947506569e-01
      1.0737251745345993e+00 9.0200510453455826e-03
      7.9755325050530601e-01 -4.3509650251130669e-02
      5.2330844216074668e-01 2.9321142709367826e-01
      1.9870314857861940e-01 1.9000542274772017e-01
      4.1888551732215046e-01 2.2900541876130440e-01
      -6.1543018075720057e-01 -4.4397706641586077e-01
      2.4989083014489169e-01 -1.3703870780071875e-01
      -5.5762016217406118e-01 -3.4535294465692346e-01
      8.6764962465102924e-01 1.3598649720472378e+00
      9.6180641316241072e-02 1.0122121032764613e+00
      -3.9457664148325943e-03 -9.7259795813182126e-01
      1.4757960261114036e-01 -3.3115039780805955e-01
      2.1227668098700611e-01 6.9097288274571100e-01
      -3.3643548618767222e-01 -1.8655609486374788e-01
      -6.7141223221453050e-01 4.4148887069604509e-01
      2.7232605848885499e-01 -2.3529801892845911e-01
      -1.0846883936355584e-01 -6.1077956678429279e-01
      -5.5610592584021645e-01 6.7208173777807489e-01
      -2.4913409653255397e-01 -1.2519706680346929e+00
      -8.5727075951976799e-03 3.5275480113563908e-03
      -2.9601820756255792e-01 2.6050740988847926e-01
      6.4149730463050614e-01 -5.2525759879289879e-01
      -2.6787451122654665e-01 -1.6140106054762049e-01
      1.0685283158679124e-01 -5.7074296210729247e-01
      1.9781168107928771e-03 -1.8637937825860137e-01
      -1.7550027167903856e-01 -7.9603542716051523e-02
      3.2434284030456612e-01 6.3619367547873368e-02
      6.1234922897114130e-01 -3.3863820455959492e-01
      2.3434403552539096e-01 3.7569049651011782e-01
      -3.2120576259948041e-03 2.5026919453039531e-01
      -3.5853935932500597e-01 -1.4799232203386584e-01
      5.0717185643351781e-01 1.1978580548696530e-01
      4.8430388122367901e-01 4.5739458832195723e-01
      -7.8722769984827679e-01 1.6684458200272723e-01
      9.3755370412279729e-02 4.5705663620767489e-01
      -6.1812364217077465e-01 -7.2187355368241890e-01
      4.0234854771640188e-01 2.7836088380826951e-01
      -3.3063712854013400e-01 -1.4900312906356261e+00
      6.3801504399526265e-01 3.5483756532519634e-01
      8.0911681021418402e-01 8.9813497934173447e-01
      1.0472603773739242e+00 -5.8626086979025209e-02
      -8.1044672410977431e-02 -2.2157654850908481e-01
      -3.9347555619251412e-01 5.6242173560805409e-01
      1.4120458314628404e-03 -3.5886122183494945e-01
      -2.7689513704603014e-01 -2.6676261312895300e-02
      3.4593015819059124e-02 1.2220351753124545e+00
      3.9242073190713461e-01 6.3524163146312462e-01
      6.3968798269422611e-01 -1.0719632158290486e-01
      1.4961784829417737e-01 8.9694629173588980e-01
      4.5277750197842015e-01 -3.8123647270734530e-03
      -3.6950923219676851e-01 1.7039881610831781e-01
      -4.1713217584506812e-01 -1.0495600503357718e+00
      5.0201059767223610e-01 -1.5760641756521254e-01
      -1.0471893104154366e+00 6.7624863809960534e-01
      2.8684160634323180e-01 1.1021101220822627e-01
      8.0558452234533118e-02 4.2944201113900143e-01
      2.0555980705984761e-01 3.7928455276227901e-01
      -2.9562957966930642e-01 8.4250827688481036e-02
      1.3421175510062869e-01 1.2699636130908030e+00
      -6.5170908460520016e-01 -4.9305192625465960e-01
      1.1198600451581285e-01 -9.7562366113780152e-01
      -2.3050703725796093e-01 -2.1133777159000935e-01
      -3.2435989943145788e-01 6.0317407393588307e-01
      5.3729461681033663e-01 8.8196766683845643e-02
      -1.8857931937775130e-01 3.9579766065812949e-01
      6.7527668053339998e-02 2.3146375642060893e-01
      -3.7974774683472351e-01 -5.7892268002539060e-01
      -8.9695866887831510e-01 1.1943906592926160e-02
      4.8068651246172667e-01 -3.0829278433417995e-01
      5.4156133410340590e-01 7.2518613424368017e-01
      -3.9637895827201586e-01 5.8558726783268167e-01
      1.0304417641483674e+00 -2.6984358146798532e-01
      7.0277777178497436e-01 -1.6554505130956707e-01
      -2.2431517330356937e-01 5.2409067033866108e-02
      -5.6926950232188456e-01 1.6686501195463896e-01
      1.1499103181938148e+00 6.3045944830323097e-01
      8.6886362707587223e-03 -1.0777901234004512e+00
      -5.1156997639446522e-01 1.0486179011168866e+00
      3.4061644521539985e-01 5.8869762375387469e-01
      -1.4002726900477613e-01 5.8190449195861205e-01
      5.0100010275814100e-01 1.6025156558759118e-01
      1.0790563064371839e+00 -6.5040665852269008e-01
      -4.7589667591073664e-01 2.2648433238533905e-01
      4.3124257062912050e-02 -1.0383160608799533e+00
      2.9447081670204367e-01 8.9575049507391413e-01
      7.2082926072569914e-02 -1.9354893783235233e-01
      2.7389664651548273e-01 1.1751921153957818e+00
      -2.9360416272939188e-01 3.9283900730778254e-01
      -4.1749523227856278e-01 8.8814410128771171e-01
      2.2925048941641038e-01 -6.8018738883294561e-01
      -1.8051026186165615e-02 -8.2760169811490047e-01
      8.2584069174161767e-01 -1.0297270800153513e+00
      5.8599258202507998e-01 5.0273582883664281e-01
      -7.0829471319875878e-04 4.0782092791515151e-01
      -1.1670024190424125e-01 -5.1704948772448778e-01
      2.6310072733180101e-01 -1.4600173755888695e+00
      2.2631884016398027e-01 9.0385682763901770e-02
      -2.1767735983065958e-01 6.6454590264127755e-01
      6.5826434777594345e-01 -7.8517739178095569e-01
      8.0980330785347820e-01 3.0206225975318729e-01
      -4.3972223540402868e-03 1.9370312531527686e-01
      1.0872966003433773e+00 1.2352584366671906e+00
      -8.3048158551518231e-02 -5.9858609848298971e-01
      -5.1233934121359792e-01 -2.2810308446298563e-01
      -1.0486549847097002e+00 -6.9124493330132819e-02
      -3.0166544327069261e-01 3.6880938231843668e-01
      7.2396123547909597e-01 3.0107398862715207e-01
      -1.5185719724874186e-01 -2.4217672997821058e-03
      1.1010296083546598e+00 -4.8200751508250550e-01
      3.5635870311441598e-01 1.8203151891529956e-01
      3.3558807359964325e-02 1.0804660073350281e-01
      -2.8669662816362590e-01 -2.8257647230430810e-01
      3.7125910386903366e-01 -3.4107928911360064e-01
      -2.5187267675911817e-01 1.4967046387791280e-01
      2.8741395907821393e-01 4.8112957523743907e-02
      -8.2025832558297422e-03 1.1769941969650108e-01
      -4.3730002233109111e-01 6.8779277603574684e-01
      3.7462647549661471e-01 1.9642058584841224e-01
      -1.3910668724738973e+00 -3.9467741440346710e-01
      4.3131698228843401e-01 -6.0129576061213297e-01
      1.0255483400088867e+00 -1.8761248179169407e-01
      -7.1819144996235929e-01 -3.7660154730776724e-01
      1.2070886537602257e-01 1.0802280350160571e+00
      9.3647390630657912e-01 2.6180630759780249e-01
      9.4638608826457216e-01 9.7168008717677223e-02
      -4.3017331870904518e-01 5.7320780565586360e-01
      2.9858349416602403e-01 1.2295789861562880e+00
      4.2333186547698659e-01 -3.1607881207115057e-01
      1.2904291755907689e+00 -1.0879406119509840e+00
      -6.9679936690802835e-01 -5.6176604667626112e-02
      -8.0556119382881552e-01 2.9031598102914485e-01
      1.2260391066562546e+00 -3.1408505550701071e-01
      1.6067266982350468e+00 -9.0427860317419873e-01
      1.3911140710233666e-01 -4.8752679062297027e-01
      -2.1520926566086818e+00 -3.0410538958915329e-01
      -4.7457100231873911e-02 3.7943955430043735e-01
      1.0321409057729423e+00 -3.2747329375974565e-01
      -7.5983879896767703e-01 4.7242832473189822e-01
      -4.4387802719968211e-01 -1.9257479265128169e-01
      5.1859705695356761e-01 -2.9924565959379518e-01
      -6.3732788211832403e-01 9.0504800326615353e-01
      8.3154410995836558e-01 1.4756113003516297e-01
      1.2453792307237536e-01 5.5118799671684615e-01
      9.8671069494434840e-02 -5.5076456582561129e-01
      -3.1116079841853261e-01 1.5723309687895195e+00
      -5.6743430306973142e-01 -4.8427698771026167e-01
      -6.2498745556617252e-01 4.0405306910779976e-01
      2.3785958125591845e-02 -6.7115043402123575e-01
      -1.5273804109346372e+00 4.2417860331805096e-01
      5.2688696190552387e-02 -1.8153766677957355e-02
      -1.0261683367667771e+00 -1.0012246466508044e+00
      -2.3539137735156954e+00 -1.3969577107960809e+00
      -2.8458764816077065e-01 -6.1009222332333558e-02
      -9.7521419353048519e-02 -3.4979166896084546e-01
      8.7962703168400946e-01 -6.8484720750199368e-01
      1.6623395523575327e-01 -3.9112329544383523e-01
      1.2718859072843716e+00 -7.1719182562736586e-02
      2.0946977414883199e-02 -8.1827373239738554e-01
      -3.8847836600753632e-01 -1.9067366291119166e-02
      7.1287494338450538e-02 2.9389377072993772e-01
      -7.5397111740622233e-02 7.6820493307153985e-03
      1.8977235287799059e+00 4.2443588613893718e-01
      -1.5022585615214212e+00 -2.9070309433707364e-01
      -1.3389331634154353e+00 6.7605086013469995e-01
      -5.3193658075197037e-01 -8.1460973253361102e-01
      1.2303935084874701e-01 8.5581338087399883e-01
      -3.1000753656154301e-01 -4.3465040992202314e-01
      -1.6420243455756686e-01 -4.5342067063291680e-01
      2.7182836518531656e-01 -4.0043682540846831e-01
      4.1317202105786638e-01 4.6369559018163808e-01
      1.9933284833066778e-01 -2.7588707730646953e-02
      -3.8820351335872705e-01 -8.2804585861062718e-01
      -3.9566880403341104e-01 -5.3065435901230116e-03
      -1.1436824542908313e+00 2.2485262436288903e-01
      -9.0711972918146677e-01 4.6762661441890258e-01
      5.9791146097940928e-01 -7.3694983791612240e-02
      -8.8993118314608854e-01 9.3160271439858722e-02
      4.2514765905106049e-02 -1.1667162283041492e-01
      9.9552378919306669e-02 3.3523359121035773e-01
      -9.3597975817523271e-02 -8.1362857312301562e-01
      5.7099383142904185e-02 -7.2766369540719644e-01
      -6.8447824702582172e-01 -8.6698053124784333e-02
      1.3992001033418433e-01 6.7170861021961992e-01
      -5.0176148931055209e-01 -3.3625850120628098e-01
      3.8178440901345628e-01 2.0208374451588258e-02
      -3.2640569500647726e-01 7.7287001705492275e-01
      1.5538568749736301e-01 -1.4633045664379901e-01
      6.5248409043683453e-01 1.3607999167719534e-01
      -1.7775827594751897e-01 1.5247170745153662e+00
      -7.0135176852214476e-01 -1.0798506476133343e+00
      -3.7101450410954373e-01 -7.1949487512475585e-01
      -2.6404068290257293e-01 -4.7366601160384950e-02
      1.5111441910058195e-02 -1.2401720249543878e-01
      -2.5018268529893067e-01 -3.0495916052149175e-01
      6.2818662012873716e-01 5.4250217670916046e-01
      9.7120361573781278e-01 1.8367887411747835e-01
      3.8863539644801756e-02 -1.0450818094306782e+00
      -3.8140054201639750e-01 -3.6182305619820576e-01
      3.3439534584242903e-01 -1.2410832491518071e-01
      2.0948352799653520e-02 2.7651081402162153e-01
      5.2224734786252787e-02 5.6180026948670725e-01
      2.2491590057925382e-02 -6.3153490876570673e-01
      -8.3252075284319701e-02 1.3504534683612599e+00
      2.8065506830779979e-01 -1.8928500049505281e-01
      -1.5889256673570448e-01 -1.7919114578899946e+00
      2.9468488439959917e-01 5.5903499981114158e-02
      -2.3905653677624561e-01 1.6280034674628635e-01
      -2.7759440586604445e-01 -4.2996276037213810e-01
      -3.8922040034636302e-01 1.5131310407628101e-01
      5.4097994610532114e-02 -6.2547874721921956e-02
      -1.1453696337890966e+00 -8.4887510874473524e-03
      6.9216477366998375e-01 1.7854370953081458e-01
      6.4921938524678180e-01 7.9739129552875454e-01
      -2.3203708474981896e-01 -2.9643058994723215e-01
      -1.8110501532905229e-01 -6.5081899414879896e-01
      -1.8613765959173004e-01 -9.8267131249019513e-01
      -7.1869622872447458e-01 7.6175731561202653e-01
      -2.5777321018429772e-01 -7.9619278555997763e-01
      -1.6201949876935626e-01 -1.9699794504599349e-01
      3.0994597253532978e-02 8.4249280768942214e-01
      -3.0032136454655661e-01 9.0627429710874466e-02
      9.0925277953795813e-01 -8.0238431992004325e-02
      -8.1832964693373833e-01 -4.0833615087706171e-01
      1.8517738456967560e-02 8.0560871765537626e-02
      -8.0034900221239202e-01 -1.1537183434015148e+00
      -3.7931038461574840e-01 -7.0121262963500741e-01
      5.3874883005242291e-01 1.1436051287752527e+00
      2.3907414531776092e-01 -3.1215327089900852e-01
      1.0704897423384403e+00 1.3517709552071475e-01
      2.4359178242587723e-01 3.7596721064851130e-01
      3.5523356410489842e-01 8.3382890275856236e-01
      -5.7249186241510186e-01 -4.0664428864496521e-01
      2.9665842503001868e-03 -6.3015710953862811e-02
      2.5595315339932029e-01 8.8569170676393449e-01
      -2.3203664923656714e-01 4.3328407573737743e-01
      8.6060385583418952e-01 5.8282748628885162e-01
      2.9885101845025486e-01 6.2086549541677349e-01
      1.1681769756191354e+00 -4.8468303408964147e-01
      -6.7556869037205658e-01 6.4183694422770998e-02
      -7.7796301830957398e-02 -1.8179669161029154e-02
      -9.7211193490900238e-02 1.1203822286621197e+00
      6.6820651212718338e-02 1.5885566874144247e-01
      -2.8576667694513891e-01 3.5869235906615354e-01
      -1.0994860086633709e+00 2.4692340913665862e-02
      -7.4841922184028631e-01 -7.2849796151975965e-01
      -9.6428627536649866e-02 2.7696101418474878e-01
      2.9831914029804490e-01 5.6656777154233440e-01
      -4.1821492823198880e-01 -9.0494660319443065e-01
      3.7835150028029341e-01 -1.9951413218054789e-01
      5.4751602716289838e-01 6.1409430569514201e-01
      2.9455284370991590e+00 9.9323783531362633e-02
      4.1815347384430146e-01 -4.8940194799977527e-01
      1.7836285337947764e+00 -1.5980962692051368e-01
      4.1455650940729355e-01 5.3855937707056038e-02
      -3.1092493155817656e-02 3.4612819530609823e-01
      4.7643080373517843e-01 -7.9212069923438530e-02
      -3.2299374722357993e-01 -1.2977150280665848e+00
      -7.4233265897994039e-01 1.8391345476011720e-01
      -8.6857701584779590e-01 -1.4302277438429110e+00
      6.5959170769975081e-02 -6.2366357167809727e-01
      6.7747059927590281e-01 -3.6860368442827718e-01
      -6.8771711878836739e-02 -1.9002813649319608e-01
      -6.0946351581617164e-01 -5.2004936698509396e-01
      4.1587341957107909e-01 -6.0911073904917290e-01
      -3.8889854123056944e-01 -5.8190443155018667e-01
      6.4101418709443070e-01 6.9507339430204729e-01
      1.8960078973251626e-01 4.7546072694692509e-01
      3.4830094364007955e-02 3.6219859747743249e-01
      2.1480722507940273e+00 3.6764957317757063e-01
      1.9392478763415447e-02 -6.5137821710746269e-01
      -8.1969853422508832e-01 2.6023825330020924e-02
      1.0972285774569819e+00 -7.1470094473835311e-01
      -7.4326537657889172e-02 1.1465476569671480e+00
      -6.4317967703150469e-01 7.8323178038296026e-01
      -4.6780402246138698e-02 3.3905039105165946e-01
      7.9330526445163686e-03 1.3820194596573554e-01
      6.2189456453258474e-01 -4.4679801125154139e-01
      -6.5780501578216810e-01 -6.7617241823431251e-01
      4.2724665135710937e-01 -2.0727991849868149e-02
      8.4913099844507889e-01 1.1780493249385595e+00
      -6.6460155349110184e-01 -3.8767858574990510e-01
      5.3964376944567349e-01 2.2237182881475120e-01
      6.5613427841061445e-01 1.0002654409651275e+00
      1.1868349262968860e+00 -2.9177711540156903e-01
      -1.1211890251702101e+00 -3.3113817817767743e-01
      -1.0972392797895791e+00 4.3690109505700729e-02
      -5.1097290801339623e-01 2.6508722987382144e-01
      -8.9395429699200968e-01 4.2332815102170374e-01
      -1.1938222171531850e-01 -4.2036080028609429e-01
      -1.1958289557078603e+00 8.4645181052386098e-01
      -3.3877523457558395e-01 -2.7909119725488662e-01
      9.9422962244875498e-02 -5.8112845231043797e-01
      9.3102077092627067e-01 3.8470451914383713e-01
      3.0238942908119643e-01 1.2612459071933284e+00
      -6.8058634732093892e-02 8.2544317312895563e-02
      -6.4441264893926553e-01 -2.5663950373921041e-01
      1.2225007184459382e+00 -6.9164611652105368e-01
      8.0168703103257599e-01 3.5674957018215842e-01
      -2.6249051319750150e-01 7.9490516439747738e-01
      -1.4738326876530226e+00 1.7608005405405551e+00
      -6.0224198217458669e-01 -1.5741959319230781e-01
      -1.0980719913430714e-01 7.6012630299159251e-02
      -7.9818678194077708e-01 5.1625007514446297e-01
      -8.5486345604026281e-01 -1.6929987778248737e-01
      -9.2224459477441267e-01 2.5865709387744745e-01
      -1.5388640525597330e-01 -1.0409261991803711e+00
      -5.0503406768313042e-01 -3.4309916430510418e-01
      -1.0811402927247807e-01 6.1433255563673950e-01
      -1.0636281834134564e+00 4.9358051879052528e-01
      1.7322533914097935e-01 -8.5624007405664049e-01
      -5.7981549306575408e-01 -1.0044465758510641e+00
      1.4097517846014945e-01 2.8113292488786507e-01
      -3.5168518010139960e-01 1.9264226018521444e-01
      3.0977278979589679e-01 -4.8359125341023673e-01
      -9.1048921978490086e-02 -2.6590015877023299e-01
      2.5792451489504092e-01 -6.5220820577080607e-01
      -3.3901946004329103e-01 2.7484512596399596e-01
      8.5613062666003659e-01 8.7007803375173554e-02
      -1.9796846591264336e-01 6.8369543280447653e-01
      2.8903605994663201e-01 -2.9627000383910612e-01
      1.9183580862119490e-01 -5.5223967835595367e-01
      -7.3938502333333400e-01 4.4736037114760796e-01
      -3.7410690680561060e-01 -7.7013454641424040e-01
      1.6087000702079401e-01 -6.3797140299844524e-01
      5.4979340342107141e-01 1.9709085223457234e-01
      -8.3643370800003058e-01 6.5261973913440768e-02
      4.3426416405290869e-01 2.6211239851012474e-01
      -3.5766067331823595e-02 6.8386915929189773e-01
      5.8382271548711909e-02 -7.3685882208748577e-01
      -2.8957465523672193e-01 1.4429428479064354e-02
      2.2144710137287954e-01 -5.5002659899235773e-01
      3.8580578871904270e-01 4.5004792878168842e-01
      -4.6173609928255388e-01 -1.7242591580187910e-01
      2.9786624327155575e-01 3.7492656474308939e-01
      -2.0101767402794241e-01 5.3275301641506934e-01
      6.5345430927764858e-01 -2.8021078575685415e-01
      5.6892911163782055e-02 5.0923196459497755e-01
      3.0172496758112360e-01 1.6025404489351222e-01
      3.5121529330669438e-01 5.4969584958564889e-02
      1.3116011263439484e-01 2.9111927128908527e-01
      -5.2920562993805445e-02 8.2854509186258571e-02
      -9.1221941569583975e-01 2.0548880159894695e-01
      3.1917332821069805e-01 3.7005649873148638e-01
      6.4015909757920664e-01 -7.8059312857807794e-01
      7.3395027814353719e-01 1.0628310117548755e-01
      7.4179766361783050e-01 4.1995848521205908e-01
      -2.9295346089617541e-01 -4.4125140918127109e-01
      -5.4110422574186068e-01 9.5137581471684343e-02
      -1.5923311433225517e-02 -4.3378915553034983e-02
      -2.1121768341662578e-01 -9.4877726082626768e-01
      3.7010472870552291e-01 -5.3840387894637264e-02
      -4.9474364046984431e-01 1.6905632758988118e-01
      -3.8771516561268221e-01 -1.7635596576911935e-02
      -4.4805715699233289e-01 -2.3947953813322836e-01
      9.1141240311364558e-01 -2.4662723155563432e-01
      -2.9035921263833075e-01 -7.0409312196101193e-01
      2.2961149117180102e-01 7.3330430335674060e-02
      -2.4374263000547275e-01 4.1850379056057579e-01
      3.3878923197856542e-02 -7.3723457674402559e-01
      -4.4855657823074480e-01 -2.0501456041869325e-02
      -2.0816560644393214e-01 5.9547622633462594e-01
      2.6666879595530801e-01 9.8173106265425880e-01
      1.0321997788820887e+00 2.1074418856343552e-01
      -7.1984484310768579e-03 -6.9880809196353444e-01
      -4.7076355485775873e-01 -2.5231586550416829e-01
      2.9742789089568228e-01 -7.3927868323209234e-01
      2.1513561612639623e-01 -1.7702074114216673e-01
      -2.4899959946611536e-01 -3.8887226302521100e-01
      6.3273432583022163e-02 -1.5851735995677971e+00
      -1.1342121396570910e-01 4.7790185726856005e-01
      -9.9872349687800854e-01 -1.0907768427651379e+00
      -1.7736738155208767e-01 3.4864428073830389e-01
      -1.1008059394542453e+00 5.4019804910428848e-01
      -6.3063711773755904e-01 4.0141616243042372e-01
      -2.3990584805055031e+00 -4.1884437347678499e-01
      6.0246073384226950e-01 -5.1353266439838228e-03
      6.8118510282757294e-01 -3.2017998736346776e-01
      -8.6821234735031572e-01 1.2339054449945435e+00
      7.8429017499469922e-01 -1.0718201789670000e-02
      -1.9614439917517928e-01 -8.4878812002960558e-01
      -5.9456102659490695e-01 6.8737464139992099e-01
      5.9112040741506033e-01 -4.1100983589661755e-01
      -1.6550934994936906e-01 4.8501040077359459e-01
      -2.1219549875540034e-01 -6.6694878484760212e-01
      3.2349003099062329e-02 7.5413266708469706e-01
      -4.6486233387452369e-01 1.2027462062010132e-01
      6.3736197326763822e-01 4.4379793818726221e-01
      -1.3125661705489611e-01 1.3860807643195416e-01
      -7.3295086680844246e-01 3.2872459806115067e-01
      3.7513761279658470e-01 -2.8395075765060718e-01
      -1.1008580697685735e+00 -5.8075250201042583e-01
      -8.7716891280279360e-02 4.6256016643907538e-01
      8.9872432859383192e-02 -1.0183681850287594e-02
      4.7596675727347194e-02 4.8135222964362506e-01
      -7.8348746477563819e-02 4.6588074390778061e-01
      1.6697231088193645e+00 2.8212150847659945e-01
      -3.7907879047261500e-01 -6.1765244958446874e-01
      -1.7709710832239631e-01 -1.1730035120657463e+00
      9.1648268057759952e-01 1.5606202238978323e-01
      8.5301594521830393e-02 -4.9309154168013458e-01
      1.8129761110245637e+00 5.5100654483656350e-02
      -8.0449339359783900e-01 3.5209461502588402e-01
      6.4515281227612478e-02 -2.5668730868921957e-01
      -8.9086785693627182e-03 -1.8302100653067555e-01
      1.2518745162187221e+00 2.7612198491837558e-01
      8.0261324921243504e-01 -2.9120734392298531e-01
      1.2217338686438086e+00 -1.1429002018542325e-01
      3.9511894766952521e-01 4.6429371637854322e-01
      1.0783250286810251e+00 -1.1189865294555701e-01
      2.7237967039801436e-01 -9.1650302724204924e-01
      -1.1039714136158660e-01 2.2154844977493862e-01
      2.0992017623158249e-01 3.0813479457003073e-01
      -1.0467659682761223e-01 -4.6601216752046107e-03
      1.8759978605375061e-01 -6.7454579356652467e-01
      -3.8021645942655613e-01 -6.7046304337457263e-01
      -1.8183519039959078e-01 -3.5312376264697992e-02
      1.2174986362993982e-01 7.6563227850327598e-01
      -4.4935414457082606e-01 2.7034180555235626e-01
      4.4766756318288120e-01 1.2126100896560923e-01
      -3.0624724754646271e-01 -7.8513428261849172e-01
      -3.2665333699919047e-01 6.5344998863205356e-02
      9.7963688600042109e-01 4.6301742342364999e-01
      9.4918149758380277e-01 3.3074281983707154e-01
      1.2613731650786955e-01 -8.2627614499705515e-01
      3.2714246752978300e-02 4.1355354425923913e-01
      -1.3074413169865498e+00 -1.2020239317615472e-01
      2.1886096952198722e-01 1.2755477301652329e-01
      1.1263242428628968e-01 -1.0649742562542448e+00
      1.5249586228722622e-01 -5.1817246540436090e-01
      -4.3043602718558033e-01 2.5755092018216086e-01
      1.8796285366906634e-01 5.5962420562981174e-01
      2.1266273814388173e-01 -1.5816776485828468e-01
      1.5325205025826297e-01 -9.1688953197431566e-01
      -3.2026226361182480e-01 2.4527958308867129e-01
      -4.4221130556334370e-01 -3.7048127275481657e-01
      8.1757714704589868e-01 1.5726057055203921e-01
      3.7209758717925384e-01 4.4910831244890384e-02
      -1.0569849709138240e-01 1.3484881204355901e+00
      7.5078683719645378e-02 9.8928124886154281e-02
      -2.0783088453486673e-01 -4.2545082553846303e-01
      -8.9314876213577177e-01 -8.0780073911054431e-03
      -4.3643915231206233e-02 -2.3040108796851866e-01
      -4.7524070060986251e-01 5.4327442341258836e-01
      7.2739475434191769e-01 -5.0735821574313389e-01
      -6.0974568888286762e-01 2.4241589555318538e-01
      -9.8650597924036076e-02 -4.5766267041555420e-01
      -3.6483942120051621e-01 3.1433168756566449e-01
      3.6843659368220616e-01 -6.0375309686080703e-01
      9.9111101900382026e-01 2.8402320506315928e-02
      1.0409296031329163e+00 1.1968098612665941e+00
      -8.4469557987470434e-01 -5.3955304567941587e-01
      -1.4738729802366917e+00 -2.8120500909523433e-01
      -1.1570570494342483e+00 5.0906986932845522e-01
      -5.8845356401591253e-01 -4.7860473460591951e-01
      3.1211680008835346e-01 2.2374865609746628e-01
      2.1248658150267397e-01 -6.5386669760161920e-01
      -1.8572906946764191e-02 -4.1023854425470940e-01
      7.6478175881259602e-01 4.2740797821253354e-02
      3.3857891078201008e-01 -9.9163553254816050e-01
      6.9460950217496376e-01 4.6591747928159333e-01
      2.1630353139750280e-01 1.4559712384714277e-01
      6.2218644222409025e-01 -5.5160953892038822e-01
      1.4004714490358763e-01 4.6342067795263581e-01
      5.6199704380140891e-01 -9.8098593642258169e-01
      -3.4030627450820183e-01 7.3459485571036864e-01
      1.0878152577223472e+00 1.1711440582453374e-02
      -1.5732472336373646e-01 2.6849211062244950e-02
      4.9349179927398418e-01 -4.4389546746187247e-01
      1.1334203979925090e+00 1.4034292343301838e-01
      2.9994480779898791e-01 2.3201449814166034e-01
      2.2835219680114052e-01 -6.7311154224934955e-01
      -1.9096718401391311e-02 -1.7974011209153617e-01
      6.9412995538487188e-01 -9.8675947164845595e-02
      -3.8454765061343715e-01 2.6039402161107689e-01
      -1.4679298276301900e+00 1.1526431469940844e-01
      8.3277327469098317e-01 3.0934827270647264e-01
      1.8199885655922772e+00 -6.7805120095686200e-01
      -4.8021136152288435e-01 4.0749383992619226e-01
      3.6853092231786988e-01 4.8256854136702626e-01
      -4.4869529222822419e-01 -3.1764006643517273e-01
      -4.9955827733959068e-01 6.9341678988216060e-01
      3.6922687297997181e-01 -3.4432222141057622e-01
      6.9481084458661935e-01 -5.6782406958229725e-01
      -6.1099867994821771e-04 -8.1203077535261625e-01
      -6.5802306814764644e-01 1.5825668811739352e-01
      -2.3248429487094699e-01 7.7186033147086247e-02
      5.5189621610779060e-01 -1.7590244515815082e-01
      -4.8147366411015902e-01 -4.9356652437382999e-02
      1.0175864980171634e+00 -1.0946989392945861e+00
      -3.0935961631573039e-01 -6.6230101527753424e-02
      7.0004167463655368e-03 4.8551362032685974e-01
      1.2247428329160935e-01 -9.1308345532750496e-02
      -1.0637416276517602e+00 -7.6165548642534983e-02
      -6.8416597373803578e-01 1.4755881271939725e-01
      1.5201599925139921e+00 -6.5364449157886362e-01
      2.2247537620772546e-02 -4.6425725575747762e-01
      2.1830100205476199e-01 1.0676532890037491e+00
      -4.6671235437087799e-01 1.1056628765194874e+00
      2.5966473278242191e-01 -5.3210427459846399e-01
      -2.3342569221437928e-01 -2.0227187634360111e-01
      2.2552511051284546e-01 2.3707214565338389e-01
      3.6940991782000149e-01 6.9055710131471071e-01
      -4.4034429519824164e-01 3.0002012078956170e-02
      1.1014394568081654e+00 1.0563946949259995e+00
      2.9829865033612935e-01 -3.0693499626758752e-01
      7.5144977195986493e-02 2.4477618075559479e-01
      2.6948369659055488e-01 -1.2558434424261006e-01
      9.4484987338830417e-01 -1.0988094735307374e+00
      -7.5076825118001470e-02 2.3473517016115289e-01
      -1.1894759528494377e-01 1.7561995027814694e+00
      -5.5530225711480552e-01 2.8968062121207085e-02
      -1.7549579056136524e-01 -2.5010825772732420e-01
      2.1405135424302243e-01 -4.6515940577140286e-01
      6.0174589247796706e-01 2.2859342855982806e-01
      -6.9202427377060294e-01 4.9800664719951770e-01
      -1.4212220712917058e-02 -9.5175573056926810e-01
      1.1595705158616834e+00 3.1442897211326626e-01
      -3.3409814192804138e-01 2.2951856360620027e-01
      1.3965552640183757e-01 3.1910511579630768e-01
      2.2495617597866507e-01 9.3766254873554511e-01
      -5.7177266434088492e-01 -1.6012510083474311e-02
      -2.3478633630589107e-01 -5.1538708512361764e-01
      -3.7613032655298773e-01 -2.6012511046865466e-01
      -4.1983241806815513e-01 -8.0838978595564293e-01
      8.6419396152871020e-01 1.7554400744096549e-01
      2.2455672747097880e-01 1.2981536521685262e+00
      4.5456862003411841e-01 2.2722707113838006e-01
      -8.3272499409480605e-01 3.0795084192008348e-01
      -4.7630554530803537e-01 4.3760813190026759e-01
      3.2324814493307380e-01 1.8318299273272304e-01
      1.0017863018550549e-01 -3.8987253833951163e-01
      -2.3655127003438453e-01 4.4174274890555965e-01
      -2.6122507268586569e-02 5.6308521521641663e-01
      -7.8431904415997533e-01 -9.1980179436300280e-01
      6.8065881524980018e-03 -1.1107738613242644e+00
      2.7722978699880241e-01 2.0311583047297432e-01
      2.5223576080205540e-01 -8.0885759943796098e-02
      -4.0603721312404434e-01 2.1494683156560383e-02
      5.7959237831331056e-01 1.6540373385103016e-01
      -4.6207891945734034e-02 6.5947370499029240e-02
      -1.5350470000245440e+00 6.4084593066074425e-01
      8.1520116849251689e-01 -2.5358854400461617e-01
      9.3421075354728467e-01 -1.0642087438346275e+00
      1.2940790294725693e+00 -6.9673187592058849e-01
      -3.8076157967161389e-01 8.1753659522608002e-01
      7.1576390441965210e-01 -1.0505480054062071e+00
      -1.0349624758235216e+00 5.6915519040421680e-01
      1.1450735216381691e+00 4.3567496466744954e-01
      -3.8600781776846704e-01 -2.3614297218025693e-01
      -1.1462252124147669e+00 -8.9231395999909938e-02
      -1.7938594222973181e+00 -8.7525797831805896e-01
      -2.4620733940886336e-03 2.1224142479589833e-01
      -2.3534402140848574e+00 -8.2269143911153231e-01
      8.4602894330093970e-01 -4.3109045143895941e-01
      1.3694926521308909e-03 1.4032036325631389e-02
      8.7608765034970459e-01 9.4368335072891452e-01
      4.0264804686847228e-01 1.3039482054158519e-01
      -4.3030036147334044e-01 9.4277646703276285e-01
      1.5514159644378434e-01 3.1055109008089848e-01
      -5.6965171093741518e-01 -1.4468972596042795e-01
      7.3461727789529507e-01 -5.2584492984873898e-01
      -6.8100612819149320e-01 9.4539996211028399e-01
      9.5164485786699315e-01 6.7580782519725380e-01
      4.0889588717225034e-01 -4.7696941490696293e-01
      1.3641102093329852e-01 1.0484407035202286e+00
      -8.4299251571649347e-01 -3.1346387393459713e-01
      -6.0000164183345617e-01 -3.7678525888143036e-02
      -3.7896776339065019e-01 1.0945372587606708e-01
      -1.6628160936661851e+00 5.3774560418692319e-01
      1.3188105032978075e+00 4.9735365303634604e-01
      1.9256991143900287e-01 -5.1515059230716032e-01
      -1.1078503145569363e+00 -7.3204895612071241e-01
      -5.0760958206490603e-01 -3.1819251144483190e-01
      2.7291296824120159e-01 -5.9360992382019140e-01
      -3.4763375408167857e-01 -9.1416555630784135e-01
      1.3730764477626778e+00 -1.9760668490654516e+00
      -4.4604258578375577e-01 1.4086384751905654e+00
      8.5256562896587240e-01 1.4325684234790361e+00
      4.4530670508887971e-01 4.3030800297237076e-01
      1.2560040973313173e+00 -2.1660827980866929e-01
      4.6928218741216460e-01 -3.0526341088972120e-02
      1.9097754266905931e+00 6.5307125352248997e-04
      9.4072836481617061e-01 2.5800563722173192e-01
      -4.9467478519043639e-01 -3.2478126350381947e-01
      1.4215996057435967e+00 2.9928584485025161e-01
      7.5901004003066008e-01 6.6692510200734290e-01
      7.1232130373451352e-01 3.3936160092507550e-01
      4.0234029407777716e-01 -6.4437624627637324e-01
      1.1102690151545791e-01 2.7578366610778737e-01
      5.2391409667512497e-02 -8.2911833044406646e-01
      7.4654826823701093e-01 7.5766752754096015e-02
      -1.5152636785526455e-01 8.3940294084234701e-01
      -3.0607526023961151e-01 3.3553620057243638e-01
      4.3185782228990016e-01 -7.8369699273997873e-01
      4.2195316837890312e-01 -7.5546936884718718e-01
      -3.7692613175029582e-01 -2.7907113324726085e-01
      -3.6646369798462434e-03 -7.3559244919198008e-01
      2.3495806846342401e-01 1.0782830318926619e-01
      4.2719567899643657e-01 -8.5941266354457213e-01
      -1.5696204715611131e-01 -7.9844725677324879e-01
      3.5095696278095107e-01 8.1903456177613976e-01
      5.1007621666491365e-01 6.7809576765858925e-01
      1.0243198969974827e+00 5.6313794162467834e-01
      -3.3851475405422771e-01 1.1151339183907936e+00
      -8.0942764587201077e-01 -9.7989560894564354e-01
      5.2837745200004185e-02 -1.0540182503229707e+00
      5.8397503875421963e-01 -7.8018298344089643e-01
      4.2996294010742531e-01 -1.4417300324474183e-01
      1.5014062307683715e-01 -2.8712558180603920e-01
      1.8287633656708234e-02 1.7209337254297913e-01
      -1.0675237379960680e+00 3.9727408526176727e-01
      6.2211044339506705e-01 7.8884057510814773e-02
      -1.3264629969716399e+00 -4.0336871651535094e-01
      -1.1040989480685055e+00 8.4159890512134483e-01
      -1.2047165495795211e+00 5.3704229859943564e-01
      4.1237198373133409e-02 -2.9723620194879113e-01
      -5.6493552491527466e-01 -2.5759098617421883e-01
      -5.2245311018651253e-01 7.7835075223778849e-01
      -5.7088997196126656e-01 -5.9579373434295690e-01
      -7.5130636945673582e-02 5.5727972543479021e-01
      -8.3095234882258562e-02 1.3780646183718888e-02
      -1.4042175484798924e-01 -7.9425852842790287e-02
      2.6542917447456269e-02 -3.0742393446615518e-01
      -1.1642196471692930e-01 -9.9274142507024876e-01
      6.4870150391666076e-02 6.1346760483017138e-01
      1.7475065945132633e-02 -3.1104850094834047e-01
      -4.5717216642186098e-01 5.5111591244309588e-02
      9.5259649803739049e-02 2.5069647356786257e-01
      -1.2001078650602086e+00 -9.1008828638790173e-02
      2.7032327464124384e-01 -5.3472664161661998e-01
      -5.8001107374509597e-01 -6.5859194823192835e-01
      -2.2326924994867952e+00 3.8978238304895485e-01
      -4.9374242241972610e-01 -2.1069556857021679e-01
      -3.9913505105531638e-01 -5.9311666693764853e-01
      1.4049065838443736e-01 5.2314219340176743e-02
      3.2879318855051277e-02 -2.7000711277250444e-01
      -8.4595907671801607e-01 -6.7846039302208305e-01
      -5.0075775425743574e-01 -1.1597529646395033e+00
      5.3227485015462461e-01 4.0634173118626904e-01
      1.2791865117005857e-01 -5.7912878511026966e-01
      5.2594910454976684e-01 -1.9778765311634539e-01
      -5.3405620432010936e-01 7.0616776936107317e-01
      1.0518681726558530e+00 -5.6684483525574436e-01
      1.3001289978821975e-01 3.8729062937155478e-01
      -2.4368469335607562e-01 1.3997418325114204e+00
      -3.2714695261200738e-01 -2.6103019194896615e-01
      5.4681398299512851e-01 4.2595130959647765e-01
      1.4735151442553398e+00 1.1858766160568063e-01
      5.6944354676246201e-01 5.7743247793190677e-02
      -6.1757741753395368e-01 -1.2452579908676640e+00
      -1.9367481013743357e+00 1.3857112894454845e-02
      -1.6363855071361588e-01 -9.6562037286432967e-01
      2.9400284564462392e-01 -1.5056358945861639e-01
      1.1032053242303984e-01 -5.2951250569800001e-01
      -8.5083611981907048e-01 -7.6125612384771224e-01
      1.4390097870103993e+00 -5.4132032322119196e-02
      6.0893942274768735e-02 5.2771844987453176e-01
      -5.8434489086871466e-01 5.5674263337411500e-01
      -4.9529168358951980e-01 7.7871657142748374e-01
      -5.2897988956825526e-01 1.7620957900332820e-01
      -2.3552219715367570e-01 1.4297763718702056e-01
      -4.8295730895474615e-01 -2.2300893245429726e-01
      -4.5838830067174030e-01 7.7716848211565748e-01
      7.4061223078629967e-01 8.9574762291862076e-01
