<?xml version="1.0"?>
<opencv_storage>
<opencv_ml_svm>
  <format>3</format>
  <svmType>C_SVC</svmType>
  <kernel>
    <type>RBF</type>
    <gamma>1.5382999999999999e+01</gamma></kernel>
  <C>50.</C>
  <term_criteria><epsilon>1.1920928955078125e-07</epsilon>
    <iterations>1000</iterations></term_criteria>
  <var_count>240</var_count>
  <class_count>8</class_count>
  <class_labels type_id="opencv-matrix">
    <rows>8</rows>
    <cols>1</cols>
    <dt>i</dt>
    <data>
      1 2 3 4 5 6 7 8</data></class_labels>
  <sv_total>1076</sv_total>
  <support_vectors>
    <_>
      1.03626940e-02 0. 4.44115466e-03 1.48038485e-03 3.70096206e-03
      4.44115466e-03 0. 5.92153938e-03 1.03626940e-02 0. 2.22057733e-03
      7.40192423e-04 7.40192423e-04 2.22057719e-02 2.14655809e-02
      2.96076969e-03 9.62250121e-03 7.40192423e-04 1.48038485e-03
      6.66173175e-03 1.48038485e-03 3.70096206e-03 2.22057733e-03
      2.22057733e-03 0. 5.92153938e-03 2.96076969e-03 1.48038485e-03
      1.48038485e-03 5.92153938e-03 4.44115466e-03 0. 0. 4.44115466e-03
      5.18134702e-03 2.22057733e-03 5.18134702e-03 2.96076969e-03
      2.22057733e-03 6.66173175e-03 2.22057733e-03 0. 2.22057733e-03
      3.70096206e-03 7.40192411e-03 0. 0. 5.18134702e-03 4.44115466e-03
      2.22057733e-03 2.96076969e-03 7.40192423e-04 0. 2.96076969e-03 0.
      2.96076969e-03 2.22057733e-03 3.70096206e-03 2.96076969e-03
      2.22057733e-03 5.18134702e-03 2.22057733e-03 1.48038485e-03
      2.96076969e-03 3.70096206e-03 4.44115466e-03 2.96076969e-03
      1.55440411e-02 3.70096206e-03 1.48038485e-03 7.40192423e-04
      2.29459647e-02 6.66173175e-03 7.40192423e-04 3.70096206e-03
      2.96076969e-03 5.92153938e-03 2.22057733e-03 2.22057733e-03
      7.40192423e-04 2.14655809e-02 7.40192423e-04 5.92153938e-03
      1.62842330e-02 7.40192411e-03 1.48038485e-03 5.92153938e-03
      1.03626940e-02 1.62842330e-02 7.40192411e-03 7.40192411e-03
      3.70096206e-03 2.22057733e-03 1.48038485e-03 7.40192423e-04 0.
      7.40192423e-04 5.92153938e-03 2.22057733e-03 1.48038485e-03
      2.22057733e-03 5.92153938e-03 1.33234635e-02 1.18430788e-02
      4.44115466e-03 8.88230931e-03 5.92153938e-03 4.44115466e-03
      1.33234635e-02 1.85048115e-02 4.44115466e-03 2.96076969e-03
      1.40636563e-02 6.66173175e-03 7.40192423e-04 5.18134702e-03 0.
      3.70096206e-03 1.03626940e-02 2.96076969e-03 3.70096206e-03
      7.40192423e-04 2.22057733e-03 1.48038485e-03 2.22057733e-03
      1.48038485e-03 0. 3.70096206e-03 5.92153938e-03 1.48038485e-03
      3.70096206e-03 4.44115466e-03 7.40192423e-04 5.18134702e-03 0.
      3.70096206e-03 7.40192423e-04 1.48038485e-03 7.40192423e-04
      5.18134702e-03 7.40192423e-04 0. 2.96076969e-03 7.40192423e-04
      2.22057733e-03 3.70096206e-03 6.66173175e-03 2.96076969e-03
      1.48038485e-03 6.66173175e-03 3.70096206e-03 0. 5.18134702e-03
      7.40192423e-04 0. 5.92153938e-03 7.40192423e-04 5.18134702e-03
      2.22057733e-03 4.44115466e-03 5.92153938e-03 9.62250121e-03
      7.40192423e-04 0. 7.40192423e-04 8.88230931e-03 1.48038485e-03
      1.48038485e-03 3.70096206e-03 7.40192423e-04 2.96076969e-03
      2.22057733e-03 4.44115466e-03 5.92153938e-03 5.92153938e-03
      8.14211648e-03 4.44115466e-03 1.48038485e-03 0. 5.92153938e-03
      1.48038485e-03 6.66173175e-03 4.44115466e-03 1.48038485e-03
      1.48038485e-03 2.96076969e-03 1.48038485e-03 1.03626940e-02
      1.48038485e-03 2.96076969e-03 4.44115466e-03 7.40192423e-04
      5.92153938e-03 2.22057733e-03 1.48038485e-03 2.96076969e-03
      1.03626940e-02 4.44115466e-03 2.96076969e-03 1.11028859e-02
      5.18134702e-03 0. 6.66173175e-03 2.96076969e-03 3.70096206e-03
      7.40192423e-04 1.48038485e-03 0. 6.66173175e-03 4.44115466e-03
      2.96076969e-03 7.40192411e-03 0. 2.22057733e-03 1.48038485e-03
      6.66173175e-03 7.40192411e-03 7.40192423e-04 5.18134702e-03
      1.48038485e-03 1.03626940e-02 0. 3.70096206e-03 5.92153938e-03
      3.70096206e-03 2.96076969e-03 2.22057733e-03 2.44263504e-02
      3.70096206e-03 3.70096206e-03 1.48038485e-03 3.70096206e-03
      6.66173175e-03 2.96076969e-03 1.48038485e-03 1.48038485e-03
      1.48038485e-03 1.55440411e-02 1.48038485e-03 4.44115466e-03</_>
    <_>
      8.55285674e-04 2.39479984e-03 7.01334281e-03 1.88162853e-03
      2.90797139e-03 3.76325706e-03 2.22374289e-03 3.42114270e-03
      2.56585702e-03 8.55285674e-03 3.25008552e-03 8.55285674e-04
      1.02634286e-03 1.71057135e-03 2.56585702e-03 2.56585702e-03
      1.71057135e-03 2.90797139e-03 5.81594277e-03 2.90797139e-03
      4.27642837e-03 2.90797139e-03 4.27642837e-03 1.11187138e-02
      2.39479984e-03 6.50017103e-03 1.21450564e-02 4.44748579e-03
      3.07902857e-03 3.54088284e-02 2.05268571e-03 2.22374289e-03
      6.84228551e-04 6.84228539e-03 4.27642837e-03 1.53951428e-03
      1.19739992e-03 1.71057135e-03 4.78959968e-03 5.47382841e-03
      4.61854273e-03 5.30277146e-03 1.36845710e-03 1.07765999e-02
      8.55285674e-04 3.71193998e-02 9.06602852e-03 2.05268571e-03
      1.71057135e-03 2.73691420e-03 2.22374289e-03 2.05268571e-03
      3.07902857e-03 6.67122845e-03 1.71057135e-03 6.84228539e-03
      6.84228551e-04 1.36845710e-03 3.25008552e-03 6.15805713e-03
      2.22374289e-03 2.73691420e-03 1.19739992e-03 3.76325706e-03
      2.05268571e-03 3.59219988e-03 4.78959968e-03 5.13171405e-03
      1.88162853e-03 3.42114270e-03 8.55285674e-04 1.88162853e-03
      1.88162853e-03 3.93431401e-03 5.98699972e-03 3.25008552e-03
      1.19739992e-03 8.55285674e-04 6.84228551e-04 3.07902857e-03
      3.76325706e-03 1.06055429e-02 2.39479984e-03 4.61854273e-03
      3.42114270e-03 2.05268571e-03 1.36845710e-03 3.42114270e-03
      9.06602852e-03 2.22374289e-03 4.27642837e-03 8.03968590e-03
      1.53951428e-03 6.84228539e-03 2.56585702e-03 2.05268571e-03
      4.44748579e-03 3.42114270e-03 4.96065710e-03 3.59219988e-03
      2.56585702e-03 1.19739992e-03 2.90797139e-03 1.07765999e-02
      2.90797139e-03 2.05268571e-03 2.22374289e-03 2.90797139e-03
      5.30277146e-03 4.10537142e-03 5.98699972e-03 2.73691420e-03
      1.64214857e-02 1.07765999e-02 7.69757107e-03 2.39479984e-03
      3.02771125e-02 5.81594277e-03 2.22374289e-03 1.88162853e-03
      1.04344850e-02 1.71057135e-03 2.73691420e-03 1.02634286e-03
      2.73691420e-03 8.55285674e-04 1.88162853e-03 2.73691420e-03
      4.96065710e-03 3.93431401e-03 6.32911408e-03 2.39479984e-03
      1.02634286e-03 2.73691420e-03 2.05268571e-03 5.98699972e-03
      2.22374289e-03 3.59219988e-03 2.56585702e-03 5.47382841e-03
      4.61854273e-03 1.71057135e-03 2.39479984e-03 2.90797139e-03
      7.35545671e-03 4.27642837e-03 8.55285674e-04 5.30277146e-03
      6.84228551e-04 2.39479984e-03 3.76325706e-03 2.73691420e-03
      1.45398565e-02 0. 8.55285674e-04 1.14608286e-02 2.90797139e-03
      1.88162853e-03 1.19739992e-03 4.10537142e-03 2.22374289e-03
      1.71057135e-03 1.02634286e-03 1.02634286e-03 2.05268571e-03
      2.22374289e-03 1.02634286e-03 1.71057135e-03 5.13171428e-04
      4.61854273e-03 5.13171428e-04 1.88162853e-03 8.03968590e-03
      2.05268571e-03 2.39479984e-03 4.27642837e-03 3.07902857e-03
      2.49743424e-02 3.25008552e-03 1.88162853e-03 2.39479984e-03
      7.69757107e-03 1.71057135e-03 1.53951428e-03 1.19739992e-03
      8.55285674e-04 5.98699972e-03 7.18439976e-03 1.53951428e-03
      8.55285674e-04 8.55285674e-03 4.27642837e-03 5.13171428e-04
      5.47382841e-03 1.33424569e-02 1.14608286e-02 1.36845710e-03
      3.25008552e-03 3.93431401e-03 4.96065710e-03 5.13171428e-04
      1.24871712e-02 8.55285674e-04 3.59219988e-03 1.88162853e-03
      6.84228551e-04 3.42114270e-03 4.96065710e-03 3.59219988e-03
      3.25008552e-03 3.93431401e-03 2.05268571e-03 2.05268571e-03
      4.44748579e-03 4.78959968e-03 6.84228551e-04 1.36845710e-03
      3.25008552e-03 2.39479984e-03 7.69757107e-03 2.73691420e-03
      1.88162853e-03 1.53951428e-03 6.67122845e-03 2.39479984e-03
      1.21450564e-02 1.19739992e-03 1.88162853e-03 9.57919937e-03
      4.10537142e-03 3.76325706e-03 3.42114270e-03 5.81594277e-03
      5.98699972e-03 1.36845710e-03 4.78959968e-03 1.53951428e-03
      2.73691420e-03 6.84228551e-04 5.81594277e-03</_>
    <_>
      4.31396067e-03 5.21270232e-03 3.65488324e-03 2.33672862e-03
      2.15698034e-03 1.25823845e-03 3.11563816e-03 3.83463153e-03
      2.27681245e-03 5.99161163e-03 5.75194741e-03 2.45656073e-03
      6.53085671e-03 6.17136015e-03 3.71479918e-03 2.21689628e-03
      1.73756736e-03 5.87177975e-03 5.51228272e-03 6.95026945e-03
      2.69622519e-03 3.89454770e-03 2.33672862e-03 5.21270232e-03
      3.29538644e-03 7.78909540e-03 3.17555433e-03 4.61354107e-03
      2.87597370e-03 8.50808900e-03 2.45656073e-03 4.61354107e-03
      1.49790291e-03 5.33253467e-03 3.59496707e-03 2.21689628e-03
      2.33672862e-03 5.51228272e-03 3.11563816e-03 6.53085671e-03
      2.93588988e-03 4.67345724e-03 5.09286998e-03 1.16836429e-02
      3.47513473e-03 8.08867626e-03 1.04254046e-02 1.61773514e-03
      1.79748354e-03 3.29538644e-03 3.05572199e-03 1.79748354e-03
      4.19412833e-03 2.45656073e-03 3.89454770e-03 3.35530262e-03
      3.29538644e-03 3.41521879e-03 1.91731576e-03 2.63630925e-03
      5.21270232e-03 1.31815462e-03 1.49790291e-03 1.91731576e-03
      2.87597370e-03 8.98741768e-04 7.54943071e-03 2.81605753e-03
      2.15698034e-03 2.99580581e-03 4.19412833e-03 2.45656073e-03
      8.50808900e-03 3.83463153e-03 6.71060523e-03 2.87597370e-03
      8.38825654e-04 3.83463153e-03 1.67765131e-03 9.70641151e-03
      3.17555433e-03 9.28699784e-03 2.15698034e-03 3.23547027e-03
      2.21689628e-03 1.97723182e-03 4.55362489e-03 3.47513473e-03
      1.21030556e-02 2.93588988e-03 5.57219889e-03 6.59077289e-03
      2.45656073e-03 6.77052140e-03 1.73756736e-03 2.39664479e-03
      3.35530262e-03 1.33013781e-02 5.15278615e-03 2.51647690e-03
      3.05572199e-03 2.63630925e-03 3.11563816e-03 5.03295381e-03
      4.01437981e-03 4.19412833e-03 1.73756736e-03 2.63630925e-03
      6.89035375e-03 1.49790291e-03 3.53505090e-03 1.67765131e-03
      5.81186358e-03 7.84901157e-03 9.58657917e-03 1.91731576e-03
      1.33612938e-02 2.51647690e-03 1.31815462e-03 2.15698034e-03
      8.56800471e-03 3.05572199e-03 3.59496707e-03 1.85739959e-03
      6.47094054e-03 2.15698034e-03 6.65068906e-03 7.01018563e-03
      2.45656073e-03 2.57639308e-03 1.91731576e-03 1.85739959e-03
      2.63630925e-03 8.44817236e-03 3.23547027e-03 4.97303763e-03
      4.01437981e-03 1.97723182e-03 2.57639308e-03 3.65488324e-03
      8.62792134e-03 2.93588988e-03 2.93588988e-03 5.03295381e-03
      8.26842431e-03 4.01437981e-03 1.67765131e-03 4.73337341e-03
      3.65488324e-03 4.73337341e-03 2.75614136e-03 4.19412833e-03
      1.63570996e-02 2.99580581e-03 2.03714799e-03 6.59077289e-03
      1.43798685e-03 4.13421215e-03 3.41521879e-03 4.43379255e-03
      1.12642301e-02 2.33672862e-03 3.29538644e-03 6.35110866e-03
      1.37807068e-03 1.73756736e-03 2.39664479e-03 4.55362489e-03
      3.11563816e-03 4.25404450e-03 2.15698034e-03 5.33253467e-03
      6.53085671e-03 5.81186358e-03 2.27681245e-03 3.05572199e-03
      3.17555433e-03 6.89035375e-03 1.49790291e-03 1.97723182e-03
      2.39664479e-03 6.47094054e-03 1.97723182e-03 2.15698034e-03
      1.79748354e-03 1.61773514e-03 4.13421215e-03 3.53505090e-03
      4.85320576e-03 2.51647690e-03 3.95446364e-03 3.53505090e-03
      2.33672862e-03 5.75194741e-03 9.58657917e-03 8.98741744e-03
      2.99580581e-03 2.81605753e-03 1.73756736e-03 3.83463153e-03
      4.55362489e-03 1.35410428e-02 1.43798685e-03 8.08867626e-03
      1.37807068e-03 3.05572199e-03 1.67765131e-03 1.61773514e-03
      2.93588988e-03 3.23547027e-03 2.33672862e-03 1.67765131e-03
      3.47513473e-03 5.57219889e-03 1.15038948e-02 7.48951454e-03
      2.33672862e-03 1.91731576e-03 2.03714799e-03 7.01018563e-03
      2.99580581e-03 2.15698034e-03 2.69622519e-03 3.77471535e-03
      1.85739959e-03 1.36009585e-02 1.49790291e-03 2.45656073e-03
      1.21030556e-02 2.93588988e-03 2.63630925e-03 3.53505090e-03
      6.95026945e-03 3.05572199e-03 2.21689628e-03 5.21270232e-03
      1.31815462e-03 5.21270232e-03 2.69622519e-03 4.01437981e-03</_>
    <_>
      5.32773649e-03 2.09880527e-03 4.19761054e-03 2.09880527e-03
      2.58314493e-03 5.97352255e-03 5.97352255e-03 3.39037762e-03
      5.81207592e-03 1.93735864e-03 4.84339660e-03 3.39037762e-03
      4.19761054e-03 2.90603796e-03 3.71327088e-03 4.03616391e-03
      2.90603796e-03 3.71327088e-03 1.61446561e-03 3.06748459e-03
      5.00484323e-03 3.55182425e-03 5.65062976e-03 8.71811435e-03
      2.90603796e-03 2.42169830e-03 6.45786244e-03 6.13496918e-03
      1.14627052e-02 8.71811435e-03 5.16628986e-03 2.74459156e-03
      4.84339660e-03 4.35905717e-03 4.52050380e-03 5.65062976e-03
      2.90603796e-03 1.77591213e-03 3.87471728e-03 4.35905717e-03
      1.45301898e-03 3.22893122e-03 3.87471728e-03 2.42169830e-03
      2.09880527e-03 6.45786233e-04 4.03616391e-03 2.74459156e-03
      2.74459156e-03 4.35905717e-03 2.09880527e-03 1.61446561e-03
      4.03616391e-03 5.48918312e-03 3.39037762e-03 4.35905717e-03
      1.29157247e-03 2.74459156e-03 3.71327088e-03 4.19761054e-03
      4.68194997e-03 5.32773649e-03 3.06748459e-03 5.16628986e-03
      5.16628986e-03 1.93735864e-03 2.26025190e-03 4.52050380e-03
      4.03616391e-03 3.06748459e-03 4.68194997e-03 5.32773649e-03
      4.68194997e-03 3.55182425e-03 3.39037762e-03 5.65062976e-03
      1.93735864e-03 2.58314493e-03 3.39037762e-03 5.65062976e-03
      4.35905717e-03 8.23377445e-03 3.87471728e-03 1.21084917e-02
      4.68194997e-03 3.87471728e-03 4.35905717e-03 7.91088119e-03
      4.19761054e-03 6.45786244e-03 3.39037762e-03 1.61446561e-03
      2.74459156e-03 4.84339660e-03 6.61930908e-03 3.39037762e-03
      5.81207592e-03 3.55182425e-03 3.06748459e-03 3.55182425e-03
      3.71327088e-03 5.65062976e-03 3.55182425e-03 9.36389994e-03
      2.58314493e-03 6.78075524e-03 2.26025190e-03 4.52050380e-03
      2.26025190e-03 3.39037762e-03 2.58314493e-03 1.77591213e-03
      1.42072970e-02 1.93735864e-03 1.77591213e-03 3.06748459e-03
      1.45301898e-03 2.58314493e-03 3.55182425e-03 2.90603796e-03
      7.26509513e-03 4.19761054e-03 1.45301898e-03 3.06748459e-03
      4.19761054e-03 5.81207592e-03 6.13496918e-03 3.22893122e-03
      4.19761054e-03 1.61446561e-03 3.55182425e-03 3.55182425e-03
      5.32773649e-03 7.26509513e-03 1.29157247e-03 3.55182425e-03
      3.22893122e-03 2.90603796e-03 4.52050380e-03 6.94220187e-03
      3.06748459e-03 6.78075524e-03 2.26025190e-03 3.39037762e-03
      3.22893122e-03 6.29641581e-03 2.42169830e-03 5.65062976e-03
      4.19761054e-03 2.58314493e-03 5.00484323e-03 4.35905717e-03
      4.68194997e-03 3.71327088e-03 2.90603796e-03 4.19761054e-03
      2.74459156e-03 5.81207592e-03 1.45301898e-03 3.55182425e-03
      1.93735864e-03 4.19761054e-03 4.03616391e-03 2.74459156e-03
      4.19761054e-03 5.16628986e-03 2.26025190e-03 3.39037762e-03
      4.35905717e-03 1.93735864e-03 3.87471728e-03 2.90603796e-03
      3.39037762e-03 1.93735864e-03 4.03616391e-03 8.23377445e-03
      3.06748459e-03 8.71811435e-03 6.13496918e-03 5.48918312e-03
      3.06748459e-03 4.68194997e-03 3.87471728e-03 2.42169830e-03
      2.42169830e-03 4.19761054e-03 5.81207592e-03 6.78075524e-03
      5.00484323e-03 3.87471728e-03 5.81207592e-03 3.87471728e-03
      3.55182425e-03 1.45301898e-03 3.22893122e-03 1.93735864e-03
      3.22893122e-03 3.06748459e-03 2.26025190e-03 9.20245424e-03
      2.26025190e-03 2.58314493e-03 2.90603796e-03 6.45786244e-03
      9.52534657e-03 5.16628986e-03 9.84823983e-03 3.39037762e-03
      3.22893122e-03 4.35905717e-03 3.22893122e-03 2.90603796e-03
      3.87471728e-03 3.71327088e-03 5.81207592e-03 5.48918312e-03
      2.42169830e-03 4.35905717e-03 5.48918312e-03 9.20245424e-03
      2.74459156e-03 3.06748459e-03 4.19761054e-03 2.26025190e-03
      5.00484323e-03 5.00484323e-03 4.52050380e-03 4.52050380e-03
      9.52534657e-03 3.22893122e-03 5.97352255e-03 2.90603796e-03
      3.71327088e-03 5.16628986e-03 4.19761054e-03 2.74459156e-03
      4.52050380e-03 6.78075524e-03 3.06748459e-03 3.06748459e-03</_>
    <_>
      1.41206682e-02 1.28369709e-03 1.28369709e-03 9.62772779e-03
      5.13478834e-03 1.28369709e-03 2.56739417e-03 2.56739417e-03
      3.85109126e-03 1.28369709e-03 3.85109126e-03 5.13478834e-03
      7.70218251e-03 7.06033409e-03 5.13478834e-03 5.77663677e-03
      6.41848543e-04 6.41848543e-04 6.41848543e-04 3.85109126e-03
      1.28369709e-03 6.41848519e-03 3.85109126e-03 3.85109126e-03
      1.28369709e-03 8.34403094e-03 3.20924260e-03 4.49293992e-03
      1.92554563e-03 7.06033409e-03 4.49293992e-03 1.28369709e-03
      6.41848543e-04 2.56739417e-03 1.02695767e-02 1.28369709e-03
      5.13478834e-03 6.41848519e-03 2.56739417e-03 2.56739417e-03
      2.56739417e-03 1.28369709e-03 1.28369709e-03 3.20924260e-03
      5.77663677e-03 3.20924260e-03 2.56739417e-03 3.85109126e-03
      1.28369709e-03 1.28369709e-03 5.13478834e-03 1.28369709e-03 0.
      6.41848543e-04 1.92554563e-03 1.28369709e-03 8.98587983e-03
      7.06033409e-03 1.92554563e-03 1.92554563e-03 2.56739417e-03
      6.41848543e-04 1.92554563e-03 6.41848519e-03 3.85109126e-03
      1.92554563e-03 3.20924260e-03 6.41848519e-03 6.41848543e-04 0.
      6.41848543e-04 1.28369704e-02 1.28369709e-03 0. 2.56739417e-03
      3.85109126e-03 1.92554563e-03 6.41848519e-03 2.56739417e-03
      8.34403094e-03 1.21951224e-02 6.41848543e-04 1.92554563e-03
      5.13478834e-03 1.92554563e-03 8.34403094e-03 6.41848543e-04
      5.77663677e-03 5.77663677e-03 7.70218251e-03 6.41848543e-04
      5.13478834e-03 6.41848543e-04 2.56739417e-03 3.20924260e-03
      6.41848543e-04 1.28369709e-03 2.56739408e-02 8.98587983e-03
      5.13478834e-03 2.56739417e-03 1.28369709e-03 2.56739417e-03
      3.20924260e-03 1.09114256e-02 8.34403094e-03 2.56739417e-03 0.
      7.70218251e-03 5.13478834e-03 4.49293992e-03 1.28369709e-03
      2.18228512e-02 1.92554563e-03 0. 1.92554563e-03 4.49293992e-03 0.
      2.56739417e-03 1.28369709e-03 1.28369709e-03 3.20924260e-03
      2.56739417e-03 3.85109126e-03 5.77663677e-03 9.62772779e-03
      6.41848543e-04 1.92554563e-03 1.02695767e-02 6.41848543e-04
      1.28369709e-03 1.92554563e-03 1.92554563e-03 2.50320937e-02
      5.13478834e-03 1.28369709e-03 4.49293992e-03 6.41848543e-04
      1.92554563e-03 3.20924260e-03 1.28369709e-03 1.28369709e-03
      1.28369709e-03 1.92554563e-03 5.77663677e-03 5.77663677e-03
      3.85109126e-03 1.28369709e-03 2.56739417e-03 7.06033409e-03
      8.98587983e-03 4.49293992e-03 7.06033409e-03 4.49293992e-03
      1.92554563e-03 5.77663677e-03 4.49293992e-03 3.20924260e-03
      2.56739417e-03 2.56739417e-03 1.47625161e-02 8.34403094e-03
      6.41848543e-04 5.77663677e-03 3.20924260e-03 1.92554563e-03
      3.20924260e-03 0. 3.20924260e-03 1.92554563e-03 6.41848519e-03
      1.21951224e-02 1.41206682e-02 4.49293992e-03 5.13478834e-03
      3.20924260e-03 0. 1.28369709e-03 1.92554563e-03 3.20924260e-03
      1.02695767e-02 1.09114256e-02 7.06033409e-03 2.56739417e-03
      6.41848519e-03 1.28369709e-03 0. 2.56739417e-03 3.85109126e-03
      4.49293992e-03 3.20924260e-03 1.92554563e-03 0. 1.92554563e-03
      6.41848543e-04 3.85109126e-03 4.49293992e-03 3.85109126e-03
      3.20924260e-03 9.62772779e-03 7.06033409e-03 7.06033409e-03
      3.85109126e-03 3.20924260e-03 1.28369704e-02 1.28369709e-03
      3.20924260e-03 3.20924260e-03 1.28369709e-03 1.28369709e-03
      6.41848543e-04 1.28369709e-03 1.28369709e-03 5.13478834e-03
      2.18228512e-02 3.20924260e-03 4.49293992e-03 5.13478834e-03
      5.13478834e-03 7.70218251e-03 3.85109126e-03 0. 3.85109126e-03
      6.41848543e-04 5.13478834e-03 7.06033409e-03 3.20924260e-03
      1.66880619e-02 3.20924260e-03 3.20924260e-03 6.41848519e-03
      3.20924260e-03 4.49293992e-03 1.28369709e-03 3.20924260e-03
      1.28369709e-03 3.85109126e-03 3.85109126e-03 3.85109126e-03
      5.13478834e-03</_>
    <_>
      0. 1.37931039e-03 4.82758647e-03 6.89655193e-04 4.48275870e-03
      4.82758647e-03 5.17241377e-03 3.10344831e-03 1.17241386e-02
      2.41379323e-03 4.82758647e-03 3.10344831e-03 6.20689662e-03
      3.79310362e-03 1.03448285e-03 5.51724155e-03 3.44827585e-03
      3.79310362e-03 2.06896570e-03 3.44827585e-03 6.20689662e-03
      2.06896570e-03 1.06896553e-02 4.48275870e-03 2.75862077e-03
      1.72413792e-03 7.58620724e-03 7.58620724e-03 7.58620724e-03
      1.13793109e-02 6.55172439e-03 5.51724155e-03 3.44827585e-03
      8.27586278e-03 3.10344831e-03 7.58620724e-03 2.06896570e-03
      1.37931039e-03 4.13793139e-03 2.06896570e-03 1.72413792e-03
      7.58620724e-03 4.82758647e-03 3.44827585e-03 4.48275870e-03
      6.89655193e-04 3.44827585e-03 5.17241377e-03 2.75862077e-03
      5.17241377e-03 1.72413792e-03 3.79310362e-03 7.24137947e-03
      6.55172439e-03 8.62068962e-03 5.51724155e-03 1.72413792e-03
      1.37931039e-03 1.72413792e-03 7.24137947e-03 5.51724155e-03
      5.86206932e-03 4.13793139e-03 1.03448285e-03 2.75862077e-03
      4.13793139e-03 4.48275870e-03 1.03448285e-03 3.10344831e-03
      3.10344831e-03 3.79310362e-03 2.75862077e-03 6.20689662e-03
      4.82758647e-03 1.37931039e-03 3.79310362e-03 1.37931039e-03
      1.03448285e-03 6.89655193e-04 6.89655170e-03 3.44827585e-03
      7.58620724e-03 2.06896570e-03 3.44827585e-03 2.06896570e-03
      6.89655193e-04 5.17241377e-03 4.13793139e-03 1.72413792e-03
      8.96551739e-03 3.44827585e-03 3.10344831e-03 5.51724155e-03
      1.00000007e-02 2.41379323e-03 5.86206932e-03 7.93103501e-03
      8.96551739e-03 3.44827585e-03 4.82758647e-03 3.10344831e-03
      2.06896570e-03 5.51724155e-03 1.72413792e-03 2.06896570e-03
      3.10344831e-03 1.03448285e-03 3.44827585e-03 1.03448285e-03
      6.55172439e-03 4.48275870e-03 3.44827585e-03 1.82758626e-02
      3.44827597e-04 3.44827585e-03 4.82758647e-03 3.79310362e-03
      2.06896570e-03 3.10344831e-03 6.89655193e-04 1.00000007e-02
      3.44827585e-03 3.44827585e-03 3.44827597e-04 2.75862077e-03
      6.89655193e-04 1.00000007e-02 4.82758647e-03 5.86206932e-03
      2.75862077e-03 2.75862077e-03 3.10344831e-03 1.03448285e-03
      3.44827585e-03 5.51724155e-03 1.72413792e-03 8.96551739e-03
      5.86206932e-03 4.82758647e-03 1.17241386e-02 4.82758647e-03
      5.17241377e-03 3.44827585e-03 3.10344831e-03 3.10344831e-03
      5.86206932e-03 1.37931039e-03 7.93103501e-03 4.48275870e-03
      2.06896570e-03 5.17241377e-03 4.48275870e-03 4.13793139e-03
      2.41379323e-03 3.79310362e-03 8.96551739e-03 4.13793139e-03
      3.10344831e-03 2.41379323e-03 3.10344831e-03 2.41379323e-03
      1.72413792e-03 1.37931039e-03 6.55172439e-03 5.51724155e-03
      3.44827585e-03 2.06896570e-03 2.75862077e-03 2.41379323e-03
      1.37931039e-03 2.41379323e-03 1.03448275e-02 1.03448285e-03
      1.03448285e-03 3.44827585e-03 6.20689662e-03 3.44827585e-03
      6.20689662e-03 5.17241377e-03 8.27586278e-03 8.62068962e-03
      4.82758647e-03 4.82758647e-03 4.82758647e-03 2.06896570e-03
      3.10344831e-03 1.10344831e-02 3.44827585e-03 4.13793139e-03
      3.79310362e-03 7.58620724e-03 5.17241377e-03 2.06896570e-03
      4.13793139e-03 2.75862077e-03 2.41379323e-03 0. 1.72413792e-03
      2.06896570e-03 5.86206932e-03 3.79310362e-03 6.89655193e-04
      3.44827597e-04 6.89655170e-03 3.44827585e-03 7.24137947e-03
      8.96551739e-03 3.44827585e-03 3.79310362e-03 4.48275870e-03
      1.03448285e-03 2.06896570e-03 5.17241377e-03 2.06896570e-03
      3.10344831e-03 5.17241377e-03 4.13793139e-03 3.79310362e-03
      3.79310362e-03 5.86206932e-03 1.72413792e-03 3.10344831e-03
      1.37931039e-03 3.10344831e-03 2.41379323e-03 5.86206932e-03
      3.44827585e-03 2.41379323e-03 1.34482766e-02 1.72413792e-03
      8.27586278e-03 3.79310362e-03 4.82758647e-03 4.48275870e-03
      3.79310362e-03 3.10344831e-03 4.82758647e-03 1.37931039e-03
      2.75862077e-03 3.10344831e-03</_>
    <_>
      5.13796359e-02 1.90294953e-03 2.85442430e-03 2.37868680e-03 0.
      1.90294953e-03 1.90294953e-03 3.33016180e-03 5.23311133e-03
      7.13606086e-03 2.37868680e-03 0. 2.37868680e-03 4.28163633e-03
      3.33016180e-03 0. 4.75737383e-04 4.75737383e-04 2.37868680e-03
      1.42721217e-02 2.85442430e-03 2.85442430e-03 1.90294953e-03
      9.03900992e-03 2.37868680e-03 1.90294953e-03 1.42721215e-03
      2.85442430e-03 2.85442430e-03 1.47478590e-02 2.85442430e-03
      4.75737383e-04 0. 1.09419599e-02 9.51474765e-04 1.90294953e-03
      4.75737383e-04 4.75737383e-04 9.51474765e-04 6.66032359e-03
      4.75737359e-03 2.85442430e-03 9.51474765e-04 2.85442430e-03
      9.51474765e-04 1.95052326e-02 5.23311133e-03 1.42721215e-03
      9.51474765e-04 9.51474765e-04 1.90294953e-03 2.37868680e-03
      4.75737383e-04 3.80589906e-03 2.37868680e-03 4.75737383e-04
      1.42721215e-03 9.51474765e-04 4.75737383e-04 9.51474765e-04 0.
      4.75737383e-04 9.51474765e-04 2.37868680e-03 1.90294953e-03
      9.51474765e-04 2.37868680e-03 3.80589906e-03 0. 3.80589906e-03 0.
      6.18458586e-03 1.42721215e-03 9.51474765e-04 1.66508090e-02
      9.51474765e-04 9.51474765e-04 0. 4.75737383e-04 3.33016180e-03
      9.03900992e-03 5.70884859e-03 1.90294953e-03 6.66032359e-03
      4.75737359e-03 9.51474765e-04 3.33016180e-03 6.66032359e-03
      1.85537580e-02 9.51474765e-04 0. 4.75737359e-03 3.33016180e-03
      3.80589906e-03 4.75737383e-04 9.51474765e-04 1.90294953e-03
      4.75737383e-04 7.61179812e-03 2.85442430e-03 2.85442430e-03
      4.75737383e-04 3.33016180e-03 2.14081816e-02 9.51474765e-04
      9.51474765e-04 4.75737383e-04 5.23311133e-03 1.14176972e-02
      2.85442430e-03 1.42721215e-03 4.75737383e-04 2.37868689e-02
      1.42721215e-03 6.66032359e-03 2.37868680e-03 3.94862033e-02
      3.80589906e-03 0. 6.18458586e-03 2.85442430e-03 4.75737383e-04
      1.42721215e-03 9.51474765e-04 7.61179812e-03 0. 0. 4.75737383e-04
      1.90294953e-03 1.90294953e-03 5.70884859e-03 9.51474765e-04
      4.75737383e-04 0. 2.37868680e-03 4.75737359e-03 0. 1.90294953e-03
      1.42721215e-03 2.37868680e-03 5.23311133e-03 0. 4.75737383e-04
      3.80589906e-03 4.28163633e-03 4.28163633e-03 2.85442430e-03
      4.75737359e-03 1.42721215e-03 0. 4.75737359e-03 2.37868680e-03
      2.99714543e-02 4.75737383e-04 1.42721215e-03 2.18839198e-02
      1.42721215e-03 2.47383434e-02 0. 1.42721215e-03 4.28163633e-03
      9.51474765e-04 4.75737383e-04 9.51474765e-04 1.90294953e-03
      4.75737383e-04 0. 0. 0. 4.75737359e-03 4.75737383e-04
      4.28163633e-03 9.51474765e-04 1.90294953e-03 1.42721215e-03
      9.51474765e-04 4.28163633e-03 9.99048539e-03 4.75737383e-04
      1.42721215e-03 0. 3.04471925e-02 2.37868680e-03 4.75737383e-04
      9.51474765e-04 9.51474765e-04 9.51474765e-04 1.80780198e-02
      4.75737359e-03 9.51474765e-04 1.42721215e-03 1.42721215e-03 0.
      8.08753539e-03 1.76022835e-02 7.61179812e-03 1.42721215e-03
      4.75737383e-04 9.51474765e-04 1.04662227e-02 0. 3.56803052e-02 0.
      1.42721215e-03 4.28163633e-03 0. 2.37868680e-03 9.51474765e-04
      4.75737383e-04 4.75737383e-04 1.42721215e-03 9.51474765e-04
      3.33016180e-03 6.66032359e-03 1.42721215e-03 1.42721215e-03 0. 0.
      9.51474765e-04 1.14176972e-02 3.33016180e-03 4.75737383e-04 0.
      4.75737383e-04 4.75737383e-04 4.18648906e-02 4.75737383e-04
      4.28163633e-03 1.90294953e-03 7.13606086e-03 6.66032359e-03
      2.37868680e-03 2.85442430e-03 5.70884859e-03 4.75737383e-04
      1.42721215e-03 0. 4.23406288e-02 9.51474765e-04 9.51474765e-04</_>
    <_>
      1.31882622e-03 9.89119639e-04 6.59413124e-03 1.94526874e-02
      4.94559854e-03 2.30794586e-03 5.27530489e-03 8.90207663e-03
      5.60501125e-03 0. 2.96735903e-03 6.59413112e-04 4.28618537e-03
      4.28618537e-03 1.31882622e-03 7.25354441e-03 4.61589172e-03
      3.62677220e-03 3.95647855e-03 9.89119639e-04 4.94559854e-03
      4.61589172e-03 5.93471806e-03 1.97823928e-03 2.63765245e-03
      6.59413112e-04 5.27530489e-03 4.61589172e-03 1.64853281e-03
      2.96735903e-03 0. 6.92383759e-03 3.29706556e-04 2.63765245e-03
      2.96735903e-03 4.61589172e-03 1.64853281e-03 3.29706556e-04
      3.95647855e-03 4.61589172e-03 2.96735903e-03 1.38476752e-02
      3.29706556e-04 4.28618537e-03 1.97823928e-03 0. 8.90207663e-03
      4.61589172e-03 5.93471806e-03 6.92383759e-03 9.89119639e-04
      1.97823928e-03 3.95647855e-03 1.64853281e-03 1.02209030e-02
      6.26442442e-03 9.89119639e-04 2.63765245e-03 6.92383759e-03
      6.92383759e-03 6.26442442e-03 4.28618537e-03 1.97823928e-03
      4.28618537e-03 5.27530489e-03 5.27530489e-03 9.56149027e-03
      2.30794586e-03 5.27530489e-03 3.62677220e-03 4.28618537e-03
      1.31882622e-03 1.51665015e-02 2.63765245e-03 6.59413112e-04
      3.29706562e-03 1.64853281e-03 7.58325076e-03 0. 1.31882622e-03
      9.89119639e-04 1.02209030e-02 3.29706562e-03 2.63765245e-03
      4.94559854e-03 6.59413112e-04 8.24266393e-03 1.31882622e-03
      4.61589172e-03 6.26442442e-03 2.63765245e-03 8.57237075e-03
      1.12100225e-02 7.91295711e-03 9.89119639e-04 1.64853279e-02
      1.18694361e-02 3.29706556e-04 6.59413112e-04 3.95647855e-03
      4.94559854e-03 1.97823928e-03 2.63765245e-03 2.96735903e-03
      1.31882622e-03 6.59413112e-04 3.29706562e-03 1.31882622e-03
      1.97823928e-03 2.96735903e-03 1.71447415e-02 7.58325076e-03
      1.21991429e-02 9.89119709e-03 9.89119639e-04 7.58325076e-03
      3.95647855e-03 3.29706562e-03 3.62677220e-03 3.62677220e-03
      1.18694361e-02 3.29706562e-03 0. 2.63765245e-03 6.59413112e-04
      9.89119639e-04 8.24266393e-03 5.93471806e-03 1.02209030e-02
      2.96735903e-03 1.97823928e-03 2.63765245e-03 3.62677220e-03 0.
      1.31882622e-03 7.58325076e-03 8.24266393e-03 3.29706562e-03
      2.63765245e-03 8.90207663e-03 9.89119639e-04 5.93471806e-03
      9.89119639e-04 4.61589172e-03 1.21991429e-02 3.29706562e-03
      1.97823928e-03 9.56149027e-03 2.30794586e-03 1.97823928e-03
      3.62677220e-03 6.26442442e-03 2.63765245e-03 2.96735903e-03
      3.62677220e-03 1.64853281e-03 2.96735903e-03 1.31882622e-03
      3.29706562e-03 1.97823928e-03 6.59413112e-04 2.96735903e-03
      2.96735903e-03 1.31882622e-03 5.27530489e-03 6.26442442e-03
      9.89119639e-04 6.59413112e-04 2.96735903e-03 2.30794586e-03
      3.29706556e-04 2.96735903e-03 7.58325076e-03 9.89119639e-04
      1.64853281e-03 5.60501125e-03 3.62677220e-03 3.29706556e-04
      5.60501125e-03 2.96735903e-03 4.94559854e-03 2.96735903e-03
      1.31882622e-03 6.59413124e-03 3.29706556e-04 3.29706556e-04
      3.62677220e-03 1.97823928e-03 6.26442442e-03 6.92383759e-03
      4.94559854e-03 5.60501125e-03 1.31882622e-03 2.63765245e-03
      1.64853281e-03 1.05506098e-02 9.89119639e-04 1.64853281e-03
      6.59413112e-04 2.96735903e-03 7.91295711e-03 1.31882622e-03
      2.96735903e-03 2.63765245e-03 2.30794586e-03 5.93471806e-03
      3.95647855e-03 8.90207663e-03 4.28618537e-03 1.48367947e-02
      2.63765245e-03 2.96735903e-03 3.29706562e-03 2.30794586e-03
      9.89119639e-04 6.92383759e-03 1.15397293e-02 2.63765245e-03
      9.89119639e-04 6.59413112e-04 2.96735903e-03 3.29706562e-03
      5.93471806e-03 9.23178345e-03 1.97823928e-03 4.28618537e-03
      3.29706562e-03 2.63765245e-03 9.23178345e-03 1.64853281e-03
      3.29706556e-04 7.58325076e-03 8.57237075e-03 2.30794586e-03
      4.94559854e-03 9.23178345e-03 6.59413112e-04 1.31882622e-03
      4.28618537e-03 5.93471806e-03</_>
    <_>
      7.27272709e-04 4.36363649e-03 4.72727278e-03 2.90909084e-03
      1.81818171e-03 3.99999972e-03 3.27272713e-03 2.54545454e-03
      1.09090912e-03 1.09090912e-03 1.81818171e-03 2.54545454e-03
      2.90909084e-03 5.09090908e-03 1.81818171e-03 5.45454537e-03
      5.81818167e-03 1.09090912e-03 3.99999972e-03 1.81818171e-03
      5.81818167e-03 3.63636343e-03 3.99999972e-03 3.63636343e-03
      4.72727278e-03 7.27272686e-03 7.99999945e-03 1.38181811e-02
      4.36363649e-03 1.81818171e-03 7.27272709e-04 3.63636343e-03
      2.54545454e-03 7.27272709e-04 3.99999972e-03 2.90909084e-03
      1.81818171e-03 7.27272709e-04 4.36363649e-03 1.27272727e-02 0.
      6.90909056e-03 7.27272709e-04 4.36363649e-03 1.45454542e-03
      3.63636354e-04 1.01818182e-02 3.99999972e-03 2.54545454e-03
      8.36363621e-03 1.45454542e-03 1.09090912e-03 6.18181797e-03
      5.81818167e-03 3.99999972e-03 7.63636362e-03 2.54545454e-03
      1.81818171e-03 7.63636362e-03 1.27272727e-02 2.90909084e-03
      3.99999972e-03 1.45454542e-03 7.63636362e-03 6.18181797e-03
      5.45454537e-03 2.90909084e-03 3.27272713e-03 7.27272709e-04
      3.63636343e-03 7.27272709e-04 1.81818171e-03 1.81818171e-03
      6.54545426e-03 4.36363649e-03 2.18181824e-03 4.72727278e-03
      3.63636354e-04 1.81818171e-03 7.27272709e-04 1.81818171e-03
      3.99999972e-03 3.63636343e-03 2.54545454e-03 2.18181824e-03
      2.54545454e-03 3.27272713e-03 9.81818140e-03 7.27272686e-03
      6.18181797e-03 4.36363649e-03 4.36363649e-03 2.90909084e-03
      9.81818140e-03 1.81818171e-03 6.90909056e-03 1.12727266e-02
      4.72727278e-03 3.63636354e-04 7.99999945e-03 1.09090912e-03
      1.45454542e-03 2.54545454e-03 8.72727297e-03 1.45454542e-03
      2.90909084e-03 2.54545454e-03 7.27272709e-04 5.09090908e-03
      4.36363649e-03 5.45454537e-03 3.63636343e-03 1.92727260e-02
      3.27272713e-03 3.63636354e-04 5.81818167e-03 4.36363649e-03
      3.63636354e-04 1.45454542e-03 6.54545426e-03 2.47272719e-02
      1.81818171e-03 5.81818167e-03 1.45454542e-03 7.27272709e-04
      2.18181824e-03 3.27272713e-03 3.63636343e-03 2.90909084e-03
      1.81818171e-03 6.18181797e-03 7.27272686e-03 7.27272709e-04
      3.27272713e-03 1.09090912e-03 9.45454556e-03 2.18181824e-03
      5.09090908e-03 1.81818171e-03 6.54545426e-03 1.45454542e-03
      3.63636343e-03 1.45454542e-03 3.63636343e-03 1.23636359e-02
      6.18181797e-03 2.90909084e-03 8.36363621e-03 3.63636343e-03
      3.63636343e-03 1.45454542e-03 2.90909084e-03 3.63636343e-03
      1.45454542e-03 7.27272709e-04 1.09090912e-03 2.54545454e-03
      7.63636362e-03 2.54545454e-03 1.05454540e-02 5.09090908e-03
      5.81818167e-03 1.09090912e-03 7.27272709e-04 2.90909084e-03
      3.63636343e-03 2.54545454e-03 1.81818171e-03 1.09090912e-03
      3.63636354e-04 1.45454542e-03 7.27272709e-04 6.54545426e-03
      2.18181824e-03 1.45454542e-03 6.18181797e-03 2.90909084e-03
      2.54545454e-03 3.27272713e-03 5.45454537e-03 3.99999972e-03
      3.63636354e-04 2.90909084e-03 1.81818171e-03 1.45454542e-03
      7.27272709e-04 5.45454537e-03 8.36363621e-03 2.18181824e-03
      1.81818171e-03 9.45454556e-03 5.45454537e-03 0. 2.54545454e-03
      8.36363621e-03 5.81818167e-03 1.81818171e-03 3.99999972e-03
      4.72727278e-03 1.09090907e-02 0. 1.81818171e-03 2.18181824e-03
      1.09090912e-03 1.81818171e-03 2.54545454e-03 2.90909084e-03
      6.54545426e-03 6.18181797e-03 6.54545426e-03 3.63636343e-03
      2.54545454e-03 3.27272713e-03 1.45454542e-03 6.54545426e-03
      1.81818171e-03 7.27272709e-04 1.09090912e-03 5.45454537e-03
      3.63636354e-04 2.54545454e-03 1.09090912e-03 5.45454537e-03
      4.36363649e-03 3.63636343e-03 3.63636343e-03 3.27272713e-03
      3.63636354e-04 6.76363632e-02 5.81818167e-03 1.45454542e-03
      3.63636343e-03 1.34545453e-02 2.54545454e-03 3.63636343e-03
      7.27272686e-03 2.18181824e-03 1.45454542e-03 3.63636354e-04
      1.12727266e-02</_>
    <_>
      1.28205132e-03 6.41025661e-04 5.76923089e-03 3.84615408e-03
      2.56410264e-03 1.92307704e-03 4.48717969e-03 2.56410264e-03
      1.92307704e-03 1.28205132e-03 6.41025649e-03 1.28205132e-03
      1.15384618e-02 5.76923089e-03 4.48717969e-03 7.05128210e-03
      1.28205132e-03 2.56410264e-03 3.20512825e-03 6.41025661e-04
      4.48717969e-03 3.20512825e-03 6.41025649e-03 4.48717969e-03
      3.20512825e-03 1.92307704e-03 3.20512825e-03 1.28205132e-03
      1.15384618e-02 4.48717969e-03 1.85897443e-02 2.56410264e-03
      3.20512825e-03 1.79487187e-02 5.76923089e-03 2.56410264e-03
      1.92307704e-03 6.41025661e-04 3.20512825e-03 1.15384618e-02
      2.56410264e-03 1.92307704e-03 1.08974362e-02 1.28205132e-03
      1.92307704e-03 0. 0. 1.28205132e-03 3.84615408e-03 2.56410264e-03
      1.92307704e-03 6.41025649e-03 3.20512825e-03 2.56410264e-03
      3.20512825e-03 1.92307704e-03 2.56410264e-03 2.56410264e-03
      2.56410264e-03 1.92307704e-03 9.61538497e-03 1.92307704e-03
      6.41025649e-03 3.84615408e-03 3.84615408e-03 2.56410264e-03
      1.28205132e-03 1.92307704e-03 6.41025661e-04 2.56410264e-03
      2.56410264e-03 5.12820529e-03 5.12820529e-03 4.48717969e-03
      2.56410264e-03 1.28205132e-03 3.20512825e-03 3.20512825e-03
      1.28205132e-03 1.08974362e-02 7.69230817e-03 1.92307704e-03
      1.28205132e-03 9.61538497e-03 4.48717969e-03 1.92307704e-03
      4.48717969e-03 1.60256419e-02 1.92307704e-03 7.69230817e-03
      5.76923089e-03 2.56410264e-03 2.56410264e-03 1.34615386e-02
      3.84615408e-03 1.92307704e-03 3.84615408e-03 6.41025661e-04 0.
      1.92307704e-03 5.76923089e-03 5.12820529e-03 4.48717969e-03
      5.76923089e-03 1.92307704e-03 6.41025649e-03 2.56410264e-03
      8.33333377e-03 3.20512825e-03 3.84615408e-03 8.97435937e-03
      3.20512825e-03 2.69230772e-02 3.84615408e-03 0. 1.92307704e-03
      1.28205132e-03 1.92307704e-03 0. 0. 5.12820529e-03 4.48717969e-03
      1.92307704e-03 6.41025661e-04 1.92307704e-03 3.20512825e-03
      8.97435937e-03 3.84615408e-03 7.05128210e-03 2.56410264e-03
      6.41025661e-04 1.28205132e-03 3.20512825e-03 2.56410264e-03
      9.61538497e-03 6.41025661e-04 1.02564106e-02 1.28205132e-03
      4.48717969e-03 5.76923089e-03 1.92307704e-03 5.12820529e-03
      1.92307704e-03 2.56410264e-03 5.76923089e-03 1.92307704e-03
      6.41025661e-04 1.21794874e-02 4.48717969e-03 1.28205132e-03
      3.84615408e-03 1.08974362e-02 1.92307704e-03 1.92307704e-03
      3.20512825e-03 4.48717969e-03 2.56410264e-03 1.28205132e-03
      4.48717969e-03 2.56410264e-03 1.28205132e-03 3.20512825e-03
      1.28205132e-03 5.76923089e-03 5.76923089e-03 4.48717969e-03
      1.28205132e-03 4.48717969e-03 7.05128210e-03 1.28205132e-03
      1.28205132e-03 2.82051284e-02 8.33333377e-03 2.56410264e-03
      6.41025661e-04 1.21794874e-02 0. 1.92307704e-03 1.92307704e-03
      3.20512825e-03 4.48717969e-03 1.34615386e-02 1.28205132e-03
      3.20512825e-03 7.05128210e-03 2.56410264e-03 1.47435898e-02
      1.28205132e-03 3.84615408e-03 7.69230817e-03 1.02564106e-02 0.
      1.28205132e-03 1.28205132e-03 4.48717969e-03 3.84615408e-03
      4.48717969e-03 4.48717969e-03 1.28205132e-03 5.76923089e-03
      5.12820529e-03 0. 1.92307704e-03 1.02564106e-02 7.05128210e-03
      7.05128210e-03 2.56410264e-03 4.48717969e-03 3.20512825e-03
      4.48717969e-03 1.92307704e-03 1.92307704e-03 6.41025661e-04
      1.92307704e-03 1.28205132e-03 4.48717969e-03 2.56410264e-03
      3.20512825e-03 0. 1.08974362e-02 5.12820529e-03 5.12820529e-03
      3.20512825e-03 4.48717969e-03 1.92307704e-03 1.92307704e-03
      6.41025661e-04 5.12820529e-03 1.92307704e-03 6.41025661e-04
      7.05128210e-03 1.92307704e-03 1.92307704e-03 1.34615386e-02
      5.12820529e-03 1.92307704e-03 4.48717969e-03 3.84615408e-03
      1.28205132e-03 5.12820529e-03</_>
    <_>
      2.79069785e-03 4.65116277e-03 4.65116277e-03 6.51162816e-03
      7.44186062e-03 0. 2.79069785e-03 9.30232578e-04 1.02325585e-02
      1.86046516e-03 6.51162816e-03 5.58139570e-03 5.58139570e-03
      1.02325585e-02 2.79069785e-03 7.44186062e-03 4.65116277e-03
      3.72093031e-03 3.72093031e-03 0. 6.51162816e-03 1.86046516e-03
      7.44186062e-03 5.58139570e-03 3.72093031e-03 1.86046516e-03
      9.30232578e-04 5.58139570e-03 1.02325585e-02 2.79069785e-03 0.
      6.51162816e-03 9.30232555e-03 0. 1.86046516e-03 2.79069785e-03
      3.72093031e-03 0. 6.51162816e-03 3.72093031e-03 2.79069785e-03
      7.44186062e-03 2.79069785e-03 6.51162816e-03 1.86046516e-03 0.
      1.02325585e-02 2.79069785e-03 4.65116277e-03 2.79069785e-03
      3.72093031e-03 9.30232555e-03 4.65116277e-03 2.79069785e-03
      3.72093031e-03 3.72093031e-03 1.86046516e-03 2.79069785e-03
      2.79069785e-03 9.30232578e-04 3.72093031e-03 1.02325585e-02
      3.72093031e-03 3.72093031e-03 1.86046516e-03 8.37209355e-03
      8.37209355e-03 9.30232578e-04 1.86046516e-03 9.30232555e-03
      1.86046516e-03 2.79069785e-03 9.30232578e-04 9.30232578e-04 0.
      2.79069785e-03 3.72093031e-03 2.79069785e-03 2.79069785e-03
      1.02325585e-02 1.86046516e-03 6.51162816e-03 1.86046516e-03
      1.11627914e-02 1.48837212e-02 2.79069785e-03 4.65116277e-03
      9.30232555e-03 9.30232578e-04 7.44186062e-03 4.65116277e-03
      9.30232555e-03 0. 6.51162816e-03 1.86046516e-03 4.65116277e-03
      5.58139570e-03 1.86046516e-03 1.86046516e-03 9.30232578e-04
      8.37209355e-03 6.51162816e-03 1.86046516e-03 3.72093031e-03
      2.79069785e-03 6.51162816e-03 3.72093031e-03 9.30232555e-03 0.
      9.30232555e-03 5.58139570e-03 4.65116277e-03 4.65116277e-03 0. 0.
      9.30232555e-03 9.30232578e-04 3.72093031e-03 8.37209355e-03
      2.79069785e-03 3.72093031e-03 8.37209355e-03 0. 3.72093031e-03
      2.79069785e-03 0. 2.79069785e-03 5.58139570e-03 4.65116277e-03 0.
      4.65116277e-03 3.72093031e-03 3.72093031e-03 9.30232555e-03
      2.79069785e-03 2.79069785e-03 5.58139570e-03 5.58139570e-03
      5.58139570e-03 6.51162816e-03 2.79069785e-03 5.58139570e-03
      5.58139570e-03 3.72093031e-03 3.72093031e-03 1.86046516e-03
      9.30232578e-04 6.51162816e-03 9.30232555e-03 2.79069785e-03
      5.58139570e-03 1.02325585e-02 9.30232578e-04 1.02325585e-02
      9.30232578e-04 1.30232563e-02 0. 2.79069785e-03 8.37209355e-03
      7.44186062e-03 7.44186062e-03 1.86046516e-03 5.58139570e-03
      5.58139570e-03 6.51162816e-03 1.11627914e-02 3.72093031e-03
      1.86046516e-03 5.58139570e-03 5.58139570e-03 2.79069785e-03
      9.30232578e-04 1.86046516e-03 2.79069785e-03 9.30232578e-04
      9.30232578e-04 2.79069785e-03 2.79069785e-03 5.58139570e-03
      3.72093031e-03 3.72093031e-03 7.44186062e-03 2.79069785e-03
      1.86046516e-03 0. 9.30232578e-04 7.44186062e-03 5.58139570e-03
      9.30232578e-04 3.72093031e-03 2.79069785e-03 2.79069785e-03
      4.65116277e-03 1.86046516e-03 2.79069785e-03 1.86046516e-03
      1.86046516e-03 0. 2.79069785e-03 2.79069785e-03 9.30232578e-04 0.
      2.79069785e-03 1.02325585e-02 1.86046516e-03 6.51162816e-03
      6.51162816e-03 3.72093031e-03 4.65116277e-03 6.51162816e-03
      1.86046516e-03 9.30232578e-04 3.72093031e-03 1.86046516e-03
      7.44186062e-03 3.72093031e-03 4.65116277e-03 9.30232578e-04
      1.86046516e-03 4.65116277e-03 2.79069785e-03 9.30232578e-04
      1.86046516e-03 4.65116277e-03 5.58139570e-03 9.30232578e-04
      9.30232578e-04 0. 7.44186062e-03 3.72093031e-03 4.65116277e-03
      1.86046516e-03 8.37209355e-03 2.79069785e-03 4.65116277e-03
      7.44186062e-03 8.37209355e-03 9.30232578e-04 5.58139570e-03
      5.58139570e-03</_>
    <_>
      0. 3.38294986e-03 2.02976982e-03 8.79566930e-03 2.02976982e-03
      1.35317992e-03 3.38294986e-03 2.70635984e-03 6.76589960e-04
      1.21786194e-02 5.41271968e-03 4.05953964e-03 8.79566930e-03
      1.35317992e-03 4.05953964e-03 0. 2.02976982e-03 4.73612966e-03
      2.02976982e-03 6.76589960e-04 4.73612966e-03 7.44248973e-03
      2.70635984e-03 7.44248973e-03 6.76589971e-03 6.76589960e-04
      2.02976982e-03 6.76589971e-03 3.38294986e-03 1.15020294e-02
      4.05953974e-02 2.02976982e-03 2.02976982e-03 1.08254394e-02
      2.02976982e-03 7.44248973e-03 2.70635984e-03 0. 2.70635984e-03
      9.47225932e-03 6.76589971e-03 4.05953964e-03 6.76589971e-03
      2.02976982e-03 5.41271968e-03 3.38294986e-03 2.70635984e-03
      4.73612966e-03 4.05953964e-03 3.38294986e-03 2.02976982e-03
      7.44248973e-03 2.02976982e-03 3.38294986e-03 6.76589960e-04
      5.41271968e-03 1.35317992e-03 6.76589960e-04 3.38294986e-03
      1.35317992e-03 5.41271968e-03 2.70635984e-03 1.35317992e-03
      2.70635984e-03 6.08930970e-03 3.38294986e-03 6.76589960e-04
      1.35317992e-03 1.35317992e-03 4.05953964e-03 2.02976982e-03
      4.05953964e-03 1.35317992e-03 6.76589960e-04 0. 2.70635984e-03 0.
      2.02976982e-03 1.35317992e-03 1.15020294e-02 4.73612966e-03
      1.42083894e-02 4.05953964e-03 2.09742896e-02 1.35317992e-03
      6.76589960e-04 2.02976982e-03 1.55615695e-02 2.02976982e-03
      7.44248973e-03 6.76589960e-04 4.05953964e-03 2.02976982e-03
      1.15020294e-02 1.35317992e-03 1.35317992e-03 4.73612966e-03
      2.02976982e-03 0. 4.73612966e-03 2.02976982e-03 2.70635984e-03
      2.02976982e-03 7.44248973e-03 0. 6.76589960e-04 0. 4.73612966e-03
      4.73612966e-03 6.76589971e-03 5.41271968e-03 0. 1.08254394e-02
      2.70635984e-03 2.70635984e-03 2.02976982e-03 4.73612966e-03
      2.70635984e-03 4.05953964e-03 3.38294986e-03 2.02976982e-03
      1.35317992e-03 4.05953964e-03 2.02976982e-03 1.35317992e-03 0.
      2.70635984e-03 0. 2.70635984e-03 1.35317992e-03 1.35317992e-03
      2.02976982e-03 1.35317992e-03 6.76589971e-03 4.73612966e-03
      7.44248973e-03 6.08930970e-03 6.76589960e-04 2.70635984e-03
      4.05953964e-03 2.02976982e-03 2.02976982e-03 0. 2.70635984e-03
      6.76589971e-03 3.38294986e-03 6.76589960e-04 5.41271968e-03
      2.02976982e-03 1.35317992e-03 2.70635984e-03 4.05953964e-03
      8.11907928e-03 6.76589960e-04 0. 1.35317994e-02 5.41271968e-03
      4.05953964e-03 0. 4.05953964e-03 6.76589960e-04 4.73612966e-03
      4.73612966e-03 5.41271968e-03 4.73612966e-03 2.02976982e-03
      2.02976982e-03 6.76589960e-04 6.76589960e-04 5.41271968e-03 0.
      1.82679296e-02 1.35317992e-03 6.76589960e-04 2.02976982e-03
      5.41271968e-03 3.38294986e-03 1.15020294e-02 4.05953964e-03
      8.11907928e-03 6.76589960e-04 1.35317994e-02 3.38294986e-03
      1.35317992e-03 1.75913386e-02 1.35317992e-03 7.44248973e-03
      6.76589971e-03 4.73612966e-03 7.44248973e-03 6.08930970e-03
      4.05953964e-03 4.73612966e-03 2.02976982e-03 5.41271968e-03
      1.42083894e-02 5.41271968e-03 2.02976982e-03 1.35317992e-03
      1.35317994e-02 3.38294986e-03 2.70635984e-03 6.76589960e-04
      1.28552094e-02 1.08254394e-02 8.11907928e-03 3.38294986e-03
      6.76589960e-04 6.76589960e-04 5.41271968e-03 6.76589960e-04
      4.05953964e-03 6.76589971e-03 6.76589960e-04 3.38294986e-03
      2.70635984e-03 1.35317992e-03 6.76589960e-04 2.70635984e-03
      4.73612966e-03 4.73612966e-03 2.02976982e-03 6.08930970e-03
      4.05953964e-03 3.38294986e-03 4.73612966e-03 2.70635984e-03
      2.02976982e-03 1.21786194e-02 3.38294986e-03 8.11907928e-03
      6.76589971e-03 5.41271968e-03 6.76589971e-03 6.76589960e-04
      5.41271968e-03 4.73612966e-03 6.76589960e-04 1.35317992e-03
      1.35317992e-03</_>
    <_>
      0. 0. 7.86627363e-03 9.83284204e-04 2.94985250e-03 0.
      9.83284204e-04 0. 0. 1.96656841e-03 4.91642114e-03 3.93313682e-03
      1.76991150e-02 9.83284204e-04 2.94985250e-03 0. 0. 2.94985250e-03
      3.93313682e-03 0. 9.83284204e-04 9.83284204e-04 1.96656841e-03
      1.96656841e-03 9.83284204e-04 2.94985250e-03 1.17994100e-02
      6.88298931e-03 3.93313682e-03 8.84955749e-03 0. 3.93313682e-03 0.
      9.83284204e-04 3.93313682e-03 9.83284204e-04 2.94985250e-03
      2.94985250e-03 9.83284204e-04 6.88298931e-03 9.83284204e-04
      1.96656841e-03 6.88298931e-03 9.83284204e-04 3.93313682e-03
      1.96656841e-03 7.86627363e-03 0. 1.08161261e-02 1.96656841e-03
      9.83284204e-04 0. 3.93313682e-03 5.89970499e-03 2.94985250e-03
      3.93313682e-03 0. 3.14650945e-02 3.93313682e-03 2.94985250e-03
      7.86627363e-03 0. 0. 9.83284204e-04 9.83284204e-04 0.
      5.89970499e-03 9.83284204e-04 6.88298931e-03 1.96656841e-03
      5.89970499e-03 4.91642114e-03 2.45821048e-02 2.94985250e-03 0.
      1.96656841e-03 0. 3.14650945e-02 0. 1.27826948e-02 2.94985250e-03
      4.91642114e-03 9.83284204e-04 1.57325473e-02 8.84955749e-03
      9.83284204e-04 1.08161261e-02 7.86627363e-03 9.83284204e-04
      4.91642114e-03 9.83284204e-04 9.83284204e-04 2.94985250e-03
      5.89970499e-03 2.94985250e-03 4.91642114e-03 5.89970499e-03
      9.83284204e-04 0. 9.83284204e-04 9.83284204e-04 1.37659786e-02
      4.91642114e-03 2.94985250e-03 1.08161261e-02 1.96656841e-03
      1.27826948e-02 1.96656841e-03 1.96656841e-03 0. 0. 3.93313682e-03
      2.16322523e-02 0. 0. 3.93313682e-03 6.88298931e-03 1.96656841e-03
      6.88298931e-03 9.83284204e-04 4.91642114e-03 9.83284204e-04
      9.83284204e-04 0. 0. 0. 1.27826948e-02 4.91642114e-03 0.
      9.83284204e-04 9.83284204e-04 9.83284204e-04 1.08161261e-02
      9.83284204e-04 2.94985250e-03 2.94985250e-03 1.17994100e-02
      6.88298931e-03 1.96656841e-03 5.89970499e-03 0. 1.96656841e-03
      1.96656841e-03 9.83284228e-03 7.86627363e-03 9.83284204e-04
      9.83284204e-04 9.83284204e-04 1.96656841e-03 0. 3.93313682e-03
      1.96656841e-03 7.86627363e-03 6.88298931e-03 4.91642114e-03
      3.93313682e-03 9.83284204e-04 9.83284204e-04 3.93313682e-03
      1.96656841e-03 1.67158321e-02 0. 7.86627363e-03 1.27826948e-02
      3.93313682e-03 9.83284228e-03 1.96656841e-03 0. 6.88298931e-03
      9.83284204e-04 4.91642114e-03 3.93313682e-03 0. 2.85152420e-02 0.
      0. 9.83284204e-04 9.83284204e-04 0. 2.94985250e-03 0.
      6.88298931e-03 9.83284204e-04 4.91642114e-03 0. 1.96656841e-03
      6.88298931e-03 0. 1.96656841e-03 9.83284228e-03 2.94985268e-02
      9.83284204e-04 1.96656846e-02 0. 9.83284204e-04 4.91642114e-03
      9.83284204e-04 9.83284204e-04 0. 1.37659786e-02 1.08161261e-02
      1.08161261e-02 1.96656841e-03 1.08161261e-02 1.96656841e-03
      4.91642114e-03 8.84955749e-03 9.83284204e-04 9.83284204e-04
      6.88298931e-03 0. 2.94985250e-03 1.96656841e-03 0. 5.89970499e-03
      1.96656846e-02 8.84955749e-03 0. 0. 4.91642114e-03 0.
      7.86627363e-03 1.96656841e-03 0. 3.93313682e-03 7.86627363e-03 0.
      9.83284204e-04 2.94985250e-03 9.83284204e-04 0. 1.96656841e-03
      5.89970499e-03 0. 3.93313682e-03 5.89970499e-03 0. 9.83284204e-04
      2.94985250e-03 0.</_>
    <_>
      2.02142706e-04 1.01071352e-03 8.28785077e-03 2.42571253e-03
      6.06428133e-03 2.22356967e-03 4.64928243e-03 3.03214067e-03
      2.42571253e-03 1.21285627e-03 3.03214067e-03 1.61714165e-03
      4.04285407e-03 6.06428133e-04 2.22356967e-03 2.82999780e-03
      5.86213870e-03 4.64928243e-03 5.86213870e-03 6.67070923e-03
      4.44713933e-03 5.25571033e-03 2.62785517e-03 4.85142507e-03
      3.23428330e-03 9.29856487e-03 2.62785517e-03 9.50070750e-03
      2.02142703e-03 4.64928243e-03 8.08570825e-04 6.87285187e-03
      1.21285627e-03 4.04285407e-03 3.43642593e-03 4.64928243e-03
      1.01071352e-03 3.84071143e-03 2.22356967e-03 8.28785077e-03
      2.42571253e-03 6.06428133e-03 1.41499890e-03 1.63735598e-02
      2.42571253e-03 4.04285413e-04 8.89427867e-03 3.63856880e-03
      3.23428330e-03 5.45785297e-03 2.22356967e-03 2.42571253e-03
      8.89427867e-03 7.07499450e-03 6.06428133e-03 5.05356770e-03
      2.22356967e-03 1.81928440e-03 5.45785297e-03 5.86213870e-03
      4.24499670e-03 5.86213870e-03 2.82999780e-03 3.84071143e-03
      6.06428133e-03 6.06428133e-03 8.28785077e-03 3.43642593e-03
      2.02142703e-03 5.45785297e-03 2.62785517e-03 2.22356967e-03
      4.85142507e-03 5.05356770e-03 5.25571033e-03 5.45785297e-03
      3.63856880e-03 6.06428133e-04 1.61714165e-03 1.41499890e-03
      6.06428133e-04 8.28785077e-03 2.42571253e-03 3.84071143e-03
      4.64928243e-03 2.82999780e-03 7.27713760e-03 4.04285407e-03
      7.27713760e-03 3.23428330e-03 6.06428133e-03 6.67070923e-03
      6.26642397e-03 8.08570813e-03 1.21285627e-03 6.46856660e-03
      1.17242774e-02 1.01071352e-03 5.86213870e-03 4.64928243e-03
      3.43642593e-03 3.43642593e-03 1.21285627e-03 7.27713760e-03
      2.22356967e-03 8.08570825e-04 3.03214067e-03 4.24499670e-03
      7.47928023e-03 2.62785517e-03 6.26642397e-03 6.06428133e-03
      7.07499450e-03 8.89427867e-03 1.41499890e-03 6.26642397e-03
      2.42571253e-03 7.07499450e-03 3.63856880e-03 5.05356770e-03
      1.11178486e-02 6.26642397e-03 3.23428330e-03 3.84071143e-03
      4.85142507e-03 2.42571253e-03 6.67070923e-03 4.44713933e-03
      2.22356967e-03 3.63856880e-03 3.63856880e-03 5.05356770e-03
      6.06428133e-03 6.06428133e-04 1.61714165e-03 4.44713933e-03
      4.64928243e-03 8.28785077e-03 4.04285407e-03 8.89427867e-03
      5.65999560e-03 4.44713933e-03 1.01071352e-03 2.82999780e-03
      5.65999560e-03 6.67070923e-03 2.62785517e-03 8.08570813e-03
      6.67070923e-03 1.61714165e-03 3.63856880e-03 5.25571033e-03
      5.45785297e-03 3.03214067e-03 3.63856880e-03 4.24499670e-03
      2.42571253e-03 4.24499670e-03 1.41499890e-03 5.25571033e-03
      1.21285627e-03 2.62785517e-03 2.82999780e-03 1.01071352e-03
      4.04285407e-03 4.64928243e-03 4.04285407e-03 1.21285627e-03
      1.61714165e-03 5.25571033e-03 2.82999780e-03 1.61714165e-03
      1.21285627e-03 4.64928243e-03 6.06428133e-04 3.03214067e-03
      4.04285407e-03 4.44713933e-03 4.24499670e-03 4.85142507e-03
      8.08570825e-04 6.26642397e-03 2.22356967e-03 2.62785517e-03
      2.02142706e-04 2.42571253e-03 7.88356550e-03 6.26642397e-03
      6.46856660e-03 3.63856880e-03 5.65999560e-03 8.89427867e-03
      1.21285627e-03 1.21285627e-03 4.85142507e-03 7.07499450e-03
      1.81928440e-03 4.44713933e-03 2.42571253e-03 4.85142507e-03
      2.22356967e-03 2.42571253e-03 3.43642593e-03 1.21285627e-03
      1.21285627e-03 5.25571033e-03 1.81928440e-03 4.64928243e-03
      3.43642593e-03 6.06428133e-03 5.25571033e-03 1.01071352e-03
      4.64928243e-03 3.63856880e-03 4.04285413e-04 1.61714165e-03
      4.44713933e-03 2.82999780e-03 1.41499890e-03 5.86213870e-03
      8.08570825e-04 2.22356967e-03 5.45785297e-03 4.04285407e-03
      1.41499890e-03 7.68142287e-03 4.04285407e-03 8.08570825e-04
      2.06185561e-02 5.45785297e-03 1.01071352e-03 2.62785517e-03
      7.27713760e-03 6.06428133e-04 3.43642593e-03 1.21285627e-02
      2.22356967e-03 4.04285413e-04 2.82999780e-03 6.26642397e-03</_>
    <_>
      4.76644421e-03 9.53288865e-04 6.67302217e-03 1.52526218e-02
      3.81315546e-03 4.76644421e-03 1.90657773e-03 3.81315546e-03
      2.85986671e-03 0. 1.90657773e-03 0. 9.53288865e-04 7.62631092e-03
      1.04861772e-02 7.62631092e-03 4.76644421e-03 3.81315546e-03
      9.53288865e-04 0. 9.53288842e-03 8.57959967e-03 4.76644421e-03
      1.33460443e-02 3.81315546e-03 9.53288865e-04 6.67302217e-03
      4.76644421e-03 1.90657773e-03 9.53288865e-04 0. 3.81315546e-03 0.
      1.90657773e-03 5.71973342e-03 5.71973342e-03 9.53288865e-04
      3.81315546e-03 0. 2.38322224e-02 0. 1.90657773e-03 2.85986671e-03
      0. 3.81315546e-03 0. 0. 1.90657773e-03 9.53288842e-03
      9.53288865e-04 9.53288865e-04 0. 0. 0. 1.90657773e-03 0.
      2.85986671e-03 3.81315546e-03 3.81315546e-03 5.71973342e-03
      3.81315546e-03 2.85986671e-03 0. 1.90657773e-03 6.67302217e-03
      1.90657773e-03 9.53288865e-04 2.85986671e-03 2.85986671e-03
      9.53288865e-04 9.53288865e-04 7.62631092e-03 7.62631092e-03
      1.90657773e-03 9.53288865e-04 1.90657773e-03 4.76644421e-03
      1.52526218e-02 2.85986671e-03 9.53288865e-04 3.81315546e-03
      9.53288865e-04 5.71973342e-03 1.71591993e-02 1.90657773e-03
      4.76644421e-03 3.81315546e-03 2.47855112e-02 9.53288865e-04
      3.81315546e-03 1.33460443e-02 8.57959967e-03 3.81315546e-03
      1.23927556e-02 2.85986671e-03 9.53288865e-04 3.81315546e-03 0. 0.
      1.90657773e-03 7.62631092e-03 1.90657773e-03 1.90657768e-02
      9.53288865e-04 2.85986671e-03 1.90657773e-03 7.62631092e-03
      9.53288865e-04 0. 1.23927556e-02 6.67302217e-03 2.85986671e-03
      2.66920887e-02 0. 0. 5.71973342e-03 0. 1.90657773e-03 0.
      3.81315546e-03 3.81315546e-03 7.62631092e-03 1.90657773e-03
      6.67302217e-03 0. 2.85986671e-03 1.90657773e-03 1.90657773e-03
      1.90657773e-03 1.90657773e-03 0. 5.71973342e-03 6.67302217e-03 0.
      1.90657773e-03 0. 5.71973342e-03 1.90657773e-03 4.76644421e-03
      8.57959967e-03 0. 0. 2.85986671e-03 2.85986671e-03 4.76644421e-03
      1.90657773e-03 5.71973342e-03 2.85986671e-03 1.23927556e-02
      5.71973342e-03 7.62631092e-03 1.90657773e-03 9.53288865e-04
      1.90657773e-03 9.53288865e-04 9.53288865e-04 9.53288865e-04
      1.90657773e-03 0. 5.71973342e-03 2.85986671e-03 5.71973342e-03
      9.53288865e-04 3.81315546e-03 9.53288842e-03 9.53288865e-04 0.
      2.85986671e-03 6.67302217e-03 9.53288865e-04 1.90657773e-03 0.
      6.67302217e-03 1.23927556e-02 2.85986671e-03 6.67302217e-03
      1.90657773e-03 9.53288865e-04 6.67302217e-03 3.81315546e-03
      9.53288865e-04 0. 9.53288865e-04 1.90657773e-03 0. 4.76644421e-03
      5.71973342e-03 9.53288865e-04 1.90657773e-03 3.81315546e-03
      5.71973342e-03 4.76644421e-03 4.76644421e-03 9.53288865e-04 0.
      9.53288865e-04 1.33460443e-02 7.62631092e-03 9.53288865e-04
      1.42993331e-02 6.67302217e-03 9.53288865e-04 2.09723543e-02
      4.76644421e-03 2.85986671e-03 3.81315546e-03 1.90657773e-03
      9.53288865e-04 4.76644421e-03 1.04861772e-02 6.67302217e-03
      4.76644421e-03 9.53288865e-04 9.53288865e-04 3.81315546e-03
      7.62631092e-03 9.53288865e-04 8.57959967e-03 2.85986671e-03 0.
      9.53288842e-03 3.81315546e-03 1.33460443e-02 3.81315546e-03
      1.90657773e-03 0. 5.71973342e-03 7.62631092e-03 9.53288842e-03 0.
      0. 9.53288842e-03 5.71973342e-03 9.53288865e-04 1.90657773e-03
      1.04861772e-02 1.90657773e-03 7.62631092e-03 1.90657773e-03
      1.71591993e-02</_>
    <_>
      7.41163036e-03 1.71037624e-03 3.42075247e-03 1.14025082e-03
      5.70125412e-03 2.85062706e-03 2.28050165e-03 3.42075247e-03
      1.08323824e-02 1.71037624e-03 0. 7.98175577e-03 1.71037624e-03
      7.98175577e-03 7.98175577e-03 0. 6.27137953e-03 3.42075247e-03
      5.70125412e-04 3.42075247e-03 1.14025082e-03 1.71037624e-03
      5.70125412e-04 1.14025082e-02 3.99087789e-03 1.71037624e-03
      9.69213247e-03 5.70125412e-04 1.14025082e-03 4.56100330e-03
      3.99087789e-03 0. 3.42075247e-03 2.85062706e-03 1.65336374e-02 0.
      9.69213247e-03 1.48232607e-02 0. 2.85062706e-03 1.71037624e-03
      2.28050165e-03 3.99087789e-03 1.14025082e-03 7.98175577e-03
      2.28050165e-03 1.14025082e-03 1.14025082e-03 1.14025082e-03
      1.14025082e-03 4.56100330e-03 1.71037624e-03 2.28050165e-03
      1.14025082e-03 5.70125412e-04 1.14025082e-03 2.28050165e-03
      7.98175577e-03 5.70125412e-04 5.70125412e-04 2.85062706e-03
      5.70125412e-03 5.70125412e-04 1.71037624e-03 2.28050165e-03
      5.70125412e-03 0. 2.85062706e-03 1.14025082e-03 5.70125412e-04
      2.85062706e-03 1.02622574e-02 1.71037624e-03 5.70125412e-04
      1.14025082e-03 0. 5.70125412e-04 5.70125412e-04 1.71037624e-03
      1.71037624e-03 7.41163036e-03 3.42075247e-03 4.56100330e-03
      7.98175577e-03 1.71037624e-03 7.98175577e-03 5.70125412e-04
      1.71037624e-03 5.13112871e-03 1.14025082e-03 6.84150495e-03
      4.56100330e-03 1.14025082e-03 1.71037624e-03 1.42531358e-02 0. 0.
      3.24971490e-02 1.71037624e-03 5.70125412e-04 2.85062706e-03
      2.85062706e-03 8.55188072e-03 1.14025082e-03 1.25427591e-02
      2.28050165e-02 6.84150495e-03 4.56100330e-03 3.99087789e-03
      5.70125412e-04 1.14025082e-03 2.85062706e-03 7.41163036e-03 0.
      1.14025082e-03 5.13112871e-03 0. 2.85062706e-03 1.14025082e-03
      1.71037624e-03 1.14025082e-03 2.85062706e-03 1.71037624e-03
      5.13112871e-03 2.28050165e-03 9.12200660e-03 1.14025082e-03 0.
      6.84150495e-03 1.14025082e-03 5.70125412e-03 6.27137953e-03
      1.14025082e-03 7.29760528e-02 1.14025082e-03 3.42075247e-03
      2.28050165e-03 1.71037624e-03 3.42075247e-03 1.71037624e-03
      1.14025082e-03 0. 0. 5.70125412e-04 3.42075247e-03 9.69213247e-03
      9.69213247e-03 1.14025082e-03 1.14025082e-03 4.56100330e-03
      6.27137953e-03 1.71037624e-03 2.28050165e-03 2.85062706e-03
      2.85062706e-03 2.85062706e-03 2.85062706e-03 1.71037624e-03
      1.14025082e-03 5.70125412e-04 2.28050165e-02 1.36830099e-02
      2.28050165e-03 2.28050165e-03 1.71037624e-03 1.71037624e-03
      5.13112871e-03 1.14025082e-03 2.85062706e-03 0. 3.99087789e-03
      5.70125412e-03 6.27137953e-03 6.84150495e-03 1.14025082e-03
      9.12200660e-03 5.13112871e-03 1.71037624e-03 1.14025082e-03
      5.70125412e-04 1.02622574e-02 3.99087789e-03 2.85062706e-03
      5.70125412e-03 1.71037624e-03 1.14025082e-03 1.14025082e-03
      3.99087789e-03 5.70125412e-04 1.71037624e-03 3.42075247e-03
      1.14025082e-03 1.14025082e-03 3.42075247e-03 4.56100330e-03 0.
      1.02622574e-02 2.85062706e-03 1.14025082e-03 3.99087789e-03
      1.71037624e-03 1.14025082e-03 5.13112871e-03 1.71037624e-03
      6.27137953e-03 1.14025082e-03 1.71037624e-03 5.13112871e-03
      2.85062706e-03 5.70125412e-04 7.98175577e-03 6.84150495e-03
      1.14025082e-03 5.70125412e-04 5.64424172e-02 1.14025082e-03 0.
      9.12200660e-03 1.71037624e-03 3.42075247e-03 2.85062706e-03
      4.56100330e-03 7.41163036e-03 0. 1.14025082e-02 5.70125412e-03
      6.27137953e-03 7.41163036e-03 5.70125412e-04 2.85062706e-03
      4.56100330e-03 4.56100330e-03 2.28050165e-03 2.85062706e-03
      3.42075247e-03 1.71037624e-03 3.42075247e-03 1.71037624e-03
      2.28050165e-03 3.99087789e-03</_>
    <_>
      4.56829614e-04 4.56829602e-03 5.48195560e-03 4.56829614e-04
      3.19780735e-03 1.37048890e-03 3.19780735e-03 2.28414801e-03
      5.93878515e-03 9.13659227e-04 5.48195560e-03 2.28414801e-03
      5.93878515e-03 1.82731845e-03 9.13659227e-04 6.39561471e-03
      1.37048890e-03 1.82731845e-03 4.56829602e-03 0. 2.28414801e-03
      4.11146646e-03 1.37048890e-03 9.13659227e-04 4.56829602e-03 0.
      7.76610337e-03 2.55824588e-02 0. 4.56829602e-03 1.27912294e-02
      4.56829602e-03 1.14207407e-02 1.23343999e-02 3.65463691e-03
      8.67976248e-03 4.11146646e-03 1.37048890e-03 3.65463691e-03
      4.11146646e-03 2.74097780e-03 7.30927382e-03 5.02512557e-03
      4.56829614e-04 1.82731845e-03 1.82731845e-03 9.59342159e-03
      3.19780735e-03 2.28414801e-03 5.48195560e-03 1.37048890e-03
      1.82731845e-03 8.22293293e-03 4.11146646e-03 5.02512557e-03
      6.85244426e-03 3.19780735e-03 1.82731845e-03 5.02512557e-03
      2.74097780e-03 1.37048890e-03 1.37048890e-03 9.13659227e-04
      2.74097780e-03 4.56829602e-03 1.37048890e-03 1.18775703e-02 0.
      4.56829602e-03 3.65463691e-03 1.37048890e-03 4.56829614e-04
      7.30927382e-03 3.19780735e-03 0. 1.82731845e-03 4.11146646e-03
      9.13659227e-04 5.93878515e-03 6.39561471e-03 4.56829614e-04
      7.30927382e-03 1.37048890e-03 1.37048890e-03 3.19780735e-03
      1.82731845e-03 8.22293293e-03 2.28414801e-03 1.37048890e-03
      4.56829614e-04 3.65463691e-03 1.37048890e-03 1.82731845e-03
      1.32480590e-02 1.37048890e-03 5.48195560e-03 1.27912294e-02 0.
      1.37048890e-03 4.56829614e-04 1.82731845e-03 1.37048890e-03
      9.13659227e-04 3.65463691e-03 9.13659227e-04 1.69026963e-02
      4.56829614e-04 5.48195560e-03 1.37048890e-03 1.37048890e-03
      5.93878515e-03 2.28414801e-03 3.19780735e-03 4.56829614e-04 0.
      1.82731845e-03 3.65463691e-03 9.13659227e-04 1.37048890e-03
      1.82731845e-03 2.64961179e-02 2.74097780e-03 4.11146646e-03
      5.02512557e-03 1.82731845e-03 0. 3.65463691e-03 7.30927382e-03
      2.28414801e-03 2.28414801e-03 4.56829614e-04 1.82731845e-03
      4.11146646e-03 1.09639112e-02 2.74097780e-03 5.48195560e-03
      1.37048890e-03 5.02512557e-03 2.74097780e-03 1.82731845e-03
      4.56829614e-04 3.19780735e-03 1.37048890e-03 1.37048890e-03
      1.96436737e-02 1.37048890e-03 4.56829614e-04 7.30927382e-03
      1.37048890e-03 2.28414801e-03 2.28414801e-03 2.74097780e-03
      9.13659227e-04 1.82731845e-03 1.82731845e-03 8.22293293e-03
      9.13659227e-04 1.82731845e-03 6.85244426e-03 1.00502511e-02
      2.74097780e-03 9.13659227e-04 2.74097780e-03 2.28414801e-03
      2.74097780e-03 4.56829602e-03 2.74097780e-03 4.56829614e-04
      3.19780735e-03 3.65463691e-03 2.74097780e-03 3.65463691e-03
      1.59890372e-02 9.13659227e-04 1.37048890e-03 1.00502511e-02
      2.74097780e-03 2.28414801e-03 2.28414801e-03 2.28414801e-03
      4.56829614e-04 4.56829614e-04 4.56829614e-04 3.19780735e-03
      8.22293293e-03 2.74097780e-03 3.19780735e-03 1.82731845e-03
      4.11146646e-03 2.74097780e-03 1.32480590e-02 8.67976248e-03
      2.74097780e-03 2.28414801e-03 1.37048890e-03 8.67976248e-03
      1.82731845e-03 1.37048890e-03 2.28414801e-03 1.82731845e-03
      5.02512557e-03 0. 1.37048890e-03 6.85244426e-03 1.82731845e-03
      1.37048890e-03 1.82731845e-03 2.28414801e-03 2.28414801e-03
      2.28414801e-03 2.28414801e-03 0. 7.30927382e-03 1.37048890e-03
      2.74097780e-03 3.19780735e-03 2.74097780e-03 2.28414801e-03
      2.74097780e-03 4.56829614e-04 9.13659227e-04 1.82731845e-03
      1.82731845e-03 3.65463691e-03 2.28414801e-03 9.13659227e-04
      5.02512557e-03 0. 9.59342197e-02 1.82731845e-03 1.50753772e-02
      4.56829614e-04 2.55824588e-02 8.22293293e-03 2.28414801e-03
      1.00502511e-02 5.48195560e-03 0. 5.93878515e-03 6.39561471e-03</_>
    <_>
      5.47945220e-03 0. 4.10958938e-03 4.10958938e-03 9.58904158e-03
      1.09589044e-02 1.36986305e-03 1.36986305e-03 1.23287672e-02
      2.73972610e-03 2.73972610e-03 0. 1.36986305e-03 2.73972610e-03
      1.36986305e-03 4.10958938e-03 5.47945220e-03 6.84931502e-03 0.
      1.36986305e-03 0. 1.36986305e-03 0. 1.91780832e-02 0. 0.
      1.23287672e-02 0. 5.47945220e-03 8.21917877e-03 0. 4.10958938e-03
      0. 2.73972610e-03 6.84931502e-03 1.36986305e-03 4.10958938e-03
      9.58904158e-03 1.36986305e-03 2.73972610e-03 0. 0. 5.47945220e-03
      1.36986305e-03 2.73972610e-03 0. 1.36986305e-03 0. 9.58904158e-03
      4.10958938e-03 1.36986305e-03 0. 4.10958938e-03 0. 1.36986305e-03
      8.21917877e-03 0. 4.10958938e-03 2.73972610e-03 0. 1.64383575e-02
      5.47945220e-03 4.10958938e-03 1.36986305e-03 2.73972610e-03
      2.73972610e-03 0. 1.36986305e-03 8.21917877e-03 1.36986305e-03
      9.58904158e-03 4.10958938e-03 2.73972610e-03 1.36986305e-03
      2.73972610e-03 1.23287672e-02 6.84931502e-03 8.21917877e-03
      5.47945220e-03 8.21917877e-03 5.47945220e-03 4.10958938e-03
      2.73972610e-03 4.10958938e-03 1.36986305e-03 1.36986305e-03
      1.36986305e-03 2.73972610e-03 4.10958938e-03 1.36986305e-03
      8.21917877e-03 1.36986305e-03 2.73972610e-03 1.36986305e-03
      1.50684938e-02 0. 0. 9.58904158e-03 0. 2.73972610e-03
      4.10958938e-03 6.84931502e-03 0. 4.10958938e-03 4.10958938e-03
      1.50684938e-02 8.21917877e-03 0. 2.73972610e-03 2.73972610e-03
      2.73972610e-03 8.21917877e-03 1.23287672e-02 1.36986305e-03 0.
      5.47945220e-03 1.36986305e-03 2.73972610e-03 5.47945220e-03
      2.73972610e-03 4.10958938e-03 2.73972610e-03 4.10958938e-03
      2.73972610e-03 1.36986305e-03 1.36986305e-03 4.10958938e-03
      1.36986305e-03 1.36986305e-03 5.47945220e-03 0. 1.09589044e-02
      4.10958938e-03 5.75342476e-02 2.73972610e-03 4.10958938e-03
      1.36986305e-03 1.36986305e-03 5.47945220e-03 5.47945220e-03 0.
      2.73972610e-03 1.36986305e-03 4.10958938e-03 2.73972610e-03 0. 0.
      4.10958938e-03 1.09589044e-02 0. 9.58904158e-03 1.36986305e-03
      1.36986305e-03 8.21917877e-03 1.36986305e-03 4.10958938e-03
      4.10958938e-03 0. 1.36986305e-03 2.73972610e-03 1.09589044e-02
      2.73972610e-03 6.84931502e-03 9.58904158e-03 1.36986305e-03 0.
      6.84931502e-03 0. 1.09589044e-02 0. 1.36986305e-03 0.
      1.36986305e-03 2.73972610e-03 0. 0. 5.47945220e-03 2.73972610e-03
      0. 5.47945220e-03 1.36986305e-03 1.36986305e-03 4.10958938e-03
      4.10958938e-03 4.10958938e-03 8.21917877e-03 9.58904158e-03 0.
      5.47945220e-03 5.47945220e-03 6.84931502e-03 0. 5.47945220e-03 0.
      4.10958938e-03 1.36986305e-03 0. 4.10958938e-03 1.36986305e-03
      6.84931502e-03 9.58904158e-03 0. 0. 8.21917877e-03 0.
      1.64383575e-02 5.47945220e-03 0. 0. 9.58904158e-03 2.73972610e-03
      1.36986305e-03 0. 4.10958938e-03 9.58904158e-03 2.19178088e-02
      9.58904158e-03 1.09589044e-02 1.36986305e-03 5.47945220e-03 0.
      5.47945220e-03 2.73972610e-03 1.36986305e-03 1.64383575e-02 0.
      6.84931502e-03 8.21917877e-03 4.10958938e-03 1.36986305e-03 0.
      2.73972610e-03 0. 1.36986305e-03 1.36986300e-02 2.73972610e-03
      1.23287672e-02 4.10958938e-03 2.73972610e-03 2.73972610e-03</_>
    <_>
      2.30149599e-04 9.89643298e-03 3.68239358e-03 3.91254295e-03
      3.91254295e-03 3.22209438e-03 4.60299198e-03 2.53164559e-03
      4.60299198e-03 8.51553492e-03 5.52359037e-03 4.14269278e-03
      6.90448796e-03 4.60299198e-04 0. 2.07134639e-03 2.99194478e-03
      6.90448796e-03 4.83314134e-03 3.22209438e-03 2.76179519e-03
      2.53164559e-03 2.99194478e-03 4.60299198e-04 1.12773301e-02
      6.67433813e-03 2.76179519e-03 2.99194478e-03 7.59493653e-03
      6.90448796e-03 5.52359037e-03 4.14269278e-03 5.75373974e-03
      1.12773301e-02 3.22209438e-03 6.90448796e-03 5.75373974e-03
      4.60299198e-04 3.68239358e-03 2.53164559e-03 7.13463780e-03
      3.91254295e-03 6.90448796e-03 4.83314134e-03 4.37284261e-03
      7.59493653e-03 4.83314134e-03 5.06329117e-03 7.13463780e-03
      2.76179519e-03 5.06329117e-03 6.21403940e-03 5.06329117e-03
      5.52359037e-03 2.30149599e-03 4.83314134e-03 3.91254295e-03
      3.91254295e-03 2.76179519e-03 3.91254295e-03 5.52359037e-03
      1.15074799e-03 2.99194478e-03 6.44418877e-03 2.30149599e-03
      4.14269278e-03 2.76179519e-03 9.20598395e-04 5.98388957e-03
      1.15074799e-03 5.29344101e-03 1.61104719e-03 3.22209438e-03
      5.98388957e-03 2.76179519e-03 3.45224398e-03 3.91254295e-03
      2.53164559e-03 3.91254295e-03 5.06329117e-03 1.15074799e-03
      3.91254295e-03 2.30149599e-04 1.38089759e-03 5.06329117e-03
      1.38089759e-03 4.37284261e-03 4.60299198e-03 1.38089759e-03
      2.99194478e-03 2.30149599e-03 2.30149599e-03 2.99194478e-03
      4.83314134e-03 3.22209438e-03 2.99194478e-03 2.99194478e-03
      8.51553492e-03 4.37284261e-03 1.61104719e-03 6.21403940e-03
      5.52359037e-03 2.30149599e-03 4.60299198e-03 4.60299198e-04
      3.22209438e-03 2.30149599e-04 9.89643298e-03 9.20598395e-04
      8.97583459e-03 4.37284261e-03 3.45224398e-03 3.91254295e-03
      5.06329117e-03 5.06329117e-03 2.07134639e-03 4.83314134e-03
      3.91254295e-03 6.90448796e-03 4.60299198e-03 3.45224398e-03
      3.22209438e-03 2.76179519e-03 9.20598395e-04 3.91254295e-03
      1.38089759e-03 3.45224398e-03 1.15074799e-03 1.24280788e-02
      5.98388957e-03 8.97583459e-03 9.20598395e-04 2.99194478e-03
      7.13463780e-03 8.97583459e-03 6.90448796e-04 4.60299198e-03
      4.83314134e-03 6.21403940e-03 5.06329117e-03 6.21403940e-03
      2.53164559e-03 1.15074799e-03 4.14269278e-03 3.45224398e-03
      2.76179519e-03 1.38089759e-03 2.99194478e-03 3.22209438e-03
      3.45224398e-03 7.13463780e-03 3.91254295e-03 5.98388957e-03
      4.60299198e-03 4.83314134e-03 6.90448796e-03 2.99194478e-03
      2.30149599e-04 3.91254295e-03 2.53164559e-03 6.44418877e-03
      1.38089759e-03 4.60299198e-03 2.76179519e-03 3.45224398e-03
      4.37284261e-03 3.22209438e-03 3.68239358e-03 5.52359037e-03
      3.68239358e-03 2.76179519e-03 6.44418877e-03 9.43613332e-03
      9.20598395e-04 3.22209438e-03 5.06329117e-03 1.61104719e-03
      8.97583459e-03 2.99194478e-03 1.10471807e-02 5.52359037e-03
      6.21403940e-03 1.05868820e-02 4.60299198e-03 2.99194478e-03
      2.30149599e-03 6.21403940e-03 2.53164559e-03 2.76179519e-03
      5.98388957e-03 2.07134639e-03 1.15074799e-03 5.29344101e-03
      6.67433813e-03 2.30149599e-03 2.53164559e-03 4.60299198e-04
      2.76179519e-03 4.60299198e-04 1.15074799e-03 2.76179519e-03
      6.21403940e-03 2.07134639e-03 7.36478716e-03 7.59493653e-03
      7.82508589e-03 9.20598395e-03 5.29344101e-03 1.61104719e-03
      6.67433813e-03 1.61104719e-03 9.20598395e-04 2.30149599e-03
      5.29344101e-03 8.97583459e-03 4.60299198e-03 3.22209438e-03
      1.84119679e-03 2.76179519e-03 5.29344101e-03 9.20598395e-04
      4.14269278e-03 1.38089759e-03 3.91254295e-03 2.30149599e-03
      3.45224398e-03 2.07134639e-03 1.84119679e-03 4.60299198e-03
      1.01265823e-02 1.19677791e-02 5.29344101e-03 6.90448796e-04
      1.01265823e-02 3.91254295e-03 2.07134639e-03 4.60299198e-03
      1.15074799e-03 3.45224398e-03 2.30149599e-03</_>
    <_>
      0. 0. 8.99550226e-03 4.49775113e-03 4.49775113e-03 5.99700143e-04
      5.39730117e-03 1.79910043e-03 7.79610174e-03 1.19940029e-03
      2.69865058e-03 4.19790111e-03 4.49775113e-03 0. 0. 3.29835084e-03
      1.19940029e-03 6.59670169e-03 6.59670169e-03 0. 1.49925030e-03
      5.99700143e-04 1.79910043e-03 6.29685167e-03 1.19940029e-03 0.
      2.39880057e-03 2.69865058e-03 8.99550214e-04 2.39880057e-03 0.
      9.89505276e-03 8.99550214e-04 3.89805087e-03 9.59520228e-03
      2.69865058e-03 7.49625172e-03 2.39880048e-02 5.99700143e-04
      1.79910043e-03 1.49925030e-03 1.01949023e-02 4.49775113e-03
      8.99550214e-04 8.39580223e-03 2.99850071e-04 1.52923539e-02
      2.69865058e-03 5.39730117e-03 3.59820086e-03 6.59670169e-03
      1.79910043e-03 8.09595175e-03 1.79910043e-03 1.34932529e-02
      7.49625172e-03 5.39730117e-03 1.82908550e-02 2.09895056e-03
      4.79760114e-03 4.49775113e-03 8.99550214e-04 2.69865058e-03
      2.39880057e-03 1.49925030e-03 1.49925030e-03 1.73913036e-02 0.
      7.79610174e-03 3.89805087e-03 3.59820086e-03 0. 2.60869563e-02
      1.49925030e-03 0. 2.99850060e-03 4.49775113e-03 8.39580223e-03
      4.49775113e-03 5.09745115e-03 2.99850071e-04 2.15892047e-02 0.
      8.99550214e-04 8.99550214e-04 1.19940029e-03 8.09595175e-03
      2.39880057e-03 2.99850071e-04 5.09745115e-03 5.39730117e-03
      8.99550214e-04 7.19640171e-03 1.52923539e-02 5.99700143e-04
      1.52923539e-02 8.09595175e-03 9.89505276e-03 0. 2.09895056e-03
      6.59670169e-03 5.69715118e-03 0. 8.99550214e-04 1.97901055e-02
      9.59520228e-03 9.29535180e-03 5.99700143e-04 0. 3.59820086e-03
      3.29835084e-03 2.69865058e-03 8.99550214e-04 5.99700143e-04 0.
      7.79610174e-03 2.39880057e-03 0. 3.59820086e-03 1.19940029e-03
      1.43928034e-02 6.59670169e-03 0. 8.09595175e-03 0. 4.79760114e-03
      7.79610174e-03 1.43928034e-02 1.49925030e-03 8.99550214e-04
      8.99550214e-04 8.99550214e-04 1.79910043e-03 3.89805087e-03
      1.79910043e-03 2.39880057e-03 1.40929529e-02 3.29835084e-03
      1.79910043e-03 9.59520228e-03 0. 6.29685167e-03 0. 6.89655170e-03
      3.29835084e-03 0. 5.99700143e-04 1.07946023e-02 4.49775113e-03
      2.69865058e-03 6.29685167e-03 8.39580223e-03 5.99700143e-04
      2.69865058e-03 3.89805087e-03 5.99700143e-04 2.99850071e-04 0.
      1.79910043e-03 4.49775113e-03 1.13943024e-02 2.99850071e-04
      3.59820086e-03 7.49625172e-03 2.69865058e-03 4.49775113e-03
      8.69565178e-03 1.19940029e-03 2.99850060e-03 1.19940029e-03
      2.69865058e-03 0. 8.99550214e-04 1.61919035e-02 8.99550214e-04
      2.99850060e-03 0. 6.29685167e-03 1.19940029e-03 1.49925030e-03
      2.99850071e-04 8.99550214e-04 3.29835084e-03 3.29835084e-03
      2.99850071e-04 2.69865058e-03 6.29685167e-03 5.99700143e-04
      2.69865058e-03 8.09595175e-03 1.19940029e-03 2.39880057e-03
      2.09895056e-03 5.99700143e-04 8.99550214e-04 4.19790111e-03
      5.99700143e-04 5.99700143e-04 1.19940029e-03 5.99700143e-04
      1.04947528e-02 2.99850071e-04 5.09745115e-03 3.29835084e-03
      1.79910043e-03 1.25937033e-02 5.99700143e-04 2.09895056e-03
      1.19940029e-03 1.46926539e-02 0. 0. 6.29685167e-03 0.
      9.89505276e-03 1.10944528e-02 9.59520228e-03 2.09895056e-03
      1.79910043e-03 0. 0. 5.69715118e-03 4.49775113e-03 1.79910043e-03
      8.99550214e-04 2.99850071e-04 3.89805087e-03 0. 3.05847079e-02
      8.99550214e-04 1.19940029e-03 7.49625172e-03 4.49775113e-03
      1.19940029e-03 1.19940029e-03 2.69865058e-03 1.49925030e-03 0.
      3.59820086e-03 1.79910043e-03</_>
    <_>
      0. 1.07123726e-03 3.21371178e-03 3.74933053e-03 2.67809303e-03
      3.74933053e-03 9.64113511e-03 1.60685589e-03 1.07123726e-03
      3.21371178e-03 9.64113511e-03 4.28494904e-03 8.56989808e-03 0.
      2.14247452e-03 3.21371178e-03 5.35618630e-04 9.10551660e-03
      5.35618630e-04 0. 5.35618630e-04 5.35618630e-04 4.82056756e-03
      5.35618630e-04 5.35618630e-04 5.35618630e-04 3.21371178e-03 0.
      6.42742356e-03 1.87466517e-02 2.83877868e-02 3.21371178e-03
      2.67809303e-03 1.60685591e-02 3.74933053e-03 3.74933053e-03
      4.28494904e-03 5.35618630e-04 5.35618630e-04 5.35618630e-04
      7.49866106e-03 5.35618630e-04 1.82110332e-02 0. 3.74933053e-03
      3.21371178e-03 1.07123726e-03 5.35618630e-04 5.35618607e-03
      2.14247452e-03 3.74933053e-03 2.67809303e-03 1.07123726e-03
      1.07123726e-03 4.28494904e-03 4.28494904e-03 4.82056756e-03
      1.07123726e-03 1.07123726e-03 5.35618630e-04 9.10551660e-03
      1.07123726e-03 3.21371178e-03 1.07123726e-03 3.21371178e-03
      2.14247452e-03 0. 0. 6.42742356e-03 3.21371178e-03 6.96304208e-03
      5.35618630e-04 8.03427957e-03 3.74933053e-03 0. 6.42742356e-03 0.
      8.56989808e-03 5.35618607e-03 1.76754147e-02 2.67809303e-03
      5.35618607e-03 0. 7.49866106e-03 2.14247452e-03 1.07123726e-03
      2.67809303e-03 1.01767536e-02 2.14247452e-03 3.74933053e-03
      2.67809303e-03 1.60685589e-03 2.67809303e-03 3.74933053e-03
      3.21371178e-03 2.67809303e-03 2.14247452e-03 1.60685589e-03
      1.60685589e-03 5.35618630e-04 6.96304208e-03 1.23192286e-02
      5.35618630e-04 5.35618607e-03 0. 4.82056756e-03 0. 2.14247452e-03
      0. 6.42742356e-03 4.28494904e-03 1.60685589e-03 9.10551660e-03
      1.07123726e-03 1.07123726e-03 1.60685589e-03 2.67809303e-03
      1.07123726e-03 5.35618607e-03 5.35618630e-04 3.74933053e-03
      3.21371178e-03 2.67809303e-03 1.60685589e-03 0. 1.60685589e-03
      9.10551660e-03 5.35618607e-03 4.82056756e-03 1.60685589e-03
      1.60685589e-03 1.60685589e-03 4.82056756e-03 1.28548471e-02
      1.60685589e-03 2.14247452e-03 6.96304208e-03 2.67809303e-03
      4.28494904e-03 5.89180505e-03 1.07123726e-03 6.96304208e-03
      2.67809303e-03 3.21371178e-03 0. 2.67809303e-03 1.60685589e-03
      8.03427957e-03 6.96304208e-03 5.35618607e-03 1.60685589e-03
      6.96304208e-03 1.23192286e-02 8.03427957e-03 5.89180505e-03
      1.23192286e-02 2.67809303e-03 0. 2.67809303e-03 0. 4.82056756e-03
      5.35618630e-04 5.89180505e-03 1.60685591e-02 1.60685589e-03
      4.82056756e-03 2.67809303e-03 1.60685589e-03 9.10551660e-03
      3.74933053e-03 5.89180505e-03 2.67809313e-02 3.74933053e-03
      5.35618630e-04 4.82056756e-03 2.14247452e-03 1.07123726e-03
      1.55329406e-02 1.60685589e-03 1.07123726e-03 9.64113511e-03
      9.10551660e-03 4.82056756e-03 5.35618607e-03 1.12479916e-02
      6.42742356e-03 7.49866106e-03 3.74933053e-03 3.21371178e-03
      1.12479916e-02 1.60685589e-03 0. 8.03427957e-03 1.60685589e-03
      8.03427957e-03 2.14247452e-03 0. 2.67809303e-03 0. 3.74933053e-03
      1.33904656e-02 2.14247452e-03 5.35618630e-04 2.03535073e-02
      3.21371178e-03 6.96304208e-03 1.01767536e-02 5.35618630e-04
      1.07123726e-03 1.07123726e-03 5.35618630e-04 1.07123726e-03
      2.14247452e-03 5.35618630e-04 3.21371178e-03 1.66041777e-02
      7.49866106e-03 5.35618630e-04 1.60685589e-03 9.64113511e-03
      5.35618630e-04 7.49866106e-03 2.14247452e-03 5.35618630e-04
      1.07123726e-03 2.67809303e-03 1.07123726e-03 1.07123726e-03
      2.67809303e-03 1.60685589e-03 1.49973221e-02 4.28494904e-03
      2.14247452e-03 1.07123721e-02 1.60685589e-03 0. 3.21371178e-03
      2.67809303e-03 1.07123726e-03 3.74933053e-03</_>
    <_>
      0. 1.62271806e-03 6.49087224e-03 1.62271806e-03 6.89655170e-03
      3.65111558e-03 1.62271806e-03 3.24543612e-03 5.27383387e-03
      2.83975666e-03 4.46247449e-03 4.86815441e-03 2.83975666e-03
      1.62271806e-03 5.67951333e-03 6.89655170e-03 2.43407721e-03
      2.83975666e-03 2.43407721e-03 2.02839752e-03 2.02839752e-03
      1.01419883e-02 3.65111558e-03 7.30223116e-03 1.21703860e-03
      4.46247449e-03 6.89655170e-03 2.83975666e-03 4.86815441e-03
      4.05679503e-03 2.83975666e-03 4.86815441e-03 4.05679515e-04
      1.62271806e-03 6.08519278e-03 3.65111558e-03 9.33062844e-03
      8.11359030e-04 2.43407721e-03 6.49087224e-03 4.05679515e-04
      1.21703860e-03 2.83975666e-03 1.21703860e-03 5.27383387e-03 0.
      3.65111558e-03 4.86815441e-03 4.05679503e-03 1.62271806e-03
      6.08519278e-03 1.21703860e-03 2.02839752e-03 3.65111558e-03
      4.46247449e-03 3.24543612e-03 7.30223116e-03 1.62271806e-03
      3.24543612e-03 2.43407721e-03 1.01419883e-02 2.43407721e-03
      2.83975666e-03 5.27383387e-03 6.08519278e-03 2.83975666e-03
      4.05679503e-03 6.89655170e-03 4.46247449e-03 2.43407721e-03
      3.65111558e-03 3.24543612e-03 6.08519278e-03 1.62271806e-03
      2.83975666e-03 4.05679503e-03 2.43407721e-03 8.51926953e-03
      2.02839752e-03 4.05679503e-03 4.86815441e-03 4.05679503e-03
      2.43407721e-03 6.08519278e-03 4.05679515e-04 3.24543612e-03
      4.05679503e-03 1.01419883e-02 6.08519278e-03 4.05679503e-03
      6.49087224e-03 2.83975666e-03 5.67951333e-03 6.08519278e-03
      6.08519278e-03 4.86815441e-03 7.70791061e-03 5.67951333e-03
      4.46247449e-03 3.65111558e-03 3.24543612e-03 8.51926953e-03
      3.65111558e-03 4.86815441e-03 3.65111558e-03 5.67951333e-03
      3.24543612e-03 1.62271806e-03 7.70791061e-03 4.05679503e-03
      4.05679515e-04 6.49087224e-03 1.78498980e-02 4.05679503e-03
      8.11359030e-04 3.65111558e-03 0. 4.46247449e-03 6.49087224e-03
      6.49087224e-03 5.27383387e-03 9.73630883e-03 4.05679515e-04
      4.05679503e-03 0. 2.83975666e-03 3.65111558e-03 3.24543612e-03
      4.86815441e-03 3.24543612e-03 4.05679503e-03 4.86815441e-03
      2.02839752e-03 4.86815441e-03 1.62271806e-03 1.62271806e-03
      6.89655170e-03 2.02839752e-03 4.46247449e-03 1.05476677e-02
      2.02839752e-03 3.65111558e-03 0. 2.83975666e-03 1.62271806e-03
      3.65111558e-03 2.02839752e-03 4.05679503e-03 7.70791061e-03
      5.67951333e-03 5.67951333e-03 6.08519278e-03 2.02839752e-03
      5.27383387e-03 3.24543612e-03 2.02839752e-03 2.83975666e-03
      2.02839752e-03 8.92494898e-03 2.43407721e-03 4.46247449e-03
      3.24543612e-03 5.27383387e-03 5.67951333e-03 1.21703860e-03
      1.09533472e-02 5.67951333e-03 3.65111558e-03 6.89655170e-03
      1.21703860e-03 6.89655170e-03 2.02839752e-03 2.02839752e-03
      4.86815441e-03 2.83975666e-03 2.02839752e-03 5.27383387e-03
      3.24543612e-03 2.83975666e-03 6.49087224e-03 0. 2.43407721e-03
      6.89655170e-03 6.89655170e-03 2.02839752e-03 4.05679503e-03
      1.46044623e-02 5.67951333e-03 2.83975666e-03 8.92494898e-03
      2.43407721e-03 2.43407721e-03 8.51926953e-03 4.05679515e-04
      1.21703860e-03 3.24543612e-03 4.05679503e-03 3.24543612e-03
      8.11359030e-04 1.09533472e-02 4.86815441e-03 8.11359030e-04
      2.43407721e-03 4.46247449e-03 4.05679503e-03 9.73630883e-03
      7.70791061e-03 4.05679503e-03 1.62271806e-03 7.30223116e-03
      1.05476677e-02 3.65111558e-03 2.02839752e-03 3.24543612e-03
      5.67951333e-03 1.46044623e-02 6.08519278e-03 2.83975666e-03
      3.24543612e-03 1.62271806e-03 5.27383387e-03 6.08519278e-03
      5.27383387e-03 1.21703860e-03 1.62271806e-03 2.83975666e-03
      1.21703860e-03 4.05679503e-03 1.01419883e-02 5.67951333e-03 0.
      4.86815441e-03 3.24543612e-03 0. 3.65111558e-03 1.21703860e-03
      5.67951333e-03 0. 3.24543612e-03 3.65111558e-03</_>
    <_>
      0. 0. 7.65306130e-03 2.55102036e-03 0. 5.10204071e-03
      7.65306130e-03 0. 5.10204071e-03 0. 5.10204071e-03 5.10204071e-03
      0. 0. 2.55102036e-03 0. 5.10204071e-03 2.55102036e-03 0. 0. 0.
      2.55102036e-03 2.55102036e-03 1.27551015e-02 0. 2.55102036e-03 0.
      5.10204071e-03 2.55102036e-03 5.10204071e-03 0. 0. 0.
      5.10204071e-03 2.55102036e-03 2.55102036e-03 1.02040814e-02
      1.02040814e-02 0. 0. 0. 2.55102036e-03 2.55102036e-03 0.
      5.10204071e-03 0. 2.55102036e-03 2.55102036e-03 1.02040814e-02 0.
      7.65306130e-03 0. 2.55102036e-03 1.02040814e-02 2.55102036e-03
      2.55102036e-03 2.55102036e-03 2.29591839e-02 2.55102036e-03 0.
      2.55102036e-03 7.65306130e-03 0. 0. 0. 5.10204071e-03
      2.55102036e-03 5.10204071e-03 1.53061226e-02 0. 1.27551015e-02 0.
      1.27551015e-02 0. 0. 0. 2.55102036e-03 1.27551015e-02 0. 0. 0. 0.
      2.55102036e-03 5.10204071e-03 5.10204071e-03 5.10204071e-03
      2.55102036e-03 1.53061226e-02 0. 0. 2.55102036e-03 2.55102036e-03
      7.65306130e-03 5.10204071e-03 0. 0. 0. 7.65306130e-03
      1.02040814e-02 2.55102036e-03 2.55102036e-03 5.10204071e-03
      2.55102036e-03 2.55102036e-03 1.02040814e-02 1.27551015e-02 0. 0.
      7.65306130e-03 2.55102036e-03 0. 2.55102036e-03 1.78571418e-02
      2.55102036e-03 0. 2.55102036e-03 0. 5.10204071e-03 1.02040814e-02
      7.65306130e-03 0. 1.78571418e-02 0. 0. 0. 7.65306130e-03
      1.02040814e-02 2.55102036e-03 1.02040814e-02 0. 1.27551015e-02
      2.55102036e-03 7.65306130e-03 2.55102036e-03 0. 0. 2.55102036e-03
      0. 5.10204071e-03 1.02040814e-02 0. 0. 2.55102036e-03
      5.10204071e-03 0. 1.27551015e-02 2.04081628e-02 0. 1.27551015e-02
      5.10204071e-03 2.55102036e-03 2.55102036e-03 2.55102036e-03
      7.65306130e-03 0. 0. 0. 2.55102036e-03 2.04081628e-02 0.
      7.65306130e-03 5.10204071e-03 1.27551015e-02 2.55102036e-03 0.
      2.04081628e-02 0. 0. 5.10204071e-03 2.55102036e-03 7.65306130e-03
      0. 1.02040814e-02 7.65306130e-03 0. 1.02040814e-02 2.55102036e-03
      0. 5.10204071e-03 2.55102036e-03 0. 0. 1.02040814e-02
      1.53061226e-02 0. 2.55102036e-03 1.78571418e-02 2.55102036e-03
      2.55102036e-03 7.65306130e-03 2.55102036e-03 2.55102036e-03
      1.27551015e-02 0. 0. 0. 1.27551015e-02 0. 2.55102036e-03
      7.65306130e-03 1.53061226e-02 0. 0. 2.55102036e-03 0.
      2.55102036e-03 2.55102036e-03 2.55102036e-03 5.10204071e-03
      1.02040814e-02 1.53061226e-02 1.27551015e-02 0. 2.55102036e-03
      2.55102036e-03 2.29591839e-02 1.78571418e-02 7.65306130e-03 0.
      5.10204071e-03 5.10204071e-03 2.55102036e-03 2.55102036e-03 0.
      5.10204071e-03 0. 0. 7.65306130e-03 0. 7.65306130e-03 0.
      2.55102036e-03 0. 0. 0. 0. 5.10204071e-03 0. 2.55102036e-03
      2.55102036e-03</_>
    <_>
      5.09461435e-03 0. 7.27802049e-04 2.18340615e-03 2.18340615e-03
      5.82241639e-03 2.91120820e-03 1.45560410e-03 1.60116442e-02
      2.18340615e-03 3.63901025e-03 3.63901025e-03 3.63901025e-03
      6.55021844e-03 7.27802049e-03 7.27802049e-04 4.36681230e-03 0. 0.
      3.63901025e-03 2.91120820e-03 4.36681230e-03 2.18340615e-03
      1.01892287e-02 5.82241639e-03 1.09170303e-02 2.18340615e-03
      1.45560410e-03 3.63901025e-03 2.91120820e-03 7.27802049e-03 0.
      1.45560410e-03 8.73362459e-03 5.82241639e-03 3.63901025e-03
      5.09461435e-03 3.63901025e-03 6.55021844e-03 2.18340615e-03
      4.36681230e-03 1.45560410e-03 1.01892287e-02 4.36681230e-03
      8.00582208e-03 7.27802049e-04 0. 5.09461435e-03 0. 0.
      5.09461435e-03 2.91120820e-03 0. 2.91120820e-03 2.18340615e-03
      1.45560410e-03 5.82241639e-03 5.09461435e-03 4.36681230e-03
      1.45560410e-03 1.45560410e-03 1.45560410e-03 8.00582208e-03
      5.82241639e-03 5.09461435e-03 1.45560410e-03 0. 5.09461435e-03
      7.27802049e-04 5.09461435e-03 2.18340615e-03 6.55021844e-03
      7.27802049e-04 7.27802049e-04 8.00582208e-03 1.45560410e-03
      5.09461435e-03 7.27802049e-04 1.45560410e-03 2.18340615e-03
      1.23726353e-02 1.45560410e-03 5.09461435e-03 8.00582208e-03
      5.09461435e-03 3.63901025e-03 0. 2.91120820e-03 8.00582208e-03
      6.55021844e-03 1.09170303e-02 4.36681230e-03 0. 1.45560410e-03
      2.18340615e-03 0. 0. 1.81950517e-02 2.91120820e-03 3.63901025e-03
      2.18340615e-03 2.91120820e-03 4.36681230e-03 8.00582208e-03
      1.09170303e-02 1.31004369e-02 1.45560410e-03 6.55021844e-03
      7.27802049e-03 7.27802049e-04 2.91120820e-03 4.36681230e-03
      1.52838435e-02 1.45560410e-03 0. 6.55021844e-03 2.18340615e-03
      7.27802049e-04 7.27802049e-04 2.91120820e-03 0. 2.18340615e-03
      1.01892287e-02 3.63901025e-03 7.27802049e-04 1.45560410e-03
      3.63901025e-03 0. 1.01892287e-02 3.63901025e-03 1.45560410e-03
      5.09461435e-03 6.55021844e-03 2.18340615e-03 2.91120820e-03
      5.09461435e-03 1.45560410e-03 7.27802049e-04 5.09461435e-03
      7.27802049e-04 2.91120820e-03 2.18340615e-03 2.91120820e-03
      7.27802049e-04 7.27802049e-04 6.55021844e-03 3.63901025e-03 0.
      2.91120820e-03 6.55021844e-03 1.23726353e-02 3.63901025e-03
      7.27802049e-03 4.36681230e-03 7.27802049e-04 5.82241639e-03
      8.00582208e-03 1.74672492e-02 8.73362459e-03 2.18340615e-03
      8.73362459e-03 3.63901025e-03 1.45560410e-03 4.36681230e-03
      7.27802049e-03 1.09170303e-02 1.45560410e-03 7.27802049e-04
      2.91120820e-03 0. 5.82241639e-03 1.45560410e-02 5.09461435e-03
      5.09461435e-03 6.55021844e-03 3.63901025e-03 9.46142711e-03
      2.18340615e-03 7.27802049e-04 3.63901025e-03 2.18340615e-03
      1.38282385e-02 1.38282385e-02 6.55021844e-03 2.03784574e-02
      3.63901025e-03 2.18340615e-03 3.63901025e-03 7.27802049e-03
      2.91120820e-03 1.45560410e-03 7.27802049e-04 2.18340615e-03
      2.18340615e-03 6.55021844e-03 2.91120820e-03 3.63901025e-03
      4.36681230e-03 5.82241639e-03 2.91120820e-03 0. 1.45560410e-03
      5.82241639e-03 5.09461435e-03 1.45560410e-03 2.18340615e-03
      2.18340615e-03 1.45560410e-03 3.63901025e-03 4.36681230e-03
      2.18340615e-03 2.18340615e-03 3.63901025e-03 1.45560410e-03
      1.16448328e-02 1.45560410e-03 1.45560410e-03 2.91120820e-03
      7.27802049e-04 2.91120820e-03 3.63901025e-03 3.63901025e-03
      6.55021844e-03 2.18340615e-03 2.91120820e-03 2.91120820e-03
      1.45560410e-03 1.09170303e-02 0. 7.27802049e-04 5.09461435e-03
      2.18340615e-03 3.63901025e-03 9.46142711e-03 2.91120820e-03
      2.18340615e-03 1.45560410e-03 1.38282385e-02 2.91120820e-03
      5.82241639e-03</_>
    <_>
      3.23101785e-03 0. 1.61550893e-03 3.23101785e-03 0. 0.
      8.07754509e-03 1.61550893e-03 3.23101785e-03 3.23101785e-03
      6.46203570e-03 0. 1.61550893e-03 9.69305355e-03 8.07754509e-03
      3.23101785e-03 0. 4.84652678e-03 1.61550893e-03 0. 3.23101785e-03
      4.84652678e-03 0. 1.13085620e-02 0. 3.23101785e-03 1.61550893e-03
      8.07754509e-03 0. 4.84652678e-03 0. 1.61550893e-03 0. 0.
      6.46203570e-03 0. 1.61550893e-03 1.29240714e-02 1.61550893e-03
      1.61550893e-03 0. 3.23101785e-03 0. 0. 6.46203570e-03
      1.61550893e-03 1.61550893e-03 0. 4.84652678e-03 1.61550893e-03 0.
      1.61550893e-03 0. 0. 4.84652678e-03 0. 1.61550893e-03
      1.61550902e-02 0. 1.61550893e-03 1.61550893e-03 0. 1.61550893e-03
      1.61550893e-03 0. 0. 3.23101785e-03 1.29240714e-02 0.
      1.61550893e-03 6.46203570e-03 8.07754509e-03 2.26171240e-02 0. 0.
      0. 1.61550893e-03 3.23101785e-03 3.23101785e-03 1.77705977e-02
      3.23101785e-03 8.07754509e-03 6.46203570e-03 0. 4.84652678e-03
      3.23101785e-03 1.61550893e-03 0. 3.23101785e-03 0. 3.23101785e-03
      0. 0. 6.46203570e-03 1.61550893e-03 4.84652678e-03 1.61550893e-03
      1.50242329e-01 1.61550893e-03 3.23101785e-03 0. 0. 3.23101785e-03
      6.46203570e-03 1.29240714e-02 3.23101785e-03 0. 4.84652678e-03
      1.61550893e-03 0. 3.23101785e-03 0. 3.23101785e-03 4.84652678e-03
      0. 0. 0. 0. 0. 0. 1.13085620e-02 1.61550893e-03 0. 0.
      1.61550893e-03 1.61550893e-03 0. 3.23101785e-03 0. 1.61550893e-03
      9.69305355e-03 3.23101785e-03 1.61550893e-03 2.10016165e-02 0.
      3.23101785e-03 1.61550893e-03 0. 1.61550893e-03 1.61550893e-03 0.
      0. 0. 3.23101785e-03 6.46203570e-03 4.84652678e-03 1.61550893e-03
      1.61550893e-03 0. 3.23101785e-03 6.46203570e-03 1.61550893e-03
      3.23101785e-03 3.23101785e-03 0. 0. 0. 0. 1.61550893e-03
      4.84652678e-03 6.30048513e-02 4.84652678e-03 0. 4.84652678e-03 0.
      0. 0. 0. 8.07754509e-03 0. 0. 1.61550893e-03 3.23101785e-03
      6.46203570e-03 0. 1.61550893e-03 0. 0. 3.23101785e-03
      1.61550893e-03 1.61550893e-03 1.61550893e-03 1.61550893e-03
      1.61550893e-03 0. 0. 0. 9.69305355e-03 3.23101785e-03
      1.61550893e-03 3.23101785e-03 0. 3.23101785e-03 0. 1.61550893e-03
      6.46203570e-03 1.61550893e-03 0. 0. 1.61550893e-03 4.84652678e-03
      0. 0. 1.29240714e-02 6.46203570e-03 4.84652678e-03 0. 0.
      1.61550893e-03 0. 8.07754509e-03 4.84652678e-03 0. 1.61550893e-03
      1.29240721e-01 3.23101785e-03 1.61550893e-03 0. 1.61550893e-03
      1.61550893e-03 6.46203570e-03 0. 0. 0. 0. 0. 0. 4.84652678e-03
      1.93861071e-02 8.07754509e-03 8.07754509e-03 3.23101785e-03
      8.07754509e-03 4.84652678e-03 0. 4.84652678e-03 0. 0. 0.
      4.84652678e-03</_>
    <_>
      2.41648909e-02 0. 2.84292828e-03 3.55366035e-03 2.84292828e-03
      2.13219621e-03 4.26439242e-03 4.26439242e-03 2.84292828e-03
      7.10732071e-04 5.68585657e-03 3.55366035e-03 7.10732071e-04
      2.13219621e-03 3.55366035e-03 4.26439242e-03 3.55366035e-03
      9.23951715e-03 7.10732071e-04 7.10732071e-03 2.13219621e-03
      7.81805255e-03 2.84292828e-03 8.52878485e-03 2.13219621e-03
      2.84292828e-03 8.52878485e-03 3.55366035e-03 4.26439242e-03
      1.49253737e-02 3.55366035e-03 5.68585657e-03 0. 4.97512426e-03
      4.97512426e-03 2.84292828e-03 5.68585657e-03 4.97512426e-03 0.
      9.95024852e-03 7.10732071e-04 7.10732071e-03 4.26439242e-03
      4.26439242e-03 6.39658887e-03 0. 4.26439242e-03 4.97512426e-03
      3.55366035e-03 5.68585657e-03 7.81805255e-03 0. 4.26439242e-03
      6.39658887e-03 2.84292828e-03 5.68585657e-03 4.97512426e-03
      2.13219621e-03 2.84292828e-03 7.10732071e-04 4.97512426e-03
      3.55366035e-03 4.26439242e-03 9.95024852e-03 1.06609808e-02 0.
      2.13219621e-03 5.68585657e-03 8.52878485e-03 8.52878485e-03 0.
      3.55366035e-03 4.26439242e-03 1.42146414e-03 1.27931777e-02
      4.26439242e-03 6.39658887e-03 1.42146414e-03 2.13219621e-03
      1.42146414e-03 8.52878485e-03 6.39658887e-03 2.84292828e-03
      9.23951715e-03 2.84292828e-03 1.42146414e-03 4.97512426e-03
      4.97512426e-03 9.23951715e-03 4.26439242e-03 1.42146414e-03
      1.42146414e-03 3.55366035e-03 4.97512426e-03 3.55366035e-03
      1.42146414e-03 3.55366035e-03 2.13219621e-03 4.97512426e-03
      3.55366035e-03 7.10732071e-04 7.81805255e-03 2.84292828e-03
      9.23951715e-03 3.55366035e-03 3.55366035e-03 5.68585657e-03
      2.13219621e-03 7.10732071e-03 3.55366035e-03 3.55366035e-03
      5.68585657e-03 1.56361051e-02 7.10732071e-04 7.10732071e-04
      5.68585657e-03 2.84292828e-03 5.68585657e-03 2.13219621e-03
      4.97512426e-03 4.97512426e-03 7.81805255e-03 0. 2.13219621e-03
      7.10732071e-04 3.55366035e-03 4.26439242e-03 4.97512426e-03
      6.39658887e-03 0. 2.13219621e-03 2.84292828e-03 8.52878485e-03
      1.42146414e-03 0. 4.97512426e-03 4.97512426e-03 2.84292828e-03
      2.13219621e-03 8.52878485e-03 0. 7.10732071e-04 7.10732071e-04
      5.68585657e-03 2.13219621e-03 1.42146414e-03 5.68585657e-03
      8.52878485e-03 9.23951715e-03 2.84292828e-03 3.55366035e-03
      4.26439242e-03 4.26439242e-03 4.97512426e-03 2.84292828e-03 0.
      3.55366035e-03 1.42146414e-03 4.26439242e-03 1.42146414e-03
      7.10732071e-03 4.26439242e-03 7.10732071e-04 3.55366035e-03
      4.26439242e-03 1.13717131e-02 4.97512426e-03 6.39658887e-03
      2.13219621e-03 0. 5.68585657e-03 3.55366035e-03 3.55366035e-03
      4.97512426e-03 1.42146414e-03 7.10732071e-04 4.26439242e-03
      5.68585657e-03 4.26439242e-03 4.26439242e-03 7.10732071e-04
      4.26439242e-03 5.68585657e-03 7.10732071e-04 2.13219621e-03
      7.81805255e-03 1.35039091e-02 4.97512426e-03 1.42146414e-03
      5.68585657e-03 2.84292828e-03 1.42146414e-03 4.26439242e-03 0.
      5.68585657e-03 7.10732071e-04 8.52878485e-03 3.55366035e-03
      2.84292828e-03 4.97512426e-03 2.84292828e-03 0. 2.84292828e-03
      5.68585657e-03 2.13219621e-03 1.13717131e-02 3.55366035e-03
      4.97512426e-03 2.13219621e-03 4.97512426e-03 4.97512426e-03
      4.97512426e-03 7.10732071e-04 1.42146414e-03 1.42146414e-03
      8.52878485e-03 2.13219621e-03 4.26439242e-03 2.13219621e-03
      3.55366035e-03 7.10732071e-03 2.13219621e-03 2.13219621e-03
      1.42146414e-03 2.84292828e-03 3.55366035e-03 4.26439242e-03
      6.39658887e-03 1.42146414e-03 4.26439242e-03 2.13219621e-03
      7.10732071e-04 1.42146414e-03 7.10732071e-04 5.68585657e-03
      3.55366035e-03 2.13219621e-03 1.70575697e-02 6.39658887e-03
      2.13219621e-03</_>
    <_>
      3.16205546e-02 0. 4.94071166e-04 4.94071166e-04 1.48221350e-03
      5.43478271e-03 3.45849805e-03 4.94071189e-03 2.47035595e-03
      2.47035595e-03 1.48221350e-03 1.48221350e-03 9.88142332e-04
      1.87747050e-02 9.88142379e-03 7.41106737e-03 3.45849805e-03
      9.88142332e-04 4.94071166e-04 9.88142332e-04 1.48221350e-03
      4.94071189e-03 5.43478271e-03 1.48221350e-03 4.94071166e-04
      5.92885399e-03 3.45849805e-03 3.45849805e-03 1.48221347e-02
      1.48221347e-02 1.33399218e-02 9.88142332e-04 4.94071166e-04
      1.28458505e-02 2.96442700e-03 4.94071189e-03 1.97628466e-03
      4.94071189e-03 9.88142332e-04 1.97628466e-03 4.94071166e-04
      4.94071166e-04 3.95256933e-03 1.48221350e-03 1.48221350e-03
      2.47035595e-03 1.48221350e-03 2.47035595e-03 4.94071166e-04
      1.48221350e-03 2.47035595e-03 0. 9.88142332e-04 1.97628466e-03
      2.47035595e-03 4.94071189e-03 9.88142332e-04 2.96442700e-03
      2.47035595e-03 4.94071166e-04 9.88142332e-04 3.95256933e-03
      5.92885399e-03 1.48221350e-03 2.96442700e-03 1.97628466e-03
      1.48221350e-03 4.94071189e-03 4.94071166e-04 2.47035595e-03
      4.94071166e-04 1.77865624e-02 1.48221350e-03 4.94071166e-04
      7.90513866e-03 2.96442700e-03 0. 4.94071166e-04 4.94071166e-04
      3.45849805e-03 1.08695654e-02 1.97628466e-03 2.96442700e-03
      1.38339922e-02 2.96442700e-03 6.42292527e-03 1.48221350e-03
      1.97628466e-03 6.42292527e-03 9.88142332e-04 9.88142332e-04
      3.45849805e-03 0. 2.47035595e-03 7.90513866e-03 0. 2.96442700e-03
      5.43478271e-03 1.48221350e-03 3.45849805e-03 9.88142332e-04
      4.94071166e-04 1.38339922e-02 1.08695654e-02 7.90513866e-03
      5.43478271e-03 1.97628466e-03 1.48221350e-03 1.18577080e-02
      5.92885399e-03 4.94071166e-04 0. 2.51976289e-02 2.96442700e-03
      1.48221350e-03 1.97628466e-03 4.44664061e-03 1.48221350e-03 0.
      3.95256933e-03 3.95256933e-03 2.47035595e-03 4.44664061e-03
      4.94071166e-04 5.43478271e-03 3.45849805e-03 1.48221350e-03
      1.48221350e-03 5.43478271e-03 9.88142332e-04 8.89328122e-03
      9.88142332e-04 1.48221350e-03 3.45849805e-03 4.94071166e-04
      9.88142332e-04 0. 9.88142332e-04 0. 1.48221350e-03 4.94071166e-04
      1.97628466e-03 1.48221350e-03 1.97628466e-03 2.96442700e-03
      2.96442700e-03 2.96442700e-03 1.97628466e-03 1.48221350e-03
      3.95256933e-03 1.48221350e-03 4.94071166e-04 1.77865624e-02
      9.88142332e-04 4.94071166e-04 7.90513866e-03 4.94071166e-04
      2.96442700e-03 1.48221350e-03 3.45849805e-03 3.95256933e-03
      6.42292527e-03 4.94071166e-04 2.96442700e-03 3.95256933e-03
      2.96442700e-03 4.94071166e-04 9.88142332e-04 1.97628466e-03
      1.48221350e-03 1.48221350e-03 6.91699609e-03 1.13636367e-02
      9.88142332e-04 4.94071189e-03 5.43478271e-03 9.88142332e-04
      8.39920994e-03 2.96442700e-03 1.97628466e-03 2.96442700e-03
      2.42094863e-02 3.95256933e-03 2.96442700e-03 4.94071166e-04
      1.97628466e-03 4.94071166e-04 1.43280635e-02 2.96442700e-03
      1.97628466e-03 6.91699609e-03 1.97628466e-03 1.48221350e-03
      2.47035595e-03 1.67984199e-02 2.47035595e-03 1.13636367e-02
      9.88142332e-04 2.96442700e-03 8.89328122e-03 0. 1.13636367e-02
      2.47035595e-03 3.45849805e-03 9.88142332e-04 2.47035595e-03
      1.13636367e-02 4.94071166e-04 2.47035595e-03 1.48221350e-03
      5.43478271e-03 9.38735250e-03 1.48221350e-03 1.97628466e-03
      6.91699609e-03 0. 9.88142332e-04 3.95256933e-03 3.95256933e-03
      1.23517793e-02 1.23517793e-02 1.48221350e-03 9.88142332e-04 0.
      6.42292527e-03 2.91501991e-02 1.97628466e-03 3.11264843e-02
      9.88142332e-04 4.44664061e-03 9.38735250e-03 4.94071166e-04
      3.45849805e-03 9.88142332e-04 4.44664061e-03 1.48221350e-03
