<?xml version="1.0"?>
<opencv_storage>
<opencv_ml_svm>
  <format>3</format>
  <svmType>C_SVC</svmType>
  <kernel>
    <type>RBF</type>
    <gamma>1.</gamma></kernel>
  <C>1.</C>
  <term_criteria><epsilon>1.1920928955078125e-07</epsilon>
    <iterations>1000</iterations></term_criteria>
  <var_count>240</var_count>
  <class_count>8</class_count>
  <class_labels type_id="opencv-matrix">
    <rows>8</rows>
    <cols>1</cols>
    <dt>i</dt>
    <data>
      1 2 3 4 5 6 7 8</data></class_labels>
  <sv_total>36</sv_total>
  <support_vectors>
    <_>
      1.79533218e-03 2.48584454e-03 2.76204944e-03 4.69548441e-03
      4.41927928e-03 5.10979164e-03 3.17635690e-03 5.24789421e-03
      2.62394710e-03 2.90015200e-03 7.73373898e-03 2.34774221e-03
      1.93343475e-03 6.07650913e-03 7.59563642e-03 5.52409911e-04
      3.72876693e-03 6.90512359e-04 8.42425134e-03 4.69548441e-03
      1.93343475e-03 6.49081636e-03 5.24789421e-03 8.56235344e-03
      2.76204944e-03 1.10481982e-03 1.38102472e-03 4.28117672e-03
      2.90015200e-03 5.93840657e-03 3.72876693e-03 0. 2.20963964e-03
      7.87184108e-03 1.93343475e-03 6.35271380e-03 3.17635690e-03
      7.59563642e-03 2.90015200e-03 3.86686949e-03 5.10979164e-03
      6.35271380e-03 5.80030400e-03 5.10979164e-03 2.07153708e-03
      1.38102472e-03 2.76204944e-03 3.59066436e-03 4.14307415e-03
      4.00497206e-03 6.49081636e-03 3.86686949e-03 2.76204944e-03
      3.17635690e-03 3.17635690e-03 5.10979164e-03 2.34774221e-03
      8.83855857e-03 2.48584454e-03 3.59066436e-03 2.76204944e-03
      7.31943129e-03 3.03825457e-03 2.76204944e-03 8.14804621e-03
      5.66220144e-03 2.07153708e-03 2.62394710e-03 1.24292227e-03
      5.66220144e-03 1.93343475e-03 7.04322616e-03 6.90512406e-03
      6.90512359e-04 3.31445946e-03 5.10979164e-03 1.93343475e-03
      6.62891893e-03 3.31445946e-03 7.87184108e-03 4.83358651e-03
      4.14307415e-03 2.90015200e-03 5.80030400e-03 6.76702149e-03
      6.21461170e-03 3.31445946e-03 1.38102472e-03 5.10979164e-03
      1.93343475e-03 5.10979164e-03 1.65722973e-03 2.90015200e-03
      4.28117672e-03 4.14307415e-03 1.10481982e-03 6.49081636e-03
      1.24292227e-03 6.21461170e-03 3.59066436e-03 0. 4.28117672e-03
      1.38102472e-03 2.20963964e-03 2.20963964e-03 5.38599677e-03
      2.48584454e-03 4.55738185e-03 4.00497206e-03 3.45256203e-03
      4.69548441e-03 3.45256203e-03 3.86686949e-03 4.55738185e-03
      3.59066436e-03 6.35271380e-03 2.62394710e-03 8.14804621e-03
      4.41927928e-03 1.24292227e-03 1.24292227e-03 6.90512406e-03
      2.20963964e-03 7.87184108e-03 4.69548441e-03 3.17635690e-03
      1.10481982e-03 2.76204944e-03 3.03825457e-03 4.28117672e-03
      5.38599677e-03 3.03825457e-03 9.25286580e-03 6.62891893e-03
      1.51912728e-03 9.66717303e-03 3.45256203e-03 3.31445946e-03
      6.07650913e-03 1.79533218e-03 2.62394710e-03 7.18132872e-03
      1.65722973e-03 2.76204944e-03 8.14804621e-03 1.38102478e-04
      9.66717373e-04 8.70045647e-03 7.87184108e-03 4.83358651e-03
      9.66717373e-04 5.93840657e-03 3.03825457e-03 5.24789421e-03
      1.93343475e-03 4.41927928e-03 2.62394710e-03 3.31445946e-03
      1.93343475e-03 4.69548441e-03 1.65722973e-03 5.24789421e-03
      5.66220144e-03 5.80030400e-03 5.93840657e-03 0. 4.14307415e-03
      6.35271380e-03 5.38599677e-03 4.97168908e-03 4.55738185e-03
      4.55738185e-03 4.55738185e-03 4.00497206e-03 5.10979164e-03
      6.90512406e-03 3.45256203e-03 6.49081636e-03 3.59066436e-03
      7.18132872e-03 3.86686949e-03 3.72876693e-03 3.31445946e-03
      2.07153708e-03 2.07153708e-03 1.06338905e-02 7.18132872e-03
      9.25286580e-03 3.03825457e-03 3.72876693e-03 3.03825457e-03
      4.28117672e-03 2.48584454e-03 1.51912728e-03 4.69548441e-03
      3.31445946e-03 6.76702149e-03 4.14307415e-03 5.80030400e-03
      6.62891893e-03 1.65722973e-03 1.38102472e-03 1.51912728e-03
      5.66220144e-03 2.62394710e-03 2.90015200e-03 2.62394710e-03
      1.38102478e-04 5.10979164e-03 6.21461170e-03 2.34774221e-03
      4.97168908e-03 5.10979164e-03 0. 5.10979164e-03 1.51912728e-03
      2.07153708e-03 3.03825457e-03 4.69548441e-03 3.59066436e-03
      3.17635690e-03 8.97666067e-03 6.62891893e-03 2.90015200e-03
      6.62891893e-03 7.45753385e-03 1.20149152e-02 4.00497206e-03
      6.21461170e-03 4.00497206e-03 5.66220144e-03 3.31445946e-03
      3.59066436e-03 3.72876693e-03 8.00994411e-03 5.24789421e-03
      9.66717373e-04 3.86686949e-03 2.20963964e-03 6.07650913e-03</_>
    <_>
      3.16641247e-03 3.63551080e-03 4.45643254e-03 4.10460867e-03
      9.38196317e-04 6.33282494e-03 4.69098147e-03 4.45643254e-03
      2.58003990e-03 3.87005974e-03 2.69731437e-03 1.87639263e-03
      3.40096164e-03 8.67831614e-03 3.51823610e-03 5.86372684e-04
      3.40096164e-03 1.99366710e-03 4.33915807e-03 3.40096164e-03
      2.81458907e-03 5.62917814e-03 5.51190320e-03 5.86372707e-03
      2.69731437e-03 2.22821627e-03 2.11094180e-03 6.45009987e-03
      3.28368717e-03 4.10460867e-03 4.57370700e-03 3.51823634e-04
      3.51823610e-03 5.51190320e-03 9.38196317e-04 2.81458907e-03
      8.20921792e-04 4.92553087e-03 3.98733420e-03 3.63551080e-03
      3.63551080e-03 8.09194334e-03 2.34549074e-03 3.98733420e-03
      7.38829607e-03 2.81458907e-03 1.40729453e-03 7.38829607e-03
      2.69731437e-03 7.62284501e-03 9.61651187e-03 2.34549074e-03
      2.81458907e-03 2.69731437e-03 3.28368717e-03 3.16641247e-03
      2.46276543e-03 7.62284501e-03 6.33282494e-03 2.81458907e-03
      1.64184358e-03 3.40096164e-03 4.57370700e-03 7.03647267e-04
      4.10460867e-03 3.51823610e-03 2.58003990e-03 9.85106174e-03
      2.11094180e-03 3.04913800e-03 4.92553087e-03 4.80825594e-03
      4.57370700e-03 0. 1.99366710e-03 2.81458907e-03 7.03647221e-03
      2.22821627e-03 1.75911805e-03 7.38829607e-03 2.11094180e-03
      5.62917814e-03 4.22188360e-03 3.40096164e-03 4.10460867e-03
      5.27735427e-03 6.21555047e-03 1.17274537e-03 5.27735427e-03
      2.93186354e-03 3.98733420e-03 3.40096164e-03 1.99366710e-03
      2.58003990e-03 5.98100154e-03 4.22188360e-03 3.16641247e-03
      3.87005974e-03 4.69098147e-03 1.64184358e-03 0. 2.22821627e-03
      2.69731437e-03 3.16641247e-03 2.46276543e-03 5.86372707e-03
      3.16641247e-03 6.33282494e-03 4.10460867e-03 2.58003990e-03
      1.11410813e-02 3.63551080e-03 2.81458907e-03 3.40096164e-03
      2.69731437e-03 5.86372707e-03 2.34549074e-03 2.69731437e-03
      2.34549074e-03 2.22821627e-03 8.91286507e-03 3.75278527e-03
      7.38829607e-03 5.98100154e-03 6.56737434e-03 7.50557054e-03
      7.15374714e-03 3.63551080e-03 4.92553087e-03 5.39462874e-03
      7.85739440e-03 3.40096164e-03 3.75278527e-03 3.40096164e-03
      4.22188360e-03 5.98100154e-03 3.75278527e-03 8.91286507e-03
      2.81458907e-03 5.16007980e-03 2.22821627e-03 4.92553087e-03
      7.27102160e-03 2.46276543e-03 1.55975139e-02 1.17274540e-04
      5.86372684e-04 4.33915807e-03 4.57370700e-03 6.56737434e-03
      2.34549074e-03 3.04913800e-03 4.33915807e-03 7.74011947e-03
      1.52456900e-03 3.87005974e-03 3.98733420e-03 2.69731437e-03
      3.40096164e-03 1.52456900e-03 4.80825594e-03 5.51190320e-03
      4.80825594e-03 5.27735427e-03 7.38829607e-03 0. 4.22188360e-03
      3.51823610e-03 5.86372707e-03 3.16641247e-03 1.64184358e-03
      3.87005974e-03 3.04913800e-03 3.40096164e-03 6.56737434e-03
      3.28368717e-03 1.29001995e-03 3.28368717e-03 2.93186354e-03
      3.04913800e-03 1.52456900e-03 3.98733420e-03 2.46276543e-03
      8.32649227e-03 8.67831614e-03 2.11094180e-03 6.33282494e-03
      5.86372707e-03 2.11094180e-03 1.52456900e-03 2.34549074e-03
      4.10460867e-03 2.34549074e-03 6.21555047e-03 6.56737434e-03
      8.67831614e-03 3.63551080e-03 2.93186354e-03 4.10460867e-03
      5.27735427e-03 3.87005974e-03 1.99366715e-02 2.34549074e-03
      5.16007980e-03 2.34549074e-03 4.10460867e-03 5.98100154e-03
      3.51823634e-04 6.56737434e-03 1.10238064e-02 2.58003990e-03
      3.63551080e-03 5.62917814e-03 0. 4.92553087e-03 4.22188360e-03
      3.28368717e-03 2.46276543e-03 4.22188360e-03 5.04280534e-03
      4.80825594e-03 3.87005974e-03 3.04913800e-03 5.27735427e-03
      4.45643254e-03 7.50557054e-03 6.09827600e-03 3.75278527e-03
      4.69098147e-03 3.40096164e-03 4.33915807e-03 3.28368717e-03
      7.27102160e-03 6.80192327e-03 3.40096164e-03 4.80825594e-03
      1.99366710e-03 4.57370700e-03 3.28368717e-03 8.20921792e-04</_>
    <_>
      3.21336760e-04 3.10625532e-03 5.35561237e-04 6.42673520e-04
      1.07112247e-03 1.07112253e-04 4.28449013e-04 2.46358174e-03
      3.10625532e-03 9.64010251e-04 6.42673520e-04 1.26392459e-02
      2.35646963e-03 8.56898027e-04 3.21336760e-04 3.20265628e-02
      2.14224507e-04 1.07112247e-03 1.39245926e-03 4.28449013e-04
      7.49785802e-04 7.49785802e-04 6.42673520e-04 8.56898027e-04
      1.39245926e-03 4.82005160e-03 3.21336760e-04 3.21336760e-04
      3.96315334e-03 1.07112247e-03 4.28449013e-04 4.83076274e-02 0.
      7.49785802e-04 5.35561237e-04 2.14224495e-03 3.21336760e-04
      2.14224507e-04 1.39245926e-03 9.74721462e-03 3.85604100e-03
      2.14224507e-04 1.07112253e-04 3.21336760e-04 0. 8.56898027e-04
      2.14224507e-04 1.07112253e-04 1.92802050e-03 1.07112253e-04
      1.07112247e-03 4.28449013e-04 2.14224507e-04 2.14224507e-04
      3.32047977e-03 2.35646963e-03 7.06940889e-03 3.21336760e-04
      1.07112253e-04 2.14224507e-04 5.35561237e-04 8.56898027e-04
      3.53470445e-03 3.53470445e-03 1.17823482e-03 3.21336760e-04
      2.67780642e-03 5.35561237e-04 2.14224507e-04 2.57069408e-03
      3.21336760e-04 4.28449013e-04 2.14224507e-04 1.56705230e-01
      3.21336760e-04 2.14224507e-04 6.42673520e-04 1.07112253e-04 0.
      3.21336760e-04 8.56898027e-04 4.28449013e-04 3.21336760e-04
      7.49785802e-04 1.28534704e-03 7.49785802e-04 2.14224507e-04
      6.42673520e-04 1.07112247e-03 2.89203087e-03 0. 4.39160224e-03
      1.71379605e-03 1.92802050e-03 2.14224507e-04 8.56898027e-04
      3.42759211e-03 2.46358174e-03 2.14224495e-03 5.24850050e-03
      1.23500429e-01 1.71379605e-03 7.49785802e-04 1.17823482e-03
      1.28534704e-03 3.21336760e-04 4.28449013e-04 8.56898027e-04
      2.14224507e-04 9.64010251e-04 2.14224495e-03 4.28449013e-04
      2.99914321e-03 5.24850050e-03 2.67780642e-03 1.07112247e-03
      5.35561237e-04 1.07112253e-04 1.71379605e-03 4.28449013e-04
      7.49785802e-04 4.28449013e-04 8.56898027e-04 2.14224507e-04
      2.14224507e-04 1.07112247e-03 1.07112253e-04 5.35561237e-04
      1.28534704e-03 8.56898027e-04 2.14224495e-03 7.49785802e-04
      2.57069408e-03 2.14224495e-03 1.07112253e-04 2.14224507e-04
      1.39245926e-03 2.14224507e-04 1.49957160e-03 4.28449013e-04
      5.35561237e-04 1.71379605e-03 8.56898027e-04 1.60668383e-03
      6.42673520e-04 5.15209921e-02 3.47043686e-02 3.21336760e-04
      2.14224507e-04 3.21336760e-04 3.21336760e-04 4.28449013e-04
      1.60668383e-03 1.60668383e-03 1.06041133e-02 1.07112247e-03
      4.28449013e-04 9.64010251e-04 1.28534704e-03 5.35561237e-04
      5.35561237e-04 5.35561237e-04 2.14224507e-04 7.49785802e-04
      6.42673520e-04 1.05291344e-01 9.64010251e-04 9.64010251e-04
      1.07112247e-03 1.07112253e-04 3.21336760e-04 1.07112253e-04
      2.89203087e-03 1.17823482e-03 3.21336760e-04 1.07112253e-04
      3.21336760e-04 4.28449013e-04 3.21336760e-04 0. 6.42673520e-04
      3.21336760e-04 2.14224507e-04 5.35561237e-04 1.28534704e-03
      1.49957160e-03 3.21336760e-04 5.35561237e-04 9.64010321e-03
      5.35561237e-04 3.21336760e-04 0. 2.03513284e-03 3.64181655e-03
      1.07112247e-03 1.49957160e-03 6.42673520e-04 4.28449013e-04
      1.07112253e-04 2.35646963e-03 4.28449013e-04 2.14224507e-04
      2.14224507e-04 5.35561237e-04 1.92802050e-03 3.21336760e-04
      5.35561237e-04 7.70137087e-02 4.28449013e-04 9.21165384e-03
      1.07112247e-03 1.60668383e-03 2.14224507e-04 7.94772953e-02
      3.21336760e-04 8.56898027e-04 1.28534704e-03 2.14224507e-04
      1.07112253e-04 4.28448990e-03 0. 6.85518421e-03 4.28449013e-04
      2.14224507e-04 7.49785802e-04 2.14224507e-04 5.35561237e-04
      2.14224507e-04 9.64010251e-04 8.56898027e-04 1.39245926e-03
      9.64010251e-04 4.28449013e-04 4.28449013e-04 9.64010251e-04
      1.71379605e-03 6.42673520e-04 1.71379605e-03 2.67780642e-03
      2.14224495e-03</_>
    <_>
      2.91639660e-03 2.16029375e-03 5.40073449e-03 3.34845530e-03
      2.26830854e-03 1.47980126e-02 1.52300717e-02 2.91639660e-03
      6.15683757e-03 2.70036724e-03 2.59235268e-03 2.05227919e-03
      5.83279319e-03 8.64117499e-03 1.72823505e-03 1.40419102e-03
      3.24044074e-03 3.56448488e-03 2.37632310e-03 2.37632310e-03
      6.58889627e-03 2.26830854e-03 5.29271970e-03 1.18816155e-03
      4.10455838e-03 2.59235268e-03 3.56448488e-03 1.62022037e-03
      2.91639660e-03 2.80838204e-03 6.37286669e-03 2.16029381e-04
      3.99654359e-03 1.72823505e-03 1.72823505e-03 2.16029375e-03
      7.99308717e-03 1.83624972e-03 2.80838204e-03 2.26830854e-03
      2.80838204e-03 1.94426440e-03 4.75264620e-03 2.37632310e-03
      1.04774246e-02 4.42860229e-03 4.96867578e-03 4.10455838e-03
      3.02441139e-03 8.42514541e-03 3.78051423e-03 1.83624972e-03
      4.75264620e-03 1.51220569e-03 3.45647009e-03 2.05227919e-03
      2.80838204e-03 1.17736012e-02 1.84705127e-02 1.18816160e-02
      9.72132199e-04 1.51220569e-03 3.02441139e-03 3.24044074e-03
      2.05227919e-03 3.24044074e-03 4.21257271e-03 2.20349971e-02
      1.51220569e-03 1.83624972e-03 9.39727761e-03 5.29271970e-03
      2.80838204e-03 0. 2.26830854e-03 1.51220569e-03 1.44739682e-02
      1.40419102e-03 2.37632310e-03 1.40419102e-03 2.26830854e-03
      4.32058750e-03 5.29271970e-03 3.56448488e-03 3.24044074e-03
      4.75264620e-03 6.48088148e-03 1.62022037e-03 2.16029375e-03
      3.45647009e-03 2.70036724e-03 3.88852879e-03 1.40419102e-03
      2.16029375e-03 4.21257271e-03 5.18470537e-03 2.59235268e-03
      7.02095497e-03 3.45647009e-03 4.32058750e-03 0. 2.37632310e-03
      3.13242595e-03 1.94426440e-03 1.94426440e-03 7.23698409e-03
      2.16029375e-03 4.10455838e-03 5.07669058e-03 3.02441139e-03
      1.16655864e-02 3.99654359e-03 2.91639660e-03 4.10455838e-03
      2.48433789e-03 1.62022037e-03 2.59235268e-03 1.51220569e-03
      1.51220569e-03 9.50529240e-03 1.22056603e-02 2.48433789e-03
      8.42514541e-03 2.91639660e-03 2.37632310e-03 7.34499888e-03
      9.28926375e-03 2.80838204e-03 2.48433789e-03 3.78051423e-03
      7.99308717e-03 2.26830854e-03 1.51220569e-03 2.80838204e-03
      3.45647009e-03 1.40419102e-03 3.56448488e-03 1.22056603e-02
      1.83624972e-03 7.23698409e-03 4.86066099e-03 2.05227919e-03
      1.03694107e-02 3.24044074e-03 2.12788936e-02 2.16029381e-04
      1.08014687e-03 1.83624972e-03 1.62022037e-03 4.42860229e-03
      1.83624972e-03 1.94426440e-03 1.83624972e-03 9.50529240e-03
      2.48433789e-03 3.99654359e-03 4.32058750e-03 1.51220569e-03
      5.40073449e-03 2.26830854e-03 1.13415429e-02 2.37632310e-03
      1.83624972e-03 6.48088148e-03 5.40073449e-03 0. 2.26830854e-03
      3.34845530e-03 2.37632310e-03 2.80838204e-03 2.26830854e-03
      4.86066099e-03 1.18816155e-03 2.80838204e-03 6.80492539e-03
      2.59235268e-03 2.16029375e-03 1.83624972e-03 3.56448488e-03
      3.34845530e-03 1.51220569e-03 3.24044074e-03 2.91639660e-03
      3.88852879e-03 1.03694107e-02 2.37632310e-03 4.32058750e-03
      1.83624972e-03 2.05227919e-03 1.62022037e-03 5.61676407e-03
      2.70036724e-03 5.94080798e-03 1.13415429e-02 6.48088148e-03
      9.82933678e-03 3.78051423e-03 5.29271970e-03 4.75264620e-03
      3.99654359e-03 7.34499888e-03 2.06308067e-02 1.18816155e-03
      2.59235268e-03 2.26830854e-03 1.40419102e-03 3.45647009e-03
      1.08014690e-04 1.66342631e-02 5.61676407e-03 2.05227919e-03
      2.48433789e-03 3.02441139e-03 0. 7.88507238e-03 2.59235268e-03
      3.88852879e-03 3.24044074e-03 1.29617634e-03 3.24044074e-03
      3.02441139e-03 1.62022037e-03 2.05227919e-03 2.80838204e-03
      2.59235268e-03 1.83624972e-03 1.62022037e-03 5.83279319e-03
      3.02441139e-03 2.26830854e-03 2.91639660e-03 1.51220569e-03
      8.20911676e-03 4.53661708e-03 2.37632310e-03 4.64463187e-03
      2.16029375e-03 4.42860229e-03 3.24044074e-03 3.34845530e-03</_>
    <_>
      5.74518414e-03 4.39337641e-03 3.04156821e-03 2.70361616e-03
      3.71747231e-03 3.37952026e-03 3.04156821e-03 3.04156821e-03
      3.04156821e-03 4.39337641e-03 2.02771206e-03 1.01385603e-03
      5.40723233e-03 9.46265645e-03 3.37952020e-04 6.75904041e-04
      3.71747231e-03 4.05542413e-03 1.35180808e-03 5.40723233e-03
      8.78675282e-03 2.70361616e-03 4.05542413e-03 6.75904041e-04
      4.05542413e-03 5.74518414e-03 8.44880007e-03 1.35180808e-03
      3.71747231e-03 6.75904041e-04 1.35180808e-03 0. 6.42108824e-03
      1.35180808e-03 3.37952026e-03 6.08313642e-03 7.43494462e-03
      6.75904041e-04 3.71747231e-03 2.36566411e-03 1.68976013e-03
      1.68976013e-03 1.04765128e-02 6.75904041e-04 9.12470464e-03
      3.37952026e-03 6.42108824e-03 3.37952026e-03 3.04156821e-03
      6.42108824e-03 2.70361616e-03 3.04156821e-03 6.75904052e-03
      5.40723233e-03 4.39337641e-03 3.37952026e-03 4.05542413e-03
      9.12470464e-03 1.21662728e-02 2.02771206e-03 5.74518414e-03
      2.36566411e-03 4.05542413e-03 4.39337641e-03 0. 3.37952026e-03
      7.09699234e-03 1.01385610e-02 4.39337641e-03 2.70361616e-03
      1.04765128e-02 4.73132823e-03 1.68976013e-03 0. 2.36566411e-03
      3.37952020e-04 1.35180810e-02 6.75904041e-04 3.37952026e-03
      2.02771206e-03 5.40723233e-03 2.70361616e-03 7.09699234e-03
      2.70361616e-03 1.68976013e-03 3.04156821e-03 4.39337641e-03
      3.37952026e-03 2.02771206e-03 4.39337641e-03 1.35180808e-03
      5.74518414e-03 3.04156821e-03 1.68976013e-03 3.71747231e-03
      9.12470464e-03 6.75904041e-04 6.75904052e-03 3.04156821e-03
      1.35180808e-03 0. 4.05542413e-03 4.05542413e-03 4.05542413e-03
      4.73132823e-03 6.08313642e-03 2.02771206e-03 5.40723233e-03
      2.70361616e-03 5.74518414e-03 9.12470464e-03 4.05542413e-03
      7.43494462e-03 5.06928051e-03 4.39337641e-03 1.68976013e-03
      3.04156821e-03 6.75904041e-04 7.77289644e-03 8.11084826e-03
      8.11084826e-03 1.01385603e-03 5.06928051e-03 2.36566411e-03
      4.73132823e-03 3.37952026e-03 8.78675282e-03 4.73132823e-03
      6.75904052e-03 2.70361616e-03 7.77289644e-03 3.04156821e-03
      2.36566411e-03 1.35180808e-03 2.02771206e-03 1.35180808e-03
      5.40723233e-03 1.01385610e-02 2.70361616e-03 7.43494462e-03
      2.70361616e-03 5.74518414e-03 1.11524165e-02 5.74518414e-03
      1.72355529e-02 0. 2.02771206e-03 2.70361616e-03 1.68976013e-03
      3.37952026e-03 4.05542413e-03 3.71747231e-03 3.04156821e-03
      8.78675282e-03 3.71747231e-03 1.01385603e-03 3.04156821e-03
      8.11084826e-03 5.74518414e-03 2.02771206e-03 8.78675282e-03
      3.37952026e-03 2.02771206e-03 2.36566411e-03 4.73132823e-03 0.
      5.40723233e-03 5.06928051e-03 3.04156821e-03 3.04156821e-03
      1.68976013e-03 4.73132823e-03 1.01385603e-03 2.36566411e-03
      4.05542413e-03 2.02771206e-03 4.73132823e-03 1.35180808e-03
      5.06928051e-03 2.02771206e-03 3.71747231e-03 2.70361616e-03
      2.36566411e-03 3.71747231e-03 4.05542413e-03 6.75904041e-04
      1.01385603e-03 1.35180808e-03 3.71747231e-03 2.02771206e-03
      5.74518414e-03 4.05542413e-03 6.42108824e-03 7.09699234e-03
      5.74518414e-03 1.01385610e-02 2.36566411e-03 4.73132823e-03
      4.05542413e-03 1.35180808e-03 6.08313642e-03 3.34572494e-02
      2.70361616e-03 6.75904041e-04 3.04156821e-03 2.70361616e-03
      2.36566411e-03 6.75904041e-04 1.41939847e-02 6.75904052e-03
      4.05542413e-03 2.70361616e-03 2.70361616e-03 0. 4.05542413e-03
      4.05542413e-03 7.09699234e-03 4.05542413e-03 2.02771206e-03
      1.68976013e-03 3.04156821e-03 6.75904041e-04 1.01385603e-03
      3.37952026e-03 2.36566411e-03 6.75904041e-04 6.75904041e-04
      5.06928051e-03 2.70361616e-03 2.70361616e-03 5.06928051e-03
      3.37952026e-03 8.44880007e-03 5.40723233e-03 1.01385603e-03
      3.37952026e-03 5.74518414e-03 7.09699234e-03 6.75904052e-03
      6.08313642e-03</_>
    <_>
      1.67681044e-03 2.67047575e-03 2.60837167e-03 2.54626758e-03
      1.11787359e-03 6.21040876e-04 9.93665424e-04 1.73891452e-03
      2.91889207e-03 2.48416350e-03 8.88088439e-03 9.31561342e-04
      2.23574718e-03 1.80101860e-03 1.08061116e-02 7.45249097e-04
      2.98099639e-03 2.29785126e-03 1.32902749e-02 1.17997767e-03
      1.36628991e-03 7.14197010e-03 1.19239856e-02 1.04955910e-02
      1.30418583e-03 1.80101860e-03 4.09886986e-03 2.73257983e-03
      8.69457261e-04 8.01142771e-03 3.66414129e-03 6.21040890e-05
      2.23574718e-03 5.09253517e-03 1.30418583e-03 1.17997767e-03
      2.85678799e-03 1.31039629e-02 6.08620094e-03 2.85678799e-03
      5.96199278e-03 8.01142771e-03 4.16097417e-03 1.32902749e-02
      3.35362088e-03 1.61470636e-03 3.04310047e-03 2.67047575e-03
      3.22941272e-03 4.34728619e-03 1.22345053e-02 9.93665424e-04
      8.69457261e-04 4.96832712e-04 8.07353179e-04 9.50192567e-03
      5.77568030e-03 6.52092928e-03 1.55260228e-03 6.70724176e-03
      8.69457261e-04 8.13563541e-03 1.68302078e-02 3.72624537e-03
      1.78859774e-02 1.06819030e-02 1.67681044e-03 2.54626758e-03
      1.30418583e-03 2.79468391e-03 2.60837167e-03 4.03676601e-03
      1.44702531e-02 2.48416356e-04 6.21040876e-04 3.60203721e-03
      5.03043132e-03 4.28518234e-03 1.11787359e-03 1.02471747e-02
      9.93665424e-04 3.97466170e-03 1.67681044e-03 2.60837167e-03
      1.08682159e-02 5.15463948e-03 2.35995534e-03 1.05576951e-03
      1.17997767e-03 2.17364309e-03 3.10520455e-03 5.89988846e-03
      2.11153901e-03 3.72624549e-04 2.04943493e-03 2.29785126e-03
      9.25350934e-03 1.17997767e-03 2.73257983e-03 1.57123338e-02
      6.21040890e-05 1.11787359e-03 1.80101860e-03 1.17997767e-03
      1.80101860e-03 4.47149435e-03 1.05576951e-03 1.24208175e-03
      8.07353179e-04 1.17997767e-03 1.24208175e-03 9.93665424e-04
      2.42205942e-03 1.98733085e-03 3.16730863e-03 1.37871075e-02
      1.30418583e-03 1.67681035e-02 2.60837167e-03 1.49049819e-03
      2.54626758e-03 3.72624537e-03 3.35362088e-03 9.37771704e-03
      9.31561342e-04 1.36628991e-03 2.98099639e-03 1.73891452e-03
      2.04943493e-03 1.04334867e-02 1.92522677e-03 1.86312268e-03
      1.12408400e-02 1.09303193e-02 1.49049819e-03 2.03701407e-02
      9.31561342e-04 1.80101860e-03 1.86312268e-03 2.79468391e-03
      2.54626758e-03 4.34728630e-04 2.98099639e-03 9.93665424e-04
      2.54626758e-03 0. 4.34728630e-04 1.14271520e-02 1.10545279e-02
      8.69457261e-04 8.69457261e-04 9.93665424e-04 1.24208175e-03
      3.66414129e-03 7.45249097e-04 2.60837167e-03 1.36628991e-03
      3.47782904e-03 1.11787359e-03 8.69457261e-04 2.17364309e-03
      8.69457261e-04 4.71991068e-03 9.12930071e-03 2.85678799e-03 0.
      1.05576951e-03 1.11787359e-03 3.53993312e-03 1.92522677e-03
      8.07353179e-04 4.28518234e-03 9.93665424e-04 5.03043132e-03
      3.53993312e-03 4.22307802e-03 9.93665424e-04 4.34728619e-03
      1.98733085e-03 1.98733085e-03 1.17997767e-03 2.29785126e-03
      1.05576951e-03 5.77568030e-03 3.10520455e-03 1.15513606e-02
      1.05576953e-02 1.21724019e-02 1.61470636e-03 1.30418583e-03
      1.30418583e-03 2.17364309e-03 2.54626758e-03 9.93665424e-04
      2.35995534e-03 3.41572496e-03 7.07986625e-03 1.42839400e-03
      8.07353179e-04 1.40355239e-02 2.67047575e-03 3.29151680e-03
      7.45249097e-04 7.07986625e-03 2.23574718e-03 1.36628991e-03
      4.16097417e-03 0. 5.65147214e-03 2.03701407e-02 2.54626758e-03
      5.96199278e-03 1.61470636e-03 0. 8.44615605e-03 2.85678799e-03
      2.17364309e-03 1.49049819e-03 5.09253517e-03 6.21040910e-03
      7.45249074e-03 1.45323565e-02 3.29151680e-03 2.79468391e-03
      8.25984403e-03 8.32194835e-03 2.21090559e-02 1.11787359e-03
      8.25984403e-03 7.32828258e-03 1.86312268e-03 7.45249097e-04
      2.79468391e-03 5.65147214e-03 1.50912935e-02 1.04334867e-02
      1.67681044e-03 5.09253517e-03 3.16730863e-03 1.92522677e-03</_>
    <_>
      3.61383567e-03 1.54878676e-03 2.06504902e-03 1.03252451e-03
      6.71140943e-03 2.58131139e-03 1.54878676e-03 1.54878676e-03
      5.78213707e-02 5.16262278e-03 1.03252451e-03 1.54878676e-03
      3.61383567e-03 6.19514706e-03 1.03252451e-03 1.03252451e-03
      2.06504902e-03 2.06504902e-03 5.16262255e-04 1.03252451e-03
      1.13577694e-02 5.16262255e-04 1.54878676e-03 2.58131139e-03
      1.03252451e-03 3.09757353e-03 7.74393370e-03 2.58131139e-03
      7.22767133e-03 2.06504902e-03 1.03252451e-03 1.03252451e-03
      2.58131139e-03 5.16262255e-04 8.26019607e-03 5.67888469e-03
      5.67888469e-03 2.58131139e-03 1.54878676e-03 6.71140943e-03
      1.03252451e-03 5.16262255e-04 3.20082605e-02 1.54878676e-03
      2.06504902e-03 1.03252451e-03 6.71140943e-03 5.16262255e-04
      1.54878676e-03 5.16262255e-04 2.06504902e-03 8.26019607e-03
      1.03252456e-02 5.67888469e-03 5.16262255e-04 1.54878676e-03
      1.03252451e-03 3.35570462e-02 4.13009804e-03 1.03252456e-02
      4.13009804e-03 5.16262255e-04 1.54878674e-02 2.06504911e-02
      5.16262255e-04 2.58131139e-03 3.09757353e-03 3.09757353e-03
      3.09757353e-03 2.06504902e-03 2.06504902e-03 3.09757353e-03
      1.54878676e-03 0. 7.22767133e-03 2.06504902e-03 2.58131139e-03
      3.09757353e-03 8.77645798e-03 0. 8.77645798e-03 5.16262255e-04
      7.74393370e-03 5.67888469e-03 0. 1.54878676e-03 3.09757353e-03
      5.67888469e-03 2.58131139e-03 3.61383567e-03 1.03252451e-03 0.
      4.64636041e-03 4.64636041e-03 1.54878676e-03 3.61383567e-03 0.
      2.58131139e-03 1.03252451e-03 1.80691797e-02 0. 4.13009804e-03
      5.16262278e-03 5.67888469e-03 7.74393370e-03 3.87196690e-02
      5.67888469e-03 4.64636041e-03 6.71140943e-03 3.09757353e-03
      2.58131139e-03 6.71140943e-03 1.18740322e-02 2.32318006e-02
      4.13009804e-03 3.09757353e-03 6.71140943e-03 1.03252451e-03
      1.29065560e-02 4.64636041e-03 2.06504902e-03 2.06504902e-03
      4.64636041e-03 1.54878676e-03 4.13009804e-03 4.13009804e-03
      4.64636041e-03 3.61383567e-03 8.77645798e-03 1.54878676e-03
      6.19514706e-03 3.09757353e-03 1.54878676e-03 1.54878676e-03
      4.13009804e-03 2.06504902e-03 2.58131139e-03 3.61383567e-03
      3.61383567e-03 6.71140943e-03 2.06504902e-03 3.09757353e-03
      2.06504902e-03 3.09757353e-03 1.03252451e-03 1.54878676e-03
      1.54878676e-03 5.16262255e-04 5.16262255e-04 3.09757353e-03
      3.09757353e-03 4.13009804e-03 1.54878676e-03 2.06504902e-03
      2.58131139e-03 5.16262255e-04 3.09757353e-03 1.03252456e-02
      1.54878676e-03 5.67888469e-03 2.06504902e-03 1.03252451e-03
      1.54878676e-03 3.09757353e-03 4.13009804e-03 0. 3.61383567e-03
      4.64636041e-03 2.58131139e-03 5.16262255e-04 2.06504902e-03
      5.16262255e-04 2.06504902e-03 1.54878676e-03 1.03252451e-03
      2.06504902e-03 5.67888469e-03 1.03252451e-03 3.09757353e-03
      2.58131139e-03 5.16262255e-04 3.09757353e-03 5.16262278e-03
      1.03252451e-03 3.09757353e-03 1.03252451e-03 5.16262255e-04
      5.16262255e-04 9.29272082e-03 1.54878676e-03 2.58131139e-03
      5.16262255e-04 1.03252451e-03 5.16262255e-04 4.64636041e-03 0.
      1.54878676e-03 8.77645798e-03 4.13009804e-03 1.03252451e-03
      3.61383567e-03 1.03252451e-03 1.54878676e-03 0. 2.06504902e-03
      1.54878676e-03 4.64636041e-03 2.58131139e-03 6.19514706e-03
      5.57563230e-02 1.54878676e-03 2.06504902e-03 1.03252451e-03 0.
      1.54878676e-03 7.74393370e-03 2.58131139e-03 5.16262278e-03
      1.03252451e-03 2.58131139e-03 2.06504902e-03 1.03252451e-03 0.
      3.09757353e-03 1.54878676e-03 1.03252451e-03 1.54878676e-03
      7.22767133e-03 5.16262255e-04 2.06504902e-03 3.61383567e-03
      5.16262278e-03 1.03252451e-03 3.61383567e-03 5.16262255e-04 0.
      4.13009804e-03 2.06504902e-03 4.64636041e-03 5.16262278e-03</_>
    <_>
      4.67071449e-03 3.26950010e-03 2.80242879e-03 3.26950010e-03
      9.34142899e-03 9.34142910e-04 2.80242879e-03 5.13778580e-03
      1.86828582e-03 1.07426438e-02 2.33535725e-03 1.86828582e-03
      4.20364318e-03 7.47314328e-03 1.40121439e-03 3.26950010e-03
      9.34142910e-04 5.13778580e-03 4.67071455e-04 2.33535725e-03
      1.86828582e-03 2.33535725e-03 0. 4.67071449e-03 2.33535725e-03
      6.53900020e-03 1.40121439e-02 4.20364318e-03 1.86828582e-03
      2.80242879e-03 1.40121439e-03 0. 2.33535725e-03 2.80242879e-03
      5.13778580e-03 5.13778580e-03 4.20364318e-03 4.67071455e-04
      2.80242879e-03 1.40121439e-03 3.73657164e-03 2.80242879e-03
      6.53900020e-03 1.40121439e-03 3.26950010e-03 3.73657164e-03
      5.60485758e-03 1.86828582e-03 3.26950010e-03 7.00607197e-03
      2.33535725e-03 7.47314328e-03 3.73657164e-03 4.67071449e-03
      3.26950010e-03 3.26950010e-03 6.07192889e-03 2.47547869e-02
      1.40121439e-03 6.53900020e-03 6.53900020e-03 1.40121439e-03
      2.61560008e-02 4.20364318e-03 1.86828582e-03 1.86828582e-03
      4.67071449e-03 5.13778580e-03 1.58804301e-02 3.26950010e-03
      9.34142910e-04 2.33535725e-03 2.80242879e-03 0. 9.34142899e-03
      9.34142910e-04 8.87435768e-03 2.33535725e-03 5.13778580e-03
      2.80242879e-03 1.02755716e-02 1.40121439e-03 4.20364318e-03
      1.86828582e-03 4.67071455e-04 1.86828582e-03 3.26950010e-03
      6.53900020e-03 2.33535725e-03 5.60485758e-03 9.34142910e-04
      5.13778580e-03 3.73657164e-03 5.13778580e-03 2.33535725e-03
      3.73657164e-03 1.86828582e-03 7.00607197e-03 9.34142910e-04
      1.49462866e-02 0. 2.33535725e-03 2.33535725e-03 4.67071449e-03
      1.16767865e-02 2.33535725e-03 5.60485758e-03 2.80242879e-03
      3.73657164e-03 3.73657164e-03 6.07192889e-03 1.86828582e-03
      7.94021506e-03 7.47314328e-03 3.73657164e-03 9.34142910e-04
      6.07192889e-03 1.40121439e-03 1.02755716e-02 8.40728637e-03
      2.33535725e-03 3.26950010e-03 8.40728637e-03 9.34142910e-04
      5.60485758e-03 1.86828582e-03 3.73657164e-03 6.07192889e-03
      6.07192889e-03 7.94021506e-03 5.13778580e-03 3.26950010e-03
      2.33535725e-03 2.33535725e-03 4.67071449e-03 9.34142910e-04
      4.67071449e-03 3.26950010e-03 2.80242879e-03 2.80242879e-03
      5.13778580e-03 4.20364318e-03 1.40121439e-03 7.00607197e-03
      7.94021506e-03 3.73657164e-03 4.20364318e-03 0. 4.67071455e-04
      2.80242879e-03 3.73657164e-03 3.26950010e-03 6.07192889e-03
      1.26109291e-02 3.73657164e-03 3.26950010e-03 4.20364318e-03
      7.94021506e-03 6.07192889e-03 7.47314328e-03 2.33535725e-03
      3.26950010e-03 3.73657164e-03 2.80242879e-03 4.67071455e-04 0.
      2.33535725e-03 7.94021506e-03 2.33535725e-03 2.80242879e-03
      5.60485758e-03 2.80242879e-03 7.47314328e-03 3.73657164e-03
      2.33535725e-03 2.80242879e-03 7.47314328e-03 2.33535725e-03
      2.33535725e-03 1.40121439e-03 2.33535725e-03 1.40121439e-03
      1.86828582e-03 3.73657164e-03 6.07192889e-03 2.80242879e-03
      1.40121439e-03 1.86828582e-03 1.86828582e-03 1.40121439e-03
      7.94021506e-03 2.33535725e-03 1.86828582e-03 8.40728637e-03
      2.33535725e-03 5.13778580e-03 3.26950010e-03 1.86828582e-03
      2.80242879e-03 3.26950010e-03 3.73657164e-03 7.47314328e-03
      8.40728637e-03 3.26950010e-03 1.40121439e-03 3.26950010e-03
      3.73657164e-03 3.26950010e-03 9.34142899e-03 2.56889295e-02
      3.26950010e-03 3.26950010e-03 1.86828582e-03 0. 4.67071449e-03
      1.02755716e-02 6.53900020e-03 4.67071449e-03 2.80242879e-03
      5.13778580e-03 4.67071455e-04 1.86828582e-03 1.40121439e-03
      4.20364318e-03 4.67071455e-04 2.33535725e-03 1.40121439e-03
      2.33535725e-03 2.33535725e-03 1.86828582e-03 2.80242879e-03
      3.73657164e-03 3.26950010e-03 1.86828582e-03 4.67071455e-04
      2.80242879e-03 5.60485758e-03 2.33535725e-03 1.21438578e-02
      3.26950010e-03</_>
    <_>
      2.82959547e-03 2.61999574e-03 3.03919497e-03 9.11758561e-03
      1.67679728e-03 2.25319644e-03 4.71599225e-04 4.55879280e-03
      2.82959547e-03 2.14839657e-03 1.03227831e-02 3.14399484e-03
      1.78159715e-03 3.98239354e-03 3.87759367e-03 1.30999787e-03
      6.02599047e-03 1.36239780e-03 1.12659819e-02 3.45839444e-03
      3.61559424e-03 6.86438894e-03 4.66359267e-03 2.20079650e-03
      2.82959547e-03 1.93879684e-03 4.08719340e-03 2.41039600e-03
      2.67239567e-03 7.23118847e-03 8.90798587e-03 1.57199742e-04
      3.09159490e-03 5.92119060e-03 2.09599664e-03 2.67239567e-03
      1.04799832e-03 9.32718534e-03 5.13519160e-03 2.77719554e-03
      4.29679314e-03 4.71599214e-03 8.12198687e-03 7.33598834e-03
      1.15279818e-03 4.29679314e-03 1.25759793e-03 3.56319430e-03
      3.51079437e-03 4.50639287e-03 6.07838994e-03 3.56319430e-03
      4.13959334e-03 2.67239567e-03 2.67239567e-03 3.09159490e-03
      2.93439534e-03 9.16998554e-03 1.99119677e-03 1.22615797e-02
      1.46719767e-03 8.59358627e-03 6.34038961e-03 3.51079437e-03
      7.54558761e-03 9.79878381e-03 1.41479773e-03 2.88199540e-03
      2.25319644e-03 3.51079437e-03 4.61119274e-03 1.34667782e-02
      5.44959120e-03 1.57199742e-04 2.88199540e-03 7.02158874e-03
      1.30999787e-03 6.91678887e-03 1.78159715e-03 6.18318981e-03
      2.25319644e-03 6.60238927e-03 1.72919722e-03 1.12135820e-02
      7.70278741e-03 8.59358627e-03 3.03919497e-03 8.90798576e-04
      3.09159490e-03 2.09599664e-03 8.12198687e-03 2.56759580e-03
      2.09599664e-03 1.67679728e-03 3.24879470e-03 2.14839657e-03
      6.07838994e-03 1.78159715e-03 7.75518734e-03 1.21567799e-02
      5.23999151e-05 2.82959547e-03 7.85998709e-04 1.67679728e-03
      2.09599664e-03 3.92999360e-03 2.04359670e-03 4.71599214e-03
      4.34919307e-03 7.33598834e-03 2.14839657e-03 3.77279380e-03
      3.24879470e-03 3.40599450e-03 2.77719554e-03 5.76399080e-03
      3.24879470e-03 4.66359267e-03 3.40599450e-03 2.88199540e-03
      3.30119464e-03 6.28798967e-03 2.04359670e-03 6.65478921e-03
      3.09159490e-03 5.23999147e-03 1.57199742e-03 2.30559637e-03
      2.14839657e-03 5.86879067e-03 3.87759367e-03 4.29679314e-03
      4.76839207e-03 3.72039387e-03 1.83399708e-03 7.28358841e-03
      2.56759580e-03 2.61999574e-03 3.14399484e-03 1.67679728e-03
      4.40159300e-03 1.93879684e-03 2.04359670e-03 2.09599664e-03
      2.98679527e-03 1.51959748e-03 1.83399708e-03 9.27478541e-03
      8.22678674e-03 3.09159490e-03 6.81198901e-04 2.98679527e-03
      2.88199540e-03 4.55879280e-03 2.30559637e-03 3.24879470e-03
      2.04359670e-03 2.56759580e-03 1.15279818e-03 2.30559637e-03
      1.46719767e-03 3.45839444e-03 7.80758727e-03 1.18423812e-02
      7.28358841e-03 2.61999579e-04 1.46719767e-03 2.25319644e-03
      3.92999360e-03 5.44959120e-03 1.57199742e-03 5.97359054e-03
      5.39719127e-03 6.60238927e-03 6.34038961e-03 5.13519160e-03
      2.25319644e-03 8.59358627e-03 3.56319430e-03 1.13707818e-02
      5.29239140e-03 3.92999360e-03 2.30559637e-03 2.09599664e-03
      1.04799832e-03 5.23999147e-03 8.22678674e-03 6.96918881e-03
      2.30559637e-03 5.08279167e-03 2.09599664e-03 4.03479347e-03
      2.14839657e-03 1.99119677e-03 2.77719554e-03 3.30119464e-03
      1.05323829e-02 6.39278954e-03 3.30119464e-03 4.87319194e-03
      2.56759580e-03 3.03919497e-03 1.57199742e-03 5.71159087e-03
      1.88639690e-03 1.20519800e-03 1.93879684e-03 3.66799417e-04
      2.41039600e-03 1.20519809e-02 3.19639477e-03 7.75518734e-03
      4.61119274e-03 5.23999151e-05 1.11087821e-02 1.72919722e-03
      4.55879280e-03 2.67239567e-03 2.88199540e-03 2.56759580e-03
      3.45839444e-03 4.66359267e-03 8.12198687e-03 1.83399708e-03
      6.18318981e-03 5.18759154e-03 7.02158874e-03 7.54558761e-03
      8.17438681e-03 3.87759367e-03 2.51519587e-03 3.61559424e-03
      7.12638861e-03 4.40159300e-03 6.96918881e-03 5.60679100e-03
      1.72919722e-03 4.08719340e-03 3.09159490e-03 2.35799607e-03</_>
    <_>
      1.94552529e-03 0. 3.89105058e-03 1.94552529e-03 5.83657576e-03 0.
      0. 0. 5.83657576e-03 1.16731515e-02 0. 2.91828788e-03
      2.91828788e-03 9.72762646e-04 7.78210117e-03 2.91828788e-03
      9.72762646e-04 2.91828788e-03 0. 1.94552529e-03 9.72762646e-04 0.
      9.72762646e-04 7.87937716e-02 1.94552529e-03 2.91828788e-03
      5.83657576e-03 2.33463030e-02 3.89105058e-03 0. 9.72762646e-04
      9.72762646e-04 2.91828788e-03 2.91828788e-03 6.80933846e-03
      1.94552529e-03 3.89105058e-03 9.72762646e-04 4.86381305e-03
      9.72762646e-04 3.89105058e-03 5.83657576e-03 9.72762646e-04
      9.72762646e-04 9.72762646e-04 4.86381305e-03 9.72762646e-04
      4.86381305e-03 0. 1.94552529e-03 2.91828788e-03 3.89105058e-03 0.
      0. 4.86381305e-03 5.83657576e-03 6.80933846e-03 0. 9.72762646e-04
      6.80933846e-03 4.86381305e-03 9.72762646e-04 1.94552529e-03
      9.72762646e-04 1.94552529e-03 1.94552529e-03 2.91828788e-03
      3.89105058e-03 1.36186769e-02 9.72762646e-04 3.89105058e-03
      1.94552529e-03 8.75486340e-03 0. 1.94552529e-03 1.94552529e-03
      3.89105058e-03 1.94552529e-03 1.94552529e-03 7.78210117e-03
      3.89105058e-03 1.94552529e-03 0. 2.91828788e-03 9.72762646e-04
      9.72762646e-04 3.89105058e-03 4.86381305e-03 7.78210117e-03
      1.94552529e-03 0. 1.07003888e-02 3.89105058e-03 5.83657576e-03
      5.83657576e-03 4.86381305e-03 1.94552529e-03 4.86381305e-03 0.
      3.89105058e-03 0. 3.89105058e-03 1.45914396e-02 9.72762611e-03
      7.78210117e-03 5.83657576e-03 8.75486340e-03 9.72762646e-04
      3.89105058e-03 9.72762646e-04 5.83657576e-03 0. 3.89105058e-03
      5.83657576e-03 2.91828788e-03 5.83657576e-03 4.86381305e-03
      7.78210117e-03 3.89105058e-03 3.89105058e-03 4.86381305e-03
      1.94552529e-03 5.83657576e-03 0. 2.91828788e-03 9.72762646e-04
      1.94552529e-03 1.65369641e-02 5.83657576e-03 3.89105058e-03
      9.72762646e-04 7.78210117e-03 1.94552529e-03 1.07003888e-02
      1.55642023e-02 5.83657576e-03 7.78210117e-03 9.72762646e-04
      9.72762646e-04 0. 8.75486340e-03 3.89105058e-03 6.80933846e-03
      5.83657576e-03 1.94552529e-03 2.91828788e-03 2.91828788e-03 0. 0.
      6.80933846e-03 2.52918284e-02 1.94552529e-03 5.83657576e-03
      1.94552529e-03 1.94552529e-03 9.72762646e-04 8.75486340e-03
      9.72762611e-03 4.86381305e-03 1.94552529e-03 0. 1.94552529e-03
      3.89105058e-03 9.72762646e-04 9.72762646e-04 0. 4.86381305e-03
      6.80933846e-03 9.72762646e-04 9.72762646e-04 2.91828788e-03
      1.94552529e-03 2.91828788e-03 0. 9.72762646e-04 4.86381305e-03
      6.80933846e-03 9.72762646e-04 0. 9.72762646e-04 9.72762646e-04
      3.89105058e-03 4.86381305e-03 2.04280149e-02 3.89105058e-03
      1.94552529e-03 0. 4.86381305e-03 0. 0. 4.86381305e-03
      9.72762646e-04 0. 7.78210117e-03 0. 0. 9.72762646e-04
      1.94552529e-03 2.91828788e-03 4.86381305e-03 1.26459142e-02 0.
      1.94552529e-03 5.83657576e-03 1.94552529e-03 3.89105058e-03
      2.52918284e-02 0. 1.94552529e-03 6.80933846e-03 2.91828788e-03
      9.72762646e-04 0. 0. 9.72762646e-04 1.26459142e-02 3.89105058e-03
      9.72762646e-04 9.72762611e-03 2.91828788e-03 3.89105058e-03
      2.91828788e-03 1.94552529e-03 1.65369641e-02 9.72762646e-04
      1.94552529e-03 4.86381305e-03 0. 1.94552529e-03 1.75097268e-02
      3.89105058e-03 9.72762646e-04 9.72762646e-04 3.89105058e-03
      1.94552529e-03 1.94552529e-03 1.26459142e-02 6.80933846e-03
      9.72762611e-03 1.94552529e-03</_>
    <_>
      2.88838451e-03 3.71363736e-03 4.53888997e-03 1.65050547e-03
      3.30101093e-03 1.25851044e-02 8.66515376e-03 2.26944499e-03
      1.17598511e-02 4.33257688e-03 3.09469784e-03 1.44419225e-03
      8.04621447e-03 7.01464806e-03 1.44419225e-03 1.85681868e-03
      2.06313189e-03 3.09469784e-03 8.25252733e-04 3.30101093e-03
      2.88838451e-03 3.50732403e-03 1.65050547e-03 2.26944499e-03
      2.06313189e-03 3.09469784e-03 1.07282856e-02 1.85681868e-03
      8.25252733e-04 3.09469784e-03 2.47575808e-03 0. 3.30101093e-03
      8.25252733e-04 3.71363736e-03 2.88838451e-03 7.63358781e-03
      1.44419225e-03 1.23787904e-03 3.09469784e-03 2.06313189e-03
      8.25252733e-04 5.98308211e-03 1.44419225e-03 5.77676902e-03
      4.33257688e-03 9.28409304e-03 2.68207141e-03 3.09469784e-03
      4.33257688e-03 2.26944499e-03 4.95151617e-03 2.68207141e-03
      4.12626378e-03 3.09469784e-03 1.23787904e-03 2.26944499e-03
      8.04621447e-03 1.36166699e-02 6.60202187e-03 2.68207141e-03
      1.44419225e-03 1.17598511e-02 9.28409304e-03 1.23787904e-03
      2.88838451e-03 3.50732403e-03 2.41386425e-02 3.09469784e-03
      2.06313189e-03 4.74520307e-03 3.09469784e-03 3.50732403e-03 0.
      3.71363736e-03 1.44419225e-03 2.16628835e-02 1.44419225e-03
      2.68207141e-03 1.23787904e-03 3.91995069e-03 1.65050547e-03
      8.66515376e-03 3.09469784e-03 1.44419225e-03 3.09469784e-03
      6.80833496e-03 1.23787904e-03 3.50732403e-03 2.06313189e-03
      1.65050547e-03 3.91995069e-03 2.88838451e-03 3.09469784e-03
      3.71363736e-03 5.15782973e-03 2.68207141e-03 1.07282856e-02
      1.65050547e-03 1.09345987e-02 0. 4.53888997e-03 5.36414282e-03
      3.91995069e-03 5.98308211e-03 9.90303233e-03 2.68207141e-03
      4.74520307e-03 3.30101093e-03 1.85681868e-03 1.52671756e-02
      2.47575808e-03 5.36414282e-03 1.11409118e-02 2.47575808e-03
      1.03156595e-03 2.88838451e-03 6.18939521e-04 4.95151617e-03
      9.49040614e-03 8.87146685e-03 2.26944499e-03 8.45884066e-03
      1.03156595e-03 5.57045592e-03 3.50732403e-03 4.53888997e-03
      3.09469784e-03 4.53888997e-03 2.06313189e-03 3.50732403e-03
      1.03156595e-03 8.25252733e-04 1.03156595e-03 1.85681868e-03
      1.03156595e-03 3.71363736e-03 6.80833496e-03 3.50732403e-03
      1.48545494e-02 2.88838451e-03 2.47575808e-03 6.60202187e-03
      5.36414282e-03 1.98060647e-02 6.18939521e-04 4.12626367e-04
      1.03156595e-03 6.18939521e-04 4.95151617e-03 1.23787904e-03
      4.33257688e-03 3.50732403e-03 1.71239935e-02 2.47575808e-03
      3.09469784e-03 3.71363736e-03 6.60202187e-03 3.30101093e-03
      5.15782973e-03 1.81555599e-02 3.30101093e-03 1.44419225e-03
      3.09469784e-03 1.85681868e-03 2.06313183e-04 5.36414282e-03
      4.74520307e-03 3.30101093e-03 1.85681868e-03 3.30101093e-03
      1.23787904e-03 4.33257688e-03 3.71363736e-03 5.15782973e-03
      3.09469784e-03 2.26944499e-03 2.26944499e-03 2.26944499e-03
      2.26944499e-03 1.44419225e-03 4.33257688e-03 3.91995069e-03
      3.30101093e-03 9.49040614e-03 1.03156595e-03 1.44419225e-03
      1.03156595e-03 4.53888997e-03 2.06313189e-03 5.98308211e-03
      4.53888997e-03 2.68207141e-03 1.03156595e-02 4.53888997e-03
      6.39570877e-03 3.71363736e-03 5.36414282e-03 3.50732403e-03
      1.23787904e-03 4.95151617e-03 2.64080875e-02 2.06313189e-03
      2.47575808e-03 2.47575808e-03 1.85681868e-03 2.68207141e-03
      2.06313183e-04 1.52671756e-02 1.75366197e-02 1.44419225e-03
      3.30101093e-03 2.47575808e-03 0. 3.09469784e-03 3.09469784e-03
      4.33257688e-03 2.06313189e-03 1.44419225e-03 2.06313189e-03
      2.47575808e-03 1.44419225e-03 1.44419225e-03 1.23787904e-03
      2.68207141e-03 1.44419225e-03 8.25252733e-04 4.74520307e-03
      2.26944499e-03 6.18939521e-04 3.30101093e-03 3.50732403e-03
      4.95151617e-03 2.47575808e-03 6.18939521e-04 2.26944499e-03
      2.26944499e-03 2.68207141e-03 3.71363736e-03 3.50732403e-03</_>
    <_>
      1.21617515e-03 4.56065685e-03 3.95256933e-03 1.52021891e-03
      1.82426278e-03 6.08087564e-03 5.47278812e-03 1.52021891e-03
      5.77683188e-03 8.81726947e-03 3.04043788e-04 1.21617515e-03
      6.68896316e-03 6.38491940e-03 1.21617515e-03 1.21617515e-03
      6.08087576e-04 4.25661309e-03 9.12131392e-04 6.08087576e-04
      3.64852557e-03 9.12131392e-04 2.73639406e-03 1.24657955e-02
      1.52021891e-03 4.25661309e-03 2.21951958e-02 4.25661309e-03
      2.73639406e-03 1.82426278e-03 3.04043788e-04 3.04043788e-04
      3.64852557e-03 1.52021891e-03 3.04043782e-03 6.08087564e-03
      1.52021898e-02 1.21617515e-03 1.82426278e-03 1.82426278e-03
      6.08087576e-04 1.52021891e-03 5.16874436e-03 6.08087576e-04
      7.29705114e-03 2.12830654e-03 1.36819705e-02 1.52021891e-03
      2.12830654e-03 4.25661309e-03 4.56065685e-03 9.12131392e-04
      3.04043782e-03 2.12830654e-03 1.82426278e-03 2.73639406e-03
      3.04043782e-03 9.72940121e-03 6.38491940e-03 1.21617515e-03
      2.43235030e-03 6.08087576e-04 1.76345389e-02 8.51322617e-03
      9.12131392e-04 1.21617515e-03 2.12830654e-03 1.64183639e-02
      3.04043782e-03 1.52021891e-03 7.60109490e-03 1.21617515e-03
      3.04043782e-03 0. 1.52021891e-03 9.12131392e-04 2.00668909e-02
      6.08087576e-04 3.04043782e-03 1.82426278e-03 7.90513866e-03
      9.12131392e-04 5.16874436e-03 1.21617515e-03 9.12131392e-04
      2.43235030e-03 6.38491940e-03 3.64852557e-03 9.12131392e-04
      3.34448158e-03 1.21617515e-03 3.34448158e-03 3.95256933e-03
      9.12131392e-04 6.68896316e-03 7.60109490e-03 3.04043788e-04
      1.42900581e-02 1.52021891e-03 1.97628457e-02 0. 1.82426278e-03
      5.16874436e-03 1.21617515e-03 8.81726947e-03 1.21617513e-02
      3.95256933e-03 3.64852557e-03 1.52021891e-03 3.04043788e-04
      1.24657955e-02 1.52021891e-03 6.99300691e-03 1.42900581e-02
      2.43235030e-03 2.43235030e-03 3.34448158e-03 3.34448158e-03
      9.12131369e-03 1.64183639e-02 6.99300691e-03 6.08087576e-04
      1.30738830e-02 3.04043788e-04 6.08087564e-03 4.25661309e-03
      7.60109490e-03 6.08087564e-03 1.00334454e-02 5.47278812e-03
      7.90513866e-03 2.43235030e-03 1.21617515e-03 1.52021891e-03
      3.95256933e-03 2.43235030e-03 7.90513866e-03 8.20918195e-03
      9.12131392e-04 4.25661309e-03 3.04043782e-03 4.86470060e-03
      5.47278812e-03 1.52021891e-03 2.24992409e-02 6.08087576e-04
      3.04043788e-04 1.52021891e-03 2.12830654e-03 9.12131369e-03
      3.64852557e-03 1.52021891e-03 1.52021891e-03 1.42900581e-02
      1.82426278e-03 1.82426278e-03 5.16874436e-03 8.81726947e-03
      6.99300691e-03 1.82426278e-03 6.99300691e-03 3.04043788e-04
      9.12131392e-04 9.12131392e-04 9.12131392e-04 0. 5.16874436e-03
      4.25661309e-03 1.52021891e-03 1.21617515e-03 1.21617515e-03
      1.82426278e-03 9.12131392e-04 2.12830654e-03 1.52021891e-03
      6.08087576e-04 3.04043782e-03 0. 0. 3.04043788e-04 3.04043788e-04
      2.12830654e-03 2.73639406e-03 6.38491940e-03 1.12496205e-02
      6.08087576e-04 2.73639406e-03 3.64852557e-03 2.12830654e-03
      1.21617515e-03 8.51322617e-03 1.82426278e-03 1.82426278e-03
      1.64183639e-02 3.34448158e-03 6.38491940e-03 6.08087576e-04
      6.08087576e-04 6.08087576e-04 2.73639406e-03 6.68896316e-03
      1.45941023e-02 1.82426278e-03 3.34448158e-03 2.43235030e-03
      1.21617515e-03 6.99300691e-03 3.04043788e-04 2.00668909e-02
      2.64518093e-02 1.82426278e-03 2.12830654e-03 1.21617515e-03 0.
      1.82426278e-03 1.00334454e-02 2.43235030e-03 4.56065685e-03
      1.52021891e-03 3.04043782e-03 2.73639406e-03 6.08087576e-04
      1.52021891e-03 4.25661309e-03 9.12131392e-04 1.21617515e-03
      3.04043782e-03 1.52021891e-03 1.52021891e-03 9.12131392e-04
      1.21617515e-03 0. 3.95256933e-03 3.64852557e-03 1.52021891e-03
      3.04043782e-03 4.25661309e-03 2.73639406e-03 7.60109490e-03
      3.95256933e-03</_>
    <_>
      5.58659248e-03 4.03476134e-03 5.58659248e-03 3.41402879e-03
      4.96585993e-03 3.10366246e-04 6.20732491e-04 3.41402879e-03
      1.86219742e-03 3.41402879e-03 4.65549389e-03 3.10366252e-03
      3.72439483e-03 4.34512738e-03 2.48292997e-03 1.55183126e-03
      3.72439483e-03 3.72439483e-03 1.55183126e-03 7.44878966e-03
      2.79329624e-03 3.10366252e-03 1.86219742e-03 1.30353821e-02
      4.96585993e-03 3.10366252e-03 6.20732503e-03 6.51769107e-03
      4.34512738e-03 6.51769107e-03 1.24146498e-03 3.10366246e-04
      2.48292997e-03 5.27622597e-03 4.65549389e-03 5.27622597e-03
      1.86219742e-03 1.86219742e-03 3.10366252e-03 3.72439483e-03
      4.03476134e-03 2.48292997e-03 5.27622597e-03 4.03476134e-03
      2.79329624e-03 2.79329624e-03 8.06952268e-03 4.34512738e-03
      6.82805758e-03 2.17256369e-03 3.10366252e-03 6.51769107e-03
      4.65549389e-03 3.41402879e-03 3.10366252e-03 4.65549389e-03
      4.96585993e-03 1.24146498e-03 1.24146498e-03 1.36561152e-02
      3.10366252e-03 2.48292997e-03 8.06952268e-03 2.79329624e-03
      4.34512738e-03 4.34512738e-03 2.79329624e-03 3.41402879e-03
      4.65549389e-03 4.03476134e-03 3.10366252e-03 8.06952268e-03
      4.03476134e-03 0. 4.03476134e-03 4.03476134e-03 5.27622597e-03
      4.03476134e-03 5.27622597e-03 4.65549389e-03 4.96585993e-03
      2.48292997e-03 3.10366252e-03 9.31098778e-03 2.48292997e-03
      6.20732503e-03 3.10366252e-03 6.20732503e-03 2.17256369e-03
      5.89695852e-03 6.20732503e-03 2.48292997e-03 1.55183126e-03
      3.10366252e-03 1.55183126e-03 5.27622597e-03 4.03476134e-03
      4.96585993e-03 2.79329624e-03 5.27622597e-03 0. 7.44878966e-03
      3.72439483e-03 4.03476134e-03 4.96585993e-03 7.13842362e-03
      4.65549389e-03 1.55183126e-03 3.72439483e-03 4.03476134e-03
      2.04841718e-02 3.72439483e-03 7.75915617e-03 6.51769107e-03
      5.27622597e-03 4.96585993e-03 8.06952268e-03 1.86219742e-03
      9.31098778e-03 2.79329624e-03 3.41402879e-03 3.72439483e-03
      8.69025476e-03 3.41402879e-03 7.75915617e-03 2.79329624e-03
      2.48292997e-03 5.27622597e-03 4.65549389e-03 3.10366252e-03
      4.34512738e-03 4.65549389e-03 3.41402879e-03 3.10366252e-03
      5.27622597e-03 1.55183126e-03 4.96585993e-03 5.27622597e-03
      3.41402879e-03 2.48292997e-03 4.03476134e-03 3.41402879e-03
      2.48292997e-03 1.55183126e-03 3.10366252e-03 1.55183126e-03
      2.17256369e-03 2.79329624e-03 2.79329624e-03 4.65549389e-03
      6.20732503e-03 6.20732503e-03 3.72439483e-03 1.30353821e-02
      3.41402879e-03 6.51769107e-03 5.27622597e-03 5.27622597e-03
      3.10366252e-03 5.27622597e-03 1.55183126e-03 3.10366252e-03
      1.55183126e-03 2.17256369e-03 4.96585993e-03 0. 3.10366252e-03
      9.00062080e-03 5.58659248e-03 4.65549389e-03 4.03476134e-03
      1.24146498e-03 3.72439483e-03 1.05524519e-02 1.24146498e-03
      3.72439483e-03 4.34512738e-03 4.03476134e-03 3.41402879e-03
      1.86219742e-03 4.65549389e-03 9.62135382e-03 5.27622597e-03
      5.27622597e-03 8.69025476e-03 1.86219742e-03 3.72439483e-03
      1.24146498e-03 4.65549389e-03 3.41402879e-03 4.34512738e-03
      8.06952268e-03 9.31098708e-04 4.34512738e-03 2.17256369e-03
      2.79329624e-03 2.79329624e-03 5.27622597e-03 2.48292997e-03
      2.48292997e-03 1.86219742e-03 2.17256369e-03 2.79329624e-03
      2.48292997e-03 9.31098708e-04 6.20732503e-03 8.37988872e-03
      3.10366246e-04 2.79329624e-03 1.73805095e-02 2.48292997e-03
      7.75915617e-03 2.48292997e-03 0. 2.17256369e-03 3.41402879e-03
      3.41402879e-03 6.20732503e-03 4.96585993e-03 3.41402879e-03
      3.41402879e-03 2.17256369e-03 2.48292997e-03 7.13842362e-03
      4.65549389e-03 1.55183126e-03 2.17256369e-03 4.03476134e-03
      2.48292997e-03 3.10366252e-03 6.82805758e-03 2.17256369e-03
      2.17256369e-03 4.65549389e-03 1.55183126e-03 1.86219742e-03
      6.20732503e-03 4.03476134e-03 4.65549389e-03 3.72439483e-03</_>
    <_>
      6.41658483e-03 4.44225082e-03 5.42941783e-03 4.44225082e-03
      4.44225082e-03 0. 4.93583444e-04 1.48075027e-03 2.96150055e-03
      9.37808584e-03 2.96150055e-03 9.87166888e-04 7.40375184e-03
      5.42941783e-03 9.87166888e-04 9.87166888e-04 4.93583444e-04
      2.96150055e-03 2.96150055e-03 1.97433378e-03 5.92300110e-03
      2.46791728e-03 9.87166888e-04 2.46791728e-03 3.94866755e-03
      3.94866755e-03 1.77690033e-02 2.96150055e-03 3.45508405e-03
      3.94866755e-03 4.93583444e-04 4.93583444e-04 1.48075027e-03
      1.97433378e-03 3.94866755e-03 7.40375184e-03 2.46791728e-03
      9.87166888e-04 2.96150055e-03 2.96150055e-03 1.48075027e-03
      1.97433378e-03 2.96150055e-03 1.48075027e-03 4.93583456e-03
      4.93583456e-03 4.93583456e-03 2.46791728e-03 3.45508405e-03
      9.87166888e-04 4.93583444e-04 4.44225082e-03 6.41658483e-03
      5.42941783e-03 3.94866755e-03 3.45508405e-03 3.45508405e-03
      1.28331697e-02 1.48075027e-03 5.42941783e-03 7.89733510e-03
      4.93583444e-04 1.97433382e-02 5.92300110e-03 3.94866755e-03
      3.94866755e-03 3.94866755e-03 4.93583456e-03 4.44225082e-03
      4.93583456e-03 5.42941783e-03 1.97433378e-03 3.94866755e-03 0.
      6.91016810e-03 2.46791728e-03 4.93583456e-03 1.48075027e-03
      7.89733510e-03 1.97433378e-03 1.38203362e-02 2.96150055e-03
      4.93583456e-03 5.42941783e-03 3.45508405e-03 3.94866755e-03
      2.96150055e-03 4.44225082e-03 2.96150055e-03 2.46791728e-03
      2.46791728e-03 7.89733510e-03 4.44225082e-03 4.44225082e-03
      2.96150055e-03 1.18460022e-02 2.96150055e-03 3.94866755e-03
      4.44225082e-03 1.18460022e-02 0. 2.96150055e-03 6.41658483e-03
      7.40375184e-03 1.13524189e-02 5.92300110e-03 6.41658483e-03
      6.41658483e-03 3.45508405e-03 6.41658483e-03 2.46791728e-03
      2.46791728e-03 1.08588357e-02 4.44225082e-03 9.87166888e-04
      3.45508405e-03 3.94866755e-03 0. 1.28331697e-02 1.08588357e-02
      3.45508405e-03 1.48075027e-03 7.40375184e-03 3.45508405e-03
      3.94866755e-03 4.44225082e-03 4.93583444e-04 4.44225082e-03
      9.37808584e-03 1.48075027e-03 4.93583456e-03 9.87166888e-04
      4.93583444e-04 1.48075027e-03 8.39091837e-03 0. 3.94866755e-03
      3.45508405e-03 3.45508405e-03 5.92300110e-03 4.93583456e-03
      5.92300110e-03 1.48075027e-03 3.94866755e-03 3.45508405e-03
      1.97433378e-03 1.97433378e-03 9.87166888e-04 9.87166888e-04
      5.42941783e-03 4.93583456e-03 2.46791728e-03 2.46791728e-03
      1.97433382e-02 6.41658483e-03 1.97433378e-03 6.41658483e-03
      1.53010869e-02 4.44225082e-03 7.89733510e-03 1.48075027e-03
      9.87166888e-04 3.94866755e-03 3.94866755e-03 2.46791728e-03 0.
      2.46791728e-03 3.45508405e-03 5.42941783e-03 2.46791728e-03
      1.48075027e-03 9.87166888e-04 2.96150055e-03 2.96150055e-03
      1.48075027e-03 1.48075027e-03 7.89733510e-03 1.48075027e-03
      3.45508405e-03 4.93583456e-03 5.92300110e-03 3.45508405e-03
      4.44225082e-03 3.45508405e-03 5.92300110e-03 9.87166888e-04
      2.46791728e-03 2.46791728e-03 5.42941783e-03 1.48075027e-03
      6.41658483e-03 6.41658483e-03 1.97433378e-03 2.46791728e-03
      3.94866755e-03 3.45508405e-03 2.46791728e-03 4.44225082e-03
      2.46791728e-03 1.97433378e-03 3.94866755e-03 8.39091837e-03
      3.45508405e-03 4.93583444e-04 2.96150055e-03 5.92300110e-03
      5.42941783e-03 0. 4.44225082e-03 2.22112555e-02 2.96150055e-03
      4.93583456e-03 1.48075027e-03 0. 2.46791728e-03 1.28331697e-02
      8.39091837e-03 3.94866755e-03 3.45508405e-03 3.45508405e-03
      4.93583444e-04 0. 2.46791728e-03 2.96150055e-03 2.46791728e-03
      2.96150055e-03 9.87166888e-04 4.44225082e-03 1.48075027e-03
      1.48075027e-03 3.94866755e-03 5.92300110e-03 3.94866755e-03
      9.87166888e-04 3.94866755e-03 1.48075027e-03 6.91016810e-03
      2.96150055e-03 1.28331697e-02 4.44225082e-03</_>
    <_>
      4.73114336e-03 2.91147293e-03 3.54835764e-03 7.82458391e-03
      4.54917643e-03 2.09262106e-03 2.54753884e-03 3.82130826e-03
      2.54753884e-03 3.09344009e-03 9.73523781e-03 3.00245639e-03
      1.45573646e-03 4.27622581e-03 2.82048946e-03 9.09835275e-04
      7.55163282e-03 1.63770351e-03 7.27868220e-03 2.09262106e-03
      4.18524211e-03 7.73359975e-03 2.54753884e-03 2.09262106e-03
      1.18278584e-03 2.45655538e-03 2.27458822e-03 2.09262106e-03
      3.45737417e-03 8.27950146e-03 1.09180231e-02 2.72950594e-04
      3.27540701e-03 1.91065413e-03 3.09344009e-03 3.27540701e-03
      2.36557168e-03 7.18769897e-03 2.82048946e-03 3.63934110e-03
      3.73032480e-03 3.82130826e-03 1.84696559e-02 5.82294585e-03
      2.36557168e-03 3.91229196e-03 3.54835764e-03 3.54835764e-03
      2.91147293e-03 4.36720951e-03 3.91229196e-03 3.27540701e-03
      5.54999523e-03 4.54917643e-03 1.63770351e-03 2.00163759e-03
      4.00327519e-03 2.20180135e-02 1.81967055e-03 1.98344085e-02
      4.09425888e-03 6.18688017e-03 9.37130302e-03 4.00327519e-03
      7.73359975e-03 9.09835286e-03 1.63770351e-03 6.64179772e-03
      2.00163759e-03 3.00245639e-03 3.18442355e-03 1.62860509e-02
      3.45737417e-03 9.09835289e-05 3.82130826e-03 5.45901153e-03
      3.18442355e-03 7.09671527e-03 2.91147293e-03 4.18524211e-03
      2.63852230e-03 5.54999523e-03 2.36557168e-03 1.59221180e-02
      4.45819274e-03 9.18933656e-03 3.27540701e-03 1.81967055e-03
      2.72950577e-03 2.09262106e-03 5.18606137e-03 3.45737417e-03
      8.18851753e-04 1.27376942e-03 2.91147293e-03 1.63770351e-03
      5.45901153e-03 2.09262106e-03 5.73196216e-03 9.64425411e-03
      9.09835289e-05 3.09344009e-03 2.45655538e-03 1.27376942e-03
      3.18442355e-03 4.00327519e-03 1.27376942e-03 5.64097892e-03
      3.18442355e-03 1.00991717e-02 7.91556668e-03 3.73032480e-03
      4.18524211e-03 4.18524211e-03 1.91065413e-03 4.73114336e-03
      4.00327519e-03 2.45655538e-03 4.45819274e-03 1.81967055e-03
      1.91065413e-03 6.00491278e-03 1.81967055e-03 6.64179772e-03
      1.54672004e-03 6.55081403e-03 2.18360475e-03 1.54672004e-03
      2.27458822e-03 3.18442355e-03 5.54999523e-03 3.27540701e-03
      2.09262106e-03 2.18360475e-03 2.36557168e-03 5.36802830e-03
      1.72868709e-03 4.73114336e-03 2.36557168e-03 2.91147293e-03
      3.36639048e-03 2.54753884e-03 1.81967055e-03 1.36475288e-03
      4.00327519e-03 1.18278584e-03 1.45573646e-03 7.82458391e-03
      6.18688017e-03 1.54672004e-03 8.18851753e-04 1.81967055e-03
      1.81967055e-03 7.64261652e-03 1.72868709e-03 4.09425888e-03
      1.54672004e-03 3.54835764e-03 1.09180238e-03 3.36639048e-03
      1.27376942e-03 2.36557168e-03 7.46064959e-03 1.11909742e-02
      8.18851776e-03 0. 2.18360475e-03 2.18360475e-03 3.63934110e-03
      5.54999523e-03 1.72868709e-03 6.09589648e-03 2.82048946e-03
      4.64016013e-03 8.55245162e-03 3.91229196e-03 3.82130826e-03
      8.37048423e-03 4.64016013e-03 1.10999905e-02 5.73196216e-03
      2.00163759e-03 1.18278584e-03 1.36475288e-03 2.45655538e-03
      4.18524211e-03 6.64179772e-03 3.36639048e-03 2.18360475e-03
      5.09507768e-03 2.63852230e-03 4.36720951e-03 1.81967055e-03
      1.54672004e-03 4.82212706e-03 2.45655538e-03 8.64343531e-03
      8.37048423e-03 3.27540701e-03 3.18442355e-03 1.54672004e-03
      3.82130826e-03 1.27376942e-03 3.00245639e-03 1.36475288e-03
      7.27868231e-04 2.09262106e-03 5.45901188e-04 2.45655538e-03
      1.69229358e-02 2.36557168e-03 6.64179772e-03 4.09425888e-03
      1.81967058e-04 1.28286779e-02 1.81967055e-03 4.27622581e-03
      3.82130826e-03 2.45655538e-03 2.91147293e-03 1.54672004e-03
      2.63852230e-03 6.09589648e-03 1.81967055e-03 5.64097892e-03
      3.82130826e-03 4.27622581e-03 9.46228672e-03 7.09671527e-03
      2.09262106e-03 1.91065413e-03 4.36720951e-03 6.00491278e-03
      4.00327519e-03 4.45819274e-03 5.27704461e-03 1.81967055e-03
      4.27622581e-03 3.54835764e-03 4.64016013e-03</_>
    <_>
      3.81224696e-03 4.52704309e-03 4.76530846e-03 7.14796304e-04
      4.76530846e-03 5.95663581e-03 1.02454135e-02 1.42959261e-03
      8.33929051e-03 5.48010506e-03 1.66785810e-03 1.90612348e-03
      9.29235201e-03 5.24183968e-03 1.66785810e-03 2.62091984e-03
      2.38265423e-03 4.52704309e-03 0. 3.09745059e-03 3.57398158e-03
      3.57398158e-03 3.57398158e-03 9.53061739e-04 2.85918522e-03
      5.00357430e-03 3.57398158e-03 2.14438885e-03 5.48010506e-03
      2.62091984e-03 2.38265423e-03 4.76530869e-04 5.24183968e-03
      7.14796304e-04 6.19490119e-03 5.71837043e-03 5.24183968e-03
      2.14438885e-03 1.19132712e-03 3.57398158e-03 2.14438885e-03
      1.42959261e-03 3.09745059e-03 1.66785810e-03 9.29235201e-03
      3.81224696e-03 7.86275975e-03 4.76530846e-03 4.76530846e-03
      6.67143241e-03 4.52704309e-03 3.09745059e-03 4.28877771e-03
      2.85918522e-03 3.09745059e-03 9.53061739e-04 4.52704309e-03
      8.33929051e-03 9.05408617e-03 2.85918522e-03 4.52704309e-03
      7.14796304e-04 8.10102466e-03 8.10102466e-03 2.62091984e-03
      2.85918522e-03 7.86275975e-03 1.19132716e-02 5.00357430e-03
      1.66785810e-03 5.95663581e-03 4.05051233e-03 2.38265423e-03 0.
      4.05051233e-03 2.14438885e-03 1.04836794e-02 2.62091984e-03
      5.48010506e-03 2.38265423e-03 4.76530846e-03 2.14438885e-03
      9.76888277e-03 2.38265423e-03 1.42959261e-03 3.81224696e-03
      5.95663581e-03 3.57398158e-03 3.33571620e-03 3.57398158e-03
      2.62091984e-03 2.85918522e-03 2.14438885e-03 2.38265423e-03
      4.76530846e-03 9.29235201e-03 3.09745059e-03 6.19490119e-03
      3.09745059e-03 6.67143241e-03 2.38265435e-04 2.62091984e-03
      6.43316656e-03 5.24183968e-03 4.76530846e-03 7.14796316e-03
      3.57398158e-03 2.14438885e-03 5.71837043e-03 2.38265423e-03
      6.90969778e-03 4.28877771e-03 7.14796316e-03 3.81224696e-03
      3.81224696e-03 1.90612348e-03 2.85918522e-03 7.14796304e-04
      5.71837043e-03 8.33929051e-03 9.53061692e-03 2.62091984e-03
      8.10102466e-03 2.85918522e-03 2.62091984e-03 5.71837043e-03
      8.10102466e-03 6.19490119e-03 5.48010506e-03 3.09745059e-03
      5.48010506e-03 3.09745059e-03 1.66785810e-03 2.14438885e-03
      5.71837043e-03 7.14796304e-04 5.48010506e-03 8.81582126e-03
      2.38265423e-03 1.04836794e-02 2.62091984e-03 6.19490119e-03
      8.33929051e-03 1.90612348e-03 1.14367409e-02 9.53061739e-04
      1.66785810e-03 1.66785810e-03 1.19132712e-03 2.62091984e-03
      3.81224696e-03 3.09745059e-03 2.85918522e-03 1.28663331e-02
      1.66785810e-03 4.52704309e-03 5.24183968e-03 5.71837043e-03
      3.81224696e-03 3.33571620e-03 1.33428648e-02 2.38265423e-03
      1.19132712e-03 4.05051233e-03 4.52704309e-03 0. 4.05051233e-03
      4.28877771e-03 5.71837043e-03 2.14438885e-03 3.81224696e-03
      1.42959261e-03 1.42959261e-03 2.85918522e-03 3.09745059e-03
      2.85918522e-03 5.71837043e-03 1.66785810e-03 3.57398158e-03
      1.19132712e-03 9.53061739e-04 3.81224696e-03 4.28877771e-03
      6.67143241e-03 8.57755542e-03 1.42959261e-03 1.66785810e-03
      7.14796304e-04 4.05051233e-03 1.90612348e-03 3.57398158e-03
      4.76530846e-03 6.19490119e-03 9.29235201e-03 6.67143241e-03
      7.86275975e-03 1.42959261e-03 4.76530846e-03 3.57398158e-03
      2.14438885e-03 6.90969778e-03 2.26352159e-02 2.38265423e-03
      1.42959261e-03 3.57398158e-03 3.09745059e-03 5.48010506e-03
      2.38265435e-04 9.76888277e-03 1.19132716e-02 1.66785810e-03
      4.52704309e-03 3.09745059e-03 0. 1.90612348e-03 5.00357430e-03
      5.24183968e-03 4.76530846e-03 2.62091984e-03 1.90612348e-03
      2.38265423e-03 4.76530869e-04 4.76530869e-04 5.24183968e-03
      2.14438885e-03 2.38265423e-03 4.76530869e-04 5.24183968e-03
      2.85918522e-03 1.90612348e-03 4.05051233e-03 3.33571620e-03
      4.52704309e-03 5.00357430e-03 1.66785810e-03 2.62091984e-03
      5.48010506e-03 3.33571620e-03 4.28877771e-03 4.05051233e-03</_>
    <_>
      3.87596898e-03 4.52196412e-03 6.45994861e-03 1.29198970e-03
      5.81395347e-03 7.10594328e-03 9.04392824e-03 2.58397940e-03
      6.45994861e-03 1.09819127e-02 0. 1.29198970e-03 4.52196412e-03
      7.75193796e-03 6.45994849e-04 1.93798449e-03 6.45994849e-04
      5.16795879e-03 6.45994849e-04 1.29198970e-03 5.81395347e-03
      6.45994849e-04 3.87596898e-03 5.16795879e-03 2.58397940e-03
      3.22997430e-03 1.09819127e-02 4.52196412e-03 2.58397940e-03
      3.87596898e-03 2.58397940e-03 1.29198970e-03 7.10594328e-03
      2.58397940e-03 5.81395347e-03 6.45994861e-03 6.45994861e-03
      6.45994849e-04 3.87596898e-03 1.93798449e-03 1.29198970e-03
      1.29198970e-03 1.93798449e-02 0. 7.10594328e-03 4.52196412e-03
      5.16795879e-03 2.58397940e-03 3.22997430e-03 3.22997430e-03
      2.58397940e-03 7.10594328e-03 3.87596898e-03 5.16795879e-03
      5.16795879e-03 3.22997430e-03 3.87596898e-03 1.61498711e-02
      1.22739021e-02 0. 9.04392824e-03 1.29198970e-03 1.74418613e-02
      1.16279069e-02 0. 0. 3.87596898e-03 1.61498711e-02 6.45994861e-03
      2.58397940e-03 8.39793310e-03 1.29198970e-03 6.45994849e-04 0.
      8.39793310e-03 6.45994849e-04 7.10594328e-03 6.45994849e-04
      5.16795879e-03 1.29198970e-03 3.22997430e-03 2.58397940e-03
      7.10594328e-03 0. 1.29198970e-03 6.45994849e-04 1.29198970e-03
      6.45994861e-03 2.58397940e-03 5.16795879e-03 6.45994849e-04
      3.87596898e-03 3.22997430e-03 1.29198970e-03 3.22997430e-03
      9.04392824e-03 0. 9.04392824e-03 1.29198970e-03 2.71317828e-02
      6.45994849e-04 3.87596898e-03 1.29198970e-03 5.81395347e-03
      5.16795879e-03 5.81395347e-03 5.81395347e-03 4.52196412e-03
      6.45994849e-04 6.45994849e-04 1.67958662e-02 2.58397940e-03
      7.75193796e-03 7.10594328e-03 1.93798449e-03 6.45994849e-04
      5.81395347e-03 1.93798449e-03 7.75193796e-03 7.75193796e-03
      2.58397940e-03 1.93798449e-03 8.39793310e-03 1.29198970e-03
      1.93798449e-03 3.22997430e-03 7.10594328e-03 7.10594328e-03
      1.03359176e-02 1.29198970e-03 1.03359176e-02 1.29198970e-03
      1.93798449e-03 6.45994849e-04 4.52196412e-03 6.45994849e-04
      3.22997430e-03 9.04392824e-03 2.58397940e-03 5.81395347e-03
      1.29198970e-03 3.22997430e-03 5.81395347e-03 3.87596898e-03
      1.35658914e-02 1.29198970e-03 2.58397940e-03 0. 2.58397940e-03
      3.87596898e-03 1.93798449e-03 3.22997430e-03 1.29198970e-03
      2.00258400e-02 3.87596898e-03 1.29198970e-03 3.87596898e-03
      1.29198972e-02 3.22997430e-03 5.81395347e-03 9.04392824e-03
      2.58397940e-03 6.45994849e-04 6.45994849e-04 1.93798449e-03 0.
      1.29198970e-03 3.87596898e-03 3.87596898e-03 1.93798449e-03
      5.16795879e-03 1.93798449e-03 6.45994849e-04 2.58397940e-03
      3.87596898e-03 6.45994849e-04 1.09819127e-02 6.45994849e-04
      2.58397940e-03 0. 1.29198970e-03 2.58397940e-03 1.93798449e-03
      3.87596898e-03 8.39793310e-03 6.45994849e-04 6.45994849e-04
      2.58397940e-03 3.22997430e-03 6.45994849e-04 5.16795879e-03
      6.45994849e-04 3.87596898e-03 3.87596898e-03 5.81395347e-03
      1.93798449e-03 6.45994849e-04 4.52196412e-03 2.58397940e-03
      1.29198970e-03 4.52196412e-03 5.81395347e-03 2.58397940e-03
      6.45994849e-04 5.16795879e-03 3.87596898e-03 5.16795879e-03 0.
      9.68992244e-03 1.42118866e-02 3.87596898e-03 1.29198970e-03
      1.29198970e-03 6.45994849e-04 6.45994849e-04 1.35658914e-02
      7.10594328e-03 5.16795879e-03 3.22997430e-03 2.58397940e-03
      1.29198970e-03 0. 6.45994849e-04 4.52196412e-03 1.93798449e-03
      1.93798449e-03 1.29198970e-03 6.45994861e-03 1.93798449e-03
      1.29198970e-03 6.45994849e-04 2.58397940e-03 7.10594328e-03
      1.93798449e-03 0. 6.45994849e-04 5.81395347e-03 3.22997430e-03
      1.29198972e-02 3.87596898e-03</_>
    <_>
      3.31825041e-03 7.84313772e-03 4.52488707e-03 3.01659130e-03
      1.80995488e-03 2.71493220e-03 1.50829565e-03 3.92156886e-03
      1.80995488e-03 1.20663655e-03 3.61990975e-03 2.11161398e-03
      8.14479683e-03 7.23981950e-03 3.92156886e-03 1.20663655e-03
      2.71493220e-03 4.22322797e-03 2.71493220e-03 4.82654618e-03
      3.01659130e-03 4.22322797e-03 4.52488707e-03 1.08597288e-02
      2.41327309e-03 9.35143325e-03 2.11161398e-03 7.23981950e-03
      6.03318261e-03 5.42986440e-03 3.31825041e-03 0. 5.12820529e-03
      8.14479683e-03 3.01659130e-03 4.22322797e-03 6.03318273e-04
      3.61990975e-03 3.61990975e-03 4.22322797e-03 4.22322797e-03
      6.93815993e-03 1.20663655e-03 1.50829565e-03 4.82654618e-03
      4.52488707e-03 1.20663655e-03 7.23981950e-03 6.03318261e-03
      4.82654618e-03 5.73152350e-03 3.01659130e-03 1.20663655e-03
      2.71493220e-03 2.41327309e-03 5.12820529e-03 8.44645593e-03
      9.04977438e-04 3.01659130e-03 5.42986440e-03 1.50829565e-03
      3.61990975e-03 9.04977438e-04 1.80995488e-03 3.61990975e-03
      3.31825041e-03 4.52488707e-03 2.71493220e-03 3.92156886e-03
      3.61990975e-03 3.31825041e-03 5.73152350e-03 8.74811504e-03 0.
      1.20663655e-03 3.31825041e-03 3.01659136e-04 9.04977438e-04
      2.41327309e-03 5.73152350e-03 3.01659130e-03 2.71493220e-03
      6.63650082e-03 6.03318261e-03 4.82654618e-03 7.54147861e-03
      7.84313772e-03 3.01659136e-04 5.42986440e-03 7.23981950e-03
      3.92156886e-03 8.44645593e-03 3.01659130e-03 1.20663655e-03
      4.82654618e-03 6.03318261e-03 4.82654618e-03 6.33484172e-03
      4.22322797e-03 1.50829565e-03 0. 5.12820529e-03 8.74811504e-03
      4.52488707e-03 4.52488707e-03 1.50829565e-03 4.82654618e-03
      3.31825041e-03 2.41327309e-03 2.11161398e-03 3.92156886e-03
      3.31825041e-03 2.11161398e-03 2.71493220e-03 2.41327309e-03
      7.54147861e-03 4.82654618e-03 1.80995488e-03 2.11161398e-03
      3.01659130e-03 3.61990975e-03 2.71493220e-03 1.02564106e-02
      8.14479683e-03 6.93815993e-03 2.11161398e-03 4.82654618e-03
      7.23981950e-03 3.61990975e-03 1.08597288e-02 4.52488707e-03
      5.42986440e-03 6.63650082e-03 5.42986440e-03 7.54147861e-03
      3.31825041e-03 4.22322797e-03 2.41327309e-03 6.93815993e-03
      6.63650082e-03 3.92156886e-03 2.71493220e-03 2.11161398e-03
      3.01659130e-03 3.92156886e-03 6.03318273e-04 1.50829565e-03
      4.22322797e-03 3.92156886e-03 4.22322797e-03 3.61990975e-03
      2.41327309e-03 4.22322797e-03 4.82654618e-03 3.31825041e-03
      6.33484172e-03 5.12820529e-03 3.31825041e-03 3.31825041e-03
      1.50829565e-03 1.20663655e-03 5.12820529e-03 3.61990975e-03
      5.42986440e-03 6.03318261e-03 0. 6.03318261e-03 6.63650082e-03
      5.73152350e-03 2.71493220e-03 2.11161398e-03 1.50829565e-03
      4.22322797e-03 8.44645593e-03 2.41327309e-03 3.61990975e-03
      2.11161398e-03 2.71493220e-03 4.82654618e-03 4.52488707e-03
      1.80995488e-03 5.42986440e-03 2.41327309e-03 1.23680243e-02
      8.44645593e-03 1.50829565e-03 4.82654618e-03 8.44645593e-03
      6.93815993e-03 2.71493220e-03 4.22322797e-03 4.22322797e-03
      1.80995488e-03 3.92156886e-03 5.42986440e-03 4.52488707e-03
      4.22322797e-03 2.11161398e-03 1.20663655e-03 9.95475147e-03
      3.31825041e-03 6.03318273e-04 2.71493220e-03 6.63650082e-03
      1.80995488e-03 6.03318261e-03 1.17647061e-02 0. 5.42986440e-03
      3.61990975e-03 2.41327309e-03 7.23981950e-03 5.12820529e-03 0.
      4.82654618e-03 1.50829565e-03 3.61990975e-03 4.52488707e-03
      4.82654618e-03 1.11613879e-02 7.84313772e-03 2.41327309e-03
      1.50829565e-03 8.74811504e-03 7.23981950e-03 4.82654618e-03
      4.22322797e-03 3.01659130e-03 3.92156886e-03 3.61990975e-03
      2.11161398e-03 1.80995488e-03 3.01659130e-03 8.44645593e-03
      2.71493220e-03 5.12820529e-03 3.61990975e-03 4.82654618e-03
      2.11161398e-03 2.41327309e-03</_>
    <_>
      1.50037510e-03 2.25056265e-03 7.50187552e-04 1.50037510e-03
      9.00225062e-03 1.50037510e-03 2.25056265e-03 2.25056265e-03
      1.27531886e-02 4.50112531e-03 7.50187552e-04 0. 8.25206283e-03
      6.00150041e-03 1.50037510e-03 4.50112531e-03 7.50187552e-04
      2.25056265e-03 0. 2.25056265e-03 6.00150041e-03 0. 1.50037510e-03
      0. 7.50187552e-04 2.25056265e-03 9.00225062e-03 7.50187552e-04
      3.75093776e-03 7.50187552e-04 1.50037510e-03 0. 6.00150041e-03
      1.50037510e-03 2.25056265e-03 8.25206283e-03 6.00150041e-03 0. 0.
      1.50037510e-03 0. 7.50187552e-04 1.51537880e-01 0. 7.50187552e-04
      6.00150041e-03 4.50112531e-03 1.50037510e-03 2.25056265e-03 0. 0.
      6.75168820e-03 3.00075021e-03 1.50037510e-03 4.50112531e-03 0.
      2.25056265e-03 7.50187552e-04 5.25131263e-03 1.50037510e-02
      9.75243840e-03 0. 5.10127544e-02 4.50112531e-03 7.50187552e-04 0.
      6.00150041e-03 7.50187552e-03 8.25206283e-03 4.50112531e-03
      1.50037510e-03 3.00075021e-03 0. 0. 1.05026253e-02 7.50187552e-04
      5.25131263e-03 0. 3.75093776e-03 7.50187552e-04 1.95048768e-02
      1.50037510e-03 4.50112531e-03 3.75093776e-03 1.50037510e-03 0. 0.
      3.75093776e-03 1.50037510e-03 7.50187552e-04 0. 1.50037510e-03
      3.75093776e-03 7.50187552e-04 0. 3.75093776e-03 0. 3.00075021e-03
      0. 2.92573143e-02 7.50187552e-04 5.25131263e-03 1.50037510e-03
      3.00075021e-03 1.27531886e-02 8.25206283e-03 5.25131263e-03
      7.50187552e-04 1.50037510e-03 3.75093776e-03 1.50037510e-02
      7.50187552e-04 1.27531886e-02 7.50187552e-03 3.00075021e-03
      7.50187552e-04 3.75093776e-03 7.50187552e-04 1.95048768e-02
      4.50112531e-03 2.25056265e-03 1.50037510e-03 3.00075021e-03 0. 0.
      1.50037510e-03 1.50037510e-03 7.50187552e-03 8.25206283e-03
      7.50187552e-04 4.50112531e-03 1.50037510e-03 7.50187552e-04
      7.50187552e-04 2.25056265e-03 7.50187552e-04 0. 3.75093776e-03
      7.50187552e-04 1.50037510e-03 2.25056265e-03 3.00075021e-03
      6.00150041e-03 2.25056265e-03 1.05026253e-02 7.50187552e-04 0. 0.
      0. 2.25056265e-03 3.75093776e-03 3.00075021e-03 2.25056265e-03
      4.50112531e-03 1.50037510e-03 2.25056265e-03 7.50187552e-04
      1.42535632e-02 2.25056265e-03 8.25206283e-03 3.75093776e-03
      7.50187552e-04 7.50187552e-04 7.50187552e-04 3.00075021e-03 0.
      3.75093776e-03 3.00075021e-03 7.50187552e-04 1.50037510e-03
      7.50187552e-04 7.50187552e-04 1.50037510e-03 7.50187552e-04
      3.00075021e-03 0. 9.75243840e-03 0. 0. 0. 2.25056265e-03
      7.50187552e-04 3.00075021e-03 0. 5.25131263e-03 0. 0. 0. 0.
      1.50037510e-03 2.25056265e-03 0. 6.75168820e-03 3.75093776e-03
      2.25056265e-03 1.50037510e-03 0. 8.25206283e-03 1.50037510e-03 0.
      2.25056265e-03 2.25056265e-03 2.25056265e-03 1.50037510e-03
      6.00150041e-03 3.00075021e-03 7.50187552e-04 0. 1.20030008e-02
      7.05176294e-02 7.50187552e-04 1.50037510e-03 7.50187552e-04 0.
      3.00075021e-03 1.35033764e-02 1.50037510e-03 8.25206283e-03 0. 0.
      0. 0. 7.50187552e-04 3.00075021e-03 2.25056265e-03 1.50037510e-03
      7.50187552e-04 5.25131263e-03 0. 0. 3.75093776e-03 9.75243840e-03
      2.25056265e-03 3.00075021e-03 7.50187552e-04 0. 2.25056265e-03
      3.00075021e-03 1.27531886e-02 3.00075021e-03</_>
    <_>
      4.32121009e-03 6.12171413e-03 4.86136088e-03 3.42095783e-03
      4.50126035e-03 0. 5.40151261e-04 7.74216745e-03 2.34065531e-03
      5.04141161e-03 3.60100809e-03 3.42095783e-03 3.42095783e-03
      1.98055455e-03 3.78105859e-03 1.26035290e-03 4.68131062e-03
      7.20201619e-03 2.34065531e-03 6.84191566e-03 2.70075607e-03
      4.32121009e-03 4.32121009e-03 2.70075607e-03 7.02196592e-03
      2.34065531e-03 3.42095783e-03 6.30176440e-03 7.74216745e-03
      3.96110909e-03 3.06085707e-03 0. 5.76161314e-03 5.22146188e-03
      7.74216745e-03 5.94166340e-03 2.16060504e-03 2.34065531e-03
      4.50126035e-03 9.54267196e-03 4.50126035e-03 4.86136088e-03
      7.20201642e-04 3.60100809e-03 3.06085707e-03 3.06085707e-03
      3.24090733e-03 4.14115936e-03 5.04141161e-03 3.60100809e-03
      4.50126035e-03 5.40151214e-03 3.42095783e-03 4.50126035e-03
      7.56211719e-03 3.42095783e-03 3.78105859e-03 5.40151261e-04
      1.62045367e-03 4.14115936e-03 3.06085707e-03 2.70075607e-03
      3.06085707e-03 4.50126035e-03 4.32121009e-03 3.06085707e-03
      6.12171413e-03 9.00252024e-04 6.12171413e-03 6.66186539e-03
      2.34065531e-03 4.50126035e-03 5.76161314e-03 0. 3.60100809e-03
      4.68131062e-03 1.44040328e-03 4.32121009e-03 4.50126035e-03
      4.50126035e-03 4.32121009e-03 5.76161314e-03 4.86136088e-03
      3.78105859e-03 4.32121009e-03 6.12171413e-03 5.94166340e-03
      3.96110909e-03 4.68131062e-03 3.60100809e-03 4.50126035e-03
      4.32121009e-03 6.30176440e-03 2.88080657e-03 6.48181466e-03
      2.70075607e-03 4.14115936e-03 2.34065531e-03 4.50126035e-03
      5.94166340e-03 0. 5.40151214e-03 5.40151214e-03 6.84191566e-03
      6.30176440e-03 2.16060504e-03 6.84191566e-03 3.24090733e-03
      3.06085707e-03 3.78105859e-03 1.26035290e-03 3.96110909e-03
      7.38206692e-03 3.78105859e-03 4.86136088e-03 4.86136088e-03
      5.40151214e-03 3.60100809e-03 5.58156287e-03 1.26035290e-03
      2.70075607e-03 4.14115936e-03 3.96110909e-03 4.68131062e-03
      7.02196592e-03 2.16060504e-03 3.06085707e-03 5.94166340e-03
      4.68131062e-03 4.32121009e-03 1.80050405e-03 4.68131062e-03
      5.22146188e-03 3.78105859e-03 5.04141161e-03 4.68131062e-03
      6.48181466e-03 1.98055455e-03 4.14115936e-03 3.24090733e-03
      5.22146188e-03 7.20201619e-03 2.16060504e-03 2.88080657e-03
      1.08030252e-03 0. 3.60100821e-04 3.78105859e-03 4.68131062e-03
      7.92221818e-03 6.30176440e-03 8.82246997e-03 3.42095783e-03
      2.16060504e-03 5.22146188e-03 5.04141161e-03 8.28231871e-03
      5.76161314e-03 4.86136088e-03 3.42095783e-03 1.80050405e-03
      6.66186539e-03 5.94166340e-03 3.60100809e-03 3.24090733e-03 0.
      7.38206692e-03 5.22146188e-03 6.12171413e-03 7.92221818e-03
      3.60100809e-03 2.70075607e-03 6.12171413e-03 4.86136088e-03
      3.06085707e-03 4.14115936e-03 3.42095783e-03 5.40151214e-03
      4.14115936e-03 2.70075607e-03 5.76161314e-03 5.76161314e-03
      8.10226891e-03 3.96110909e-03 2.70075607e-03 2.88080657e-03
      3.24090733e-03 3.96110909e-03 7.02196592e-03 3.60100809e-03
      4.86136088e-03 5.58156287e-03 3.96110909e-03 1.26035290e-03
      2.88080657e-03 3.24090733e-03 3.42095783e-03 2.16060504e-03
      3.78105859e-03 3.96110909e-03 3.24090733e-03 7.20201642e-04
      3.60100809e-03 4.86136088e-03 9.00252070e-03 5.76161314e-03
      4.50126035e-03 3.60100821e-04 2.34065531e-03 7.38206692e-03
      5.40151214e-03 6.84191566e-03 5.40151214e-03 0. 3.60100809e-03
      5.40151214e-03 3.24090733e-03 4.86136088e-03 3.24090733e-03
      3.06085707e-03 4.14115936e-03 2.16060504e-03 3.06085707e-03
      5.76161314e-03 4.14115936e-03 7.38206692e-03 1.80050405e-03
      1.62045367e-03 3.06085707e-03 3.78105859e-03 7.56211719e-03
      3.78105859e-03 4.32121009e-03 3.06085707e-03 2.70075607e-03
      3.60100809e-03 3.60100809e-03 3.78105859e-03 5.76161314e-03
      3.78105859e-03</_>
    <_>
      2.25352123e-03 6.76056370e-03 1.69014093e-03 2.25352123e-03
      4.50704247e-03 1.63380280e-02 1.12676062e-02 0. 3.94366216e-03
      6.76056370e-03 0. 2.25352123e-03 6.19718339e-03 9.57746524e-03
      1.69014093e-03 2.25352123e-03 1.12676062e-03 1.12676062e-03 0.
      1.12676062e-03 5.63380308e-04 2.25352123e-03 5.07042278e-03
      1.69014093e-03 2.25352123e-03 5.07042278e-03 9.01408494e-03
      2.81690154e-03 3.94366216e-03 2.25352123e-03 3.94366216e-03 0.
      2.81690154e-03 1.12676062e-03 2.81690154e-03 0. 1.12676062e-03
      1.69014093e-03 5.63380308e-04 1.12676062e-03 5.63380308e-04
      5.63380308e-04 5.63380308e-03 0. 1.69014093e-02 2.81690154e-03
      7.32394401e-03 3.38028185e-03 1.69014093e-03 7.88732432e-03
      6.76056370e-03 2.25352123e-03 1.12676062e-03 2.25352123e-03
      5.63380308e-04 0. 2.25352123e-03 2.81690154e-03 1.01408456e-02
      1.69014093e-03 1.69014093e-03 1.12676062e-03 1.74647905e-02
      6.19718339e-03 0. 1.69014093e-03 5.63380308e-04 3.15492973e-02
      2.25352123e-03 1.69014093e-03 1.23943668e-02 2.81690154e-03
      1.69014093e-03 0. 1.69014093e-03 1.69014093e-03 2.25352123e-02 0.
      3.38028185e-03 3.38028185e-03 5.63380308e-04 1.12676062e-03
      7.88732432e-03 2.25352123e-03 1.12676062e-03 5.63380308e-03
      3.94366216e-03 1.12676062e-03 1.12676062e-03 1.69014093e-03
      1.69014093e-03 4.50704247e-03 1.12676062e-03 5.63380308e-04
      2.81690154e-03 3.94366216e-03 1.69014093e-03 1.07042259e-02 0.
      9.01408494e-03 0. 1.69014093e-03 3.94366216e-03 4.50704247e-03
      4.50704247e-03 9.01408494e-03 2.81690154e-03 0. 2.25352123e-03
      1.69014093e-03 2.36619730e-02 5.63380308e-04 5.07042278e-03
      3.38028185e-03 1.12676062e-03 1.69014093e-03 1.69014093e-03 0.
      4.50704247e-03 1.63380280e-02 1.07042259e-02 1.12676062e-03
      1.97183117e-02 2.81690154e-03 1.12676062e-03 1.69014093e-03
      1.35211274e-02 3.94366216e-03 5.07042278e-03 6.19718339e-03
      5.63380308e-03 1.12676062e-03 1.12676062e-03 2.25352123e-03
      6.76056370e-03 1.12676062e-03 5.63380308e-04 1.29577471e-02
      1.12676062e-03 9.57746524e-03 4.50704247e-03 2.25352123e-03
      1.46478880e-02 2.81690154e-03 3.09859179e-02 5.63380308e-04
      5.63380308e-04 1.12676062e-03 1.69014093e-03 2.25352123e-03
      5.07042278e-03 0. 5.63380308e-04 1.40845077e-02 1.12676062e-03
      5.63380308e-04 2.25352123e-03 5.63380308e-03 2.81690154e-03
      3.38028185e-03 2.14084517e-02 1.69014093e-03 2.25352123e-03
      1.12676062e-03 2.81690154e-03 0. 5.63380308e-04 1.12676062e-03
      3.38028185e-03 1.12676062e-03 5.63380308e-04 2.81690154e-03
      3.94366216e-03 2.25352123e-03 1.69014093e-03 0. 3.38028185e-03 0.
      1.12676062e-03 1.69014093e-03 1.12676062e-03 1.69014093e-03
      1.12676062e-03 6.76056370e-03 1.91549305e-02 0. 3.38028185e-03
      5.63380308e-04 2.25352123e-03 1.69014093e-03 5.63380308e-03
      1.12676062e-03 2.25352123e-03 1.97183117e-02 1.23943668e-02
      1.74647905e-02 0. 3.38028185e-03 1.69014093e-03 5.07042278e-03
      5.07042278e-03 3.71830985e-02 1.12676062e-03 2.25352123e-03
      2.25352123e-03 5.63380308e-04 6.76056370e-03 0. 1.29577471e-02
      1.85915492e-02 0. 1.69014093e-03 5.63380308e-04 0. 2.81690154e-03
      2.81690154e-03 3.38028185e-03 2.25352123e-03 5.63380308e-04
      4.50704247e-03 6.19718339e-03 0. 5.63380308e-04 3.94366216e-03
      1.69014093e-03 1.69014093e-03 1.69014093e-03 1.12676062e-03
      2.81690154e-03 1.69014093e-03 0. 3.38028185e-03 9.57746524e-03
      6.19718339e-03 0. 3.94366216e-03 1.69014093e-03 3.94366216e-03
      4.50704247e-03 2.81690154e-03</_>
    <_>
      3.61570227e-03 3.09917331e-03 3.61570227e-03 2.58264458e-03
      8.26446246e-03 1.54958665e-03 0. 4.13223123e-03 3.09917331e-03
      1.03305783e-02 2.06611562e-03 2.58264458e-03 6.19834661e-03
      3.61570227e-03 3.09917331e-03 2.06611562e-03 1.54958665e-03
      3.09917331e-03 5.16528904e-04 5.16528916e-03 7.74793373e-03
      3.09917331e-03 3.61570227e-03 1.54958665e-03 3.61570227e-03
      7.23140454e-03 1.23966932e-02 3.61570227e-03 4.64875996e-03
      3.61570227e-03 2.06611562e-03 5.16528904e-04 1.54958665e-03
      1.54958665e-03 5.68181789e-03 4.64875996e-03 5.68181789e-03
      1.03305781e-03 5.68181789e-03 4.64875996e-03 2.58264458e-03
      1.03305781e-03 2.58264458e-03 2.06611562e-03 2.06611562e-03
      3.09917331e-03 2.58264458e-03 2.06611562e-03 5.68181789e-03
      3.09917331e-03 1.54958665e-03 4.13223123e-03 4.64875996e-03
      3.09917331e-03 5.68181789e-03 2.06611562e-03 4.13223123e-03
      1.34297516e-02 2.06611562e-03 9.29751992e-03 5.68181789e-03
      1.54958665e-03 1.39462808e-02 5.68181789e-03 4.13223123e-03
      4.13223123e-03 6.19834661e-03 6.19834661e-03 6.71487581e-03
      4.64875996e-03 2.58264458e-03 7.74793373e-03 2.06611562e-03 0.
      5.68181789e-03 2.06611562e-03 4.13223123e-03 2.06611562e-03
      4.64875996e-03 2.06611562e-03 1.29132224e-02 3.09917331e-03
      5.16528916e-03 3.61570227e-03 1.54958665e-03 6.71487581e-03
      3.09917331e-03 6.19834661e-03 2.58264458e-03 6.19834661e-03
      2.06611562e-03 4.64875996e-03 2.58264458e-03 3.61570227e-03
      2.06611562e-03 9.29751992e-03 1.54958665e-03 2.06611562e-03
      2.06611562e-03 1.03305783e-02 0. 3.09917331e-03 3.61570227e-03
      7.23140454e-03 1.13636358e-02 6.71487581e-03 6.71487581e-03
      4.13223123e-03 3.61570227e-03 2.58264458e-03 6.19834661e-03
      3.61570227e-03 7.23140454e-03 6.71487581e-03 3.61570227e-03
      3.61570227e-03 4.64875996e-03 1.54958665e-03 9.29751992e-03
      6.19834661e-03 1.54958665e-03 2.58264458e-03 6.19834661e-03
      4.64875996e-03 5.16528916e-03 3.61570227e-03 1.03305781e-03
      6.19834661e-03 1.08471066e-02 5.16528916e-03 6.71487581e-03
      2.58264458e-03 2.06611562e-03 4.13223123e-03 5.68181789e-03
      1.54958665e-03 3.09917331e-03 1.03305781e-03 4.64875996e-03
      6.71487581e-03 5.68181789e-03 5.16528916e-03 5.16528904e-04
      4.64875996e-03 6.71487581e-03 1.54958665e-03 1.54958665e-03
      3.09917331e-03 2.58264458e-03 4.13223123e-03 5.16528916e-03
      4.13223123e-03 3.09917331e-03 1.54958675e-02 3.61570227e-03
      2.58264458e-03 4.13223123e-03 1.08471066e-02 6.71487581e-03
      5.16528916e-03 3.61570227e-03 3.61570227e-03 4.13223123e-03
      3.09917331e-03 7.23140454e-03 0. 6.19834661e-03 6.19834661e-03
      4.13223123e-03 3.09917331e-03 1.54958665e-03 2.58264458e-03
      2.06611562e-03 3.61570227e-03 2.58264458e-03 2.58264458e-03
      9.29751992e-03 3.61570227e-03 3.09917331e-03 1.54958665e-03
      2.06611562e-03 4.64875996e-03 2.06611562e-03 2.06611562e-03
      3.61570227e-03 3.09917331e-03 4.13223123e-03 1.54958665e-03
      4.13223123e-03 3.09917331e-03 4.64875996e-03 3.09917331e-03
      2.06611562e-03 2.06611562e-03 3.09917331e-03 3.09917331e-03
      3.09917331e-03 5.68181789e-03 4.13223123e-03 5.68181789e-03
      3.61570227e-03 3.61570227e-03 5.68181789e-03 1.54958665e-03
      6.19834661e-03 3.61570227e-03 3.61570227e-03 0. 2.58264458e-03
      1.29132224e-02 5.16528916e-03 2.58264458e-03 3.61570227e-03 0.
      6.19834661e-03 9.29751992e-03 5.68181789e-03 6.19834661e-03
      4.64875996e-03 1.54958665e-03 1.54958665e-03 2.06611562e-03
      2.06611562e-03 3.09917331e-03 3.61570227e-03 5.16528916e-03
      2.06611562e-03 4.13223123e-03 2.06611562e-03 3.61570227e-03
      5.16528916e-03 3.61570227e-03 2.06611562e-03 2.06611562e-03
      3.61570227e-03 2.06611562e-03 5.16528916e-03 4.13223123e-03
      7.23140454e-03 7.74793373e-03</_>
    <_>
      3.74832656e-03 2.94511369e-03 3.74832656e-03 1.20481919e-03
      2.54350714e-03 1.80722885e-02 1.63319930e-02 1.87416328e-03
      9.90629103e-03 5.35475183e-03 4.01606405e-04 9.37081641e-04
      5.75635862e-03 6.96117757e-03 1.60642562e-03 8.03212810e-04
      1.74029439e-03 2.81124492e-03 5.35475207e-04 2.14190083e-03
      6.15796493e-03 1.33868796e-03 2.14190083e-03 8.03212810e-04
      3.21285124e-03 3.88219533e-03 8.70147254e-03 2.40963837e-03
      3.74832656e-03 1.33868796e-03 3.21285124e-03 2.67737603e-04
      2.81124492e-03 2.54350714e-03 3.21285124e-03 3.34672001e-03
      1.39223551e-02 8.03212810e-04 1.60642562e-03 1.87416328e-03
      1.47255685e-03 1.20481919e-03 6.55957125e-03 4.01606405e-04
      9.50468518e-03 5.22088306e-03 7.76439067e-03 2.00803205e-03
      1.47255685e-03 5.35475183e-03 2.40963837e-03 3.21285124e-03
      6.02409616e-03 2.40963837e-03 2.67737592e-03 1.20481919e-03
      1.87416328e-03 1.87416319e-02 1.56626496e-02 4.01606411e-03
      2.14190083e-03 1.33868796e-03 7.09504634e-03 5.89022739e-03
      9.37081641e-04 1.87416328e-03 2.27576960e-03 2.59705484e-02
      3.07898247e-03 2.14190083e-03 7.36278389e-03 2.81124492e-03
      1.87416328e-03 0. 2.67737592e-03 2.67737603e-04 1.98125821e-02
      9.37081641e-04 2.54350714e-03 1.47255685e-03 3.21285124e-03
      2.00803205e-03 1.03078978e-02 3.88219533e-03 5.35475207e-04
      2.40963837e-03 4.14993288e-03 2.54350714e-03 2.81124492e-03
      2.94511369e-03 4.01606405e-04 2.27576960e-03 2.94511369e-03
      2.27576960e-03 4.28380165e-03 4.01606411e-03 1.07095041e-03
      1.23159299e-02 2.27576960e-03 1.08433729e-02 2.67737603e-04
      2.94511369e-03 2.67737592e-03 2.94511369e-03 4.28380165e-03
      8.70147254e-03 1.74029439e-03 4.01606411e-03 4.28380165e-03
      2.81124492e-03 2.63721533e-02 4.14993288e-03 5.08701429e-03
      7.22891511e-03 2.54350714e-03 1.33868796e-03 2.67737592e-03
      9.37081641e-04 4.28380165e-03 1.44578302e-02 9.50468518e-03
      1.60642562e-03 6.82730880e-03 1.20481919e-03 3.74832656e-03
      6.02409616e-03 4.95314552e-03 1.33868796e-03 5.89022739e-03
      2.27576960e-03 6.02409616e-03 1.07095041e-03 9.37081641e-04
      1.60642562e-03 3.07898247e-03 4.01606405e-04 4.81927674e-03
      7.63052190e-03 1.87416328e-03 8.56760330e-03 5.62248984e-03
      3.21285124e-03 7.49665312e-03 3.21285124e-03 2.06157956e-02
      6.69343979e-04 1.33868796e-03 1.07095041e-03 2.67737603e-04
      2.14190083e-03 3.61445756e-03 3.61445756e-03 3.88219533e-03
      2.46318597e-02 2.81124492e-03 3.61445756e-03 3.48058878e-03
      5.48862107e-03 5.08701429e-03 3.34672001e-03 1.25836674e-02
      2.27576960e-03 1.60642562e-03 2.54350714e-03 3.88219533e-03 0.
      2.94511369e-03 3.07898247e-03 1.87416328e-03 1.47255685e-03
      1.74029439e-03 3.34672001e-03 1.33868796e-03 2.14190083e-03
      4.41767043e-03 1.33868796e-03 3.48058878e-03 1.20481919e-03
      2.94511369e-03 8.03212810e-04 8.03212810e-04 2.67737592e-03
      2.94511369e-03 3.34672001e-03 1.00401603e-02 2.67737603e-04
      1.60642562e-03 1.74029439e-03 2.67737592e-03 1.20481919e-03
      6.96117757e-03 2.27576960e-03 4.55153920e-03 1.63319930e-02
      5.35475183e-03 7.49665312e-03 9.37081641e-04 6.82730880e-03
      4.01606411e-03 1.20481919e-03 6.82730880e-03 2.28915643e-02
      1.33868796e-03 6.69343979e-04 3.21285124e-03 2.14190083e-03
      4.28380165e-03 6.69343979e-04 1.59303881e-02 1.33868800e-02
      2.14190083e-03 2.27576960e-03 1.20481919e-03 0. 3.61445756e-03
      2.40963837e-03 4.81927674e-03 4.14993288e-03 1.33868796e-03
      2.00803205e-03 2.14190083e-03 1.20481919e-03 1.33868796e-03
      2.14190083e-03 1.60642562e-03 1.47255685e-03 8.03212810e-04
      6.96117757e-03 1.33868796e-03 8.03212810e-04 2.00803205e-03
      2.81124492e-03 6.55957125e-03 3.48058878e-03 1.47255685e-03
      2.00803205e-03 4.28380165e-03 2.94511369e-03 3.74832656e-03
      2.94511369e-03</_>
    <_>
      5.72082354e-03 5.72082354e-03 5.72082354e-03 4.57665883e-03
      6.29290566e-03 1.14416471e-03 1.14416471e-03 2.28832942e-03
      3.43249412e-03 1.08695645e-02 1.71624706e-03 4.57665883e-03
      1.71624706e-03 8.58123507e-03 1.14416471e-03 0. 5.72082354e-03
      2.28832942e-03 2.86041177e-03 7.43707083e-03 5.72082354e-03
      1.14416471e-03 2.28832942e-03 6.29290566e-03 4.00457624e-03
      2.86041177e-03 6.29290566e-03 3.43249412e-03 4.57665883e-03
      4.00457624e-03 3.43249412e-03 0. 5.14874142e-03 7.43707083e-03
      9.15331766e-03 8.58123507e-03 1.14416471e-03 3.43249412e-03
      1.71624706e-03 5.72082354e-03 1.14416471e-03 4.57665883e-03
      8.58123507e-03 1.71624706e-03 3.43249412e-03 2.86041177e-03
      2.86041177e-03 1.71624706e-03 2.86041177e-03 0. 4.00457624e-03
      8.00915249e-03 6.29290566e-03 1.14416471e-02 4.00457624e-03
      3.43249412e-03 1.71624706e-03 9.72540025e-03 2.86041177e-03
      1.54462233e-02 8.00915249e-03 2.28832942e-03 8.58123507e-03
      6.86498825e-03 4.00457624e-03 1.71624706e-03 4.57665883e-03
      1.71624706e-03 2.28832942e-03 4.57665883e-03 1.71624706e-03
      2.86041177e-03 1.71624706e-03 0. 1.31578939e-02 4.00457624e-03
      2.86041177e-03 1.71624706e-03 9.72540025e-03 4.00457624e-03
      6.29290566e-03 3.43249412e-03 5.72082354e-03 5.72082354e-03
      1.71624706e-03 2.86041177e-03 4.00457624e-03 5.14874142e-03
      2.28832942e-03 2.28832942e-03 3.43249412e-03 1.14416471e-03
      3.43249412e-03 2.86041177e-03 4.57665883e-03 1.14416471e-03
      2.86041177e-03 1.14416471e-03 2.86041177e-03 1.31578939e-02 0.
      7.43707083e-03 5.72082354e-04 4.57665883e-03 9.72540025e-03
      1.20137297e-02 5.14874142e-03 6.29290566e-03 4.57665883e-03
      8.00915249e-03 1.71624706e-03 2.28832942e-03 9.15331766e-03
      5.72082354e-03 2.86041177e-03 4.57665883e-03 7.43707083e-03
      1.71624706e-03 6.86498825e-03 2.86041177e-03 1.71624706e-03
      6.29290566e-03 1.71624706e-03 5.72082354e-04 5.72082354e-03
      2.86041177e-03 4.00457624e-03 7.43707083e-03 9.15331766e-03
      3.43249412e-03 8.00915249e-03 2.28832942e-03 1.71624706e-03
      1.71624706e-03 3.43249412e-03 4.00457624e-03 2.86041177e-03
      1.14416471e-03 2.28832942e-03 5.14874142e-03 1.14416471e-03
      1.37299765e-02 2.28832942e-03 4.00457624e-03 2.28832942e-03
      5.72082354e-04 1.14416471e-03 5.14874142e-03 4.57665883e-03
      4.00457624e-03 1.14416471e-03 8.00915249e-03 5.72082354e-04
      1.71624706e-03 3.43249412e-03 3.43249412e-03 6.86498825e-03
      8.58123507e-03 3.43249412e-03 4.57665883e-03 1.71624706e-03
      6.29290566e-03 3.43249412e-03 3.43249412e-03 4.00457624e-03 0.
      4.57665883e-03 5.14874142e-03 2.28832942e-03 5.72082354e-03
      5.72082354e-04 5.14874142e-03 8.00915249e-03 3.43249412e-03
      2.28832942e-03 2.28832942e-03 8.00915249e-03 5.14874142e-03
      7.43707083e-03 5.14874142e-03 5.14874142e-03 4.57665883e-03
      7.43707083e-03 2.28832942e-03 1.71624706e-03 4.57665883e-03
      3.43249412e-03 7.43707083e-03 1.71624706e-03 7.43707083e-03
      3.43249412e-03 6.29290566e-03 2.86041177e-03 5.72082354e-03
      1.71624706e-03 2.28832942e-03 1.14416471e-03 6.86498825e-03
      4.57665883e-03 2.28832942e-03 1.71624706e-03 2.28832942e-03
      3.43249412e-03 4.57665883e-03 2.86041177e-03 4.00457624e-03
      4.00457624e-03 0. 1.71624706e-03 1.31578939e-02 2.86041177e-03
      4.00457624e-03 5.14874142e-03 0. 2.86041177e-03 8.58123507e-03
      4.00457624e-03 4.57665883e-03 1.14416471e-03 3.43249412e-03
      2.86041177e-03 1.14416471e-03 6.29290566e-03 5.72082354e-03
      5.72082354e-04 1.14416471e-03 5.72082354e-03 9.15331766e-03
      2.86041177e-03 5.72082354e-04 2.86041177e-03 3.43249412e-03
      3.43249412e-03 1.71624706e-03 2.28832942e-03 1.71624706e-03
      2.86041177e-03 2.28832942e-03 1.02974828e-02 3.43249412e-03</_>
    <_>
      5.63281681e-03 5.21910703e-03 5.69646433e-03 4.77357348e-03
      2.76867254e-03 1.59119110e-04 4.45533544e-04 5.72828809e-03
      1.62301504e-03 3.69156362e-03 3.94615391e-03 3.65973962e-03
      5.02816401e-03 3.81885888e-03 6.01470284e-03 1.46389590e-03
      5.44187380e-03 5.44187380e-03 3.27785383e-03 5.31457830e-03
      4.93269274e-03 4.29621618e-03 4.67810221e-03 3.78703489e-03
      5.37822628e-03 6.04652660e-03 1.75031030e-03 4.39168746e-03
      6.17382163e-03 4.10527317e-03 3.59609211e-03 4.45533544e-04
      4.23256867e-03 3.88250640e-03 2.83232029e-03 5.72828809e-03
      2.06854846e-03 3.78703489e-03 6.33294089e-03 5.82375983e-03
      5.85558359e-03 3.53244436e-03 9.86538478e-04 4.32803994e-03
      2.45043449e-03 4.70992597e-03 2.16401997e-03 4.13709693e-03
      6.23746961e-03 4.04162565e-03 3.37332534e-03 4.23256867e-03
      4.20074491e-03 5.18728327e-03 4.32803994e-03 6.55570766e-03
      6.93759369e-03 2.13219621e-03 2.03672471e-03 3.34150158e-03
      2.95961555e-03 3.69156362e-03 1.94125320e-03 4.00980189e-03
      4.77357348e-03 4.39168746e-03 4.48715920e-03 1.68666267e-03
      3.08691082e-03 6.87394571e-03 3.27785383e-03 4.51898295e-03
      4.32803994e-03 1.59119110e-04 3.15055856e-03 4.83722100e-03
      9.22890904e-04 4.20074491e-03 2.22766772e-03 6.33294089e-03
      5.44187380e-03 4.96451650e-03 4.16892068e-03 4.26439242e-03
      6.17382163e-03 5.12363575e-03 4.61445423e-03 1.75031030e-03
      4.04162565e-03 6.71482692e-03 5.56916930e-03 6.55570766e-03
      5.15545951e-03 2.95961555e-03 4.26439242e-03 3.43697285e-03
      5.25093079e-03 1.75031030e-03 4.70992597e-03 1.71848643e-03
      1.90942941e-04 6.71482692e-03 3.72338737e-03 5.05998777e-03
      4.64627845e-03 3.62791587e-03 5.09181153e-03 5.12363575e-03
      2.76867254e-03 4.58263047e-03 2.16401997e-03 5.85558359e-03
      5.82375983e-03 2.95961555e-03 4.83722100e-03 4.67810221e-03
      5.21910703e-03 4.58263047e-03 4.32803994e-03 1.97307696e-03
      2.67320126e-03 5.98287862e-03 4.07344941e-03 5.69646433e-03
      5.28275454e-03 4.51898295e-03 4.07344941e-03 3.53244436e-03
      4.83722100e-03 6.33294089e-03 3.85068264e-03 3.81885888e-03
      5.50552132e-03 5.15545951e-03 4.26439242e-03 4.04162565e-03
      6.23746961e-03 2.95961555e-03 5.88740734e-03 3.69156362e-03
      5.12363575e-03 4.93269274e-03 3.05508706e-03 2.95961555e-03
      2.51408201e-03 7.31947948e-04 1.94125320e-03 3.65973962e-03
      3.34150158e-03 5.60099306e-03 2.16401997e-03 4.61445423e-03
      4.42351168e-03 2.19584373e-03 4.48715920e-03 6.46023639e-03
      5.53734507e-03 4.07344941e-03 5.09181153e-03 2.06854846e-03
      1.55936740e-03 3.91433015e-03 4.96451650e-03 5.34640253e-03
      5.63281681e-03 1.90942941e-04 5.95105486e-03 5.25093079e-03
      6.14199787e-03 4.42351168e-03 2.19584373e-03 3.43697285e-03
      5.31457830e-03 6.68300316e-03 3.18238232e-03 4.77357348e-03
      3.27785383e-03 4.83722100e-03 4.55080671e-03 3.34150158e-03
      4.48715920e-03 6.87394571e-03 4.80539724e-03 3.27785383e-03
      3.65973962e-03 4.10527317e-03 3.27785383e-03 4.29621618e-03
      5.76011185e-03 5.60099306e-03 3.65973962e-03 7.25583173e-03
      2.95961555e-03 1.36842439e-03 2.89596803e-03 3.85068264e-03
      4.55080671e-03 3.34150158e-03 3.18238232e-03 4.83722100e-03
      4.61445423e-03 1.05018623e-03 3.30967759e-03 4.80539724e-03
      5.41005004e-03 5.56916930e-03 3.40514909e-03 5.09181176e-04
      1.81395793e-03 3.02326330e-03 5.50552132e-03 5.25093079e-03
      4.55080671e-03 3.18238235e-05 4.80539724e-03 1.90942944e-03
      6.04652660e-03 5.31457830e-03 6.26929337e-03 4.80539724e-03
      5.60099306e-03 3.97797814e-03 4.99634026e-03 4.93269274e-03
      5.56916930e-03 5.02816401e-03 3.24603007e-03 3.69156362e-03
      4.00980189e-03 5.28275454e-03 6.42841216e-03 4.70992597e-03
      4.99634026e-03 4.67810221e-03 5.31457830e-03 6.46023639e-03
      3.37332534e-03 4.70992597e-03 4.93269274e-03 5.02816401e-03</_>
    <_>
      2.84252432e-03 1.13700971e-03 3.41102900e-03 5.68504853e-04
      3.97953391e-03 2.27401941e-03 3.97953391e-03 5.68504853e-04
      1.70551450e-03 1.19386017e-02 0. 0. 1.25071071e-02 4.54803882e-03
      2.84252432e-03 2.27401941e-03 1.70551450e-03 4.54803882e-03
      2.84252432e-03 2.84252432e-03 2.84252432e-03 1.70551450e-03
      2.27401941e-03 6.82205800e-03 3.41102900e-03 3.97953391e-03
      9.66458209e-03 3.41102900e-03 3.41102900e-03 2.27401941e-03
      2.84252432e-03 5.68504853e-04 5.68504853e-04 2.27401941e-03
      5.11654373e-03 3.97953391e-03 7.39056291e-03 2.27401941e-03
      1.70551450e-03 1.70551450e-03 5.68504853e-04 5.68504853e-04
      4.54803882e-03 0. 1.08015919e-02 6.25355355e-03 5.68504864e-03
      1.70551450e-03 1.70551450e-03 2.84252432e-03 5.68504864e-03
      1.13700971e-03 1.70551450e-03 3.97953391e-03 5.68504864e-03
      5.68504853e-04 5.11654373e-03 1.36441160e-02 6.82205800e-03
      3.41102900e-03 4.54803882e-03 0. 2.27401946e-02 7.39056291e-03 0.
      5.68504853e-04 3.41102900e-03 1.08015919e-02 7.95906782e-03 0.
      3.41102900e-03 3.97953391e-03 4.54803882e-03 0. 6.82205800e-03
      2.27401941e-03 1.02330875e-02 5.68504853e-04 7.95906782e-03
      2.27401941e-03 5.68504864e-03 4.54803882e-03 3.41102900e-03
      1.70551450e-03 1.70551450e-03 5.68504853e-04 2.27401941e-03
      6.82205800e-03 2.27401941e-03 5.68504864e-03 1.13700971e-03
      1.70551450e-03 1.70551450e-03 6.25355355e-03 1.13700971e-03
      1.13700973e-02 0. 5.11654373e-03 1.70551450e-03 9.09607764e-03 0.
      1.13700971e-03 3.97953391e-03 8.52757320e-03 2.84252432e-03
      5.11654373e-03 5.11654373e-03 4.54803882e-03 3.41102900e-03
      2.27401941e-03 2.38772035e-02 5.68504853e-04 1.13700973e-02
      5.68504864e-03 3.41102900e-03 5.68504853e-04 2.84252432e-03
      5.68504853e-04 9.66458209e-03 2.27401941e-03 5.68504864e-03
      1.70551450e-03 7.95906782e-03 1.13700971e-03 1.70551450e-03
      2.27401941e-03 5.11654373e-03 6.25355355e-03 1.36441160e-02
      3.41102900e-03 5.11654373e-03 2.27401941e-03 2.27401941e-03
      1.08015919e-02 3.41102900e-03 5.68504864e-03 6.25355355e-03
      2.84252432e-03 1.13700971e-03 2.84252432e-03 5.68504853e-04
      8.52757320e-03 6.25355355e-03 1.13700971e-03 9.09607764e-03 0.
      5.68504853e-04 1.70551450e-03 1.70551450e-03 6.25355355e-03
      6.82205800e-03 5.11654373e-03 5.11654373e-03 2.21716892e-02
      2.84252432e-03 2.27401941e-03 1.13700971e-03 1.25071071e-02
      5.68504864e-03 1.70551450e-03 4.54803882e-03 1.70551450e-03
      1.70551450e-03 1.70551450e-03 1.13700971e-03 0. 5.11654373e-03
      1.70551450e-03 2.27401941e-03 1.13700971e-03 3.97953391e-03
      5.68504853e-04 0. 1.13700971e-03 4.54803882e-03 2.84252432e-03
      3.41102900e-03 1.13700971e-03 2.27401941e-03 5.68504853e-04
      2.27401941e-03 1.70551450e-03 6.25355355e-03 2.04661749e-02
      1.08015919e-02 0. 2.27401941e-03 5.68504853e-04 1.13700971e-03
      3.41102900e-03 5.68504864e-03 1.13700971e-03 3.97953391e-03
      5.68504864e-03 5.11654373e-03 2.84252432e-03 0. 1.13700971e-03
      5.68504864e-03 2.27401941e-03 2.84252432e-03 7.95906782e-03 0.
      1.13700971e-03 2.84252432e-03 1.13700971e-03 1.76236499e-02
      1.13700971e-03 9.09607764e-03 3.41102928e-02 1.70551450e-03
