<?xml version="1.0"?>
<opencv_storage>
<opencv_ml_svm>
  <format>3</format>
  <svmType>C_SVC</svmType>
  <kernel>
    <type>RBF</type>
    <gamma>1.</gamma></kernel>
  <C>1.</C>
  <term_criteria><epsilon>1.1920928955078125e-07</epsilon>
    <iterations>1000</iterations></term_criteria>
  <var_count>30</var_count>
  <class_count>8</class_count>
  <class_labels type_id="opencv-matrix">
    <rows>8</rows>
    <cols>1</cols>
    <dt>i</dt>
    <data>
      1 2 3 4 5 6 7 8</data></class_labels>
  <sv_total>40</sv_total>
  <support_vectors>
    <_>
      1.23943668e-02 5.91549315e-02 0. 0. 1.74084514e-01 6.19718339e-03
      2.76056342e-02 0. 1.12676062e-03 2.76056342e-02 7.09859207e-02
      8.00000057e-02 3.42535228e-01 0. 0. 5.63380308e-04 0.
      7.88732469e-02 0. 4.50704247e-03 6.87323958e-02 0. 1.69014093e-02
      1.12676062e-03 2.53521129e-02 0. 0. 0. 1.69014093e-03
      5.63380308e-04</_>
    <_>
      6.98497798e-03 6.20514788e-02 2.39211571e-04 0. 1.24246486e-01
      9.42493603e-03 2.67438535e-02 9.56846270e-05 1.81800791e-03
      3.86087485e-02 7.76002333e-02 6.63572922e-02 1.91751987e-01
      9.56846270e-05 1.67448097e-03 1.29174243e-03 4.78423135e-05
      2.04860792e-01 1.91369254e-04 6.74576638e-03 5.52578717e-02
      1.91369254e-04 4.82728928e-02 1.43526937e-03 7.11415187e-02 0. 0.
      4.78423135e-05 2.05721939e-03 7.65477016e-04</_>
    <_>
      6.00978313e-03 1.25227109e-01 1.39762400e-04 0. 1.03983223e-01
      3.49405990e-03 1.78895872e-02 0. 1.39762400e-04 2.04053111e-02
      5.31097129e-02 7.82669410e-02 2.19706491e-01 0. 4.19287186e-04
      1.53738644e-03 0. 2.57023066e-01 0. 2.09643599e-03 3.29839252e-02
      0. 3.25646400e-02 5.59049600e-04 4.29070555e-02 0. 0.
      1.39762400e-04 8.38574371e-04 5.59049600e-04</_>
    <_>
      1.12528130e-02 4.87621911e-02 0. 0. 2.51312822e-01 1.42535632e-02
      4.35108766e-02 0. 7.50187552e-04 6.22655675e-02 2.62565650e-02
      6.52663186e-02 2.61065274e-01 7.50187552e-04 0. 0. 0.
      7.27681890e-02 0. 1.50037510e-03 6.75168782e-02 0. 2.10052505e-02
      9.00225062e-03 3.82595658e-02 0. 0. 0. 1.50037510e-03
      3.00075021e-03</_>
    <_>
      4.67071449e-03 7.14619309e-02 4.67071455e-04 0. 2.03176081e-01
      1.35450726e-02 5.23120016e-02 0. 9.34142910e-04 5.69827184e-02
      3.73657160e-02 9.15460065e-02 1.72816440e-01 0. 1.40121439e-03 0.
      0. 1.21438578e-01 0. 6.07192889e-03 6.02522194e-02 4.67071455e-04
      2.98925731e-02 2.33535725e-03 6.77253604e-02 0. 0. 4.67071455e-04
      2.33535725e-03 2.33535725e-03</_>
    <_>
      5.14874142e-03 1.10411897e-01 0. 0. 1.51601821e-01 1.60183050e-02
      2.63157878e-02 0. 2.28832942e-03 5.37757427e-02 5.20594940e-02
      6.92219660e-02 1.45308912e-01 5.72082354e-04 1.14416471e-03
      2.28832942e-03 0. 2.18535453e-01 0. 3.43249412e-03 4.74828370e-02
      5.72082354e-04 2.63157878e-02 3.43249412e-03 5.89244813e-02 0. 0.
      0. 3.43249412e-03 1.71624706e-03</_>
    <_>
      7.54147861e-03 1.14328809e-01 6.03318273e-04 0. 9.17043760e-02
      5.12820529e-03 2.17194576e-02 0. 6.03318273e-04 1.77978892e-02
      7.20965341e-02 1.13423832e-01 1.93061844e-01 0. 6.03318273e-04
      1.20663655e-03 0. 2.10859731e-01 0. 3.92156886e-03 5.73152341e-02
      3.01659136e-04 3.58974375e-02 9.04977438e-04 4.61538471e-02 0. 0.
      0. 3.01659130e-03 1.80995488e-03</_>
    <_>
      9.04392824e-03 4.97416034e-02 0. 0. 2.24806204e-01 2.13178303e-02
      4.39276509e-02 6.45994849e-04 0. 5.49095608e-02 5.16795889e-02
      1.02067187e-01 2.10594326e-01 0. 6.45994849e-04 6.45994849e-04 0.
      8.39793310e-02 0. 2.58397940e-03 6.26614988e-02 0. 2.77777780e-02
      3.22997430e-03 4.32816558e-02 0. 0. 0. 4.52196412e-03
      1.93798449e-03</_>
    <_>
      5.52704278e-03 5.25069088e-02 1.18436629e-03 0. 2.23845229e-01
      1.14488741e-02 6.15870506e-02 0. 2.76352139e-03 5.32964841e-02
      3.23726796e-02 8.29056427e-02 2.27398336e-01 3.94788774e-04
      2.36873259e-03 3.94788774e-04 3.94788774e-04 9.00118425e-02 0.
      6.31662039e-03 6.19818382e-02 0. 2.40821149e-02 4.34267661e-03
      5.13225421e-02 0. 0. 3.94788774e-04 1.18436629e-03 1.97394378e-03</_>
    <_>
      5.09507768e-03 8.16122219e-02 3.63934116e-04 0. 1.50122821e-01
      9.37130302e-03 2.11081784e-02 0. 8.18851753e-04 2.50204708e-02
      4.23073396e-02 5.59548698e-02 2.12628514e-01 9.09835289e-05
      1.27376942e-03 1.00081880e-03 0. 2.81503052e-01 9.09835289e-05
      2.18360475e-03 4.43089791e-02 1.81967058e-04 2.79319435e-02
      2.63852230e-03 3.18442360e-02 0. 0. 2.72950594e-04 1.81967055e-03
      4.54917637e-04</_>
    <_>
      9.66458209e-03 6.87890872e-02 0. 0. 1.91586137e-01 1.59181356e-02
      5.62819801e-02 5.68504853e-04 1.13700971e-03 5.23024462e-02
      4.49118838e-02 1.38715178e-01 1.88175112e-01 0. 1.13700971e-03
      1.13700971e-03 0. 9.32347924e-02 0. 4.54803882e-03 5.00284284e-02
      5.68504853e-04 2.72882320e-02 2.27401941e-03 4.66173962e-02 0. 0.
      0. 4.54803882e-03 5.68504853e-04</_>
    <_>
      7.38916267e-03 9.52380970e-02 8.21018068e-04 0. 1.46962240e-01
      1.80623978e-02 3.20197046e-02 0. 3.28407227e-03 5.09031191e-02
      4.76190485e-02 1.16584569e-01 1.80623978e-01 0. 0. 8.21018068e-04
      0. 1.30541876e-01 0. 4.10509016e-03 7.55336657e-02 0.
      3.03776693e-02 4.10509016e-03 5.41871935e-02 0. 0. 0.
      8.21018068e-04 0.</_>
    <_>
      5.92300110e-03 7.10760131e-02 0. 0. 1.67324781e-01 1.13524189e-02
      5.67620955e-02 0. 1.97433378e-03 5.38005941e-02 5.13326786e-02
      9.67423543e-02 1.66337624e-01 0. 2.96150055e-03 1.48075027e-03 0.
      1.36229023e-01 0. 3.45508405e-03 7.99605176e-02 4.93583444e-04
      2.91214231e-02 4.93583456e-03 5.52813448e-02 0. 0. 0.
      2.46791728e-03 9.87166888e-04</_>
    <_>
      7.43494462e-03 4.69753295e-02 3.37952020e-04 0. 1.44643471e-01
      1.48698892e-02 4.62994277e-02 3.37952020e-04 1.35180808e-03
      4.39337641e-02 6.99560717e-02 8.98952410e-02 2.57519454e-01 0.
      3.37952020e-04 3.37952020e-04 0. 1.13551877e-01 0. 3.04156821e-03
      7.60392025e-02 0. 2.73741130e-02 2.36566411e-03 5.00168987e-02 0.
      0. 6.75904041e-04 1.01385603e-03 1.68976013e-03</_>
    <_>
      8.09194334e-03 9.26468894e-02 2.34549079e-04 0. 1.19620033e-01
      7.74011947e-03 2.66213212e-02 0. 8.20921792e-04 2.46276539e-02
      6.73155859e-02 8.40858445e-02 2.40764633e-01 1.17274540e-04
      4.69098159e-04 1.17274537e-03 0. 1.86935619e-01 0. 2.34549074e-03
      5.60572296e-02 1.17274540e-04 3.18986736e-02 9.38196317e-04
      4.51506972e-02 0. 0. 1.17274540e-04 1.64184358e-03 4.69098159e-04</_>
    <_>
      1.36186769e-02 1.73151746e-01 0. 0. 1.00194551e-01 6.80933846e-03
      3.79377417e-02 0. 1.94552529e-03 3.40466909e-02 3.79377417e-02
      1.90661475e-01 9.24124494e-02 0. 9.72762646e-04 9.72762646e-04 0.
      1.37159526e-01 0. 3.89105058e-03 4.57198434e-02 0. 4.47470807e-02
      9.72762646e-04 7.49027207e-02 0. 0. 0. 1.94552529e-03 0.</_>
    <_>
      1.11255134e-02 6.93454295e-02 3.24044086e-04 0. 1.68502912e-01
      9.72132199e-03 3.53208035e-02 0. 8.64117523e-04 2.61395555e-02
      5.80038875e-02 7.32339621e-02 2.77165681e-01 1.08014690e-04
      5.40073437e-04 3.24044086e-04 0. 1.35882482e-01 0. 2.48433789e-03
      7.72305056e-02 0. 2.19269823e-02 8.64117523e-04 2.84078643e-02 0.
      0. 1.08014690e-04 1.18816155e-03 1.18816155e-03</_>
    <_>
      1.36698205e-02 9.35856923e-02 0. 0. 1.75604612e-01 7.36067258e-03
      3.57518382e-02 0. 4.20609862e-03 3.89064103e-02 3.89064103e-02
      1.14616185e-01 2.00841203e-01 0. 3.15457396e-03 1.05152465e-03 0.
      1.16719238e-01 0. 8.41219723e-03 3.57518382e-02 0. 4.31125090e-02
      4.20609862e-03 5.57308048e-02 0. 0. 0. 7.36067258e-03
      1.05152465e-03</_>
    <_>
      5.34479134e-03 8.89750570e-02 2.61999579e-04 0. 1.19314604e-01
      6.65478921e-03 1.78683717e-02 1.04799830e-04 1.15279818e-03
      2.69859564e-02 5.21903150e-02 5.52295111e-02 2.02735275e-01 0.
      8.38398642e-04 8.38398642e-04 0. 3.03185910e-01 1.57199742e-04
      2.41039600e-03 3.80423367e-02 1.57199742e-04 3.40599455e-02
      1.04799832e-03 4.04527336e-02 0. 0. 5.23999151e-05 1.15279818e-03
      7.85998709e-04</_>
    <_>
      8.69025476e-03 9.90068316e-02 6.20732491e-04 0. 1.36561155e-01
      8.37988872e-03 3.13469917e-02 0. 2.17256369e-03 4.15890776e-02
      4.93482314e-02 8.96958485e-02 1.78460598e-01 0. 1.24146498e-03
      9.31098708e-04 0. 2.11049050e-01 0. 1.86219742e-03 4.77964021e-02
      3.10366246e-04 3.78646813e-02 2.17256369e-03 4.59342040e-02
      3.10366246e-04 0. 3.10366246e-04 1.86219742e-03 2.48292997e-03</_>
    <_>
      4.64875996e-03 7.12809861e-02 0. 0. 1.61157012e-01 1.44628091e-02
      2.78925616e-02 5.16528904e-04 1.54958665e-03 4.90702465e-02
      4.90702465e-02 6.76652864e-02 1.97314039e-01 0. 2.58264458e-03
      5.16528904e-04 0. 1.71487600e-01 0. 3.61570227e-03 6.35330528e-02
      0. 4.08057831e-02 3.09917331e-03 6.40495867e-02 0. 0. 0.
      3.09917331e-03 2.58264458e-03</_>
    <_>
      9.53061692e-03 6.81439117e-02 2.38265435e-04 0. 1.64641410e-01
      9.29235201e-03 3.85989994e-02 0. 1.66785810e-03 3.74076739e-02
      6.52847290e-02 9.48296413e-02 2.53752679e-01 0. 1.66785810e-03
      1.19132712e-03 2.38265435e-04 1.03407197e-01 2.38265435e-04
      3.09745059e-03 7.10031018e-02 4.76530869e-04 2.81153210e-02
      3.09745059e-03 4.07433882e-02 0. 0. 2.38265435e-04 1.90612348e-03
      1.19132712e-03</_>
    <_>
      5.57045592e-03 6.18939549e-02 2.06313183e-04 0. 2.13121518e-01
      7.83990137e-03 4.37383950e-02 0. 6.18939521e-04 4.31194566e-02
      5.13719842e-02 6.89086020e-02 2.57478863e-01 0. 1.23787904e-03
      2.06313183e-04 0. 1.21724777e-01 2.06313183e-04 3.71363736e-03
      6.12750165e-02 0. 2.26944499e-02 1.85681868e-03 3.01217251e-02 0.
      0. 2.06313183e-04 1.65050547e-03 1.23787904e-03</_>
    <_>
      5.50552132e-03 8.68153870e-02 2.86414404e-04 0. 1.02472715e-01
      1.02790948e-02 2.01444812e-02 9.54714706e-05 1.59119116e-03
      3.63746285e-02 6.70209751e-02 7.39267394e-02 1.85119182e-01 0.
      1.27295288e-03 1.20930525e-03 3.18238235e-05 2.36196414e-01
      1.90942941e-04 5.02816401e-03 5.51506877e-02 2.22766772e-04
      4.60490733e-02 1.30477676e-03 6.03379682e-02 0. 0. 9.54714706e-05
      2.06854846e-03 1.20930525e-03</_>
    <_>
      7.63052190e-03 5.80990613e-02 5.35475207e-04 0. 2.26907626e-01
      1.03078978e-02 3.70816588e-02 0. 4.01606405e-04 3.31994630e-02
      4.63186055e-02 7.14859366e-02 2.92503327e-01 0. 5.35475207e-04
      5.35475207e-04 2.67737603e-04 9.50468481e-02 2.67737603e-04
      3.21285124e-03 6.05086982e-02 5.35475207e-04 2.10174024e-02
      9.37081641e-04 3.09236925e-02 0. 0. 2.67737603e-04 9.37081641e-04
      5.35475207e-04</_>
    <_>
      1.26829268e-02 8.14634115e-02 4.87804879e-04 0. 1.24390244e-01
      1.95121951e-02 5.17073162e-02 0. 1.46341464e-03 5.07317074e-02
      4.53658551e-02 1.47317067e-01 1.28292680e-01 0. 4.87804879e-04
      1.95121951e-03 4.87804879e-04 1.29756093e-01 0. 4.39024391e-03
      5.85365854e-02 0. 4.29268293e-02 3.90243903e-03 8.48780498e-02 0.
      0. 0. 7.80487806e-03 1.46341464e-03</_>
    <_>
      5.40860929e-03 8.97236392e-02 2.96362152e-04 0. 1.70778692e-01
      7.85359740e-03 2.45239679e-02 0. 1.18544861e-03 3.27480175e-02
      4.20834273e-02 6.49033114e-02 1.97821736e-01 7.40905380e-05
      5.92724304e-04 8.89086456e-04 0. 2.41090611e-01 0. 2.88953097e-03
      3.84529904e-02 3.70452704e-04 3.27480175e-02 1.70408236e-03
      4.09720689e-02 0. 0. 0. 2.66725942e-03 2.22271614e-04</_>
    <_>
      1.26253888e-02 5.84572777e-02 4.32376342e-04 0. 1.22103073e-01
      1.02040814e-02 3.75302657e-02 8.64752656e-05 5.18851564e-04
      2.27429941e-02 8.62158388e-02 1.03770316e-01 3.21428567e-01 0.
      4.32376342e-04 2.59425782e-04 0. 9.52957422e-02 0. 2.24835682e-03
      7.48011023e-02 1.72950531e-04 1.73815284e-02 1.21065369e-03
      3.06122433e-02 0. 0. 8.64752656e-05 9.51227907e-04 4.32376342e-04</_>
    <_>
      9.95575264e-03 5.80752194e-02 1.10619469e-03 0. 1.83628321e-01
      1.43805314e-02 3.59513275e-02 0. 2.76548672e-03 5.53097352e-02
      4.64601777e-02 9.84513238e-02 2.02433631e-01 5.53097343e-04
      1.65929203e-03 0. 0. 1.21681415e-01 0. 8.84955749e-03
      7.35619441e-02 0. 2.98672561e-02 3.31858406e-03 4.97787595e-02 0.
      0. 5.53097343e-04 1.65929203e-03 0.</_>
    <_>
      6.30176440e-03 8.75044987e-02 5.40151261e-04 0. 1.16672665e-01
      5.94166340e-03 3.11487205e-02 0. 5.40151261e-04 4.66330573e-02
      7.02196583e-02 9.12855566e-02 1.59884766e-01 1.80050411e-04
      1.62045367e-03 1.62045367e-03 0. 2.08678424e-01 1.80050411e-04
      3.78105859e-03 4.96939123e-02 1.80050411e-04 4.46525030e-02
      1.80050405e-03 6.66186512e-02 0. 0. 0. 3.24090733e-03
      1.08030252e-03</_>
    <_>
      8.20918195e-03 7.50988126e-02 3.04043788e-04 0. 1.95804194e-01
      1.18577080e-02 6.08087592e-02 0. 1.21617515e-03 4.53025252e-02
      4.92550954e-02 1.03374891e-01 2.35633940e-01 0. 3.04043788e-04
      6.08087576e-04 0. 7.11462498e-02 3.04043788e-04 3.95256933e-03
      7.17543364e-02 0. 2.09790207e-02 2.73639406e-03 3.89176048e-02 0.
      0. 0. 1.82426278e-03 6.08087576e-04</_>
    <_>
      1.00755664e-02 8.98404717e-02 0. 0. 1.35180518e-01 7.55667500e-03
      5.37363552e-02 0. 1.67926110e-03 6.71704412e-02 5.20570949e-02
      1.58690169e-01 1.35180518e-01 0. 1.67926110e-03 0. 8.39630549e-04
      9.06801000e-02 0. 3.35852220e-03 6.80100769e-02 0. 3.10663301e-02
      5.87741379e-03 8.14441666e-02 0. 0. 8.39630549e-04 3.35852220e-03
      1.67926110e-03</_>
    <_>
      5.60081471e-03 1.20417520e-01 2.54582497e-04 0. 1.18253566e-01
      5.47352387e-03 2.02393085e-02 1.27291249e-04 7.63747492e-04
      2.62219980e-02 5.56262769e-02 7.84114078e-02 2.00611010e-01
      1.27291249e-04 7.63747492e-04 1.01832999e-03 0. 2.41598785e-01 0.
      2.80040735e-03 3.48778032e-02 0. 3.78055014e-02 5.09164995e-04
      4.64613065e-02 0. 0. 0. 1.52749498e-03 5.09164995e-04</_>
    <_>
      3.09757353e-03 6.35002553e-02 0. 0. 3.18533808e-01 1.23902941e-02
      4.13009822e-02 0. 2.58131139e-03 5.21424860e-02 4.33660299e-02
      6.60815686e-02 1.41455859e-01 0. 4.13009804e-03 0. 0.
      1.11512646e-01 0. 4.64636041e-03 6.04026839e-02 0. 2.32318006e-02
      6.71140943e-03 3.87196690e-02 0. 0. 5.16262255e-04 3.61383567e-03
      2.06504902e-03</_>
    <_>
      6.13496965e-03 1.01930544e-01 1.12568247e-04 0. 1.24050207e-01
      7.20436778e-03 2.03185678e-02 0. 4.50272986e-04 2.51590032e-02
      5.34699187e-02 6.99611679e-02 1.98739246e-01 0. 1.23825076e-03
      7.87977711e-04 5.62841233e-05 2.63522267e-01 1.12568247e-04
      2.92677432e-03 3.82732041e-02 2.81420624e-04 3.88923287e-02
      1.23825076e-03 4.25507985e-02 0. 0. 5.62841233e-05 1.74480781e-03
      7.87977711e-04</_>
    <_>
      3.72876693e-03 1.04819782e-01 4.14307433e-04 0. 1.37688175e-01
      6.35271380e-03 1.80914253e-02 0. 9.66717373e-04 3.27302888e-02
      5.10979183e-02 6.10412955e-02 1.80776149e-01 0. 4.14307433e-04
      1.38102472e-03 0. 2.79933721e-01 2.76204955e-04 2.48584454e-03
      3.59066427e-02 1.38102478e-04 3.74257714e-02 9.66717373e-04
      4.04640250e-02 1.38102478e-04 0. 0. 1.93343475e-03 8.28614866e-04</_>
    <_>
      4.71991068e-03 1.27437592e-01 1.24208178e-04 0. 1.34765878e-01
      4.34728619e-03 1.55881261e-02 0. 7.45249097e-04 2.29785126e-02
      5.12358733e-02 7.25996792e-02 1.74326181e-01 0. 2.48416356e-04
      1.05576951e-03 0. 2.86672473e-01 1.86312274e-04 1.24208175e-03
      3.27909589e-02 1.24208178e-04 3.68898287e-02 4.34728630e-04
      2.90647130e-02 0. 0. 1.24208178e-04 1.98733085e-03 3.10520438e-04</_>
    <_>
      9.59367957e-03 6.32054210e-02 0. 0. 3.44243795e-01 6.20767521e-03
      4.90970649e-02 0. 5.64334099e-04 5.02257347e-02 2.03160271e-02
      7.84424394e-02 2.36455992e-01 0. 1.12866820e-03 5.64334099e-04 0.
      5.07900678e-02 5.64334099e-04 3.38600460e-03 3.16027105e-02 0.
      1.41083524e-02 5.64334076e-03 3.04740407e-02 0. 0. 0.
      2.25733640e-03 1.12866820e-03</_>
    <_>
      1.49957160e-03 1.22000858e-01 4.28449013e-04 0. 1.69558704e-01
      2.35646963e-03 8.46186839e-03 1.07112253e-04 5.35561237e-04
      2.46358179e-02 1.75664090e-02 2.02442165e-02 9.06169638e-02
      1.07112253e-04 3.21336760e-04 6.25535548e-02 1.07112253e-04
      8.65467042e-02 1.07112253e-04 2.24935729e-03 9.27592143e-02
      2.14224507e-04 5.07712066e-02 6.42673520e-04 2.42823482e-01 0. 0.
      4.28449013e-04 1.60668383e-03 7.49785802e-04</_>
    <_>
      5.24101267e-03 9.68480036e-02 4.42902470e-04 0. 9.38215032e-02
      9.22713522e-03 2.14807689e-02 0. 1.25489035e-03 3.33653204e-02
      6.62877336e-02 6.78378940e-02 1.73470140e-01 0. 1.55015860e-03
      8.11987848e-04 0. 2.77699858e-01 7.38170784e-05 3.39558558e-03
      5.46984561e-02 1.47634157e-04 3.69085409e-02 1.55015860e-03
      5.14505021e-02 0. 0. 0. 1.40252453e-03 1.03343907e-03</_></support_vectors>
  <decision_functions>
    <_>
      <sv_count>10</sv_count>
      <rho>-4.0883451700210571e-02</rho>
      <alpha>
        1. 1. 1. 1. 1. -1. -1. -1. -1. -1.</alpha>
      <index>
        38 3 37 17 33 2 19 5 32 35</index></_>
    <_>
      <sv_count>10</sv_count>
      <rho>-5.3435862064361572e-02</rho>
      <alpha>
        1. 1. 1. 1. 1. -1. -1. -1. -1. -1.</alpha>
      <index>
        38 3 37 17 33 26 18 34 36 9</index></_>
    <_>
      <sv_count>10</sv_count>
      <rho>-6.8768978118896484e-02</rho>
      <alpha>
        1. 1. 1. 1. 1. -1. -1. -1. -1. -1.</alpha>
      <index>
        38 3 37 17 33 12 8 4 20 28</index></_>
    <_>
      <sv_count>10</sv_count>
      <rho>-4.3591439723968506e-02</rho>
      <alpha>
        1. 1. 1. 1. 1. -1. -1. -1. -1. -1.</alpha>
      <index>
        38 3 37 17 33 16 7 21 22 24</index></_>
    <_>
      <sv_count>10</sv_count>
      <rho>-3.8996607065200806e-02</rho>
      <alpha>
        1. 1. 1. 1. 1. -1. -1. -1. -1. -1.</alpha>
      <index>
        38 3 37 17 33 29 39 23 6 1</index></_>
    <_>
      <sv_count>10</sv_count>
      <rho>-5.7814538478851318e-02</rho>
      <alpha>
        1. 1. 1. 1. 1. -1. -1. -1. -1. -1.</alpha>
      <index>
        38 3 37 17 33 27 14 13 10 0</index></_>
    <_>
      <sv_count>10</sv_count>
      <rho>-5.8274745941162109e-02</rho>
      <alpha>
        1. 1. 1. 1. 1. -1. -1. -1. -1. -1.</alpha>
      <index>
        38 3 37 17 33 25 30 31 15 11</index></_>
    <_>
      <sv_count>10</sv_count>
      <rho>-1.7914175987243652e-03</rho>
      <alpha>
        1. 1. 1. 1. 1. -1. -1. -1. -1. -1.</alpha>
      <index>
        2 19 5 32 35 26 18 34 36 9</index></_>
    <_>
      <sv_count>10</sv_count>
      <rho>-1.4354676008224487e-02</rho>
      <alpha>
        1. 1. 1. 1. 1. -1. -1. -1. -1. -1.</alpha>
      <index>
        2 19 5 32 35 12 8 4 20 28</index></_>
    <_>
      <sv_count>10</sv_count>
      <rho>-4.5456290245056152e-03</rho>
      <alpha>
        1. 1. 1. 1. 1. -1. -1. -1. -1. -1.</alpha>
      <index>
        2 19 5 32 35 16 7 21 22 24</index></_>
    <_>
      <sv_count>10</sv_count>
      <rho>1.2016296386718750e-04</rho>
      <alpha>
        1. 1. 1. 1. 1. -1. -1. -1. -1. -1.</alpha>
      <index>
        2 19 5 32 35 29 39 23 6 1</index></_>
    <_>
      <sv_count>10</sv_count>
      <rho>-4.1534602642059326e-03</rho>
      <alpha>
        1. 1. 1. 1. 1. -1. -1. -1. -1. -1.</alpha>
      <index>
        2 19 5 32 35 27 14 13 10 0</index></_>
    <_>
      <sv_count>10</sv_count>
      <rho>2.9142856597900391e-02</rho>
      <alpha>
        1. 1. 1. 1. 1. -1. -1. -1. -1. -1.</alpha>
      <index>
        2 19 5 32 35 25 30 31 15 11</index></_>
    <_>
      <sv_count>10</sv_count>
      <rho>-7.9144239425659180e-03</rho>
      <alpha>
        1. 1. 1. 1. 1. -1. -1. -1. -1. -1.</alpha>
      <index>
        26 18 34 36 9 12 8 4 20 28</index></_>
    <_>
      <sv_count>10</sv_count>
      <rho>4.5957863330841064e-03</rho>
      <alpha>
        1. 1. 1. 1. 1. -1. -1. -1. -1. -1.</alpha>
      <index>
        26 18 34 36 9 16 7 21 22 24</index></_>
    <_>
      <sv_count>10</sv_count>
      <rho>1.9007325172424316e-03</rho>
      <alpha>
        1. 1. 1. 1. 1. -1. -1. -1. -1. -1.</alpha>
      <index>
        26 18 34 36 9 29 39 23 6 1</index></_>
    <_>
      <sv_count>10</sv_count>
      <rho>-2.3356676101684570e-03</rho>
      <alpha>
        1. 1. 1. 1. 1. -1. -1. -1. -1. -1.</alpha>
      <index>
        26 18 34 36 9 27 14 13 10 0</index></_>
    <_>
      <sv_count>10</sv_count>
      <rho>2.3115515708923340e-02</rho>
      <alpha>
        1. 1. 1. 1. 1. -1. -1. -1. -1. -1.</alpha>
      <index>
        26 18 34 36 9 25 30 31 15 11</index></_>
    <_>
      <sv_count>10</sv_count>
      <rho>-3.7293434143066406e-03</rho>
      <alpha>
        1. 1. 1. 1. 1. -1. -1. -1. -1. -1.</alpha>
      <index>
        12 8 4 20 28 16 7 21 22 24</index></_>
    <_>
      <sv_count>10</sv_count>
      <rho>7.3796212673187256e-03</rho>
      <alpha>
        1. 1. 1. 1. 1. -1. -1. -1. -1. -1.</alpha>
      <index>
        12 8 4 20 28 29 39 23 6 1</index></_>
    <_>
      <sv_count>10</sv_count>
      <rho>3.5400092601776123e-03</rho>
      <alpha>
        1. 1. 1. 1. 1. -1. -1. -1. -1. -1.</alpha>
      <index>
        12 8 4 20 28 27 14 13 10 0</index></_>
    <_>
      <sv_count>10</sv_count>
      <rho>-6.5218210220336914e-03</rho>
      <alpha>
        1. 1. 1. 1. 1. -1. -1. -1. -1. -1.</alpha>
      <index>
        12 8 4 20 28 25 30 31 15 11</index></_>
    <_>
      <sv_count>10</sv_count>
      <rho>-4.6888887882232666e-03</rho>
      <alpha>
        1. 1. 1. 1. 1. -1. -1. -1. -1. -1.</alpha>
      <index>
        16 7 21 22 24 29 39 23 6 1</index></_>
    <_>
      <sv_count>10</sv_count>
      <rho>1.9309610128402710e-02</rho>
      <alpha>
        1. 1. 1. 1. 1. -1. -1. -1. -1. -1.</alpha>
      <index>
        16 7 21 22 24 27 14 13 10 0</index></_>
    <_>
      <sv_count>10</sv_count>
      <rho>-1.8419533967971802e-02</rho>
      <alpha>
        1. 1. 1. 1. 1. -1. -1. -1. -1. -1.</alpha>
      <index>
        16 7 21 22 24 25 30 31 15 11</index></_>
    <_>
      <sv_count>10</sv_count>
      <rho>2.1729171276092529e-03</rho>
      <alpha>
        1. 1. 1. 1. 1. -1. -1. -1. -1. -1.</alpha>
      <index>
        29 39 23 6 1 27 14 13 10 0</index></_>
    <_>
      <sv_count>10</sv_count>
      <rho>3.9074867963790894e-02</rho>
      <alpha>
        1. 1. 1. 1. 1. -1. -1. -1. -1. -1.</alpha>
      <index>
        29 39 23 6 1 25 30 31 15 11</index></_>
    <_>
      <sv_count>10</sv_count>
      <rho>-7.9864859580993652e-03</rho>
      <alpha>
        1. 1. 1. 1. 1. -1. -1. -1. -1. -1.</alpha>
      <index>
        27 14 13 10 0 25 30 31 15 11</index></_></decision_functions></opencv_ml_svm>
</opencv_storage>
