<?xml version="1.0"?>
<opencv_storage>
<opencv_ml_svm>
  <format>3</format>
  <svmType>C_SVC</svmType>
  <kernel>
    <type>RBF</type>
    <gamma>1.5382999999999999e+01</gamma></kernel>
  <C>50.</C>
  <term_criteria><epsilon>1.1920928955078125e-07</epsilon>
    <iterations>1000</iterations></term_criteria>
  <var_count>240</var_count>
  <class_count>8</class_count>
  <class_labels type_id="opencv-matrix">
    <rows>8</rows>
    <cols>1</cols>
    <dt>i</dt>
    <data>
      1 2 3 4 5 6 7 8</data></class_labels>
  <sv_total>1005</sv_total>
  <support_vectors>
    <_>
      3.58719658e-03 6.07063994e-03 8.83002207e-03 4.69094934e-03
      4.00110381e-03 4.13907284e-04 4.69094934e-03 3.58719658e-03
      6.20860932e-03 5.65673271e-03 1.10375276e-02 8.41611437e-03
      2.89735105e-03 2.62141274e-03 4.00110381e-03 3.44922743e-03
      4.69094934e-03 8.27814569e-04 3.31125828e-03 1.93156733e-03
      5.10485657e-03 2.34547467e-03 5.79470210e-03 5.51876379e-03
      3.72516550e-03 3.44922743e-03 1.07615897e-02 9.65783664e-04
      3.44922743e-03 4.55297995e-03 5.93267102e-03 1.04856510e-02
      2.62141274e-03 3.17328912e-03 8.69205315e-03 9.79580544e-03
      5.10485657e-03 5.65673271e-03 4.82891826e-03 2.48344382e-03
      3.17328912e-03 2.62141274e-03 7.03642378e-03 9.65783664e-04
      1.37969095e-03 3.86313465e-03 5.79470210e-03 4.13907273e-03
      4.69094934e-03 8.00220761e-03 3.17328912e-03 9.65783664e-04
      5.51876379e-03 9.65783664e-04 2.34547467e-03 5.38079487e-03
      1.93156733e-03 3.44922743e-03 1.51765998e-03 7.58830039e-03
      3.31125828e-03 4.82891826e-03 3.31125828e-03 1.37969095e-03
      9.65783664e-04 1.28311254e-02 1.93156733e-03 3.03531997e-03
      3.44922743e-03 6.20860932e-03 2.06953636e-03 4.96688765e-03
      3.31125828e-03 4.00110381e-03 6.62251655e-03 3.03531997e-03
      4.55297995e-03 2.48344382e-03 8.00220761e-03 1.26931565e-02
      1.65562914e-03 6.89845486e-03 2.89735105e-03 8.41611437e-03
      1.69701986e-02 7.31236208e-03 3.31125828e-03 8.27814569e-04
      1.37969095e-03 1.37969095e-03 1.79359829e-03 3.58719658e-03
      7.58830039e-03 3.31125828e-03 1.79359829e-03 4.96688765e-03
      3.58719658e-03 2.62141274e-03 3.17328912e-03 3.72516550e-03
      2.75938190e-03 2.20750552e-03 9.65783664e-04 2.20750552e-03
      3.31125828e-03 6.20860932e-03 3.31125828e-03 4.13907273e-03
      5.38079487e-03 2.89735105e-03 4.27704211e-03 6.89845474e-04
      4.41501103e-03 1.93156733e-03 1.65562914e-03 6.34657824e-03
      6.07063994e-03 2.20750552e-03 2.48344382e-03 2.34547467e-03
      4.69094934e-03 6.07063994e-03 3.17328912e-03 5.38079487e-03
      3.86313465e-03 3.31125828e-03 4.27704211e-03 5.24282549e-03
      1.37969095e-03 5.24282549e-03 7.58830039e-03 5.51876379e-03
      1.93156733e-03 4.69094934e-03 6.07063994e-03 9.10595991e-03
      2.20750552e-03 8.55408423e-03 1.79359829e-03 4.41501103e-03
      3.31125828e-03 1.65562914e-03 4.82891826e-03 5.24282549e-03
      6.62251655e-03 2.62141274e-03 2.48344382e-03 5.10485657e-03
      3.86313465e-03 3.44922743e-03 4.41501103e-03 1.79359829e-03
      2.06953636e-03 4.41501103e-03 5.79470210e-03 3.72516550e-03
      1.79359829e-03 8.00220761e-03 3.72516550e-03 7.31236208e-03
      4.27704211e-03 7.45033100e-03 1.10375276e-03 2.06953636e-03
      4.55297995e-03 3.17328912e-03 1.65562914e-03 7.17439316e-03
      2.62141274e-03 3.31125828e-03 4.27704211e-03 4.55297995e-03
      2.20750552e-03 3.58719658e-03 3.03531997e-03 1.10375276e-03
      8.96799099e-03 2.48344382e-03 2.89735105e-03 2.06953636e-03
      1.79359829e-03 1.13134654e-02 6.34657824e-03 3.86313465e-03
      4.00110381e-03 5.38079487e-03 4.13907273e-03 4.13907273e-03
      2.20750552e-03 4.00110381e-03 8.27814545e-03 6.62251655e-03
      3.44922743e-03 1.93156733e-03 6.34657824e-03 1.24172191e-03
      4.13907273e-03 4.13907273e-03 1.10375276e-03 1.93156733e-03
      5.10485657e-03 3.86313465e-03 4.96688765e-03 1.37969095e-03
      1.79359829e-03 4.41501103e-03 6.76048547e-03 6.07063994e-03
      1.79359829e-03 8.27814569e-04 3.86313465e-03 6.89845486e-03
      1.37969095e-03 2.89735105e-03 4.96688765e-03 1.37969095e-03
      1.79359829e-03 1.06236199e-02 4.27704211e-03 2.75938190e-03
      2.06953636e-03 3.72516550e-03 4.00110381e-03 4.00110381e-03
      3.72516550e-03 5.24282549e-03 3.31125828e-03 3.31125828e-03
      2.89735105e-03 2.34547467e-03 2.75938190e-03 9.93377529e-03
      1.37969095e-03 1.10375276e-03 1.93156733e-03 4.27704211e-03
      4.96688765e-03 2.20750552e-03 3.31125828e-03 4.13907273e-03</_>
    <_>
      1.64330602e-02 4.83325275e-04 4.83325275e-04 1.20831318e-02
      1.93330110e-03 4.83325275e-04 2.41662632e-03 2.89995177e-03
      1.93330110e-03 1.44997588e-03 3.38327698e-03 2.89995177e-03 0.
      1.06331557e-02 1.93330110e-03 6.76655397e-03 4.83325275e-04
      8.21653008e-03 8.21653008e-03 1.01498310e-02 9.66650550e-04
      5.31657785e-03 1.44997588e-03 3.38327698e-03 4.83325275e-04
      3.86660220e-03 4.83325275e-04 3.38327698e-02 0. 2.41662632e-03
      2.89995177e-03 2.89995177e-03 9.66650550e-04 8.69985484e-03
      2.41662632e-03 8.69985484e-03 2.41662632e-03 2.41662632e-03
      1.44997588e-03 4.83325275e-04 1.44997588e-03 8.21653008e-03
      3.86660220e-03 1.44997588e-03 1.44997588e-03 0. 1.44997588e-03
      7.24987919e-03 4.83325275e-04 4.83325275e-04 0. 1.44997588e-03
      9.66650550e-04 9.66650550e-04 1.44997588e-03 9.66650550e-04
      3.86660220e-03 1.44997588e-03 7.24987919e-03 1.44997588e-03
      1.06331557e-02 1.93330110e-03 4.34992742e-03 3.38327698e-03
      3.86660220e-03 1.93330110e-03 6.28322875e-03 1.49830831e-02
      4.83325275e-04 4.83325275e-04 9.66650550e-04 5.79990353e-03
      5.79990353e-03 4.34992742e-03 9.66650550e-04 9.66650550e-04
      2.41662632e-03 1.11164814e-02 1.93330110e-03 1.44997588e-03
      2.41662632e-03 9.18318052e-03 9.18318052e-03 1.11164814e-02
      9.66650550e-04 0. 1.93330110e-03 9.66650550e-04 4.34992742e-03
      1.64330602e-02 1.44997588e-03 1.93330110e-03 1.44997588e-03
      4.83325275e-04 3.86660220e-03 2.46495884e-02 5.31657785e-03
      4.83325275e-04 5.31657785e-03 4.83325275e-04 8.69985484e-03
      2.31996141e-02 1.93330110e-03 1.20831318e-02 2.89995177e-03
      1.44997588e-03 1.93330110e-03 3.86660220e-03 2.41662632e-03
      2.41662632e-03 1.44997588e-03 9.66650550e-04 2.41662632e-03 0.
      4.83325275e-04 2.41662632e-03 2.89995177e-03 4.83325275e-04
      1.93330105e-02 6.28322875e-03 1.01498310e-02 4.83325275e-04
      6.28322875e-03 4.83325275e-04 4.83325275e-04 1.44997588e-03
      4.83325275e-04 2.41662632e-03 2.51329150e-02 9.66650550e-04
      3.38327698e-03 9.66650550e-04 3.86660220e-03 5.79990353e-03
      9.66650550e-04 9.66650550e-04 1.49830831e-02 4.83325263e-03
      9.66650550e-04 1.44997588e-03 1.44997588e-03 9.66650550e-04
      3.38327698e-03 2.89995177e-03 1.44997588e-03 9.66650550e-04
      4.83325275e-04 9.66650550e-04 2.89995177e-03 2.89995177e-03
      4.83325275e-04 2.89995177e-03 2.41662632e-03 9.66650550e-04
      3.38327698e-03 5.31657785e-03 3.38327698e-03 4.83325263e-03
      4.83325275e-04 8.21653008e-03 1.93330110e-03 9.66650550e-04
      3.38327698e-03 5.31657785e-03 4.83325275e-04 5.31657785e-03
      1.44997584e-02 8.21653008e-03 4.83325275e-04 0. 0. 1.93330110e-03
      1.40164327e-02 8.69985484e-03 0. 1.73997097e-02 5.31657785e-03
      3.38327698e-03 3.38327698e-03 1.44997588e-03 5.79990353e-03
      1.93330110e-03 5.31657785e-03 9.66650550e-04 4.83325263e-03
      9.66650550e-04 8.21653008e-03 5.31657785e-03 5.31657785e-03
      5.31657785e-03 2.41662632e-03 9.66650550e-04 9.66650550e-04
      1.11164814e-02 1.44997588e-03 3.81826982e-02 1.93330110e-03
      1.44997588e-03 1.15998071e-02 9.66650527e-03 9.66650550e-04
      4.83325275e-04 2.41662632e-03 9.66650550e-04 9.66650550e-04
      1.44997588e-03 1.44997588e-03 9.66650550e-04 0. 1.44997584e-02 0.
      9.66650550e-04 1.64330602e-02 9.66650550e-04 4.83325275e-04
      4.83325275e-04 6.76655397e-03 9.66650550e-04 4.83325275e-04
      9.66650527e-03 3.38327698e-03 2.41662632e-03 1.93330110e-03
      1.01498310e-02 2.41662632e-03 2.41662632e-03 1.44997588e-03
      5.31657785e-03 4.83325263e-03 2.89995177e-03 9.66650550e-04
      9.66650550e-04 9.66650550e-04 1.64330602e-02 7.24987919e-03
      1.44997588e-03 4.83325275e-04 1.93330110e-03 4.83325275e-04
      4.83325263e-03</_>
    <_>
      3.60329426e-03 6.17707614e-03 3.77487973e-03 5.49073424e-03
      5.66231972e-03 1.71585445e-04 1.88743987e-03 3.26012354e-03
      2.57378165e-03 4.97597782e-03 6.00549066e-03 3.26012354e-03
      4.46122140e-03 4.46122140e-03 6.00549066e-03 3.77487973e-03
      3.60329426e-03 2.23061070e-03 2.23061070e-03 1.71585451e-03
      3.60329426e-03 2.40219617e-03 3.94646544e-03 3.26012354e-03
      4.11805045e-03 2.91695260e-03 2.40219617e-03 8.57927254e-04
      5.31914877e-03 6.17707614e-03 5.14756329e-03 6.52024709e-03
      6.17707614e-03 5.66231972e-03 8.92244279e-03 2.57378165e-03
      1.20109813e-02 1.37268356e-03 6.00549066e-03 3.77487973e-03
      6.00549066e-03 2.74536712e-03 1.11530535e-02 6.00549066e-03
      3.26012354e-03 3.77487973e-03 6.34866161e-03 2.57378165e-03
      2.40219617e-03 4.46122140e-03 2.40219617e-03 2.05902522e-03
      2.91695260e-03 2.74536712e-03 6.17707614e-03 3.60329426e-03
      3.26012354e-03 2.91695260e-03 2.05902522e-03 4.28963592e-03
      2.57378165e-03 6.34866161e-03 2.91695260e-03 2.05902522e-03
      3.08853807e-03 3.60329426e-03 3.60329426e-03 2.40219617e-03
      3.43170902e-03 4.28963592e-03 3.77487973e-03 5.49073424e-03
      4.63280687e-03 6.69183256e-03 3.60329426e-03 1.88743987e-03
      3.26012354e-03 2.74536712e-03 4.46122140e-03 2.05902522e-03
      7.20658852e-03 2.57378165e-03 4.97597782e-03 3.60329426e-03
      2.05902522e-03 4.97597782e-03 6.17707614e-03 3.77487973e-03
      3.08853807e-03 1.20109809e-03 3.08853807e-03 7.37817399e-03
      7.20658852e-03 5.49073424e-03 3.94646544e-03 3.94646544e-03
      6.52024709e-03 6.00549066e-03 1.88743987e-03 3.60329426e-03
      2.40219617e-03 3.26012354e-03 3.26012354e-03 1.71585451e-03
      3.77487973e-03 9.60878469e-03 3.77487973e-03 4.11805045e-03
      4.80439235e-03 5.83390519e-03 2.40219617e-03 4.63280687e-03
      9.43719968e-03 3.94646544e-03 3.94646544e-03 5.49073424e-03
      3.08853807e-03 3.26012354e-03 3.77487973e-03 4.28963592e-03
      2.57378165e-03 3.26012354e-03 2.23061070e-03 3.60329426e-03
      4.80439235e-03 2.74536712e-03 3.94646544e-03 4.63280687e-03
      3.08853807e-03 2.57378165e-03 2.05902522e-03 7.54975947e-03
      5.49073424e-03 1.54426903e-03 2.57378165e-03 5.31914877e-03
      4.80439235e-03 8.75085779e-03 4.46122140e-03 6.00549066e-03
      4.46122140e-03 3.26012354e-03 1.54426903e-03 2.05902522e-03
      4.28963592e-03 3.60329426e-03 4.80439235e-03 2.74536712e-03
      2.05902522e-03 8.40768684e-03 1.88743987e-03 2.05902522e-03
      3.43170902e-03 4.11805045e-03 4.80439235e-03 4.11805045e-03
      3.26012354e-03 1.08098835e-02 3.94646544e-03 2.91695260e-03
      2.74536712e-03 5.14756329e-03 2.23061070e-03 2.23061070e-03
      2.74536712e-03 2.40219617e-03 1.02951261e-03 2.74536712e-03
      4.80439235e-03 3.08853807e-03 2.05902522e-03 5.49073424e-03
      2.91695260e-03 5.49073424e-03 3.08853807e-03 2.91695260e-03
      1.76733006e-02 2.05902522e-03 4.63280687e-03 5.83390519e-03
      1.54426903e-03 9.60878469e-03 3.43170902e-03 3.60329426e-03
      2.05902522e-03 2.23061070e-03 3.43170902e-03 3.24296504e-02
      3.94646544e-03 3.43170902e-03 6.86341804e-03 4.46122140e-03
      5.66231972e-03 4.28963592e-03 4.11805045e-03 1.71585451e-03
      3.26012354e-03 4.63280687e-03 3.60329426e-03 3.08853807e-03
      1.88743987e-03 3.60329426e-03 5.49073424e-03 3.26012354e-03
      4.46122140e-03 3.77487973e-03 4.80439235e-03 8.23610090e-03
      3.60329426e-03 2.91695260e-03 3.26012354e-03 5.14756329e-03
      2.40219617e-03 4.46122140e-03 2.74536712e-03 7.03500304e-03
      3.60329426e-03 4.63280687e-03 2.91695260e-03 2.23061070e-03
      2.91695260e-03 5.49073424e-03 2.74536712e-03 4.28963592e-03
      2.91695260e-03 4.28963592e-03 4.28963592e-03 3.94646544e-03
      3.26012354e-03 3.08853807e-03 2.91695260e-03 8.06451589e-03
      2.05902522e-03 1.71585445e-04 1.71585451e-03 4.28963592e-03
      1.71585451e-03 5.31914877e-03 3.60329426e-03 4.97597782e-03</_>
    <_>
      2.69054342e-03 4.71947808e-03 4.54304880e-03 1.58786168e-03
      3.30804521e-03 2.02893442e-03 4.32251254e-03 4.41072695e-03
      4.32251254e-03 6.88073412e-03 4.10197629e-03 4.23429813e-03
      4.76358505e-03 1.89661258e-03 4.10197629e-03 1.85250537e-03
      5.16055059e-03 2.33768532e-03 3.08750896e-03 3.48447426e-03
      5.91037422e-03 1.27911079e-03 3.70501075e-03 4.45483439e-03
      6.92484155e-03 3.92554700e-03 3.39625985e-03 1.89661258e-03
      4.10197629e-03 4.49894136e-03 2.55822157e-03 4.10197629e-03
      5.11644315e-03 1.67607621e-03 4.63126320e-03 3.70501075e-03
      4.05786885e-03 5.42519428e-03 5.91037422e-03 5.91037422e-03
      5.46930125e-03 1.45553995e-03 3.92554700e-03 4.10197629e-03
      4.98412130e-03 4.63126320e-03 3.96965444e-03 4.14608326e-03
      6.66019786e-03 3.44036706e-03 3.92554700e-03 3.30804521e-03
      6.39555417e-03 3.17572337e-03 3.88143980e-03 3.39625985e-03
      5.82215982e-03 4.63126320e-03 2.69054342e-03 6.43966161e-03
      4.05786885e-03 4.32251254e-03 6.48376858e-03 4.76358505e-03
      5.91037422e-03 5.95448120e-03 3.30804521e-03 2.55822157e-03
      3.92554700e-03 5.55751612e-03 4.19019070e-03 1.19089626e-03
      3.35215242e-03 2.95518711e-03 3.96965444e-03 6.52787602e-03
      5.73394494e-03 4.80769249e-03 3.48447426e-03 5.60162310e-03
      1.41143263e-03 2.51411437e-03 1.67607621e-03 3.57268890e-03
      6.74841227e-03 3.52858147e-03 3.61679611e-03 5.60162310e-03
      2.47000717e-03 2.20536347e-03 3.52858147e-03 4.41072695e-03
      6.08680304e-03 3.57268890e-03 4.36661951e-03 1.54375448e-03
      2.16125627e-03 3.35215242e-03 5.91037422e-03 4.10197629e-03
      4.14608326e-03 1.80839805e-03 5.16055059e-03 4.71947808e-03
      6.66019786e-03 3.79322516e-03 4.54304880e-03 5.82215982e-03
      5.11644315e-03 3.30804521e-03 7.01305596e-03 6.17501792e-03
      4.80769249e-03 2.99929432e-03 4.94001433e-03 5.82215982e-03
      4.54304880e-03 3.88143980e-03 1.10268174e-03 4.63126320e-03
      4.23429813e-03 6.17501792e-03 2.47000717e-03 5.46930125e-03
      5.42519428e-03 4.14608326e-03 4.85179946e-03 4.76358505e-03
      1.36732531e-03 6.08680304e-03 5.64573053e-03 7.01305596e-03
      4.01376141e-03 4.23429813e-03 4.94001433e-03 4.27840510e-03
      9.26252687e-04 4.76358505e-03 4.49894136e-03 4.49894136e-03
      5.29287243e-03 5.51340869e-03 4.58715623e-03 3.96965444e-03
      6.57198299e-03 4.10197629e-03 4.89590690e-03 5.02822874e-03
      1.94071990e-03 4.10197629e-03 5.11644315e-03 4.19019070e-03
      5.07233618e-03 5.29287243e-03 5.51340869e-03 4.85179946e-03
      2.82286527e-03 7.27769965e-03 4.67537064e-03 5.38108684e-03
      4.23429813e-03 4.54304880e-03 5.60162310e-03 2.91107991e-03
      5.77805238e-03 2.47000717e-03 3.30804521e-03 3.44036706e-03
      4.01376141e-03 5.60162310e-03 2.82286527e-03 4.10197629e-03
      2.20536347e-03 1.98482722e-03 3.52858147e-03 1.49964716e-03
      5.86626679e-03 4.23429813e-03 3.88143980e-03 3.35215242e-03
      4.01376141e-03 3.66090331e-03 4.76358505e-03 5.42519428e-03
      3.08750896e-03 4.71947808e-03 4.19019070e-03 4.67537064e-03
      2.29357812e-03 5.02822874e-03 4.54304880e-03 2.91107991e-03
      4.80769249e-03 2.07304163e-03 7.01305596e-03 1.76429073e-03
      4.80769249e-03 5.73394494e-03 1.45553995e-03 4.89590690e-03
      5.38108684e-03 3.70501075e-03 2.77875806e-03 3.21983080e-03
      1.98482722e-03 4.80769249e-03 5.46930125e-03 3.96965444e-03
      3.92554700e-03 8.82145396e-05 4.27840510e-03 4.98412130e-03
      1.05857453e-03 2.47000717e-03 7.05716293e-03 4.32251254e-03
      2.82286527e-03 3.88143980e-03 4.71947808e-03 3.39625985e-03
      4.94001433e-03 4.05786885e-03 5.20465802e-03 4.19019070e-03
      3.13161616e-03 5.68983797e-03 5.82215982e-03 2.91107991e-03
      2.51411437e-03 5.46930125e-03 3.44036706e-03 5.02822874e-03
      4.85179946e-03 4.85179975e-04 5.51340869e-03 5.42519428e-03
      5.38108684e-03 5.82215982e-03 4.32251254e-03 2.73465062e-03</_>
    <_>
      2.01126304e-03 8.71547312e-03 4.96111531e-03 3.48618906e-03
      4.15661000e-03 4.02252597e-04 3.88844172e-03 3.48618906e-03
      3.88844172e-03 4.29069437e-03 6.30195718e-03 5.09519968e-03
      3.21802078e-03 3.21802078e-03 4.29069437e-03 5.49745234e-03
      4.29069437e-03 1.60901039e-03 1.34084199e-03 1.60901039e-03
      6.30195718e-03 6.70420995e-04 5.89970499e-03 3.88844172e-03
      4.82703093e-03 4.29069437e-03 5.09519968e-03 8.04505195e-04
      8.31321999e-03 1.15312412e-02 7.10646249e-03 4.29069437e-03
      5.09519968e-03 3.88844172e-03 4.55886265e-03 4.55886265e-03
      3.21802078e-03 1.47492625e-03 5.09519968e-03 1.34084199e-03
      3.21802078e-03 4.02252609e-03 3.35210492e-03 4.15661000e-03
      3.08393664e-03 8.17913655e-03 4.82703093e-03 2.94985250e-03
      2.94985250e-03 4.82703093e-03 6.16787327e-03 9.38589394e-04
      3.08393664e-03 1.34084199e-03 4.82703093e-03 8.71547312e-03
      2.01126304e-03 5.36336796e-03 2.14534719e-03 8.58138874e-03
      2.94985250e-03 3.62027343e-03 8.04505195e-04 1.74309453e-03
      2.68168398e-03 2.41351547e-03 3.62027343e-03 1.87717879e-03
      2.81576812e-03 1.13971569e-02 3.48618906e-03 4.82703093e-03
      3.62027343e-03 6.83829421e-03 5.76562062e-03 2.41351547e-03
      5.49745234e-03 1.07267359e-03 3.75435757e-03 3.08393664e-03
      1.74309453e-03 3.08393664e-03 1.60901039e-03 3.75435757e-03
      1.32743353e-02 7.50871515e-03 7.10646249e-03 8.04505195e-04
      2.01126304e-03 8.04505195e-04 2.41351547e-03 2.68168398e-03
      1.11289881e-02 8.31321999e-03 1.47492625e-03 3.48618906e-03
      1.87717879e-03 5.76562062e-03 2.54759984e-03 3.48618906e-03
      2.94985250e-03 1.47492625e-03 2.14534719e-03 1.74309453e-03
      5.76562062e-03 4.02252609e-03 3.75435757e-03 2.01126304e-03
      6.97237812e-03 5.76562062e-03 3.21802078e-03 3.08393664e-03
      2.54759984e-03 2.41351547e-03 3.62027343e-03 5.22928359e-03
      7.10646249e-03 6.03378890e-03 1.87717879e-03 4.55886265e-03
      2.68168398e-03 6.57012593e-03 2.27943133e-03 2.94985250e-03
      4.42477874e-03 4.29069437e-03 5.63153625e-03 6.30195718e-03
      1.20675773e-03 6.30195718e-03 3.21802078e-03 1.00563150e-02
      9.38589394e-04 1.74309453e-03 9.92223062e-03 8.17913655e-03
      2.54759984e-03 1.00563150e-02 4.69294703e-03 3.75435757e-03
      8.58138874e-03 2.01126304e-03 1.47492625e-03 5.89970499e-03
      6.03378890e-03 2.54759984e-03 5.76562062e-03 1.87717879e-03
      3.48618906e-03 4.15661000e-03 3.21802078e-03 4.02252609e-03
      2.14534719e-03 3.75435757e-03 9.65406187e-03 2.14534719e-03
      3.21802078e-03 1.01903994e-02 9.65406187e-03 3.21802078e-03
      3.08393664e-03 4.15661000e-03 1.20675773e-03 1.34084199e-03
      1.05926516e-02 3.62027343e-03 1.20675773e-03 4.15661000e-03
      4.82703093e-03 4.15661000e-03 3.88844172e-03 8.58138874e-03
      2.54759984e-03 3.88844172e-03 3.62027343e-03 2.27943133e-03
      4.82703093e-03 2.54759984e-03 2.81576812e-03 3.62027343e-03
      1.74309453e-03 4.42477874e-03 4.82703093e-03 5.76562062e-03
      3.62027343e-03 8.04505218e-03 2.41351547e-03 5.36336796e-03
      2.41351547e-03 3.88844172e-03 4.96111531e-03 9.25180968e-03
      4.42477874e-03 3.75435757e-03 1.00563150e-02 1.60901039e-03
      4.82703093e-03 5.36336796e-03 2.68168398e-03 1.47492625e-03
      3.62027343e-03 5.89970499e-03 5.36336796e-03 1.87717879e-03
      3.62027343e-03 1.87717879e-03 7.77688343e-03 5.76562062e-03
      2.27943133e-03 1.47492625e-03 3.08393664e-03 6.43604156e-03
      2.41351547e-03 2.81576812e-03 2.14534719e-03 4.96111531e-03
      1.60901039e-03 5.09519968e-03 4.02252609e-03 1.34084199e-03
      1.87717879e-03 5.63153625e-03 3.75435757e-03 1.60901039e-03
      3.62027343e-03 1.01903994e-02 2.54759984e-03 3.75435757e-03
      3.21802078e-03 1.34084199e-03 3.88844172e-03 8.17913655e-03
      2.54759984e-03 1.87717879e-03 2.27943133e-03 9.11772531e-03
      3.35210492e-03 3.08393664e-03 4.29069437e-03 3.48618906e-03</_>
    <_>
      3.67947668e-03 4.08830727e-03 4.90596890e-03 2.45298445e-03
      3.47506115e-03 1.22649223e-03 2.86181504e-03 3.88389197e-03
      4.49713785e-03 2.45298445e-03 4.29272279e-03 4.70155338e-03
      2.24856893e-03 8.38102959e-03 3.47506115e-03 3.47506115e-03
      5.51921502e-03 3.06623057e-03 3.27064586e-03 8.17661465e-04
      4.29272279e-03 1.63532293e-03 5.11038397e-03 3.27064586e-03
      2.86181504e-03 1.63532293e-03 5.31479949e-03 1.22649223e-03
      5.31479949e-03 3.67947668e-03 9.60752182e-03 4.49713785e-03
      3.67947668e-03 2.65739975e-03 5.51921502e-03 2.86181504e-03
      4.49713785e-03 4.29272279e-03 3.88389197e-03 3.67947668e-03
      2.45298445e-03 3.88389197e-03 2.86181504e-03 5.51921502e-03
      4.08830727e-03 3.88389197e-03 4.08830727e-03 2.24856893e-03
      3.27064586e-03 3.67947668e-03 6.33687619e-03 1.83973834e-03
      5.72363008e-03 2.65739975e-03 4.29272279e-03 6.33687619e-03
      4.08830727e-03 3.88389197e-03 7.35895336e-03 4.08830727e-03
      3.47506115e-03 3.06623057e-03 3.06623057e-03 4.49713785e-03
      3.27064586e-03 6.54129172e-03 2.65739975e-03 2.65739975e-03
      2.86181504e-03 7.35895336e-03 6.74570724e-03 4.90596890e-03
      3.47506115e-03 3.47506115e-03 6.74570724e-03 4.08830727e-03
      5.11038397e-03 2.65739975e-03 5.31479949e-03 5.92804560e-03
      2.24856893e-03 2.65739975e-03 2.45298445e-03 3.47506115e-03
      8.99427570e-03 3.06623057e-03 5.51921502e-03 1.63532293e-03
      3.06623057e-03 1.83973834e-03 6.33687619e-03 3.67947668e-03
      6.74570724e-03 4.29272279e-03 3.06623057e-03 3.67947668e-03
      5.92804560e-03 5.31479949e-03 4.29272279e-03 6.54129172e-03
      2.24856893e-03 3.06623057e-03 3.27064586e-03 3.88389197e-03
      2.65739975e-03 7.56336842e-03 4.08830727e-03 5.51921502e-03
      6.13246113e-03 5.31479949e-03 3.06623057e-03 3.47506115e-03
      5.31479949e-03 6.13246113e-03 4.49713785e-03 5.51921502e-03
      3.88389197e-03 7.15453783e-03 2.24856893e-03 2.65739975e-03
      4.29272279e-03 5.11038397e-03 5.11038397e-03 4.90596890e-03
      4.49713785e-03 6.13246113e-03 3.27064586e-03 4.29272279e-03
      2.04415363e-03 6.13246113e-03 2.65739975e-03 3.06623057e-03
      3.27064586e-03 3.88389197e-03 6.13246113e-03 4.29272279e-03
      5.31479949e-03 4.49713785e-03 2.65739975e-03 6.74570724e-03
      5.51921502e-03 6.74570724e-03 4.70155338e-03 3.47506115e-03
      3.67947668e-03 2.24856893e-03 2.45298445e-03 5.11038397e-03
      2.04415363e-03 7.35895336e-03 4.29272279e-03 2.65739975e-03
      3.06623057e-03 2.24856893e-03 6.33687619e-03 2.45298445e-03
      4.90596890e-03 9.81193781e-03 4.90596890e-03 2.65739975e-03
      3.06623057e-03 2.45298445e-03 2.24856893e-03 3.06623057e-03
      5.31479949e-03 3.67947668e-03 2.24856893e-03 2.04415363e-03
      4.49713785e-03 4.08830727e-03 4.70155338e-03 3.47506115e-03
      2.04415363e-03 6.13246113e-03 6.13246113e-03 3.27064586e-03
      8.58544558e-03 3.47506115e-03 3.47506115e-03 5.92804560e-03
      2.65739975e-03 5.51921502e-03 4.49713785e-03 7.56336842e-03
      3.06623057e-03 3.88389197e-03 2.65739975e-03 7.97219947e-03
      3.88389197e-03 2.04415363e-03 3.06623057e-03 1.20605063e-02
      3.67947668e-03 8.99427570e-03 4.29272279e-03 8.17661465e-04
      3.88389197e-03 3.67947668e-03 3.06623057e-03 2.04415363e-03
      5.11038397e-03 3.67947668e-03 2.65739975e-03 2.24856893e-03
      6.33687619e-03 4.49713785e-03 3.27064586e-03 4.90596890e-03
      4.29272279e-03 1.43090752e-03 4.29272279e-03 4.90596890e-03
      2.86181504e-03 5.11038397e-03 5.51921502e-03 3.88389197e-03
      4.08830727e-03 3.47506115e-03 5.92804560e-03 2.45298445e-03
      3.47506115e-03 2.45298445e-03 3.27064586e-03 1.63532293e-03
      4.49713785e-03 6.33687619e-03 4.08830727e-03 3.47506115e-03
      5.11038397e-03 4.70155338e-03 5.51921502e-03 5.92804560e-03
      4.70155338e-03 4.08830732e-04 3.67947668e-03 3.88389197e-03
      3.67947668e-03 3.27064586e-03 5.92804560e-03 3.47506115e-03</_>
    <_>
      2.92682927e-03 9.26829316e-03 3.41463415e-03 3.90243903e-03
      4.39024391e-03 9.75609757e-04 4.39024391e-03 3.90243903e-03
      9.75609757e-04 1.46341464e-03 4.39024391e-03 3.41463415e-03
      1.46341464e-03 5.85365854e-03 4.39024391e-03 9.75609757e-04
      2.43902439e-03 8.29268247e-03 2.43902439e-03 1.46341464e-03
      1.95121951e-03 6.34146342e-03 4.39024391e-03 1.95121951e-03
      7.31707318e-03 3.41463415e-03 4.87804879e-03 2.92682927e-03
      6.82926830e-03 6.82926830e-03 5.36585366e-03 5.36585366e-03
      5.36585366e-03 4.39024391e-03 5.36585366e-03 2.43902439e-03
      4.87804879e-03 1.46341464e-03 1.02439020e-02 4.87804879e-04
      3.41463415e-03 2.92682927e-03 7.80487806e-03 9.75609757e-03
      3.41463415e-03 1.46341464e-03 8.29268247e-03 1.46341464e-03
      9.75609757e-04 3.90243903e-03 1.46341464e-03 2.43902439e-03
      4.87804879e-04 1.46341464e-03 2.09756102e-02 6.82926830e-03
      2.92682927e-03 1.07317073e-02 2.43902439e-03 5.36585366e-03
      2.43902439e-03 2.43902439e-03 1.95121951e-03 4.87804879e-04
      3.90243903e-03 9.75609757e-04 1.95121951e-03 6.82926830e-03
      5.85365854e-03 2.92682927e-03 2.43902439e-03 6.82926830e-03
      1.46341464e-03 8.29268247e-03 3.41463415e-03 1.46341464e-03
      3.41463415e-03 1.46341464e-03 3.90243903e-03 1.46341464e-03
      3.41463415e-03 9.75609757e-04 9.75609757e-04 2.43902439e-03
      3.41463415e-03 3.90243903e-03 4.87804879e-03 2.92682927e-03
      1.07317073e-02 4.39024391e-03 5.85365854e-03 2.92682927e-03
      9.26829316e-03 8.78048781e-03 7.31707318e-03 2.92682927e-03
      3.41463415e-03 1.70731712e-02 2.43902439e-03 3.90243903e-03
      3.41463415e-03 3.41463415e-03 4.87804879e-04 3.90243903e-03
      2.43902439e-03 9.75609757e-03 1.46341464e-03 3.41463415e-03
      1.95121951e-03 1.85365863e-02 4.87804879e-04 4.39024391e-03
      6.34146342e-03 2.43902439e-03 1.95121951e-03 2.92682927e-03
      6.82926830e-03 3.41463415e-03 2.43902439e-03 3.41463415e-03
      2.43902439e-03 3.41463415e-03 2.43902439e-03 9.75609757e-04
      9.75609757e-04 0. 8.29268247e-03 3.41463415e-03 1.95121951e-03
      1.95121951e-03 1.46341464e-03 8.29268247e-03 7.31707318e-03
      2.92682927e-03 1.95121951e-03 3.90243903e-03 2.43902439e-03
      1.60975605e-02 4.87804879e-03 2.92682927e-03 1.46341464e-03
      4.39024391e-03 2.43902439e-03 3.90243903e-03 8.29268247e-03
      8.78048781e-03 8.29268247e-03 4.87804879e-04 3.90243903e-03
      1.17073171e-02 9.75609757e-04 1.12195127e-02 3.41463415e-03
      1.46341464e-03 3.90243903e-03 5.36585366e-03 3.90243903e-03
      7.31707318e-03 9.75609757e-03 0. 3.41463415e-03 3.41463415e-03
      7.80487806e-03 4.87804879e-03 6.82926830e-03 2.92682927e-03
      9.75609757e-04 4.87804879e-04 1.46341464e-03 5.36585366e-03
      3.41463415e-03 8.29268247e-03 1.46341464e-03 2.43902439e-03
      9.75609757e-04 3.41463415e-03 3.90243903e-03 3.90243903e-03
      3.90243903e-03 9.26829316e-03 5.85365854e-03 9.26829316e-03
      2.43902439e-03 5.36585366e-03 1.95121951e-03 3.41463415e-03
      4.87804879e-03 7.31707318e-03 1.12195127e-02 2.92682927e-03
      2.43902439e-03 2.92682927e-03 2.43902439e-03 7.31707318e-03
      3.41463415e-03 2.43902439e-03 3.41463415e-03 7.80487806e-03
      1.95121951e-03 2.92682927e-03 9.75609757e-04 3.90243903e-03
      5.85365854e-03 1.95121951e-03 5.36585366e-03 1.46341464e-03
      9.26829316e-03 8.78048781e-03 4.87804879e-03 4.87804879e-04
      1.46341464e-03 0. 2.92682927e-03 2.43902439e-03 4.87804879e-04
      3.41463415e-03 8.29268247e-03 6.34146342e-03 3.41463415e-03
      2.43902439e-03 1.95121951e-03 6.82926830e-03 2.43902439e-03
      2.92682927e-03 2.92682927e-03 4.39024391e-03 9.75609757e-04
      1.46341464e-03 3.90243903e-03 4.87804879e-04 2.92682927e-03
      4.87804879e-03 7.31707318e-03 9.75609757e-04 1.46341464e-03
      1.07317073e-02 4.87804879e-04 3.41463415e-03 1.46341464e-03
      3.90243903e-03</_>
    <_>
      1.63205783e-03 3.88915907e-03 2.98631866e-03 1.04173901e-03
      3.29884025e-03 1.70150714e-03 4.44475329e-03 4.23640525e-03
      2.63907225e-03 5.17397048e-03 2.81269546e-03 3.05576785e-03
      2.98631866e-03 3.12521704e-03 2.70852144e-03 1.59733323e-03
      3.99333285e-03 5.59066609e-03 2.70852144e-03 4.54892730e-03
      4.37530410e-03 1.87513034e-03 3.68081126e-03 4.20168089e-03
      7.77831813e-03 2.36127526e-03 3.19466647e-03 1.52788393e-03
      4.86144889e-03 4.09750687e-03 1.00701442e-03 2.56962306e-03
      4.20168089e-03 5.90318814e-04 3.22939106e-03 2.43072445e-03
      1.63205783e-03 2.81269546e-03 5.00034727e-03 3.40301427e-03
      6.28515892e-03 9.72289767e-04 2.11820262e-03 7.01437611e-03
      6.28515892e-03 3.99333285e-03 4.61837649e-03 4.30585491e-03
      3.15994187e-03 2.56962306e-03 3.71553586e-03 2.53489846e-03
      3.22939106e-03 1.66678242e-03 1.65983755e-02 1.25008682e-03
      3.12521704e-03 7.98666570e-03 5.52121690e-03 6.87547773e-03
      3.15994187e-03 2.98631866e-03 2.63907225e-03 3.99333285e-03
      5.97263733e-03 2.95159407e-03 4.65310132e-03 2.70852144e-03
      4.41002846e-03 4.41002846e-03 4.30585491e-03 1.97930424e-03
      1.45843462e-03 8.75060819e-03 3.61136207e-03 4.02805768e-03
      4.30585491e-03 6.63240533e-03 3.43773887e-03 2.81269546e-03
      1.63205783e-03 8.68115865e-04 1.18063763e-03 2.25710124e-03
      5.59066609e-03 3.43773887e-03 3.75026069e-03 7.67414412e-03
      1.82304326e-02 3.50718806e-03 7.95194134e-03 2.70852144e-03
      4.41002846e-03 4.86144889e-03 7.46579655e-03 1.11118832e-03
      1.94457953e-03 7.50052137e-03 3.54191288e-03 5.27814450e-03
      3.33356485e-03 1.35426072e-03 4.23640525e-03 4.61837649e-03
      7.15327496e-03 2.84742005e-03 5.34759369e-03 4.58365167e-03
      2.98631866e-03 9.09785461e-03 1.84040563e-03 5.34759369e-03
      4.13223170e-03 5.00034727e-03 7.67414412e-03 5.10452129e-03
      4.51420248e-03 4.68782568e-03 1.00701442e-03 5.55594172e-03
      2.01402884e-03 3.71553586e-03 4.09750687e-03 2.60434765e-03
      6.91020256e-03 2.36127526e-03 3.95860849e-03 4.47947811e-03
      8.33391212e-04 3.88915907e-03 2.74324627e-03 7.84776732e-03
      1.44107239e-02 3.29884025e-03 3.64608667e-03 3.64608667e-03
      8.33391212e-04 4.61837649e-03 4.41002846e-03 2.81269546e-03
      2.81269546e-03 4.72255051e-03 2.98631866e-03 3.40301427e-03
      4.68782568e-03 1.10077094e-02 8.61170981e-03 2.88214465e-03
      1.70150714e-03 5.06979693e-03 3.09049245e-03 7.04910094e-03
      6.45878213e-03 4.13223170e-03 3.68081126e-03 4.82672406e-03
      7.39634736e-03 6.04208652e-03 3.47246346e-03 2.32655066e-03
      4.37530410e-03 2.50017364e-03 1.15285786e-02 3.78498528e-03
      5.55594172e-03 2.74324627e-03 4.06278251e-03 8.68115865e-04
      4.89617372e-03 6.59768051e-03 3.81970988e-03 3.22939106e-03
      2.63907225e-03 1.63205783e-03 2.81269546e-03 1.94457953e-03
      5.13924612e-03 8.12556501e-03 3.54191288e-03 3.78498528e-03
      4.54892730e-03 3.22939106e-03 2.56962306e-03 4.72255051e-03
      1.80568104e-03 3.81970988e-03 3.12521704e-03 4.44475329e-03
      9.41037573e-03 4.41002846e-03 3.71553586e-03 1.80568104e-03
      3.15994187e-03 4.16695606e-03 5.03507210e-03 1.35426072e-03
      4.51420248e-03 6.07681135e-03 1.49315933e-03 7.95194134e-03
      2.70852144e-03 4.61837649e-03 3.50718806e-03 1.03479410e-02
      4.41002846e-03 2.91686924e-03 3.61136207e-03 4.02805768e-03
      7.04910094e-03 1.73623179e-04 2.70852144e-03 5.72956493e-03
      2.39599985e-03 3.68081126e-03 2.15292745e-03 1.03479410e-02
      7.53524574e-03 2.70852144e-03 3.61136207e-03 1.35426072e-03
      3.78498528e-03 5.86846331e-03 4.37530410e-03 1.84040563e-03
      4.30585491e-03 3.54191288e-03 5.41704288e-03 1.28481153e-03
      4.34057927e-03 4.06278251e-03 4.72255051e-03 4.79199970e-03
      6.07681135e-03 1.38898540e-04 5.72956493e-03 5.13924612e-03
      2.91686924e-03 6.59768051e-03 4.30585491e-03 3.36828968e-03</_>
    <_>
      1.60972995e-03 3.57717765e-03 2.86174216e-03 7.33321439e-03
      5.36576658e-03 7.15435541e-04 3.75603652e-03 3.39831877e-03
      5.72348433e-03 4.47147200e-03 3.57717765e-03 3.57717765e-03
      5.72348433e-03 3.57717770e-04 5.90234343e-03 2.68288329e-03
      4.11375426e-03 1.25201221e-03 1.96744781e-03 4.11375426e-03
      6.61777891e-03 0. 6.08120207e-03 4.47147200e-03 3.57717765e-03
      3.04060103e-03 6.43891981e-03 7.15435541e-04 5.90234343e-03
      6.08120207e-03 4.82918974e-03 5.90234343e-03 6.08120207e-03
      6.61777891e-03 3.93489562e-03 3.93489562e-03 4.65033110e-03
      3.75603652e-03 7.15435529e-03 5.00804884e-03 6.43891981e-03
      7.15435541e-04 6.61777891e-03 4.29261336e-03 3.39831877e-03
      4.47147200e-03 2.50402442e-03 1.96744781e-03 3.93489562e-03
      5.36576658e-03 6.26006117e-03 3.39831877e-03 5.72348433e-03
      4.65033110e-03 1.43087108e-03 6.79663755e-03 4.65033110e-03
      5.18690748e-03 1.60972995e-03 5.54462522e-03 1.43087108e-03
      8.22750852e-03 4.29261336e-03 4.11375426e-03 6.61777891e-03
      3.57717765e-03 4.82918974e-03 8.94294411e-04 3.57717765e-03
      3.39831877e-03 6.79663755e-03 7.86979124e-03 5.72348433e-03
      3.93489562e-03 8.94294400e-03 5.72348433e-03 2.50402442e-03
      1.60972995e-03 7.69093214e-03 5.18690748e-03 3.04060103e-03
      6.61777891e-03 4.65033110e-03 4.47147200e-03 6.79663755e-03
      3.04060103e-03 4.29261336e-03 5.72348433e-03 1.96744781e-03
      1.60972995e-03 1.43087108e-03 7.69093214e-03 6.79663755e-03
      3.21945990e-03 6.08120207e-03 4.47147200e-03 2.86174216e-03
      1.96744781e-03 3.75603652e-03 4.82918974e-03 1.43087108e-03
      8.94294411e-04 4.82918974e-03 3.75603652e-03 4.65033110e-03
      3.93489562e-03 4.47147200e-03 7.33321439e-03 3.21945990e-03
      1.96744781e-03 4.47147200e-03 7.15435529e-03 5.18690748e-03
      1.96744781e-03 3.39831877e-03 3.93489562e-03 4.11375426e-03
      2.86174216e-03 1.96744781e-03 1.25201221e-03 2.68288329e-03
      7.69093214e-03 1.60972995e-03 6.97549665e-03 3.75603652e-03
      7.33321439e-03 2.50402442e-03 7.33321439e-03 1.25201221e-03
      6.43891981e-03 5.18690748e-03 8.22750852e-03 4.11375426e-03
      2.68288329e-03 7.15435529e-03 7.86979124e-03 3.04060103e-03
      5.18690748e-03 3.75603652e-03 3.04060103e-03 6.26006117e-03
      4.29261336e-03 3.39831877e-03 3.21945990e-03 7.86979124e-03
      3.04060103e-03 2.32516555e-03 4.47147200e-03 1.25201221e-03
      4.47147200e-03 6.08120207e-03 2.50402442e-03 5.90234343e-03
      4.65033110e-03 5.18690748e-03 2.14630668e-03 2.14630668e-03
      4.29261336e-03 4.11375426e-03 3.93489562e-03 2.68288329e-03
      4.65033110e-03 4.11375426e-03 2.86174216e-03 5.00804884e-03
      1.43087108e-03 8.94294411e-04 6.43891981e-03 1.78858882e-03
      5.18690748e-03 6.43891981e-03 3.75603652e-03 1.07315334e-03
      1.78858885e-04 8.04864988e-03 5.36576670e-04 5.00804884e-03
      3.57717765e-03 5.36576658e-03 1.96744781e-03 1.43087108e-03
      5.36576658e-03 3.21945990e-03 3.39831877e-03 2.14630668e-03
      1.01949563e-02 2.14630668e-03 1.57395825e-02 1.25201221e-03
      3.75603652e-03 1.03738150e-02 2.86174216e-03 6.79663755e-03
      5.36576670e-04 7.51207303e-03 7.15435541e-04 1.96744781e-03
      6.61777891e-03 1.25201221e-03 2.68288329e-03 5.18690748e-03
      5.54462522e-03 3.21945990e-03 3.21945990e-03 1.60972995e-03
      4.82918974e-03 8.40636715e-03 2.14630668e-03 2.68288329e-03
      1.96744781e-03 5.18690748e-03 3.75603652e-03 7.15435541e-04
      2.32516555e-03 8.58522672e-03 3.21945990e-03 3.93489562e-03
      4.11375426e-03 6.08120207e-03 7.15435541e-04 4.65033110e-03
      2.50402442e-03 5.36576658e-03 3.75603652e-03 2.32516555e-03
      4.11375426e-03 3.93489562e-03 2.14630668e-03 1.60972995e-03
      4.47147200e-03 1.25201221e-03 4.11375426e-03 3.57717765e-03
      8.94294411e-04 4.11375426e-03 6.08120207e-03 5.90234343e-03
      3.57717765e-03 5.72348433e-03 5.18690748e-03</_>
    <_>
      2.10210215e-03 3.00300308e-03 4.20420431e-03 6.00600615e-03
      5.70570584e-03 1.50150154e-03 3.00300308e-03 4.50450461e-03
      3.60360369e-03 3.90390400e-03 6.60660677e-03 3.90390400e-03
      3.60360369e-03 7.80780800e-03 4.20420431e-03 2.10210215e-03
      1.80180185e-03 2.70270277e-03 3.00300308e-04 1.80180185e-03
      4.20420431e-03 5.40540554e-03 3.60360369e-03 3.30330338e-03
      3.00300308e-03 3.00300308e-03 2.70270277e-03 1.50150154e-03
      3.30330338e-03 2.70270277e-03 4.80480492e-03 2.70270277e-03
      3.00300308e-03 2.70270277e-03 5.70570584e-03 3.90390400e-03
      5.10510523e-03 4.80480492e-03 3.90390400e-03 4.20420431e-03
      4.80480492e-03 2.40240246e-03 5.70570584e-03 3.60360369e-03
      3.00300308e-03 2.70270277e-03 8.70870892e-03 4.50450461e-03
      5.10510523e-03 3.90390400e-03 1.80180185e-03 1.80180185e-03
      1.50150154e-03 3.90390400e-03 4.20420431e-03 6.00600615e-03
      4.50450461e-03 3.90390400e-03 4.20420431e-03 5.70570584e-03
      1.20120123e-03 5.40540554e-03 3.30330338e-03 4.50450461e-03
      5.40540554e-03 6.00600615e-03 2.10210215e-03 1.80180185e-03
      1.50150154e-03 2.10210215e-03 6.00600615e-04 7.50750769e-03
      7.50750769e-03 5.40540554e-03 2.10210215e-03 6.90690707e-03
      2.70270277e-03 1.80180185e-03 3.60360369e-03 6.00600615e-03
      4.20420431e-03 2.10210215e-03 2.40240246e-03 5.70570584e-03
      6.00600615e-03 2.70270277e-03 2.10210215e-03 2.70270277e-03
      2.70270277e-03 3.00300308e-03 2.40240246e-03 5.70570584e-03
      5.10510523e-03 4.80480492e-03 3.60360369e-03 5.40540554e-03
      3.60360369e-03 3.30330338e-03 5.10510523e-03 2.70270277e-03
      4.20420431e-03 2.40240246e-03 4.50450461e-03 5.70570584e-03
      3.90390400e-03 4.50450461e-03 3.30330338e-03 3.60360369e-03
      1.50150154e-03 4.20420431e-03 6.60660677e-03 4.80480492e-03
      1.50150154e-03 3.30330338e-03 1.80180185e-03 1.35135138e-02
      3.00300308e-03 2.40240246e-03 3.90390400e-03 2.70270277e-03
      2.40240246e-03 3.90390400e-03 4.20420431e-03 7.20720738e-03
      5.70570584e-03 4.20420431e-03 1.20120123e-03 4.50450461e-03
      9.00900923e-04 2.70270277e-03 3.00300308e-03 5.40540554e-03
      5.10510523e-03 2.10210215e-03 1.80180185e-03 6.00600615e-03
      5.70570584e-03 7.50750769e-03 6.00600615e-03 3.60360369e-03
      4.50450461e-03 5.10510523e-03 3.60360369e-03 6.60660677e-03
      5.70570584e-03 3.30330338e-03 1.80180185e-03 6.00600615e-03
      1.80180185e-03 2.40240246e-03 3.90390400e-03 1.80180185e-03
      2.40240246e-03 2.40240246e-03 3.00300308e-03 1.50150154e-03
      2.10210215e-03 1.80180185e-02 3.30330338e-03 3.90390400e-03
      2.70270277e-03 4.50450461e-03 3.30330338e-03 5.10510523e-03
      3.30330338e-03 3.00300308e-03 1.20120123e-03 7.50750769e-03
      3.30330338e-03 3.00300308e-03 3.60360369e-03 4.50450461e-03
      2.40240246e-03 6.60660677e-03 7.50750769e-03 3.00300308e-03
      2.10210215e-02 1.80180185e-03 5.70570584e-03 1.20120123e-03
      1.50150154e-03 1.62162166e-02 3.60360369e-03 2.70270277e-03
      2.70270277e-03 3.00300308e-03 1.80180185e-03 1.14114117e-02
      3.00300308e-03 6.60660677e-03 5.70570584e-03 1.80180185e-02
      2.40240246e-03 6.30630646e-03 2.40240246e-03 2.10210215e-03
      1.50150154e-03 4.50450461e-03 2.40240246e-03 2.70270277e-03
      7.20720738e-03 5.40540554e-03 4.50450461e-03 2.10210215e-03
      1.20120123e-03 5.70570584e-03 7.50750769e-03 6.00600615e-03
      1.50150154e-03 2.10210215e-03 6.60660677e-03 1.08108111e-02
      4.80480492e-03 2.10210215e-03 8.40840861e-03 3.90390400e-03
      3.90390400e-03 4.50450461e-03 5.10510523e-03 3.90390400e-03
      2.40240246e-03 3.90390400e-03 3.60360369e-03 3.90390400e-03
      1.80180185e-03 4.20420431e-03 4.20420431e-03 6.90690707e-03
      4.20420431e-03 6.00600615e-03 9.00900923e-04 6.60660677e-03
      4.50450461e-03 1.80180185e-03 5.70570584e-03 6.30630646e-03
      4.80480492e-03 1.20120123e-03 1.20120123e-03 5.10510523e-03</_>
    <_>
      7.56143685e-03 2.36294908e-03 8.03402625e-03 5.67107741e-03
      7.08884699e-03 0. 1.89035921e-03 2.36294908e-03 9.45179607e-04
      4.25330829e-03 6.61625713e-03 2.36294908e-03 2.36294908e-03
      3.78071843e-03 3.30812857e-03 5.67107741e-03 9.45179607e-04
      6.61625713e-03 2.83553870e-03 2.83553870e-03 4.25330829e-03
      8.50661658e-03 5.19848801e-03 2.36294908e-03 4.25330829e-03
      4.72589803e-04 5.19848801e-03 1.41776935e-03 4.72589815e-03
      9.45179630e-03 3.30812857e-03 8.50661658e-03 1.41776935e-03
      2.36294908e-03 9.92438570e-03 1.37051046e-02 7.08884699e-03
      1.41776935e-03 2.83553870e-03 2.36294908e-03 2.36294908e-03
      2.36294908e-03 1.70132332e-02 2.83553870e-03 1.41776935e-03
      9.45179607e-04 8.97920597e-03 2.36294908e-03 4.25330829e-03
      5.19848801e-03 1.89035921e-03 1.41776935e-03 5.19848801e-03
      4.72589803e-04 2.36294908e-03 4.25330829e-03 2.36294908e-03
      2.36294908e-03 2.83553870e-03 4.72589815e-03 4.25330829e-03
      3.78071843e-03 1.89035921e-03 0. 2.83553870e-03 7.56143685e-03
      4.72589803e-04 2.36294908e-03 1.89035921e-03 8.97920597e-03
      1.41776935e-03 2.93005686e-02 2.83553870e-03 4.72589815e-03
      2.83553870e-03 9.45179607e-04 4.25330829e-03 1.41776935e-03
      2.83553870e-03 5.67107741e-03 9.45179607e-04 7.56143685e-03
      3.30812857e-03 1.03969760e-02 3.78071843e-03 4.25330829e-03
      4.72589815e-03 2.36294908e-03 9.45179607e-04 4.72589815e-03
      3.30812857e-03 2.36294908e-03 5.19848801e-03 2.83553870e-03
      4.25330829e-03 3.30812857e-03 1.37051046e-02 5.19848801e-03
      4.72589803e-04 1.41776935e-03 2.83553870e-03 9.45179607e-04
      1.41776935e-03 2.36294908e-03 4.25330829e-03 1.27599249e-02
      1.41776935e-03 1.89035921e-03 5.19848801e-03 4.25330829e-03
      1.89035921e-03 4.72589803e-04 5.19848801e-03 3.30812857e-03
      2.36294908e-03 3.30812857e-03 1.89035921e-03 2.83553870e-03
      8.97920597e-03 4.25330829e-03 4.72589815e-03 4.72589815e-03
      2.36294908e-03 3.30812857e-03 3.30812857e-03 0. 3.30812857e-03
      3.78071843e-03 2.36294908e-03 1.41776935e-03 3.30812857e-03
      1.41776935e-03 1.27599249e-02 2.83553870e-03 2.36294908e-03
      3.30812857e-03 7.56143685e-03 1.18147451e-02 2.36294908e-03
      5.19848801e-03 6.61625713e-03 4.72589803e-04 2.36294908e-03
      1.89035921e-03 4.72589815e-03 4.72589803e-04 1.41776935e-03
      9.45179607e-04 1.41776935e-03 4.72589815e-03 3.78071843e-03
      4.72589803e-04 1.89035921e-03 3.78071843e-03 6.14366727e-03
      2.83553870e-03 2.36294908e-03 1.65406428e-02 3.78071843e-03
      4.72589815e-03 2.83553870e-03 3.78071843e-03 1.41776935e-03
      3.78071843e-03 4.25330829e-03 3.78071843e-03 1.41776935e-03
      8.50661658e-03 3.78071843e-03 3.78071843e-03 0. 4.25330829e-03
      9.45179607e-04 2.36294908e-03 2.36294908e-03 6.14366727e-03
      2.78827976e-02 9.45179607e-04 3.78071843e-03 4.25330829e-03
      9.45179607e-04 1.37051046e-02 4.25330829e-03 2.36294908e-03
      1.41776935e-03 3.78071843e-03 3.30812857e-03 4.58412096e-02
      1.89035921e-03 3.30812857e-03 2.36294908e-03 5.19848801e-03
      2.36294908e-03 5.67107741e-03 1.08695654e-02 4.72589803e-04
      5.19848801e-03 2.36294908e-03 2.36294908e-03 1.89035921e-03
      1.41776935e-03 4.72589815e-03 9.45179630e-03 0. 3.30812857e-03
      1.89035921e-03 4.25330829e-03 9.92438570e-03 9.45179607e-04 0.
      4.72589803e-04 3.30812857e-03 7.08884699e-03 3.30812857e-03
      9.45179607e-04 2.83553870e-03 5.67107741e-03 5.19848801e-03
      1.41776935e-03 0. 2.83553870e-03 2.36294908e-03 1.89035921e-03
      1.89035921e-03 1.89035921e-03 4.25330829e-03 2.36294908e-03
      1.51228737e-02 4.72589815e-03 4.72589803e-04 3.30812857e-03
      7.56143685e-03 1.41776935e-03 1.41776935e-03 1.89035921e-03
      5.67107741e-03 2.36294908e-03 9.45179607e-04 3.30812857e-03
      5.67107741e-03</_>
    <_>
      1.46842876e-03 4.50318167e-03 7.04845833e-03 4.50318167e-03
      3.42633389e-03 2.15369556e-03 2.93685752e-03 2.25159083e-03
      5.38423890e-03 4.60107671e-03 7.44003896e-03 5.28634340e-03
      3.42633389e-03 3.72001948e-03 3.72001948e-03 5.87371527e-04
      4.79686726e-03 2.83896225e-03 2.44738138e-03 2.93685752e-03
      5.48213394e-03 5.09055331e-03 3.62212444e-03 3.52422916e-03
      5.77582000e-03 1.95790501e-03 6.26529614e-03 1.07684778e-03
      2.25159083e-03 5.67792449e-03 1.56632403e-03 5.28634340e-03
      2.93685752e-03 2.54527666e-03 6.06950559e-03 4.20949562e-03
      3.13264807e-03 7.73372501e-03 3.62212444e-03 4.20949562e-03
      3.23054334e-03 1.07684778e-03 5.38423890e-03 2.93685752e-03
      4.79686726e-03 3.52422916e-03 7.44003896e-03 1.66421931e-03
      7.24424887e-03 4.01370553e-03 3.81791475e-03 3.13264807e-03
      7.44003896e-03 3.13264807e-03 2.83896225e-03 4.99265781e-03
      4.01370553e-03 4.20949562e-03 1.86000974e-03 6.75477227e-03
      2.93685752e-03 3.03475279e-03 5.48213394e-03 2.93685752e-03
      4.99265781e-03 1.12579539e-02 1.86000974e-03 9.78952507e-04
      2.64317170e-03 6.16740109e-03 3.42633389e-03 7.92951509e-03
      2.64317170e-03 7.14635337e-03 5.67792449e-03 4.60107671e-03
      2.93685752e-03 1.76211458e-03 5.18844835e-03 1.12579539e-02
      2.05580029e-03 2.93685752e-03 9.78952507e-04 4.20949562e-03
      2.34948602e-02 4.50318167e-03 2.64317170e-03 4.20949562e-03
      1.76211458e-03 3.42633389e-03 3.03475279e-03 3.52422916e-03
      5.87371504e-03 2.25159083e-03 5.09055331e-03 3.23054334e-03
      1.37053349e-03 3.13264807e-03 4.50318167e-03 2.74106697e-03
      2.15369556e-03 1.07684778e-03 5.18844835e-03 3.23054334e-03
      3.13264807e-03 6.65687723e-03 3.62212444e-03 4.01370553e-03
      4.79686726e-03 4.89476277e-03 1.02790017e-02 3.72001948e-03
      3.42633389e-03 3.42633389e-03 3.03475279e-03 2.54527666e-03
      3.32843862e-03 3.03475279e-03 2.54527666e-03 4.79686726e-03
      4.01370553e-03 7.73372501e-03 2.64317170e-03 7.92951509e-03
      4.20949562e-03 3.91581003e-03 3.32843862e-03 5.67792449e-03
      1.66421931e-03 4.30739112e-03 5.67792449e-03 6.65687723e-03
      9.78952553e-03 1.76211458e-03 4.50318167e-03 6.26529614e-03
      1.56632403e-03 7.83162005e-03 2.64317170e-03 2.44738138e-03
      3.62212444e-03 5.38423890e-03 2.83896225e-03 9.78952507e-04
      5.67792449e-03 3.13264807e-03 2.34948611e-03 7.24424887e-03
      1.46842876e-03 3.62212444e-03 8.41899123e-03 2.54527666e-03
      3.32843862e-03 3.81791475e-03 6.06950559e-03 2.93685752e-03
      2.54527666e-03 1.91874690e-02 3.13264807e-03 6.46108668e-03
      3.23054334e-03 4.60107671e-03 2.93685752e-03 3.81791475e-03
      5.77582000e-03 1.76211458e-03 1.07684778e-03 2.83896225e-03
      3.23054334e-03 4.01370553e-03 4.50318167e-03 3.72001948e-03
      2.44738138e-03 4.79686726e-03 5.18844835e-03 3.23054334e-03
      6.26529614e-03 2.83896225e-03 2.54527666e-03 2.05580029e-03
      1.95790501e-03 6.75477227e-03 3.81791475e-03 3.42633389e-03
      1.46842876e-03 2.74106697e-03 2.54527666e-03 2.10474785e-02
      3.03475279e-03 2.54527666e-03 3.03475279e-03 4.89476277e-03
      2.74106697e-03 3.62212444e-03 7.04845833e-03 7.83162017e-04
      3.81791475e-03 3.81791475e-03 6.85266743e-04 1.95790501e-03
      9.10425838e-03 2.54527666e-03 3.81791475e-03 1.86000974e-03
      2.93685752e-03 2.93685752e-03 5.18844835e-03 7.92951509e-03
      3.62212444e-03 8.81057291e-04 3.13264807e-03 3.03475279e-03
      2.25159083e-03 3.62212444e-03 1.01811066e-02 2.05580029e-03
      3.13264807e-03 6.16740109e-03 4.30739112e-03 1.46842876e-03
      2.44738138e-03 1.37053349e-03 3.13264807e-03 1.17474305e-03
      2.44738138e-03 5.58002945e-03 2.83896225e-03 2.44738138e-03
      2.64317170e-03 5.48213394e-03 2.93685752e-03 1.17474301e-02
      4.89476277e-03 1.56632403e-03 4.20949562e-03 4.40528616e-03
      9.00636334e-03 3.23054334e-03 3.52422916e-03 3.03475279e-03</_>
    <_>
      1.20394025e-02 2.55381269e-03 6.56694639e-03 9.48558934e-03
      4.37796442e-03 7.29660736e-04 4.01313417e-03 2.18898221e-03
      4.01313417e-03 2.18898221e-03 4.37796442e-03 6.20211614e-03
      2.18898221e-03 5.83728589e-03 6.20211614e-03 9.48558934e-03
      2.55381269e-03 5.47245564e-03 4.01313417e-03 4.37796442e-03
      7.29660736e-04 5.47245564e-03 4.01313417e-03 4.37796442e-03
      4.01313417e-03 2.18898221e-03 4.74279467e-03 7.29660736e-03
      2.55381269e-03 4.74279467e-03 5.10762539e-03 6.20211614e-03
      2.55381269e-03 2.91864295e-03 4.74279467e-03 6.56694639e-03
      5.10762539e-03 8.75592884e-03 3.28347320e-03 5.10762539e-03
      3.28347320e-03 4.01313417e-03 2.18898221e-03 2.18898221e-03
      1.82415184e-03 7.29660736e-04 5.10762539e-03 4.37796442e-03
      1.09449110e-03 1.45932147e-03 1.45932147e-03 2.18898221e-03
      5.10762539e-03 1.09449110e-03 4.01313417e-03 5.10762539e-03
      2.91864295e-03 3.28347320e-03 2.18898221e-03 2.18898221e-03
      2.55381269e-03 3.64830368e-03 6.93177711e-03 2.55381269e-03
      1.45932147e-03 8.39109812e-03 4.37796442e-03 6.20211614e-03
      3.64830368e-03 6.20211614e-03 1.09449110e-03 2.91864295e-03
      2.55381269e-03 5.10762539e-03 2.18898221e-03 2.55381269e-03
      5.47245564e-03 2.55381269e-03 3.64830368e-03 6.56694639e-03
      3.64830368e-03 4.01313417e-03 8.39109812e-03 6.93177711e-03
      5.10762539e-03 2.55381269e-03 1.45932147e-03 1.82415184e-03
      1.82415184e-03 8.02626833e-03 2.18898221e-03 9.85042006e-03
      7.29660736e-04 1.45932147e-03 1.45932147e-03 1.53228752e-02
      6.93177711e-03 2.55381269e-03 2.55381269e-03 4.37796442e-03
      1.02152508e-02 8.39109812e-03 1.45932147e-03 1.09449113e-02
      7.29660736e-04 2.55381269e-03 1.45932147e-03 6.56694639e-03
      4.74279467e-03 6.93177711e-03 4.37796442e-03 1.45932147e-03
      7.29660736e-03 2.91864295e-03 1.09449110e-03 1.82415184e-03
      2.55381269e-03 2.18898221e-03 1.49580454e-02 2.18898221e-03
      5.47245564e-03 3.28347320e-03 4.01313417e-03 4.74279467e-03
      1.82415184e-03 2.18898221e-03 3.64830368e-03 1.45932147e-03
      5.47245564e-03 4.74279467e-03 3.28347320e-03 4.01313417e-03
      5.83728589e-03 4.37796442e-03 5.83728589e-03 2.55381269e-03
      1.09449113e-02 2.18898221e-03 2.91864295e-03 8.39109812e-03
      2.55381269e-03 1.82415184e-03 6.93177711e-03 2.18898221e-03
      1.82415184e-03 7.29660736e-04 1.45932147e-03 3.28347320e-03
      4.01313417e-03 1.45932147e-03 5.83728589e-03 3.28347320e-03
      3.64830368e-03 2.55381269e-03 6.20211614e-03 2.18898221e-03
      2.91864295e-03 9.85042006e-03 5.10762539e-03 6.93177711e-03
      5.83728589e-03 3.64830368e-03 2.18898221e-03 7.29660736e-03
      1.82415184e-03 6.20211614e-03 4.37796442e-03 5.47245564e-03
      1.82415184e-03 2.55381269e-03 4.74279467e-03 3.28347320e-03
      4.74279467e-03 4.74279467e-03 1.45932147e-03 5.47245564e-03
      7.66143762e-03 4.01313417e-03 5.83728589e-03 1.82415184e-03
      2.18898221e-03 6.56694639e-03 7.29660736e-03 1.09449110e-03
      1.82415184e-03 3.64830368e-03 6.93177711e-03 2.55381269e-03
      7.29660736e-04 1.45932147e-03 4.37796442e-03 7.29660736e-03
      2.18898221e-03 5.47245564e-03 4.01313417e-03 9.48558934e-03
      3.64830368e-03 2.18898221e-03 9.12075955e-03 2.55381269e-03
      4.01313417e-03 1.82415184e-03 2.91864295e-03 1.09449110e-03
      3.28347320e-03 8.02626833e-03 2.91864295e-03 4.01313417e-03
      2.55381269e-03 6.56694639e-03 1.09449110e-03 3.64830368e-03
      7.66143762e-03 2.91864295e-03 2.55381269e-03 2.55381269e-03
      5.83728589e-03 3.28347320e-03 2.18898221e-03 1.34987235e-02
      4.74279467e-03 1.45932147e-03 3.64830368e-03 5.10762539e-03
      2.91864295e-03 6.20211614e-03 1.82415184e-03 2.18898221e-03
      3.64830368e-03 1.82415184e-03 2.55381269e-03 4.37796442e-03
      2.18898221e-03 6.56694639e-03 7.29660736e-03 2.55381269e-03
      4.01313417e-03 2.18898221e-03 2.55381269e-03 6.20211614e-03</_>
    <_>
      1.30890054e-03 2.61780107e-03 4.36300179e-03 7.41710328e-03
      6.10820251e-03 0. 1.74520072e-03 3.49040143e-03 1.30890054e-03
      1.74520072e-03 6.10820251e-03 2.61780107e-03 3.92670184e-03
      1.17801046e-02 4.79930174e-03 2.61780107e-03 4.36300179e-04
      2.61780107e-03 5.23560215e-03 8.72600358e-04 2.18150089e-03
      1.22164050e-02 3.49040143e-03 8.72600358e-04 4.79930174e-03
      1.30890054e-03 5.23560215e-03 1.30890054e-03 1.74520072e-03
      1.52705060e-02 7.41710328e-03 3.05410125e-03 3.92670184e-03
      1.30890054e-03 1.57068074e-02 8.72600358e-04 4.36300179e-03
      2.18150089e-03 3.92670184e-03 1.30890054e-03 2.18150089e-03
      8.72600358e-04 6.10820251e-03 7.85340369e-03 5.67190256e-03
      4.36300179e-04 1.78883076e-02 1.30890054e-03 1.30890054e-03
      1.30890054e-03 3.05410125e-03 8.72600358e-04 3.49040143e-03 0.
      3.92670184e-03 9.16230399e-03 0. 4.79930174e-03 3.92670184e-03
      3.92670184e-03 2.61780107e-03 3.92670184e-03 2.61780107e-03
      8.72600358e-04 2.61780107e-03 1.74520072e-03 2.61780107e-03
      1.30890054e-03 3.05410125e-03 1.48342066e-02 1.74520072e-03
      4.36300179e-04 5.23560215e-03 1.13438051e-02 4.36300179e-03
      2.61780107e-03 2.18150089e-03 4.36300179e-04 2.61780107e-03
      8.72600358e-04 8.72600358e-03 8.72600358e-04 8.72600358e-04
      3.92670184e-03 1.17801046e-02 2.61780107e-03 2.18150089e-03
      8.72600358e-04 2.18150089e-03 1.74520072e-03 5.67190256e-03
      1.74520072e-03 4.79930174e-03 3.92670184e-03 2.18150089e-03
      3.05410125e-03 6.98080286e-03 9.16230399e-03 2.18150089e-03
      1.74520072e-03 1.30890054e-03 4.36300179e-04 1.74520072e-03
      1.74520072e-03 1.74520072e-03 1.17801046e-02 0. 4.36300179e-04
      6.54450245e-03 6.54450245e-03 2.61780107e-03 8.72600358e-04
      2.18150089e-03 4.36300179e-03 4.79930174e-03 2.18150089e-03
      3.49040143e-03 3.05410125e-03 4.36300179e-03 2.61780107e-03
      3.49040143e-03 3.05410125e-03 3.05410125e-03 1.74520072e-03
      2.61780107e-03 1.74520072e-03 1.74520072e-03 4.36300179e-03
      8.72600358e-04 2.61780107e-03 8.72600358e-04 3.49040143e-03
      2.61780107e-03 2.61780107e-03 3.92670184e-03 3.92670184e-03
      5.23560215e-03 8.72600358e-03 3.92670184e-03 3.05410125e-03
      8.72600358e-04 2.18150089e-03 1.30890054e-03 1.74520072e-03
      4.79930174e-03 8.72600358e-04 1.74520072e-03 4.36300179e-04
      8.72600358e-04 7.41710328e-03 8.72600358e-04 1.30890054e-03 0.
      1.74520072e-03 9.16230399e-03 3.05410125e-03 2.61780107e-03
      6.89354315e-02 3.49040143e-03 1.30890054e-03 3.49040143e-03
      1.74520072e-03 4.36300179e-04 2.61780107e-03 4.79930174e-03
      1.30890054e-03 4.36300179e-04 1.30890054e-03 3.92670184e-03
      2.18150089e-03 3.49040143e-03 1.30890054e-03 3.05410125e-03
      2.39965096e-02 2.61780107e-03 5.67190256e-03 6.19546250e-02
      3.92670184e-03 1.74520072e-03 4.79930174e-03 4.36300179e-04
      1.61431059e-02 3.49040143e-03 3.05410125e-03 1.74520072e-03
      1.74520072e-03 2.18150089e-03 1.00349039e-02 6.10820251e-03
      8.72600358e-04 4.36300179e-03 5.67190256e-03 4.36300179e-03
      6.98080286e-03 1.00349039e-02 1.74520072e-03 3.05410125e-03
      2.61780107e-03 1.74520072e-03 4.36300179e-04 1.30890054e-03
      2.18150089e-03 8.28970317e-03 1.74520072e-03 5.67190256e-03
      2.18150089e-03 6.10820251e-03 1.61431059e-02 3.49040143e-03 0.
      1.74520072e-03 3.05410125e-03 7.85340369e-03 3.92670184e-03
      2.18150089e-03 1.74520072e-03 3.05410125e-03 4.36300179e-03
      2.61780107e-03 4.36300179e-04 1.74520072e-03 1.74520072e-03
      1.74520072e-03 4.36300179e-04 4.36300179e-03 1.83246080e-02
      1.74520072e-03 3.49040143e-03 2.61780107e-03 4.36300179e-04
      5.67190256e-03 9.16230399e-03 3.92670184e-03 1.30890054e-03
      4.36300179e-04 3.49040143e-03 4.79930174e-03 8.72600358e-04
      1.74520072e-03 3.92670184e-03</_>
    <_>
      9.25925910e-04 4.62962955e-04 5.55555522e-03 2.31481483e-03
      1.43518513e-02 4.62962955e-04 5.55555522e-03 4.62962966e-03
      5.55555522e-03 3.70370364e-03 2.77777761e-03 2.31481483e-03
      6.94444450e-03 9.25925910e-04 9.25925933e-03 9.25925910e-04
      4.16666642e-03 1.85185182e-03 2.31481483e-03 3.70370364e-03
      1.85185182e-03 9.25925910e-04 7.87037052e-03 2.77777761e-03
      4.16666642e-03 2.77777761e-03 6.01851847e-03 9.25925910e-04
      4.16666642e-03 6.48148125e-03 2.77777761e-03 3.70370364e-03
      2.77777761e-03 4.62962955e-04 4.62962966e-03 1.38888881e-03
      1.85185182e-03 6.01851847e-03 7.40740728e-03 9.25925933e-03
      4.62962966e-03 9.25925910e-04 4.16666642e-03 6.01851847e-03
      4.62962955e-04 4.16666642e-03 8.33333284e-03 1.85185182e-03
      5.55555522e-03 7.40740728e-03 9.25925933e-03 6.01851847e-03
      4.16666642e-03 8.79629608e-03 4.62962955e-04 0. 7.40740728e-03
      1.85185182e-03 1.38888881e-03 5.09259244e-03 3.24074063e-03
      4.62962966e-03 2.77777761e-03 1.11111104e-02 7.40740728e-03
      9.72222164e-03 2.31481483e-03 1.85185182e-03 1.85185182e-03
      1.01851849e-02 5.55555522e-03 1.85185182e-03 9.25925910e-04
      7.87037052e-03 4.62962966e-03 5.55555522e-03 9.25925910e-04
      2.31481483e-03 6.48148125e-03 1.06481481e-02 1.85185182e-03
      2.31481483e-03 9.25925910e-04 3.70370364e-03 3.24074063e-03
      3.70370364e-03 3.70370364e-03 6.48148125e-03 2.31481483e-03
      2.31481483e-03 2.31481483e-03 3.24074063e-03 6.48148125e-03
      2.77777761e-03 5.09259244e-03 4.62962955e-04 3.24074063e-03
      6.01851847e-03 2.77777761e-03 3.24074063e-03 2.77777761e-03
      4.62962955e-04 1.01851849e-02 2.77777761e-03 3.24074063e-03
      3.70370364e-03 1.85185182e-03 8.79629608e-03 5.09259244e-03
      3.24074063e-03 3.70370364e-03 6.01851847e-03 2.31481483e-03
      3.24074063e-03 1.38888881e-03 1.38888881e-03 3.70370364e-03
      3.70370364e-03 0. 1.85185182e-03 6.94444450e-03 5.55555522e-03
      2.77777761e-03 1.38888881e-03 1.85185182e-03 5.09259244e-03
      4.62962955e-04 9.25925933e-03 0. 1.01851849e-02 4.62962966e-03
      5.55555522e-03 7.87037052e-03 2.77777761e-03 8.33333284e-03
      7.40740728e-03 9.25925910e-04 1.06481481e-02 4.16666642e-03
      2.77777761e-03 7.87037052e-03 1.15740737e-02 9.25925933e-03
      9.25925910e-04 6.48148125e-03 4.16666642e-03 3.70370364e-03
      5.55555522e-03 1.38888881e-03 1.85185182e-03 8.79629608e-03
      2.77777761e-03 6.48148125e-03 2.31481483e-03 6.48148125e-03
      1.38888881e-03 9.25925910e-04 1.80555545e-02 2.31481483e-03
      6.48148125e-03 6.48148125e-03 3.70370364e-03 1.85185182e-03
      4.16666642e-03 8.33333284e-03 2.31481483e-03 1.85185182e-03
      1.38888881e-03 2.77777761e-03 5.09259244e-03 5.55555522e-03
      3.24074063e-03 9.25925910e-04 9.25925910e-04 8.79629608e-03
      4.62962955e-04 9.25925933e-03 3.24074063e-03 4.16666642e-03
      3.24074063e-03 1.38888881e-03 1.25000002e-02 6.01851847e-03
      2.31481483e-03 9.25925910e-04 9.72222164e-03 1.85185182e-03
      1.38888881e-03 9.25925910e-04 2.31481483e-03 4.16666642e-03
      5.55555522e-03 6.01851847e-03 3.24074063e-03 4.62962966e-03
      4.62962955e-04 3.70370364e-03 1.38888881e-03 4.62962955e-04
      4.62962955e-04 7.87037052e-03 6.48148125e-03 5.55555522e-03
      1.85185182e-03 3.24074063e-03 8.79629608e-03 9.25925933e-03
      4.16666642e-03 1.38888881e-03 4.62962955e-04 7.87037052e-03
      4.16666642e-03 0. 2.31481483e-03 5.09259244e-03 3.24074063e-03
      3.70370364e-03 2.31481483e-03 1.15740737e-02 9.25925910e-04
      2.31481483e-03 3.70370364e-03 6.01851847e-03 2.31481483e-03 0.
      5.55555522e-03 3.70370364e-03 9.25925910e-04 9.25925910e-04
      3.24074063e-03 1.85185182e-03 1.15740737e-02 3.70370364e-03
      9.25925910e-04 5.55555522e-03 4.62962966e-03 5.09259244e-03
      1.85185182e-03 6.01851847e-03 2.77777761e-03</_>
    <_>
      8.52985494e-03 1.50526850e-03 2.50878069e-03 8.52985494e-03
      3.51229310e-03 5.01756149e-04 4.01404919e-03 4.01404919e-03
      3.51229310e-03 3.51229310e-03 3.51229310e-03 3.51229310e-03
      4.51580528e-03 5.01756137e-03 2.50878069e-03 6.52283011e-03
      3.51229310e-03 1.35474158e-02 5.01756137e-03 7.52634229e-03
      1.00351230e-03 3.51229310e-03 5.01756149e-04 4.51580528e-03
      1.00351230e-03 3.51229310e-03 2.00702460e-03 3.51229310e-03
      4.51580528e-03 6.52283011e-03 6.52283011e-03 4.01404919e-03
      5.01756137e-03 2.50878069e-03 4.01404919e-03 5.51931746e-03
      8.02809838e-03 4.01404919e-03 1.50526850e-03 1.50526850e-03
      4.51580528e-03 3.01053701e-03 6.52283011e-03 4.01404919e-03
      4.01404919e-03 2.50878069e-03 5.01756137e-03 1.50526850e-03
      1.00351230e-03 2.00702460e-03 2.50878069e-03 2.00702460e-03
      2.50878069e-03 1.50526850e-03 3.01053701e-03 2.50878069e-03
      1.50526850e-03 4.01404919e-03 2.50878069e-03 1.50526850e-03
      9.03161056e-03 6.02107402e-03 3.01053701e-03 3.01053701e-03
      3.01053701e-03 2.50878069e-03 3.01053701e-03 1.20421480e-02
      7.02458620e-03 3.01053701e-03 2.50878069e-03 3.51229310e-03
      4.51580528e-03 3.01053701e-03 4.01404919e-03 2.50878069e-03
      2.50878069e-03 4.51580528e-03 1.50526850e-03 7.52634229e-03
      1.50526850e-03 3.51229310e-03 3.01053701e-03 8.02809838e-03
      1.00351230e-03 1.00351230e-03 4.51580528e-03 4.01404919e-03
      3.01053701e-03 5.01756137e-03 2.50878069e-03 3.01053701e-03
      5.01756137e-03 3.51229310e-03 4.51580528e-03 1.30456602e-02
      5.01756137e-03 5.51931746e-03 1.50526850e-03 1.25439037e-02
      4.01404919e-03 1.45509280e-02 3.51229310e-03 8.02809838e-03
      3.01053701e-03 4.01404919e-03 0. 9.53336712e-03 4.51580528e-03
      4.01404919e-03 2.50878069e-03 1.50526850e-03 3.01053701e-03
      4.51580528e-03 6.02107402e-03 3.51229310e-03 2.50878069e-03
      3.01053701e-03 8.02809838e-03 6.52283011e-03 6.52283011e-03
      1.00351230e-03 3.01053701e-03 1.00351230e-03 1.50526850e-03
      2.00702460e-03 3.01053701e-03 1.00351230e-03 5.51931746e-03
      4.51580528e-03 4.01404919e-03 2.50878069e-03 5.01756149e-04
      5.51931746e-03 1.00351230e-03 3.51229310e-03 6.02107402e-03
      6.02107402e-03 4.01404919e-03 4.01404919e-03 1.50526850e-03
      6.52283011e-03 3.51229310e-03 4.01404919e-03 2.00702460e-03
      3.01053701e-03 1.50526850e-03 2.00702460e-03 5.51931746e-03
      3.51229310e-03 1.50526850e-03 1.10386349e-02 5.01756137e-03
      5.01756149e-04 4.51580528e-03 3.01053701e-03 2.50878069e-03
      1.45509280e-02 4.01404919e-03 4.51580528e-03 4.51580528e-03
      3.01053701e-03 1.50526850e-03 5.01756137e-03 2.00702460e-03
      4.51580528e-03 2.00702460e-03 6.02107402e-03 5.01756137e-03
      2.00702460e-03 2.50878069e-03 3.01053701e-03 3.01053701e-03
      2.50878069e-03 4.51580528e-03 1.00351227e-02 1.30456602e-02
      4.51580528e-03 4.51580528e-03 3.01053701e-03 9.53336712e-03
      6.52283011e-03 1.05368793e-02 2.00702460e-03 5.01756137e-03
      1.50526850e-03 6.02107402e-03 4.01404919e-03 4.51580528e-03
      5.01756149e-04 5.01756137e-03 3.01053701e-03 2.50878069e-03
      3.51229310e-03 6.02107402e-03 4.51580528e-03 3.01053701e-03
      3.01053701e-03 4.51580528e-03 3.01053701e-03 1.50526850e-03
      4.01404919e-03 5.01756137e-03 0. 1.00351227e-02 2.00702460e-03
      2.50878069e-03 6.02107402e-03 2.00702460e-03 6.02107402e-03
      2.50878069e-03 1.00351230e-03 6.02107402e-03 3.51229310e-03 0.
      2.50878069e-03 1.45509280e-02 3.51229310e-03 1.00351230e-03
      4.51580528e-03 2.50878069e-03 1.50526850e-03 2.50878069e-03
      4.51580528e-03 1.50526850e-03 5.51931746e-03 3.01053701e-03
      1.20421480e-02 3.51229310e-03 2.00702460e-03 1.45509280e-02
      7.02458620e-03 6.52283011e-03 3.01053701e-03 6.02107402e-03
      2.00702460e-03 1.00351230e-03 4.51580528e-03 7.02458620e-03
      5.01756137e-03</_>
    <_>
      6.24479586e-03 5.41215669e-03 3.74687766e-03 3.33055784e-03
      5.41215669e-03 4.16319730e-04 2.08159862e-03 2.08159862e-03
      2.49791844e-03 1.66527892e-03 6.66111568e-03 2.08159862e-03
      3.33055784e-03 1.37385512e-02 2.49791844e-03 2.91423802e-03
      2.49791844e-03 3.33055784e-03 3.33055784e-03 4.16319724e-03
      8.32639460e-04 2.28975844e-02 8.32639460e-04 3.33055784e-03
      6.24479586e-03 0. 4.57951706e-03 2.49791844e-03 2.91423802e-03
      7.49375531e-03 2.49791844e-03 6.24479586e-03 3.33055784e-03
      8.32639460e-04 1.20732719e-02 5.41215669e-03 4.16319724e-03
      1.66527892e-03 2.91423802e-03 4.16319730e-04 1.24895922e-03
      2.91423802e-03 7.07743550e-03 5.41215669e-03 1.24895922e-03
      2.08159862e-03 1.08243134e-02 2.49791844e-03 2.49791844e-03
      2.91423802e-03 2.08159862e-03 1.24895922e-03 2.91423802e-03 0.
      3.74687766e-03 4.16319724e-03 8.32639460e-04 3.74687766e-03
      3.33055784e-03 2.49791844e-03 4.57951706e-03 3.33055784e-03
      1.24895922e-03 4.16319730e-04 3.33055784e-03 3.33055784e-03
      1.24895922e-03 4.16319724e-03 4.16319724e-03 4.99583688e-03
      7.49375531e-03 3.33055784e-03 4.57951706e-03 7.91007467e-03
      6.24479586e-03 8.32639460e-04 3.33055784e-03 2.91423802e-03
      4.99583688e-03 7.07743550e-03 6.66111568e-03 1.24895922e-03
      1.66527892e-03 5.82847605e-03 9.57535394e-03 5.41215669e-03
      4.99583688e-03 8.32639460e-04 5.41215669e-03 2.49791844e-03
      4.99583688e-03 2.08159862e-03 8.74271430e-03 2.91423802e-03
      1.66527892e-03 7.49375531e-03 7.49375531e-03 4.99583688e-03
      1.24895922e-03 5.41215669e-03 3.74687766e-03 2.49791844e-03
      2.08159862e-03 2.49791844e-03 1.24895922e-03 5.82847605e-03
      8.32639460e-04 1.66527892e-03 2.49791844e-03 6.24479586e-03
      1.24895922e-03 2.91423802e-03 4.16319724e-03 4.16319724e-03
      2.08159862e-03 3.74687766e-03 3.74687766e-03 7.49375531e-03
      2.91423802e-03 4.99583688e-03 5.82847605e-03 2.49791844e-03
      6.66111568e-03 3.33055784e-03 2.91423802e-03 3.33055784e-03
      4.16319724e-03 2.49791844e-03 3.33055784e-03 5.82847605e-03
      3.74687766e-03 2.08159862e-03 3.33055784e-03 4.16319724e-03
      6.24479586e-03 4.57951706e-03 5.41215669e-03 8.32639448e-03
      2.08159862e-03 6.24479586e-03 2.91423802e-03 2.08159862e-03
      2.91423802e-03 4.99583688e-03 2.91423802e-03 1.66527892e-03
      8.32639460e-04 3.33055784e-03 8.32639460e-04 2.49791844e-03
      4.99583688e-03 4.99583688e-03 8.32639460e-04 2.08159862e-03
      9.15903412e-03 2.49791844e-03 4.57951706e-03 2.37302240e-02
      5.82847605e-03 4.16319724e-03 3.74687766e-03 4.57951706e-03
      2.49791844e-03 2.08159862e-03 2.49791844e-03 2.91423802e-03
      2.49791844e-03 1.66527892e-03 3.33055784e-03 3.33055784e-03
      8.32639460e-04 9.15903412e-03 1.66527892e-03 3.16402987e-02
      2.49791844e-03 9.57535394e-03 1.54038304e-02 8.32639460e-04
      4.16319724e-03 4.99583688e-03 3.33055784e-03 9.15903412e-03
      6.24479586e-03 4.16319724e-03 2.91423802e-03 3.74687766e-03
      4.16319724e-03 7.91007467e-03 5.41215669e-03 8.32639460e-04
      3.74687766e-03 4.16319724e-03 5.41215669e-03 7.49375531e-03
      7.07743550e-03 2.49791844e-03 1.66527892e-03 2.49791844e-03
      3.74687766e-03 2.08159862e-03 1.24895922e-03 4.16319724e-03
      6.24479586e-03 2.91423802e-03 4.16319724e-03 2.91423802e-03
      4.57951706e-03 1.29059115e-02 5.41215669e-03 2.08159862e-03
      4.16319730e-04 2.91423802e-03 8.74271430e-03 6.24479586e-03
      3.33055784e-03 1.66527892e-03 3.33055784e-03 7.91007467e-03
      1.66527892e-03 2.08159862e-03 5.82847605e-03 1.66527892e-03
      1.66527892e-03 0. 4.16319724e-03 6.66111568e-03 1.24895922e-03
      2.91423802e-03 4.99583688e-03 2.08159862e-03 4.16319724e-03
      1.45711908e-02 1.66527892e-03 5.82847605e-03 1.66527892e-03
      1.66527892e-03 1.24895922e-03 2.91423802e-03 4.16319724e-03
      4.16319724e-03</_>
    <_>
      1.45985396e-03 5.83941583e-03 1.45985396e-03 2.91970791e-03
      5.83941583e-03 0. 2.91970791e-03 7.29926955e-03 7.29926955e-03
      1.45985396e-03 4.37956210e-03 2.91970791e-03 0. 2.91970791e-03
      1.45985396e-03 1.45985396e-03 7.29926955e-03 1.16788317e-02
      2.91970791e-03 8.75912420e-03 2.91970791e-03 5.83941583e-03
      2.91970791e-03 0. 4.37956210e-03 0. 1.45985396e-03 4.37956210e-03
      5.83941583e-03 5.83941583e-03 5.83941583e-03 1.45985396e-03
      1.45985396e-03 0. 2.91970782e-02 1.45985396e-03 4.37956210e-03 0.
      4.37956210e-03 1.45985396e-03 2.91970791e-03 4.37956210e-03
      1.45985396e-03 1.02189779e-02 1.45985396e-03 1.45985396e-03
      2.18978096e-02 2.91970791e-03 0. 2.91970791e-03 0. 2.91970791e-03
      1.45985396e-03 0. 4.37956210e-03 7.29926955e-03 2.91970791e-03
      1.02189779e-02 5.83941583e-03 7.29926955e-03 2.91970791e-03
      2.91970791e-03 0. 2.91970791e-03 1.45985396e-03 1.45985396e-03
      2.91970791e-03 7.29926955e-03 2.91970791e-03 1.16788317e-02 0. 0.
      0. 4.37956210e-03 2.91970791e-03 1.45985396e-03 2.91970791e-03
      4.37956210e-03 1.45985396e-03 5.83941583e-03 2.91970791e-03
      4.37956210e-03 2.91970791e-03 1.45985396e-03 2.91970791e-03
      8.75912420e-03 2.91970791e-03 1.45985396e-03 8.75912420e-03
      1.45985391e-02 2.91970791e-03 1.45985396e-03 8.75912420e-03 0.
      2.91970791e-03 1.45985396e-03 7.29926955e-03 1.45985396e-03 0.
      2.91970791e-03 4.37956210e-03 1.45985396e-03 1.45985396e-03
      2.91970791e-03 2.91970791e-03 1.31386854e-02 2.91970791e-03
      1.45985396e-03 1.16788317e-02 8.75912420e-03 0. 5.83941583e-03
      1.45985396e-03 2.91970791e-03 0. 4.37956210e-03 1.31386854e-02
      2.91970791e-03 1.45985396e-03 4.37956210e-03 1.45985396e-03
      7.29926955e-03 1.45985396e-03 2.91970791e-03 0. 0. 4.37956210e-03
      5.83941583e-03 0. 1.45985396e-03 4.37956210e-03 4.37956210e-03
      1.89781021e-02 1.45985396e-03 1.45985396e-03 1.16788317e-02
      1.45985396e-03 7.29926955e-03 1.45985396e-03 4.37956210e-03
      1.45985396e-03 0. 4.37956210e-03 4.37956210e-03 1.16788317e-02 0.
      1.45985396e-03 4.37956210e-03 0. 5.83941583e-03 1.45985396e-03 0.
      4.37956210e-03 1.45985396e-03 1.16788317e-02 1.45985396e-03
      4.37956210e-03 1.60583928e-02 2.91970791e-03 1.45985396e-03
      1.45985396e-03 1.45985396e-03 1.45985396e-03 4.37956210e-03
      1.45985391e-02 4.37956210e-03 8.75912420e-03 1.45985396e-03
      4.37956210e-03 4.37956210e-03 0. 7.29926955e-03 2.91970791e-03
      1.45985396e-03 0. 4.37956210e-03 1.75182484e-02 0. 1.45985396e-03
      2.91970791e-03 0. 3.50364968e-02 2.91970791e-03 0. 1.45985396e-03
      0. 2.91970791e-03 0. 5.83941583e-03 1.45985396e-03 2.91970791e-03
      1.45985396e-03 0. 0. 8.75912420e-03 2.91970791e-03 4.37956210e-03
      4.37956210e-03 1.45985396e-03 0. 2.91970791e-03 2.91970791e-03
      8.75912420e-03 2.91970791e-03 1.45985396e-03 1.45985396e-03
      1.31386854e-02 2.18978096e-02 1.45985396e-03 0. 2.91970791e-03
      1.45985396e-03 5.83941583e-03 4.37956210e-03 0. 1.45985396e-03
      1.60583928e-02 5.83941583e-03 0. 1.45985396e-03 2.91970791e-03
      4.37956210e-03 2.91970791e-03 1.45985396e-03 2.91970791e-03
      1.31386854e-02 2.91970791e-03 7.29926955e-03 4.37956210e-03 0.
      8.75912420e-03 2.91970782e-02 2.91970791e-03 0. 0. 4.37956210e-03
      1.45985396e-03 4.37956210e-03 4.37956210e-03 1.45985396e-03</_>
    <_>
      2.38663494e-03 1.43198087e-03 6.68257754e-03 5.25059691e-03
      4.29594284e-03 0. 3.81861581e-03 3.81861581e-03 2.86396174e-03
      5.25059691e-03 6.68257754e-03 8.59188568e-03 1.90930790e-03
      5.72792348e-03 3.81861581e-03 3.34128877e-03 2.38663494e-03
      4.77326987e-03 2.86396174e-03 2.38663494e-03 6.20525051e-03
      3.34128877e-03 3.81861581e-03 4.77326987e-03 5.25059691e-03
      3.34128877e-03 7.15990458e-03 2.86396174e-03 3.34128877e-03
      8.11455864e-03 6.68257754e-03 6.68257754e-03 4.77326987e-03
      4.29594284e-03 7.63723161e-03 4.29594284e-03 6.20525051e-03
      1.43198087e-03 6.20525051e-03 2.86396174e-03 4.29594284e-03
      9.54653951e-04 9.06921271e-03 4.29594284e-03 2.38663494e-03
      2.38663494e-03 3.81861581e-03 3.34128877e-03 2.86396174e-03
      3.81861581e-03 5.25059691e-03 1.90930790e-03 4.77326987e-03
      1.43198087e-03 2.86396174e-03 7.15990458e-03 1.43198087e-03
      4.77326987e-03 9.54653951e-04 7.63723161e-03 5.25059691e-03
      4.29594284e-03 2.38663494e-03 9.54653951e-04 3.34128877e-03
      7.63723161e-03 2.38663494e-03 3.34128877e-03 4.77326987e-03
      8.59188568e-03 2.86396174e-03 1.00238668e-02 2.86396174e-03
      4.77326987e-03 6.68257754e-03 2.86396174e-03 6.20525051e-03
      1.43198087e-03 3.34128877e-03 6.20525051e-03 3.81861581e-03
      7.63723161e-03 2.38663494e-03 6.20525051e-03 1.19331740e-02
      4.29594284e-03 4.77326987e-03 1.90930790e-03 2.38663494e-03
      1.43198087e-03 2.38663494e-03 5.25059691e-03 8.11455864e-03
      1.90930790e-03 3.81861581e-03 5.72792348e-03 4.29594284e-03
      2.86396174e-03 2.86396174e-03 3.34128877e-03 3.81861581e-03
      2.86396174e-03 1.90930790e-03 2.86396174e-03 3.34128877e-03
      6.68257754e-03 2.38663494e-03 2.86396174e-03 5.72792348e-03
      3.34128877e-03 3.81861581e-03 2.38663494e-03 5.72792348e-03
      5.25059691e-03 4.77326987e-03 1.43198087e-03 7.15990458e-03
      3.34128877e-03 1.09785208e-02 1.90930790e-03 4.29594284e-03
      4.29594284e-03 1.90930790e-03 6.20525051e-03 1.90930790e-03
      4.77326987e-03 5.72792348e-03 7.63723161e-03 1.43198087e-03
      5.72792348e-03 4.77326987e-03 7.15990458e-03 4.29594284e-03
      3.34128877e-03 1.05011938e-02 9.06921271e-03 6.20525051e-03
      8.11455864e-03 5.72792348e-03 6.20525051e-03 4.77326987e-03
      3.34128877e-03 3.81861581e-03 2.38663494e-03 7.15990458e-03
      3.34128877e-03 3.34128877e-03 0. 1.90930790e-03 7.15990458e-03
      7.15990458e-03 1.43198087e-03 2.38663494e-03 2.86396174e-03
      7.63723161e-03 4.29594284e-03 4.29594284e-03 4.29594284e-03
      3.34128877e-03 3.81861581e-03 9.54653951e-04 3.34128877e-03
      2.86396174e-03 1.90930790e-03 7.15990458e-03 3.34128877e-03
      2.38663494e-03 3.81861581e-03 3.34128877e-03 3.81861581e-03
      3.81861581e-03 5.72792348e-03 3.34128877e-03 1.43198087e-03
      1.43198087e-03 5.25059691e-03 6.20525051e-03 1.90930790e-03
      3.81861581e-03 8.11455864e-03 2.38663494e-03 6.68257754e-03
      2.38663494e-03 2.86396174e-03 1.90930790e-03 2.38663494e-03
      2.86396174e-03 7.15990458e-03 2.38663494e-03 1.90930790e-03
      7.15990458e-03 2.86396174e-03 1.90930790e-03 7.15990458e-03
      1.00238668e-02 2.38663494e-03 4.77326987e-03 4.29594284e-03
      2.86396174e-03 2.38663494e-03 4.77326987e-03 2.86396174e-03
      4.77326987e-03 4.77326976e-04 2.86396174e-03 2.86396174e-03
      9.06921271e-03 3.34128877e-03 3.34128877e-03 2.86396174e-03
      2.38663494e-03 5.25059691e-03 2.38663494e-03 1.90930790e-03
      1.43198087e-03 3.81861581e-03 3.34128877e-03 1.05011938e-02
      3.81861581e-03 1.43198087e-03 2.38663494e-03 4.29594284e-03
      4.29594284e-03 9.54653951e-04 1.90930790e-03 6.68257754e-03
      2.38663494e-03 3.34128877e-03 3.34128877e-03 2.38663494e-03
      3.34128877e-03 7.15990458e-03 3.81861581e-03 0. 2.86396174e-03
      7.15990458e-03 5.25059691e-03 3.81861581e-03 3.34128877e-03
      3.81861581e-03</_>
    <_>
      2.76360544e-03 4.67687100e-03 2.90532876e-03 1.41723361e-03
      2.40929704e-03 2.40929704e-03 4.10997728e-03 5.17290272e-03
      4.74773254e-03 5.88151952e-03 4.60600900e-03 2.97619053e-03
      6.02324260e-03 3.75566888e-03 5.10204071e-03 2.48015882e-03
      4.18083929e-03 3.40136047e-03 3.33049893e-03 3.47222225e-03
      4.53514745e-03 5.66893432e-04 4.39342391e-03 5.03117917e-03
      5.45634935e-03 3.82653065e-03 3.75566888e-03 1.91326533e-03
      6.44841278e-03 2.48015882e-03 5.66893432e-04 4.25170083e-03
      4.67687100e-03 1.13378686e-03 3.54308402e-03 3.11791385e-03
      2.33843550e-03 5.52721089e-03 4.53514745e-03 6.66099787e-03
      7.01530604e-03 1.20464852e-03 2.12585041e-03 3.82653065e-03
      6.09410461e-03 5.45634935e-03 2.97619053e-03 3.75566888e-03
      6.66099787e-03 5.66893443e-03 5.52721089e-03 5.03117917e-03
      5.03117917e-03 3.11791385e-03 4.53514745e-03 1.06292521e-03
      6.23582769e-03 3.96825420e-03 4.25170083e-03 2.69274390e-03
      4.32256237e-03 4.18083929e-03 5.31462580e-03 6.09410461e-03
      6.09410461e-03 4.39342391e-03 5.17290272e-03 3.11791385e-03
      4.46428591e-03 2.40929704e-03 6.66099787e-03 1.84240367e-03
      2.12585041e-03 3.68480734e-03 4.32256237e-03 7.51133775e-03
      4.39342391e-03 5.03117917e-03 5.52721089e-03 4.18083929e-03
      1.27551018e-03 2.19671195e-03 1.55895692e-03 3.68480734e-03
      2.40929704e-03 3.04705231e-03 5.24376426e-03 6.87358296e-03
      4.88945562e-03 3.04705231e-03 6.30668923e-03 3.96825420e-03
      2.69274390e-03 5.81065752e-03 4.67687100e-03 2.76360544e-03
      3.25963716e-03 1.91326533e-03 6.16496615e-03 6.51927432e-03
      4.25170083e-03 1.98412710e-03 6.16496615e-03 4.39342391e-03
      6.23582769e-03 2.55102036e-03 5.03117917e-03 7.51133775e-03
      3.18877562e-03 2.40929704e-03 5.73979598e-03 6.44841278e-03
      4.03911574e-03 4.74773254e-03 4.67687100e-03 4.81859408e-03
      2.76360544e-03 3.54308402e-03 1.70068024e-03 5.10204071e-03
      3.47222225e-03 4.25170083e-03 5.52721089e-03 5.03117917e-03
      6.09410461e-03 5.03117917e-03 4.32256237e-03 3.40136047e-03
      1.27551018e-03 4.25170083e-03 4.81859408e-03 4.32256237e-03
      3.89739242e-03 4.96031763e-03 4.03911574e-03 3.54308402e-03
      8.50340119e-04 2.26757373e-03 6.23582769e-03 4.39342391e-03
      3.89739242e-03 7.15702958e-03 5.45634935e-03 2.83446722e-03
      4.60600900e-03 7.15702958e-03 5.38548781e-03 5.45634935e-03
      2.69274390e-03 1.70068024e-03 5.31462580e-03 5.88151952e-03
      7.22789112e-03 4.46428591e-03 3.18877562e-03 4.67687100e-03
      5.03117917e-03 1.98412710e-03 4.03911574e-03 4.96031763e-03
      6.09410461e-03 3.25963716e-03 7.79478485e-03 3.75566888e-03
      3.18877562e-03 2.97619053e-03 3.47222225e-03 1.91326533e-03
      3.04705231e-03 5.59807243e-03 6.44841278e-03 3.40136047e-03
      4.10997728e-03 9.92063549e-04 7.08616804e-03 2.69274390e-03
      1.34637195e-03 7.15702958e-03 4.60600900e-03 2.12585041e-03
      4.74773254e-03 2.97619053e-03 3.04705231e-03 5.38548781e-03
      2.62188213e-03 4.88945562e-03 4.32256237e-03 4.39342391e-03
      2.69274390e-03 3.89739242e-03 4.32256237e-03 1.77154201e-03
      4.32256237e-03 3.04705231e-03 3.96825420e-03 2.33843550e-03
      5.24376426e-03 5.66893443e-03 1.62981858e-03 5.24376426e-03
      5.59807243e-03 6.16496615e-03 2.40929704e-03 5.59807243e-03
      3.82653065e-03 5.45634935e-03 2.97619053e-03 1.84240367e-03
      3.11791385e-03 9.21201834e-04 6.23582769e-03 4.03911574e-03
      2.83446722e-03 4.39342391e-03 6.44841278e-03 6.44841278e-03
      3.25963716e-03 4.10997728e-03 6.66099787e-03 3.61394556e-03
      6.66099787e-03 4.60600900e-03 5.31462580e-03 2.69274390e-03
      3.82653065e-03 2.97619053e-03 5.73979598e-03 2.40929704e-03
      3.89739242e-03 7.01530604e-03 3.47222225e-03 2.40929704e-03
      6.94444450e-03 1.13378686e-03 5.38548781e-03 3.47222225e-03
      3.96825420e-03 5.66893443e-03 6.44841278e-03 4.03911574e-03</_>
    <_>
      2.07612454e-03 2.76816613e-03 5.53633226e-03 0. 4.15224908e-03
      6.92041533e-04 2.07612454e-03 2.76816613e-03 1.10726645e-02
      7.61245703e-03 2.07612454e-03 7.61245703e-03 2.76816613e-03
      6.92041533e-04 2.76816613e-03 4.84429067e-03 8.30449816e-03
      4.15224908e-03 3.46020772e-03 2.07612454e-03 6.22837385e-03
      1.38408307e-03 3.46020772e-03 8.30449816e-03 4.84429067e-03
      6.92041533e-04 4.15224908e-03 0. 7.61245703e-03 8.99653975e-03
      6.92041533e-04 4.84429067e-03 3.46020772e-03 1.38408307e-03
      8.99653975e-03 6.22837385e-03 3.46020772e-03 5.53633226e-03
      6.92041544e-03 2.07612454e-03 4.15224908e-03 0. 1.38408307e-03
      5.53633226e-03 3.46020772e-03 2.07612454e-03 5.53633226e-03
      5.53633226e-03 6.22837385e-03 3.46020772e-03 3.46020772e-03
      1.38408307e-03 8.30449816e-03 6.92041533e-04 6.92041533e-04
      1.38408307e-03 3.46020772e-03 2.07612454e-03 4.84429067e-03
      9.68858134e-03 4.15224908e-03 5.53633226e-03 4.84429067e-03
      2.76816613e-03 5.53633226e-03 8.99653975e-03 4.15224908e-03
      3.46020772e-03 2.76816613e-03 9.68858134e-03 6.92041544e-03 0.
      2.07612454e-03 2.76816613e-03 2.07612454e-03 8.99653975e-03
      2.07612454e-03 3.46020772e-03 2.07612454e-03 8.99653975e-03
      2.07612454e-03 2.07612454e-03 6.92041533e-04 5.53633226e-03
      8.99653975e-03 4.15224908e-03 4.84429067e-03 4.84429067e-03 0.
      6.92041533e-04 1.38408307e-03 4.84429067e-03 8.30449816e-03
      5.53633226e-03 4.15224908e-03 1.38408307e-03 3.46020772e-03
      3.46020772e-03 2.07612454e-03 6.22837385e-03 1.38408307e-03
      6.92041533e-04 1.38408307e-03 4.15224908e-03 4.84429067e-03
      1.03806229e-02 6.22837385e-03 2.76816613e-03 8.30449816e-03
      1.38408307e-03 5.53633226e-03 5.53633226e-03 2.07612454e-03
      2.07612454e-03 1.38408307e-03 3.46020772e-03 4.84429067e-03
      3.46020772e-03 1.38408307e-03 4.15224908e-03 2.07612454e-03
      1.03806229e-02 4.15224908e-03 5.53633226e-03 7.61245703e-03
      5.53633226e-03 3.46020772e-03 4.84429067e-03 2.07612454e-03
      4.15224908e-03 1.17647061e-02 6.22837385e-03 1.38408307e-03
      2.07612454e-03 2.76816613e-03 5.53633226e-03 6.92041533e-04
      1.03806229e-02 3.46020772e-03 1.38408307e-03 2.76816613e-03
      1.38408307e-03 2.76816613e-03 4.84429067e-03 4.15224908e-03
      4.15224908e-03 2.07612454e-03 2.07612454e-03 1.38408307e-03
      2.07612454e-03 1.31487893e-02 0. 3.46020772e-03 1.31487893e-02
      5.53633226e-03 5.53633226e-03 2.07612454e-03 8.30449816e-03
      4.84429067e-03 4.15224908e-03 2.76816613e-03 7.61245703e-03 0.
      4.84429067e-03 6.92041544e-03 4.15224908e-03 0. 2.76816613e-03
      3.46020772e-03 2.76816613e-03 6.92041533e-04 4.15224908e-03
      2.76816613e-03 1.38408307e-03 2.76816613e-03 6.92041533e-04
      4.15224908e-03 5.53633226e-03 2.76816613e-03 9.68858134e-03
      2.76816613e-03 1.59169547e-02 3.46020772e-03 6.22837385e-03
      2.76816613e-03 6.22837385e-03 3.46020772e-03 0. 1.38408307e-03
      6.22837385e-03 6.92041544e-03 3.46020772e-03 2.07612454e-03
      2.76816613e-03 1.66089963e-02 2.07612454e-03 2.07612454e-03
      3.46020772e-03 6.92041533e-04 6.92041533e-04 1.17647061e-02
      2.76816613e-03 6.22837385e-03 3.46020772e-03 1.38408307e-03
      2.76816613e-03 6.92041544e-03 6.22837385e-03 5.53633226e-03 0.
      2.07612454e-03 6.22837385e-03 0. 8.99653975e-03 8.99653975e-03
      3.46020772e-03 6.92041544e-03 2.76816613e-03 4.84429067e-03
      6.92041533e-04 5.53633226e-03 1.38408307e-03 6.22837385e-03
      2.07612454e-03 1.38408307e-03 4.84429067e-03 2.07612454e-03
      4.15224908e-03 5.53633226e-03 4.84429067e-03 2.76816613e-03
      1.86851211e-02 3.46020772e-03 6.92041533e-04 6.92041533e-04
      3.46020772e-03 4.84429067e-03 2.76816613e-03 4.15224908e-03
      4.15224908e-03</_>
    <_>
      4.72143525e-04 2.87578348e-03 2.23195134e-03 2.14610700e-04
      1.45935279e-03 1.61816459e-02 2.78993906e-03 4.24929196e-03
      8.02644063e-03 3.47669329e-03 1.20181986e-03 1.88857410e-03
      4.67851339e-03 3.73422611e-03 4.20636963e-03 3.77714820e-03
      5.88033302e-03 9.44287051e-04 1.75980770e-03 3.86299263e-03
      2.70409486e-03 4.33513615e-03 2.66117277e-03 2.53240624e-03
      3.30500468e-03 3.47669329e-03 8.15520645e-04 1.07305346e-03
      3.69130401e-03 2.01734062e-03 3.43377120e-03 1.50227488e-03
      3.21916048e-03 3.86299274e-04 5.27942320e-03 1.80272991e-03
      6.56708749e-03 1.06876129e-02 2.53240624e-03 8.28397274e-03
      2.57532834e-03 1.67396350e-03 1.03013136e-03 2.57532840e-04
      7.72598526e-03 4.54974687e-03 7.29676383e-03 2.91870558e-03
      8.36981740e-03 2.44656205e-03 3.00454977e-03 6.65293168e-03
      7.55429640e-03 1.59670357e-02 3.43377120e-04 1.88857410e-03
      7.21091963e-03 8.58442800e-04 3.82007053e-03 4.59266920e-03
      1.37350848e-03 7.98351783e-03 9.09949373e-03 1.27478754e-02
      7.89767411e-03 4.20636963e-03 2.78993906e-03 6.86754240e-04
      2.10318482e-03 2.23195134e-03 3.56253772e-03 5.15065680e-04
      6.86754240e-04 2.27487343e-03 1.67396350e-03 1.24044986e-02
      1.37350848e-03 4.46390267e-03 1.80272991e-03 4.97896830e-03
      3.51961539e-03 6.43832085e-04 3.00454965e-04 1.88857410e-03
      3.86299263e-03 4.12052544e-03 1.63104129e-03 6.86754240e-03
      1.67396350e-03 2.78993906e-03 3.21916048e-03 4.46390267e-03
      3.99175892e-03 2.91870558e-03 5.45111159e-03 5.57987834e-04
      2.53240624e-03 8.58442800e-04 1.25761870e-02 4.12052544e-03
      1.54519710e-03 1.07305346e-03 1.13743674e-02 3.26208258e-03
      3.51961539e-03 5.19357901e-03 5.23650087e-03 1.17606660e-02
      1.28766417e-03 7.72598549e-04 1.22757321e-02 6.95338659e-03
      1.24474207e-03 3.17623839e-03 2.57532834e-03 6.86754240e-03
      2.14610691e-03 2.78993906e-03 3.43377120e-04 2.78993906e-03
      2.61825044e-03 4.54974687e-03 2.83286115e-03 1.00008585e-02
      8.36981740e-03 6.05202187e-03 3.82007053e-03 2.61825044e-03
      4.72143525e-04 3.21916048e-03 6.13786606e-03 3.64838191e-03
      6.26663258e-03 3.04747187e-03 1.28766417e-03 8.28397274e-03
      3.43377120e-04 6.22371025e-03 4.50682454e-03 9.01364954e-04
      2.61825044e-03 1.66537911e-02 3.82007053e-03 2.06026272e-03
      3.04747187e-03 8.58442765e-03 2.91870558e-03 1.15889776e-02
      7.29676394e-04 3.86299274e-04 6.05202187e-03 7.98351783e-03
      5.15065668e-03 3.47669329e-03 2.78993906e-03 2.27487343e-03
      3.82007053e-03 6.52416516e-03 3.00454977e-03 7.85475131e-03
      3.60545982e-03 1.71688560e-03 8.92780535e-03 5.23650087e-03
      1.88857410e-03 1.11597567e-03 2.31779553e-03 1.54519710e-03
      3.47669329e-03 3.94883705e-03 3.34792701e-03 4.33513615e-03
      1.71688560e-03 8.19812901e-03 9.31410398e-03 2.23195134e-03
      3.90591472e-03 6.86754240e-03 3.82007053e-03 4.72143525e-04
      4.85020177e-03 6.86754240e-03 1.97441853e-03 2.48948415e-03
      1.54519710e-03 2.48948415e-03 1.07305346e-03 3.86299274e-04
      6.86754240e-04 3.17623839e-03 9.31410398e-03 9.39994864e-03
      3.47669329e-03 2.57532834e-03 1.45935279e-03 1.37350848e-03
      2.66117277e-03 2.74701696e-03 3.94883705e-03 3.60545982e-03
      1.43789165e-02 3.99175892e-03 9.87209263e-04 3.51961539e-03
      1.75980770e-03 4.97896830e-03 8.02644063e-03 6.48124330e-03
      1.50227488e-03 1.71688560e-04 8.24105088e-03 6.26663258e-03
      2.27487343e-03 3.09039420e-03 1.59241147e-02 3.94883705e-03
      1.41643058e-03 1.37350848e-03 6.43832097e-03 2.06026272e-03
      3.43377120e-03 3.39084910e-03 5.75156696e-03 2.14610691e-03
      2.78993906e-03 2.14610691e-03 7.76890712e-03 1.84565200e-03
      1.28766417e-03 1.61816459e-02 1.80272991e-03 5.83741115e-03
      1.02154696e-02 0. 1.06017683e-02 1.75980770e-03 1.14172893e-02
      3.60545982e-03 2.23195134e-03 4.33513615e-03</_>
    <_>
      2.99273198e-03 4.91663115e-03 5.13039762e-03 3.63403163e-03
      3.84779833e-03 0. 2.56519881e-03 2.56519881e-03 4.27533127e-03
      3.42026516e-03 5.34416409e-03 6.84053032e-03 2.56519881e-03
      5.34416409e-03 2.35143234e-03 4.70286468e-03 2.35143234e-03
      6.84053032e-03 2.56519881e-03 2.99273198e-03 5.55793103e-03
      1.28259948e-02 2.77896551e-03 2.35143234e-03 2.77896551e-03
      2.77896551e-03 4.70286468e-03 2.99273198e-03 4.48909821e-03
      9.19196289e-03 1.09020956e-02 5.98546397e-03 4.70286468e-03
      1.28259941e-03 4.27533127e-03 3.63403163e-03 8.76442902e-03
      4.06156480e-03 2.99273198e-03 3.84779833e-03 2.35143234e-03
      3.84779833e-03 1.58187263e-02 4.91663115e-03 2.77896551e-03
      2.99273198e-03 6.41299738e-03 1.06883282e-03 2.99273198e-03
      4.27533127e-03 8.55066290e-04 4.27533145e-04 3.42026516e-03
      4.27533145e-04 4.06156480e-03 7.05429679e-03 2.35143234e-03
      4.06156480e-03 3.63403163e-03 5.34416409e-03 3.42026516e-03
      3.20649869e-03 3.63403163e-03 3.63403163e-03 1.71013258e-03
      4.48909821e-03 1.92389917e-03 2.77896551e-03 4.06156480e-03
      7.05429679e-03 3.42026516e-03 4.70286468e-03 5.98546397e-03
      5.77169750e-03 1.92389917e-03 1.28259941e-03 5.77169750e-03
      8.55066290e-04 2.99273198e-03 4.70286468e-03 5.13039762e-03
      3.42026516e-03 2.13766564e-03 3.20649869e-03 5.13039762e-03
      3.42026516e-03 6.41299738e-03 2.13766564e-03 4.48909821e-03
      2.13766564e-03 2.35143234e-03 1.28259941e-03 4.91663115e-03
      3.63403163e-03 4.06156480e-03 2.56519881e-03 6.62676385e-03
      6.19923044e-03 1.28259941e-03 4.27533127e-03 3.84779833e-03
      1.71013258e-03 1.49636599e-03 2.13766564e-03 2.13766564e-03
      4.70286468e-03 2.35143234e-03 3.20649869e-03 2.56519881e-03
      6.84053032e-03 2.35143234e-03 2.99273198e-03 5.13039762e-03
      4.91663115e-03 4.06156480e-03 3.20649869e-03 2.99273198e-03
      8.97819642e-03 4.70286468e-03 1.06883282e-03 4.91663115e-03
      4.48909821e-03 3.42026516e-03 4.27533127e-03 4.48909821e-03
      2.77896551e-03 3.63403163e-03 2.56519881e-03 4.06156480e-03
      4.70286468e-03 1.92389917e-03 5.55793103e-03 5.98546397e-03
      1.92389917e-03 5.34416409e-03 3.42026516e-03 6.62676385e-03
      3.84779833e-03 2.77896551e-03 5.34416409e-03 3.63403163e-03
      3.20649869e-03 1.71013258e-03 4.48909821e-03 4.70286468e-03
      3.42026516e-03 3.63403163e-03 2.56519881e-03 2.56519881e-03
      5.98546397e-03 4.27533127e-03 2.35143234e-03 2.35143234e-03
      3.63403163e-03 8.55066255e-03 3.20649869e-03 1.49636599e-03
      2.43693888e-02 5.34416409e-03 2.35143234e-03 2.35143234e-03
      3.63403163e-03 2.13766564e-03 1.49636599e-03 6.19923044e-03
      2.35143234e-03 4.48909821e-03 4.48909821e-03 8.97819642e-03
      2.99273198e-03 2.56519881e-03 2.13766564e-03 2.56519881e-03
      9.61949583e-03 6.41299703e-04 3.20649869e-03 2.92860195e-02
      1.92389917e-03 2.99273198e-03 5.98546397e-03 1.49636599e-03
      7.69559667e-03 3.63403163e-03 3.42026516e-03 3.42026516e-03
      3.84779833e-03 4.91663115e-03 2.28730235e-02 4.06156480e-03
      3.42026516e-03 3.84779833e-03 8.55066255e-03 3.63403163e-03
      5.55793103e-03 5.98546397e-03 1.28259941e-03 2.13766564e-03
      4.48909821e-03 4.48909821e-03 1.71013258e-03 3.63403163e-03
      3.20649869e-03 3.84779833e-03 1.49636599e-03 7.05429679e-03
      2.56519881e-03 4.06156480e-03 4.27533127e-03 2.13766564e-03
      3.20649869e-03 3.42026516e-03 4.06156480e-03 1.92389917e-03
      5.55793103e-03 1.92389917e-03 2.77896551e-03 5.98546397e-03
      6.19923044e-03 2.13766564e-03 1.71013258e-03 2.35143234e-03
      4.06156480e-03 3.42026516e-03 2.56519881e-03 2.77896551e-03
      6.84053032e-03 2.13766564e-03 8.55066255e-03 2.77896551e-03
      3.84779833e-03 5.34416409e-03 6.41299738e-03 3.20649869e-03
      6.84053032e-03 2.35143234e-03 1.92389917e-03 4.70286468e-03
      3.63403163e-03 1.71013258e-03 2.13766564e-03</_>
    <_>
      1.81159424e-03 0. 1.08695654e-02 1.81159424e-03 7.24637695e-03 0.
      3.62318847e-03 3.62318847e-03 3.62318847e-03 1.81159424e-03
      7.24637695e-03 7.24637695e-03 0. 5.43478271e-03 0. 1.81159424e-03
      0. 5.43478271e-03 0. 5.43478271e-03 1.81159424e-03 7.24637695e-03
      0. 1.81159424e-03 3.62318847e-03 1.81159424e-03 1.81159424e-03 0.
      3.62318847e-03 1.44927539e-02 3.62318847e-03 7.24637695e-03
      1.81159424e-03 0. 5.43478271e-03 7.24637695e-03 3.62318847e-03
      1.81159424e-03 1.81159424e-03 5.43478271e-03 3.62318847e-03 0.
      1.08695654e-02 1.26811601e-02 9.05797072e-03 5.43478271e-03
      1.81159424e-03 3.62318847e-03 5.43478271e-03 5.43478271e-03
      1.81159424e-03 5.43478271e-03 1.81159424e-03 0. 3.62318847e-03
      5.43478271e-03 1.81159424e-03 3.62318847e-03 3.62318847e-03
      7.24637695e-03 1.81159424e-03 3.62318847e-03 3.62318847e-03
      3.62318847e-03 1.81159424e-03 1.08695654e-02 0. 1.81159424e-03
      1.81159424e-03 1.44927539e-02 3.62318847e-03 1.81159424e-03
      5.43478271e-03 5.43478271e-03 3.62318847e-03 1.81159424e-03
      3.62318847e-03 3.62318847e-03 1.08695654e-02 1.26811601e-02
      5.43478271e-03 0. 1.81159424e-03 1.44927539e-02 5.43478271e-03 0.
      3.62318847e-03 0. 5.43478271e-03 3.62318847e-03 1.81159424e-03
      1.81159424e-03 3.62318847e-03 3.62318847e-03 7.24637695e-03
      5.43478271e-03 7.24637695e-03 9.05797072e-03 0. 5.43478271e-03
      7.24637695e-03 3.62318847e-03 5.43478271e-03 5.43478271e-03 0.
      7.24637695e-03 7.24637695e-03 3.62318847e-03 1.26811601e-02
      7.24637695e-03 1.81159424e-03 7.24637695e-03 0. 3.62318847e-03
      5.43478271e-03 1.08695654e-02 7.24637695e-03 5.43478271e-03
      3.62318847e-03 0. 5.43478271e-03 9.05797072e-03 3.62318847e-03 0.
      1.81159424e-03 1.81159424e-03 1.81159424e-03 1.81159424e-03
      1.81159424e-03 3.62318847e-03 5.43478271e-03 5.43478271e-03
      5.43478271e-03 3.62318847e-03 3.62318847e-03 9.05797072e-03
      5.43478271e-03 5.43478271e-03 3.62318847e-03 1.81159424e-03
      7.24637695e-03 0. 1.81159424e-03 1.08695654e-02 1.26811601e-02 0.
      1.81159424e-03 0. 1.81159424e-03 3.62318847e-03 9.05797072e-03
      3.62318847e-03 1.81159424e-03 0. 1.63043477e-02 0. 3.62318847e-03
      5.43478271e-03 0. 3.62318847e-03 3.62318847e-03 3.62318847e-03
      1.81159424e-03 3.62318847e-03 7.24637695e-03 3.62318847e-03
      1.81159424e-03 0. 1.81159424e-03 1.81159424e-03 0. 5.43478271e-03
      3.62318847e-03 1.81159424e-03 3.62318847e-03 0. 3.62318847e-03
      1.81159424e-03 1.81159424e-03 1.63043477e-02 1.81159424e-03
      5.43478271e-03 0. 1.81159424e-03 3.62318847e-03 1.81159424e-03
      1.81159424e-03 3.62318847e-03 3.62318847e-03 1.81159424e-03 0.
      5.43478271e-03 1.81159424e-03 1.81159424e-03 1.44927539e-02
      1.81159424e-03 7.24637695e-03 5.43478271e-03 3.62318847e-03
      3.62318847e-03 0. 7.24637695e-03 9.05797072e-03 3.62318847e-03
      3.62318847e-03 0. 1.08695654e-02 1.26811601e-02 7.24637695e-03 0.
      3.62318847e-03 9.05797072e-03 1.81159424e-03 3.62318847e-03 0.
      1.81159424e-03 3.62318847e-03 3.62318847e-03 1.81159424e-03
      1.81159424e-03 3.62318847e-03 3.62318847e-03 3.62318847e-03
      3.62318847e-03 9.05797072e-03 7.24637695e-03 3.62318847e-03
      1.08695654e-02 1.81159424e-03 0. 3.62318847e-03 2.17391308e-02
      1.08695654e-02 0. 3.62318847e-03 5.43478271e-03 0. 0. 0.
      1.81159424e-03</_>
    <_>
      1.75202161e-03 2.15633423e-03 2.83018872e-03 2.83018872e-03
      3.23450146e-03 4.04312648e-03 1.48247974e-03 4.17789770e-03
      3.50404321e-03 3.77358496e-03 3.50404321e-03 2.69541773e-03
      3.77358496e-03 6.33423170e-03 1.21293799e-03 1.07816712e-03
      1.61725073e-03 5.79514820e-03 2.29110522e-03 5.25606470e-03
      2.69541773e-03 4.98652272e-03 1.48247974e-03 1.48247974e-03
      2.69541773e-03 2.96495948e-03 1.34770887e-03 1.21293799e-03
      4.17789770e-03 4.44743922e-03 3.23450146e-03 1.34770887e-03
      1.61725073e-03 1.61725073e-03 6.60377368e-03 1.61725073e-03
      8.49056616e-03 7.95148220e-03 2.69541773e-03 7.81671144e-03
      5.39083546e-03 2.29110522e-03 4.98652272e-03 3.90835572e-03
      5.79514820e-03 2.69541773e-03 6.46900292e-03 2.15633423e-03
      4.31266846e-03 1.61725073e-03 1.88679248e-03 7.00808642e-03
      4.85175196e-03 9.02964920e-03 3.50404321e-03 3.23450146e-03
      5.92991896e-03 2.96495948e-03 4.04312648e-03 4.71698120e-03
      2.96495948e-03 1.88679248e-03 5.25606470e-03 8.49056616e-03
      9.70350392e-03 3.50404321e-03 2.83018872e-03 2.42587598e-03
      2.02156324e-03 3.77358496e-03 2.96495948e-03 2.29110522e-03
      2.83018872e-03 4.71698120e-03 3.23450146e-03 5.79514820e-03
      3.09973047e-03 3.50404321e-03 2.56064697e-03 3.23450146e-03
      3.09973047e-03 1.88679248e-03 1.34770887e-03 1.48247974e-03
      2.56064697e-03 2.15633423e-03 2.29110522e-03 8.35579541e-03
      2.96495948e-03 5.25606470e-03 5.12129394e-03 2.69541773e-03
      5.66037744e-03 2.83018872e-03 9.97304544e-03 1.75202161e-03
      3.63881397e-03 2.56064697e-03 7.81671144e-03 3.09973047e-03
      2.29110522e-03 1.48247974e-03 9.83827468e-03 4.71698120e-03
      4.04312648e-03 7.68194068e-03 5.25606470e-03 1.32075474e-02
      3.23450146e-03 3.63881397e-03 5.52560668e-03 9.02964920e-03
      1.88679248e-03 2.56064697e-03 3.09973047e-03 2.96495948e-03
      2.42587598e-03 2.02156324e-03 3.23450146e-03 3.36927222e-03
      2.15633423e-03 3.09973047e-03 4.31266846e-03 5.52560668e-03
      4.85175196e-03 2.15633423e-03 3.23450146e-03 2.69541773e-03
      9.43396240e-04 2.02156324e-03 2.15633423e-03 4.44743922e-03
      1.96765494e-02 1.88679248e-03 3.09973047e-03 4.17789770e-03
      2.56064697e-03 6.33423170e-03 3.90835572e-03 1.34770887e-03
      1.61725073e-03 1.56334229e-02 3.90835572e-03 2.83018872e-03
      2.56064697e-03 5.92991896e-03 4.17789770e-03 5.66037744e-03
      2.02156324e-03 2.69541773e-03 2.96495948e-03 5.66037744e-03
      7.00808642e-03 1.75202161e-03 4.17789770e-03 2.96495948e-03
      4.44743922e-03 2.64150947e-02 1.88679248e-03 5.12129394e-03
      3.50404321e-03 1.48247974e-03 7.95148220e-03 8.35579541e-03
      3.23450146e-03 2.56064697e-03 3.09973047e-03 1.75202161e-03
      2.56064697e-03 2.83018872e-03 1.88679248e-03 2.56064697e-03
      2.29110522e-03 9.02964920e-03 3.90835572e-03 3.36927222e-03
      2.74932608e-02 5.66037744e-03 2.02156324e-03 2.69541773e-03
      3.09973047e-03 7.95148220e-03 2.96495948e-03 2.83018872e-03
      1.88679248e-03 1.75202161e-03 2.83018872e-03 9.16442089e-03
      4.04312648e-03 1.48247974e-03 3.09973047e-03 8.35579541e-03
      2.29110522e-03 8.76010768e-03 3.77358496e-03 1.21293799e-03
      2.29110522e-03 3.23450146e-03 2.69541773e-03 3.77358496e-03
      6.33423170e-03 4.71698120e-03 3.63881397e-03 4.44743922e-03
      1.75202161e-03 4.31266846e-03 3.36927222e-03 7.41239870e-03
      2.83018872e-03 3.50404321e-03 4.71698120e-03 4.44743922e-03
      3.36927222e-03 2.83018872e-03 7.27762794e-03 3.23450146e-03
      6.33423170e-03 3.36927222e-03 2.42587598e-03 2.56064697e-03
      4.58221044e-03 1.88679248e-03 4.04312648e-03 3.23450146e-03
      1.61725073e-03 4.04312648e-03 4.31266846e-03 3.23450146e-03
      4.04312648e-03 9.83827468e-03 2.29110522e-03 7.00808642e-03
      8.62533692e-03 1.48247974e-03 1.15902964e-02 3.23450146e-03
      3.50404321e-03 2.02156324e-03 2.83018872e-03 2.15633423e-03</_>
    <_>
      5.33005362e-03 3.69003695e-03 3.69003695e-03 5.33005362e-03
      1.06601072e-02 2.46002479e-03 4.10004100e-03 3.69003695e-03
      1.23001239e-03 2.87002884e-03 4.51004505e-03 7.38007389e-03
      2.46002479e-03 8.20008200e-03 2.05002050e-03 5.33005362e-03
      1.23001239e-03 2.87002884e-03 6.15006173e-03 2.87002884e-03
      2.05002050e-03 9.43009462e-03 3.69003695e-03 3.28003289e-03
      3.28003289e-03 2.05002050e-03 5.74005768e-03 5.74005768e-03
      4.92004957e-03 6.56006578e-03 4.10004100e-03 5.33005362e-03
      4.10004100e-03 4.10004100e-03 9.02009010e-03 6.97006984e-03
      7.38007389e-03 1.64001645e-03 2.87002884e-03 1.23001239e-03
      2.87002884e-03 5.33005362e-03 6.97006984e-03 6.56006578e-03
      2.46002479e-03 1.23001239e-03 8.61008652e-03 1.64001645e-03
      2.87002884e-03 3.28003289e-03 8.20008223e-04 1.64001645e-03
      2.87002884e-03 1.64001645e-03 8.20008223e-04 1.64001645e-03
      2.05002050e-03 6.56006578e-03 4.51004505e-03 6.15006173e-03
      4.51004505e-03 1.23001239e-03 2.46002479e-03 8.20008223e-04
      1.64001645e-03 4.51004505e-03 3.69003695e-03 4.10004100e-03
      2.05002050e-03 5.33005362e-03 4.10004111e-04 1.18901189e-02
      2.87002884e-03 1.10701108e-02 3.69003695e-03 1.23001239e-03
      4.51004505e-03 4.10004100e-03 3.69003695e-03 4.10004100e-03
      4.51004505e-03 4.92004957e-03 8.61008652e-03 5.33005362e-03
      2.05002050e-03 1.64001645e-03 2.46002479e-03 2.46002479e-03
      1.23001239e-03 4.92004957e-03 2.87002884e-03 2.05002050e-03
      6.15006173e-03 8.20008223e-04 2.05002050e-03 1.18901189e-02
      1.02501027e-02 6.56006578e-03 1.23001239e-03 2.87002884e-03
      2.46002479e-03 6.97006984e-03 3.28003289e-03 6.97006984e-03
      1.23001239e-03 4.92004957e-03 4.10004111e-04 4.10004100e-03
      4.10004100e-03 6.15006173e-03 2.87002884e-03 1.23001239e-03
