<?xml version="1.0"?>
<opencv_storage>
<opencv_ml_svm>
  <format>3</format>
  <svmType>C_SVC</svmType>
  <kernel>
    <type>RBF</type>
    <gamma>1.5382999999999999e+01</gamma></kernel>
  <C>50.</C>
  <term_criteria><epsilon>1.1920928955078125e-07</epsilon>
    <iterations>1000</iterations></term_criteria>
  <var_count>240</var_count>
  <class_count>8</class_count>
  <class_labels type_id="opencv-matrix">
    <rows>8</rows>
    <cols>1</cols>
    <dt>i</dt>
    <data>
      1 2 3 4 5 6 7 8</data></class_labels>
  <sv_total>998</sv_total>
  <support_vectors>
    <_>
      1.85915492e-02 5.63380308e-04 3.38028185e-03 1.01408456e-02
      1.12676062e-03 5.63380308e-04 1.12676062e-03 2.25352123e-03
      1.12676062e-03 5.63380308e-04 1.69014093e-03 1.69014093e-03
      2.25352123e-03 7.32394401e-03 1.69014093e-03 9.57746524e-03
      2.81690154e-03 5.63380308e-03 5.63380308e-03 7.88732432e-03
      1.12676062e-03 1.18309865e-02 0. 1.69014093e-03 2.25352123e-03
      2.25352123e-03 2.25352123e-03 2.19718330e-02 1.69014093e-03
      3.38028185e-03 7.32394401e-03 0. 0. 3.38028185e-03 3.38028185e-03
      7.32394401e-03 3.38028185e-03 3.38028185e-03 5.63380308e-04
      2.81690154e-03 3.38028185e-03 7.88732432e-03 7.88732432e-03
      3.38028185e-03 2.25352123e-03 1.12676062e-03 7.88732432e-03
      6.19718339e-03 2.25352123e-03 5.63380308e-04 0. 2.25352123e-03
      2.25352123e-03 1.12676062e-03 2.81690154e-03 5.63380308e-04
      1.69014093e-03 4.50704247e-03 3.38028185e-03 1.69014093e-03
      5.07042278e-03 1.12676062e-03 1.12676062e-03 1.69014093e-03
      4.50704247e-03 4.50704247e-03 2.25352123e-03 1.01408456e-02
      2.81690154e-03 3.38028185e-03 4.50704247e-03 5.07042278e-03
      4.50704247e-03 1.69014093e-03 2.25352123e-03 0. 2.25352123e-03
      5.07042278e-03 2.25352123e-03 2.25352123e-03 1.46478880e-02
      1.29577471e-02 1.29577471e-02 8.45070463e-03 1.69014093e-03
      1.12676062e-03 5.63380308e-04 1.69014093e-03 2.81690154e-03
      9.57746524e-03 1.69014093e-03 2.25352123e-03 1.12676062e-03
      1.12676062e-03 3.38028185e-03 2.81690154e-02 8.45070463e-03
      2.25352123e-03 2.81690154e-03 5.63380308e-04 1.01408456e-02
      1.46478880e-02 0. 7.32394401e-03 2.25352123e-03 4.50704247e-03
      1.12676062e-03 1.69014093e-03 3.94366216e-03 3.94366216e-03
      1.12676062e-03 5.63380308e-03 2.25352123e-03 2.81690154e-03
      1.69014093e-03 2.81690154e-03 0. 1.12676062e-03 2.76056342e-02
      1.69014093e-03 3.38028185e-03 1.12676062e-03 3.94366216e-03
      1.69014093e-03 1.12676062e-03 1.12676062e-03 5.63380308e-04 0.
      1.97183117e-02 1.12676062e-03 3.38028185e-03 1.12676062e-03
      1.69014093e-03 5.63380308e-03 1.12676062e-03 1.69014093e-03
      2.19718330e-02 3.94366216e-03 5.63380308e-04 1.69014093e-03 0.
      1.69014093e-03 5.63380308e-03 1.12676062e-03 1.12676062e-03
      5.63380308e-04 1.12676062e-03 5.63380308e-04 1.69014093e-03
      3.38028185e-03 1.69014093e-03 5.63380308e-04 2.81690154e-03
      2.25352123e-03 1.69014093e-03 6.76056370e-03 5.63380308e-04
      2.30985917e-02 2.81690154e-03 4.50704247e-03 2.25352123e-03
      1.12676062e-03 0. 6.19718339e-03 1.12676062e-03 6.19718339e-03
      6.76056370e-03 5.63380308e-03 2.25352123e-03 2.25352123e-03
      5.63380308e-04 2.25352123e-03 1.69014093e-03 1.12676062e-02 0.
      2.36619730e-02 1.52112683e-02 2.25352123e-03 2.81690154e-03
      3.94366216e-03 3.38028185e-03 1.01408456e-02 7.88732432e-03 0.
      2.81690154e-03 0. 5.63380308e-03 2.81690154e-03 1.12676062e-03
      5.07042278e-03 1.69014093e-03 2.25352123e-03 1.69014093e-03
      7.32394401e-03 1.69014093e-03 1.74647905e-02 6.76056370e-03
      1.12676062e-03 2.08450705e-02 5.07042278e-03 0. 0. 1.69014093e-03
      0. 1.69014093e-03 1.69014093e-03 2.25352123e-03 6.19718339e-03
      1.12676062e-03 1.80281699e-02 0. 2.25352123e-03 2.19718330e-02
      2.25352123e-03 1.12676062e-03 1.69014093e-03 5.07042278e-03
      1.12676062e-03 1.69014093e-03 5.07042278e-03 1.12676062e-03
      1.69014093e-03 2.25352123e-03 6.19718339e-03 3.94366216e-03
      2.25352123e-03 1.69014093e-03 6.76056370e-03 6.76056370e-03 0.
      1.69014093e-03 3.94366216e-03 5.63380308e-04 2.36619730e-02
      2.25352123e-03 2.25352123e-03 1.12676062e-03 1.12676062e-03
      1.69014093e-03 1.69014093e-03</_>
    <_>
      2.05859076e-03 3.80047504e-03 5.06730005e-03 1.42517814e-03
      2.53365003e-03 3.16706253e-04 2.53365003e-03 3.80047504e-03
      6.01741858e-03 6.33412506e-03 2.05859076e-03 4.59224079e-03
      6.17577182e-03 9.50118760e-04 4.75059357e-03 3.80047504e-03
      6.17577182e-03 4.59224079e-03 2.21694377e-03 6.96753757e-03
      8.23436305e-03 1.58353127e-04 4.75059357e-03 4.11718152e-03
      5.38400654e-03 2.21694377e-03 4.27553430e-03 2.37529678e-03
      3.16706253e-03 4.59224079e-03 4.75059380e-04 2.53365003e-03
      5.22565329e-03 7.91765633e-04 3.16706253e-03 7.75930332e-03
      9.50118760e-04 7.12589081e-03 6.96753757e-03 6.01741858e-03
      9.02612787e-03 1.42517814e-03 1.74188439e-03 5.38400654e-03
      6.01741858e-03 4.43388755e-03 2.85035628e-03 4.27553430e-03
      9.18448158e-03 3.80047504e-03 3.00870929e-03 5.70071256e-03
      8.39271583e-03 3.00870929e-03 3.00870929e-03 6.33412506e-04
      5.06730005e-03 3.95882828e-03 1.90023752e-03 6.33412506e-03
      2.85035628e-03 5.38400654e-03 5.06730005e-03 6.17577182e-03
      1.23515436e-02 8.07600934e-03 5.06730005e-03 3.80047504e-03
      4.11718152e-03 3.16706253e-03 3.00870929e-03 3.16706253e-03
      7.91765633e-04 2.69200327e-03 4.11718152e-03 6.96753757e-03
      5.85906580e-03 5.38400654e-03 3.16706253e-03 7.75930332e-03
      7.91765633e-04 3.64212180e-03 6.33412506e-04 3.80047504e-03
      6.80918433e-03 1.26682501e-03 4.11718152e-03 9.34283435e-03
      3.00870929e-03 5.54235931e-03 2.85035628e-03 5.54235931e-03
      3.00870929e-03 2.53365003e-03 9.50118713e-03 3.16706253e-04
      2.37529678e-03 2.05859076e-03 7.12589081e-03 3.95882828e-03
      3.00870929e-03 2.37529678e-03 6.01741858e-03 7.12589081e-03
      6.33412506e-03 2.37529678e-03 4.90894681e-03 7.28424359e-03
      4.59224079e-03 2.37529678e-03 1.10847186e-02 8.23436305e-03
      4.75059357e-03 4.43388755e-03 4.27553430e-03 4.43388755e-03
      4.90894681e-03 2.05859076e-03 4.75059380e-04 3.95882828e-03
      2.37529678e-03 8.39271583e-03 3.00870929e-03 8.55106860e-03
      6.17577182e-03 5.22565329e-03 4.11718152e-03 4.27553430e-03
      6.33412506e-04 8.07600934e-03 6.01741858e-03 7.44259683e-03
      9.50118713e-03 5.06730005e-03 4.43388755e-03 3.64212180e-03
      1.58353127e-04 3.48376879e-03 4.27553430e-03 2.69200327e-03
      3.48376879e-03 7.91765656e-03 3.64212180e-03 1.90023752e-03
      4.90894681e-03 4.59224079e-03 2.85035628e-03 5.54235931e-03
      1.74188439e-03 2.53365003e-03 8.07600934e-03 4.59224079e-03
      5.38400654e-03 6.80918433e-03 3.48376879e-03 4.27553430e-03
      3.32541578e-03 2.37529678e-03 3.48376879e-03 7.28424359e-03
      4.59224079e-03 3.48376879e-03 4.59224079e-03 8.86777509e-03
      5.54235931e-03 1.74188439e-03 2.37529678e-03 3.64212180e-03
      2.69200327e-03 6.65083155e-03 3.80047504e-03 2.21694377e-03
      1.10847189e-03 3.16706253e-04 3.80047504e-03 3.00870929e-03
      2.69200327e-03 5.22565329e-03 3.16706253e-03 3.16706253e-03
      3.32541578e-03 2.53365003e-03 2.37529678e-03 4.43388755e-03
      2.21694377e-03 4.43388755e-03 2.85035628e-03 7.75930332e-03
      2.05859076e-03 4.11718152e-03 4.27553430e-03 2.05859076e-03
      3.16706253e-03 4.75059380e-04 6.80918433e-03 3.32541578e-03
      4.27553430e-03 5.85906580e-03 1.58353127e-03 3.80047504e-03
      6.96753757e-03 3.48376879e-03 3.32541578e-03 3.95882828e-03
      1.42517814e-03 1.42517814e-03 3.48376879e-03 1.90023752e-03
      2.37529678e-03 6.33412506e-04 4.43388755e-03 3.64212180e-03
      2.85035628e-03 3.95882828e-03 6.65083155e-03 4.27553430e-03
      7.28424359e-03 2.21694377e-03 4.59224079e-03 2.21694377e-03
      4.43388755e-03 5.22565329e-03 4.27553430e-03 3.00870929e-03
      2.85035628e-03 4.90894681e-03 4.75059357e-03 2.53365003e-03
      4.43388755e-03 6.17577182e-03 2.05859076e-03 2.37529678e-03
      4.59224079e-03 1.58353127e-04 5.38400654e-03 3.64212180e-03
      6.17577182e-03 5.06730005e-03 4.27553430e-03 4.59224079e-03</_>
    <_>
      6.99790078e-04 7.34779565e-03 3.49895051e-03 4.19874024e-03
      3.14905541e-03 6.99790078e-04 2.44926522e-03 2.79916031e-03
      6.64800592e-03 5.24842553e-03 4.19874024e-03 6.29811082e-03
      5.24842553e-03 2.44926522e-03 5.59832063e-03 2.09937012e-03
      6.64800592e-03 3.14905541e-03 5.59832063e-03 1.74947525e-03
      7.69769074e-03 3.49895039e-04 4.19874024e-03 4.54863533e-03
      6.29811082e-03 1.74947525e-03 4.54863533e-03 2.09937012e-03
      3.49895051e-03 6.29811082e-03 4.89853043e-03 3.49895051e-03
      3.49895051e-03 1.04968506e-03 8.74737557e-03 2.09937012e-03
      6.99790101e-03 1.74947525e-03 2.44926522e-03 4.19874024e-03
      2.44926522e-03 6.99790078e-04 1.74947525e-03 3.49895051e-03
      4.54863533e-03 4.54863533e-03 5.59832063e-03 1.39958016e-03
      4.89853043e-03 5.59832063e-03 4.54863533e-03 2.44926522e-03
      5.94821572e-03 1.39958016e-03 4.89853043e-03 3.84884537e-03
      1.74947525e-03 3.84884537e-03 4.19874024e-03 5.94821572e-03
      4.19874024e-03 4.19874024e-03 3.14905541e-03 2.79916031e-03
      6.99790101e-03 5.94821572e-03 2.09937012e-03 2.79916031e-03
      1.74947525e-03 6.29811082e-03 6.99790101e-03 6.99790078e-04
      2.09937012e-03 4.89853043e-03 7.34779565e-03 3.49895051e-03
      1.74947525e-03 6.99790078e-04 5.24842553e-03 6.64800592e-03
      3.49895051e-03 2.09937012e-03 6.99790078e-04 2.09937012e-03
      6.64800592e-03 7.34779565e-03 4.19874024e-03 3.14905541e-03
      4.19874024e-03 1.74947525e-03 5.94821572e-03 5.59832063e-03
      1.11966413e-02 5.59832063e-03 5.24842553e-03 2.09937012e-03
      7.69769074e-03 5.94821572e-03 1.74947525e-03 3.14905541e-03
      2.44926522e-03 2.44926522e-03 2.44926522e-03 2.09937012e-03
      4.54863533e-03 6.99790101e-03 1.74947525e-03 2.44926522e-03
      3.49895051e-03 4.89853043e-03 5.24842553e-03 4.54863533e-03
      4.54863533e-03 5.59832063e-03 4.89853043e-03 3.14905541e-03
      3.84884537e-03 5.59832063e-03 4.19874024e-03 2.44926522e-03
      1.74947525e-03 8.04758631e-03 4.89853043e-03 6.29811082e-03
      3.49895051e-03 8.04758631e-03 4.19874024e-03 4.19874024e-03
      3.84884537e-03 4.89853043e-03 1.39958016e-03 6.64800592e-03
      3.49895051e-03 3.14905541e-03 8.39748047e-03 6.29811082e-03
      5.94821572e-03 4.19874024e-03 5.94821572e-03 1.74947525e-03
      4.89853043e-03 2.44926522e-03 2.09937012e-03 2.09937012e-03
      5.94821572e-03 1.39958016e-03 2.79916031e-03 5.94821572e-03
      2.09937012e-03 3.49895051e-03 5.94821572e-03 4.54863533e-03
      1.74947525e-03 4.89853043e-03 6.29811082e-03 2.09937012e-03
      5.24842553e-03 2.86913924e-02 4.89853043e-03 3.84884537e-03
      2.79916031e-03 4.19874024e-03 1.74947525e-03 2.79916031e-03
      7.34779565e-03 1.39958016e-03 2.09937012e-03 2.09937012e-03
      2.79916031e-03 3.14905541e-03 5.24842553e-03 5.94821572e-03
      2.44926522e-03 4.19874024e-03 1.74947525e-03 2.79916031e-03
      3.14905532e-02 4.54863533e-03 4.54863533e-03 5.24842553e-03
      1.39958016e-03 1.11966413e-02 2.09937012e-03 7.34779565e-03
      1.04968506e-03 3.49895051e-03 2.44926522e-03 3.49895039e-04
      2.79916031e-03 3.14905541e-03 6.29811082e-03 3.49895051e-03
      2.79916031e-03 3.14905541e-03 6.64800592e-03 2.79916031e-03
      2.09937012e-03 5.24842553e-03 6.99790078e-04 1.39958016e-03
      2.79916031e-03 3.49895051e-03 4.19874024e-03 1.15465363e-02
      5.59832063e-03 3.14905541e-03 4.54863533e-03 8.74737557e-03
      5.24842553e-03 3.49895039e-04 2.44926522e-03 1.74947525e-03
      3.14905541e-03 8.74737557e-03 3.49895051e-03 2.44926522e-03
      4.89853043e-03 4.19874024e-03 5.94821572e-03 1.39958016e-03
      3.49895051e-03 3.14905541e-03 1.39958016e-03 2.09937012e-03
      3.14905541e-03 5.94821572e-03 3.49895051e-03 1.39958016e-03
      3.49895051e-03 3.84884537e-03 3.49895051e-03 5.24842553e-03
      1.39958016e-03 0. 2.79916031e-03 1.74947525e-03 5.94821572e-03
      3.84884537e-03 4.54863533e-03 2.44926522e-03</_>
    <_>
      5.47263725e-03 4.97512473e-03 9.95024946e-03 6.46766182e-03
      9.45273694e-03 4.97512461e-04 3.98009969e-03 1.49253733e-03
      2.48756236e-03 3.98009969e-03 3.98009969e-03 8.45771190e-03
      2.98507465e-03 6.46766182e-03 9.95024922e-04 2.48756236e-03
      2.98507465e-03 3.98009969e-03 0. 1.99004984e-03 2.48756236e-03
      1.04477620e-02 4.97512461e-04 2.48756236e-03 3.48258717e-03
      1.99004984e-03 2.98507465e-03 1.49253733e-03 2.48756236e-03
      6.46766182e-03 6.96517434e-03 1.99004984e-03 5.97014930e-03
      4.47761221e-03 1.49253733e-03 3.48258717e-03 5.47263725e-03
      2.98507465e-03 2.98507465e-03 1.49253733e-03 3.98009969e-03
      5.97014930e-03 3.48258717e-03 4.97512473e-03 9.95024922e-04
      5.47263725e-03 7.46268686e-03 1.49253733e-03 2.98507465e-03
      4.97512461e-04 6.96517434e-03 1.49253733e-03 4.97512473e-03
      4.97512461e-04 2.98507465e-03 1.19402986e-02 9.95024922e-04
      2.98507465e-03 4.97512461e-04 4.97512473e-03 4.47761221e-03
      5.47263725e-03 2.48756236e-03 9.95024922e-04 9.95024922e-04
      1.49253733e-03 4.97512473e-03 9.95024922e-04 2.98507465e-03
      1.84079614e-02 1.99004984e-03 9.95024946e-03 2.98507465e-03
      7.46268686e-03 3.98009969e-03 1.49253733e-03 1.99004984e-03
      1.99004984e-03 2.98507465e-03 1.99004984e-03 3.48258717e-03
      2.98507465e-03 1.99004984e-03 4.97512473e-03 4.47761221e-03
      9.95024922e-04 2.48756236e-03 2.48756236e-03 4.97512461e-04
      3.98009969e-03 1.99004984e-03 2.48756236e-03 6.46766182e-03
      2.48756236e-03 3.98009969e-03 4.97512473e-03 4.97512473e-03
      3.98009969e-03 1.99004984e-03 3.48258717e-03 7.46268686e-03
      1.49253733e-03 1.49253733e-03 4.97512461e-04 9.95024922e-04
      4.47761221e-03 1.99004984e-03 1.99004984e-03 6.96517434e-03
      6.96517434e-03 2.48756236e-03 1.99004984e-03 3.48258717e-03
      5.47263725e-03 5.47263725e-03 2.98507465e-03 6.46766182e-03
      1.09452745e-02 9.95024946e-03 4.47761221e-03 8.95522442e-03
      3.98009969e-03 2.98507465e-03 3.48258717e-03 2.48756236e-03
      9.95024922e-04 9.95024922e-04 2.98507465e-03 4.97512473e-03
      3.98009969e-03 9.95024922e-04 1.49253733e-03 1.49253733e-03
      2.48756236e-03 3.98009969e-03 2.98507465e-03 1.34328362e-02
      7.96019938e-03 6.96517434e-03 2.48756236e-03 3.48258717e-03
      2.98507465e-03 1.49253733e-03 2.98507465e-03 6.46766182e-03
      1.99004984e-03 1.99004984e-03 1.99004984e-03 1.99004984e-03
      6.46766182e-03 3.48258717e-03 2.98507465e-03 1.99004984e-03
      3.48258717e-03 7.96019938e-03 3.48258717e-03 1.99004984e-03
      2.13930365e-02 1.49253733e-03 9.95024922e-04 3.48258717e-03
      9.95024922e-04 1.99004984e-03 2.98507465e-03 7.46268686e-03
      1.99004984e-03 1.49253733e-03 2.48756236e-03 1.34328362e-02
      6.46766182e-03 4.47761221e-03 3.48258717e-03 1.49253733e-03
      1.24378111e-02 2.98507465e-03 7.96019938e-03 8.95522442e-03
      1.49253733e-03 2.48756236e-03 5.47263725e-03 4.97512461e-04
      9.45273694e-03 7.46268686e-03 4.47761221e-03 2.48756236e-03
      6.46766182e-03 1.99004984e-03 6.96517434e-03 2.48756236e-03
      9.95024922e-04 3.48258717e-03 1.29353236e-02 1.99004984e-03
      7.96019938e-03 6.46766182e-03 1.49253733e-03 1.99004984e-03
      3.48258717e-03 5.47263725e-03 1.49253733e-03 1.49253733e-03
      5.47263725e-03 3.98009969e-03 9.95024922e-04 1.94029864e-02
      2.98507465e-03 5.97014930e-03 4.97512473e-03 2.48756236e-03
      2.38805972e-02 2.48756236e-03 2.48756236e-03 6.96517434e-03
      4.47761221e-03 2.48756236e-03 0. 5.47263725e-03 2.98507465e-03
      1.49253733e-03 6.96517434e-03 3.98009969e-03 1.49253733e-03
      1.49253733e-03 9.95024922e-04 1.49253733e-03 1.84079614e-02
      9.95024922e-04 3.48258717e-03 4.47761221e-03 9.95024922e-04
      1.29353236e-02 4.47761221e-03 4.47761221e-03 6.96517434e-03
      1.49253733e-03 1.49253733e-03 1.49253733e-03 4.97512473e-03
      3.48258717e-03 3.48258717e-03</_>
    <_>
      4.45599714e-03 4.45599714e-03 3.34199797e-03 5.56999631e-03
      2.97066476e-03 1.11399929e-03 7.79799512e-03 5.56999631e-03
      5.94132952e-03 3.34199797e-03 1.85666548e-03 2.59933155e-03
      4.45599714e-03 6.31266274e-03 2.22799857e-03 3.71333095e-03
      3.71333095e-03 6.31266274e-03 5.94132952e-03 2.97066476e-03
      6.31266274e-03 1.11399926e-02 5.94132952e-03 4.82733035e-03
      4.45599714e-03 2.22799857e-03 3.34199797e-03 4.08466393e-03
      4.08466393e-03 1.48533238e-03 1.48533238e-03 5.56999631e-03
      4.82733035e-03 1.85666548e-03 5.94132952e-03 1.85666548e-03
      3.34199797e-03 2.97066476e-03 4.82733035e-03 5.94132952e-03
      3.34199797e-03 1.48533238e-03 7.42666190e-04 4.82733035e-03
      6.31266274e-03 3.34199797e-03 4.08466393e-03 1.85666548e-03
      3.34199797e-03 4.08466393e-03 5.94132952e-03 3.71333095e-03
      4.45599714e-03 2.22799857e-03 4.82733035e-03 2.59933155e-03
      5.56999631e-03 4.82733035e-03 2.97066476e-03 2.22799857e-03
      3.71333095e-03 1.48533238e-03 5.19866310e-03 5.56999631e-03
      2.22799857e-03 5.19866310e-03 5.94132952e-03 4.45599714e-03
      3.71333095e-03 2.59933155e-03 5.56999631e-03 1.11399929e-03
      7.42666190e-04 4.82733035e-03 2.97066476e-03 5.19866310e-03
      3.71333095e-03 3.34199797e-03 2.97066476e-03 6.31266274e-03
      1.85666548e-03 2.22799857e-03 1.11399929e-03 5.56999631e-03
      5.56999631e-03 2.59933155e-03 6.31266274e-03 4.82733035e-03
      2.59933155e-03 4.82733035e-03 3.34199797e-03 3.71333095e-03
      7.05532869e-03 4.08466393e-03 3.34199797e-03 4.08466393e-03
      3.71333095e-03 3.71333095e-03 3.71333095e-03 4.45599714e-03
      3.34199797e-03 1.11399929e-03 1.85666548e-03 1.48533238e-03
      3.71333095e-03 6.31266274e-03 2.22799857e-03 5.19866310e-03
      2.22799857e-03 2.97066476e-03 3.71333095e-03 3.34199797e-03
      4.45599714e-03 2.97066476e-03 4.08466393e-03 1.85666548e-03
      3.71333095e-03 2.22799857e-03 2.59933155e-03 5.19866310e-03
      4.08466393e-03 4.08466393e-03 3.71333095e-03 6.68399595e-03
      3.34199797e-03 6.31266274e-03 2.97066476e-03 3.34199797e-03
      2.22799857e-03 4.45599714e-03 6.68399595e-03 4.45599714e-03
      4.08466393e-03 4.08466393e-03 3.71333095e-03 3.71333095e-03
      5.94132952e-03 3.71333095e-03 4.45599714e-03 4.82733035e-03
      5.56999631e-03 5.56999631e-03 4.45599714e-03 3.34199797e-03
      3.34199797e-03 4.82733035e-03 3.34199797e-03 7.05532869e-03
      3.34199797e-03 3.34199797e-03 5.94132952e-03 5.19866310e-03
      6.68399595e-03 3.71333095e-03 7.42666190e-04 3.34199797e-03
      4.08466393e-03 2.07946524e-02 1.48533238e-03 5.19866310e-03
      4.08466393e-03 4.08466393e-03 2.59933155e-03 4.45599714e-03
      2.59933155e-03 1.85666548e-03 1.48533238e-03 2.59933155e-03
      4.82733035e-03 6.68399595e-03 4.08466393e-03 4.08466393e-03
      1.85666548e-03 1.03973262e-02 5.94132952e-03 7.05532869e-03
      2.89639812e-02 4.82733035e-03 3.71333095e-03 4.45599714e-03
      5.56999631e-03 7.05532869e-03 2.97066476e-03 2.22799857e-03
      2.22799857e-03 3.71333095e-03 4.82733035e-03 3.71333095e-04
      4.82733035e-03 2.59933155e-03 5.19866310e-03 2.97066476e-03
      6.31266274e-03 8.54066107e-03 5.56999631e-03 1.85666548e-03
      1.85666548e-03 4.08466393e-03 3.71333095e-03 2.97066476e-03
      7.42666190e-03 2.97066476e-03 4.08466393e-03 3.71333095e-03
      1.48533238e-03 5.19866310e-03 5.94132952e-03 2.97066476e-03
      2.22799857e-03 2.97066476e-03 6.68399595e-03 4.45599714e-03
      6.31266274e-03 2.59933155e-03 8.54066107e-03 1.48533238e-03
      2.97066476e-03 2.22799857e-03 4.08466393e-03 3.34199797e-03
      4.82733035e-03 1.85666548e-03 8.16932786e-03 2.97066476e-03
      2.22799857e-03 4.08466393e-03 3.34199797e-03 1.85666548e-03
      3.71333095e-03 5.56999631e-03 1.11399929e-03 4.82733035e-03
      7.79799512e-03 1.85666548e-03 2.59933155e-03 2.59933155e-03
      5.19866310e-03 5.19866310e-03 4.45599714e-03 1.48533238e-03</_>
    <_>
      6.83371304e-03 2.92873406e-03 2.27790442e-03 6.34559058e-03
      2.44061183e-03 4.39310120e-03 2.44061183e-03 6.02017576e-03
      1.95248937e-03 6.18288340e-03 2.60331924e-03 1.78978196e-03
      3.57956393e-03 3.09144170e-03 4.23039356e-03 3.90497874e-03
      2.60331924e-03 4.39310120e-03 4.23039356e-03 3.57956393e-03
      2.44061183e-03 2.92873406e-03 3.74227134e-03 3.57956393e-03
      2.27790442e-03 3.09144170e-03 1.62707455e-03 5.53205330e-03
      2.76602665e-03 3.09144170e-03 3.25414911e-03 4.71851602e-03
      5.53205330e-03 3.74227134e-03 3.41685652e-03 5.20663848e-03
      1.13895219e-02 4.06768639e-03 2.44061183e-03 3.74227134e-03
      4.23039356e-03 1.95248937e-03 6.34559058e-03 5.85746812e-03
      4.06768639e-03 2.44061183e-03 4.71851602e-03 4.55580885e-03
      5.36934612e-03 3.90497874e-03 1.62707455e-03 3.09144170e-03
      3.74227134e-03 5.69476094e-03 1.78978196e-03 4.23039356e-03
      5.85746812e-03 4.88122366e-03 3.74227134e-03 2.60331924e-03
      4.55580885e-03 7.64725031e-03 3.90497874e-03 3.09144170e-03
      5.04393084e-03 5.36934612e-03 4.23039356e-03 4.39310120e-03
      4.06768639e-03 4.39310120e-03 3.41685652e-03 4.39310120e-03
      8.46078712e-03 3.25414911e-03 3.41685652e-03 5.20663848e-03
      6.67100539e-03 6.34559058e-03 1.78978196e-03 5.04393084e-03
      2.44061183e-03 6.02017576e-03 4.39310120e-03 5.53205330e-03
      3.57956393e-03 2.76602665e-03 4.23039356e-03 4.88122366e-03
      5.53205330e-03 6.02017576e-03 3.74227134e-03 4.39310120e-03
      2.60331924e-03 2.44061183e-03 6.02017576e-03 4.39310120e-03
      1.00878617e-02 3.09144170e-03 5.36934612e-03 3.25414911e-03
      3.09144170e-03 7.48454267e-03 4.55580885e-03 6.67100539e-03
      7.32183550e-03 3.25414911e-03 2.27790442e-03 6.83371304e-03
      2.27790442e-03 3.57956393e-03 7.15912785e-03 5.20663848e-03
      7.80995749e-03 3.57956393e-03 3.57956393e-03 4.55580885e-03
      1.78978196e-03 2.92873406e-03 3.90497874e-03 2.92873406e-03
      4.06768639e-03 3.57956393e-03 3.57956393e-03 2.92873406e-03
      5.69476094e-03 1.46436703e-03 3.09144170e-03 2.60331924e-03
      2.27790442e-03 1.95248937e-03 5.69476094e-03 2.27790442e-03
      6.83371304e-03 4.23039356e-03 1.46436703e-03 3.09144170e-03
      3.41685652e-03 4.39310120e-03 2.60331924e-03 6.67100539e-03
      2.44061183e-03 6.18288340e-03 4.39310120e-03 2.92873406e-03
      2.92873406e-03 3.90497874e-03 2.27790442e-03 3.74227134e-03
      2.60331924e-03 5.69476094e-03 4.55580885e-03 4.55580885e-03
      5.69476094e-03 5.36934612e-03 3.41685652e-03 4.23039356e-03
      4.06768639e-03 1.25284735e-02 2.27790442e-03 6.99642068e-03
      2.44061183e-03 3.41685652e-03 6.34559058e-03 4.23039356e-03
      2.11519678e-03 5.04393084e-03 7.15912785e-03 5.53205330e-03
      2.27790442e-03 3.57956393e-03 2.11519678e-03 3.25414911e-03
      2.76602665e-03 2.60331924e-03 4.23039356e-03 3.74227134e-03
      7.32183550e-03 2.11519678e-03 4.55580885e-03 4.71851602e-03
      4.23039356e-03 4.71851602e-03 3.09144170e-03 3.57956393e-03
      3.25414911e-03 3.41685652e-03 7.80995749e-03 5.85746812e-03
      4.06768639e-03 5.04393084e-03 6.34559058e-03 6.67100539e-03
      4.06768639e-03 3.09144170e-03 4.88122366e-03 4.71851602e-03
      6.67100539e-03 1.30165962e-03 5.36934612e-03 5.85746812e-03
      2.92873406e-03 3.74227134e-03 4.39310120e-03 3.25414911e-03
      2.27790442e-03 2.92873406e-03 5.04393084e-03 5.53205330e-03
      2.11519678e-03 3.09144170e-03 2.92873406e-03 4.23039356e-03
      2.27790442e-03 3.09144170e-03 8.13537277e-03 3.41685652e-03
      4.71851602e-03 2.92873406e-03 2.60331924e-03 3.41685652e-03
      3.74227134e-03 2.44061183e-03 4.39310120e-03 5.85746812e-03
      2.76602665e-03 4.39310120e-03 2.76602665e-03 9.43703204e-03
      4.39310120e-03 5.53205330e-03 2.76602665e-03 4.71851602e-03
      2.60331924e-03 9.76244686e-04 6.50829822e-03 2.92873406e-03
      1.62707455e-03 4.23039356e-03 2.92873406e-03 4.23039356e-03</_>
    <_>
      6.06585806e-03 7.36568449e-03 3.89947998e-03 4.33275569e-03
      5.63258212e-03 4.33275563e-04 2.16637785e-03 0. 1.29982666e-03
      1.29982666e-03 3.89947998e-03 4.33275569e-03 2.59965332e-03
      8.23223591e-03 1.29982666e-03 2.59965332e-03 1.73310225e-03
      2.16637785e-03 6.49913354e-03 2.59965332e-03 3.46620451e-03
      4.33275569e-03 8.66551127e-04 3.89947998e-03 3.89947998e-03
      2.59965332e-03 2.16637785e-03 2.59965332e-03 3.03292903e-03
      1.08318888e-02 3.46620451e-03 5.63258212e-03 4.33275569e-03
      2.16637785e-03 1.12651642e-02 5.19930664e-03 4.33275569e-03
      3.89947998e-03 3.89947998e-03 8.66551127e-04 3.03292903e-03
      6.49913354e-03 4.33275569e-03 5.63258212e-03 3.46620451e-03
      4.33275563e-04 9.96533781e-03 1.29982666e-03 8.66551127e-04
      1.73310225e-03 2.16637785e-03 8.66551127e-04 2.16637785e-03 0.
      3.46620451e-03 5.63258212e-03 3.03292903e-03 1.73310225e-03
      3.89947998e-03 3.46620451e-03 3.03292903e-03 4.33275569e-03
      3.03292903e-03 8.66551127e-04 1.73310225e-03 3.89947998e-03
      2.59965332e-03 3.03292903e-03 4.76603117e-03 6.93240901e-03
      5.19930664e-03 7.79895997e-03 3.89947998e-03 1.16984406e-02
      4.33275569e-03 2.16637785e-03 4.76603117e-03 3.03292903e-03
      4.76603117e-03 6.93240901e-03 6.06585806e-03 3.46620451e-03
      3.89947998e-03 8.66551138e-03 3.89947998e-03 6.06585806e-03
      2.59965332e-03 1.29982666e-03 2.59965332e-03 4.76603117e-03
      3.89947998e-03 2.59965332e-03 1.29982671e-02 2.59965332e-03
      8.66551127e-04 3.89947998e-03 1.47313690e-02 4.76603117e-03
      2.16637785e-03 5.19930664e-03 3.03292903e-03 1.29982666e-03
      8.66551127e-04 1.73310225e-03 2.59965332e-03 1.16984406e-02
      2.16637785e-03 8.66551127e-04 3.46620451e-03 6.93240901e-03
      2.16637785e-03 5.19930664e-03 3.89947998e-03 3.46620451e-03
      4.76603117e-03 3.03292903e-03 2.59965332e-03 3.46620451e-03
      3.89947998e-03 2.59965332e-03 2.16637785e-03 2.16637785e-03
      5.19930664e-03 2.16637785e-03 2.59965332e-03 1.29982666e-03
      4.33275569e-03 2.16637785e-03 2.16637785e-03 5.63258212e-03
      2.59965332e-03 8.66551127e-04 2.59965332e-03 8.66551127e-04
      6.06585806e-03 6.93240901e-03 7.79895997e-03 1.03986133e-02
      3.03292903e-03 6.49913354e-03 2.59965332e-03 1.29982666e-03
      2.16637785e-03 3.03292903e-03 5.19930664e-03 3.46620451e-03
      2.16637785e-03 2.16637785e-03 2.59965332e-03 4.76603117e-03
      2.59965332e-03 1.73310225e-03 1.29982666e-03 1.73310225e-03
      7.79895997e-03 3.03292903e-03 4.33275569e-03 3.50953192e-02
      5.63258212e-03 1.73310225e-03 4.33275569e-03 3.89947998e-03
      3.46620451e-03 2.16637785e-03 3.46620451e-03 3.89947998e-03
      2.59965332e-03 2.59965332e-03 4.76603117e-03 2.16637785e-03
      2.59965332e-03 7.36568449e-03 3.46620451e-03 1.25649916e-02
      2.16637785e-03 7.36568449e-03 1.77642982e-02 1.29982666e-03
      4.76603117e-03 3.89947998e-03 4.33275569e-03 1.42980935e-02
      1.29982666e-03 7.79895997e-03 3.03292903e-03 3.89947998e-03
      3.46620451e-03 2.55632587e-02 3.03292903e-03 1.29982666e-03
      4.33275569e-03 6.06585806e-03 5.63258212e-03 5.19930664e-03
      7.36568449e-03 2.16637785e-03 3.46620451e-03 2.16637785e-03
      6.06585806e-03 4.33275563e-04 1.73310225e-03 2.59965332e-03
      5.19930664e-03 8.66551127e-04 2.16637785e-03 8.66551127e-04
      2.59965332e-03 1.86308492e-02 2.59965332e-03 1.29982666e-03
      2.59965332e-03 3.89947998e-03 7.36568449e-03 3.89947998e-03
      2.59965332e-03 3.46620451e-03 3.46620451e-03 4.76603117e-03
      2.59965332e-03 4.33275563e-04 3.89947998e-03 1.73310225e-03
      8.66551127e-04 1.29982666e-03 3.89947998e-03 6.49913354e-03
      4.33275569e-03 3.03292903e-03 3.89947998e-03 8.66551127e-04
      6.06585806e-03 1.21317161e-02 3.89947998e-03 4.76603117e-03
      1.29982666e-03 4.76603117e-03 1.73310225e-03 3.03292903e-03
      4.76603117e-03 3.46620451e-03</_>
    <_>
      2.78810412e-03 5.11152390e-03 7.89962802e-03 4.64684004e-03
      6.04089210e-03 4.64684010e-04 7.89962802e-03 2.78810412e-03
      4.18215618e-03 4.18215618e-03 7.89962802e-03 6.04089210e-03
      7.43494416e-03 3.71747208e-03 5.11152390e-03 5.57620823e-03
      4.64684004e-03 2.32342002e-03 3.25278798e-03 2.78810412e-03
      6.50557596e-03 1.85873604e-03 5.11152390e-03 4.18215618e-03
      4.64684004e-03 5.57620823e-03 2.78810412e-03 9.29368020e-04
      2.32342002e-03 6.97026029e-03 1.39405206e-03 9.29368008e-03
      2.78810412e-03 2.32342002e-03 3.71747208e-03 5.11152390e-03
      3.71747208e-03 3.71747208e-03 1.06877321e-02 4.18215618e-03
      6.97026029e-03 3.25278798e-03 4.64684004e-03 4.18215618e-03
      1.39405206e-03 3.25278798e-03 7.43494416e-03 1.39405206e-03
      1.85873604e-03 5.11152390e-03 7.89962802e-03 1.85873604e-03
      5.57620823e-03 4.64684010e-04 0. 1.85873604e-03 3.71747208e-03
      5.11152390e-03 2.32342002e-03 6.04089210e-03 2.78810412e-03
      9.75836441e-03 1.39405206e-03 3.25278798e-03 4.18215618e-03
      6.97026029e-03 4.18215618e-03 2.32342002e-03 2.32342002e-03
      4.64684004e-03 5.11152390e-03 9.29368020e-04 1.85873604e-03
      6.50557596e-03 7.43494416e-03 2.32342002e-03 3.71747208e-03
      1.85873604e-03 1.02230478e-02 8.82899575e-03 2.32342002e-03
      4.18215618e-03 1.39405206e-03 6.04089210e-03 5.57620823e-03
      5.57620823e-03 4.18215618e-03 2.78810412e-03 1.39405206e-03
      4.64684010e-04 2.32342002e-03 6.04089210e-03 6.97026029e-03
      5.11152390e-03 2.32342002e-03 3.25278798e-03 5.57620823e-03
      4.18215618e-03 2.78810412e-03 8.36431235e-03 5.11152390e-03
      9.29368020e-04 2.32342002e-03 3.71747208e-03 4.64684004e-03
      3.25278798e-03 3.25278798e-03 3.71747208e-03 5.11152390e-03
      4.18215618e-03 1.85873604e-03 3.71747208e-03 3.25278798e-03
      6.50557596e-03 2.78810412e-03 5.11152390e-03 5.11152390e-03
      4.18215618e-03 2.78810412e-03 4.64684004e-03 5.57620823e-03
      5.57620823e-03 3.25278798e-03 1.85873604e-03 4.18215618e-03
      3.25278798e-03 2.78810412e-03 6.97026029e-03 4.64684010e-04
      4.18215618e-03 6.04089210e-03 8.36431235e-03 1.85873604e-03
      3.71747208e-03 6.97026029e-03 7.89962802e-03 9.29368020e-04
      7.89962802e-03 6.04089210e-03 6.04089210e-03 6.04089210e-03
      2.78810412e-03 5.57620823e-03 4.18215618e-03 1.11524165e-02
      1.39405206e-03 1.85873604e-03 3.25278798e-03 4.18215618e-03
      5.57620823e-03 7.89962802e-03 1.39405206e-03 2.78810412e-03
      5.11152390e-03 4.18215618e-03 1.85873604e-03 1.85873604e-03
      4.18215618e-03 4.18215618e-03 4.64684004e-03 6.04089210e-03
      7.43494416e-03 1.39405206e-03 2.32342002e-03 6.04089210e-03
      2.32342002e-03 4.64684010e-04 5.57620823e-03 6.04089210e-03
      6.97026029e-03 9.75836441e-03 5.57620823e-03 9.29368020e-04
      6.50557596e-03 4.64684004e-03 3.71747208e-03 9.29368020e-04
      2.32342002e-03 6.97026029e-03 4.64684004e-03 1.39405206e-03
      5.11152390e-03 2.32342002e-03 9.29368020e-04 2.32342002e-03
      7.43494416e-03 2.78810412e-03 5.11152390e-03 9.29368020e-04
      2.78810412e-03 1.16170999e-02 5.57620823e-03 4.64684004e-03
      5.11152390e-03 5.11152390e-03 2.32342002e-03 6.04089210e-03
      5.11152390e-03 0. 1.39405206e-03 3.25278798e-03 2.32342002e-03
      7.43494416e-03 9.29368020e-04 3.71747208e-03 4.64684004e-03
      1.20817842e-02 6.04089210e-03 1.39405206e-03 0. 4.64684004e-03
      5.57620823e-03 2.78810412e-03 3.25278798e-03 3.25278798e-03
      1.39405206e-03 3.25278798e-03 7.89962802e-03 3.25278798e-03
      1.85873604e-03 3.25278798e-03 3.71747208e-03 2.32342002e-03
      2.78810412e-03 2.78810412e-03 5.57620823e-03 2.32342002e-03
      1.85873604e-03 3.25278798e-03 2.32342002e-03 1.39405206e-03
      1.34758363e-02 1.85873604e-03 0. 2.78810412e-03 6.04089210e-03
      4.18215618e-03 1.39405206e-03 3.71747208e-03 4.64684004e-03</_>
    <_>
      2.67315935e-03 1.26755447e-03 2.07075733e-03 1.14205398e-03
      1.46835507e-03 6.18717168e-03 2.74845958e-03 4.58076596e-03
      7.11587491e-03 3.62696266e-03 1.73190609e-03 1.59385556e-03
      3.71481292e-03 3.60186258e-03 2.39705830e-03 1.75700616e-03
      3.57676251e-03 4.37996536e-03 3.13751097e-03 5.94872050e-03
      3.11241089e-03 2.23390781e-03 3.45126214e-03 2.30920804e-03
      2.49745860e-03 3.40106175e-03 6.86487369e-03 2.88650999e-03
      3.43871186e-03 8.40852910e-04 1.75700616e-03 1.53110537e-03
      2.43470841e-03 9.91453417e-04 2.96181021e-03 1.28010451e-03
      1.55620545e-03 1.04165366e-02 2.69825943e-03 5.60986949e-03
      4.14151466e-03 1.51855533e-03 2.66060932e-03 1.93270668e-03
      7.14097498e-03 3.89051344e-03 2.83630984e-03 3.65206273e-03
      6.80212351e-03 3.31321149e-03 4.59331600e-03 6.97782449e-03
      6.04912126e-03 7.50492606e-03 4.30466514e-03 1.19225413e-03
      7.76847685e-03 1.51855533e-03 4.73136641e-03 1.46835507e-03
      3.63951270e-03 1.73190609e-03 8.18262808e-03 8.35832953e-03
      1.08557874e-02 4.85686678e-03 3.55166243e-03 3.11241089e-03
      3.41361179e-03 9.53803305e-04 3.75246303e-03 2.81120976e-03
      1.86995650e-03 2.10840744e-03 2.98691052e-03 9.34978295e-03
      1.86995650e-03 7.46727595e-03 2.74845958e-03 4.40506544e-03
      1.26755447e-03 9.03603155e-04 8.91053118e-04 1.19225413e-03
      1.34285465e-02 1.38050481e-03 1.98290683e-03 6.38797227e-03
      9.91453417e-03 6.11187145e-03 5.55966934e-03 2.58530909e-03
      1.04165368e-03 3.26301134e-03 9.34978295e-03 1.90760661e-03
      1.51855533e-03 1.04165368e-03 8.81013088e-03 5.67261968e-03
      3.76501307e-03 1.94525672e-03 8.87288060e-03 6.85232366e-03
      3.80266318e-03 2.79865973e-03 3.84031329e-03 1.00902347e-02
      1.34285470e-03 1.22990424e-03 8.87288060e-03 7.19117513e-03
      1.43070496e-03 2.62295920e-03 3.13751097e-03 3.66461277e-03
      1.46835507e-03 1.05420372e-03 1.61895563e-03 3.21281119e-03
      2.87395995e-03 4.10386408e-03 4.83176671e-03 7.45472591e-03
      4.95726708e-03 8.44617933e-03 2.94926018e-03 1.59385556e-03
      1.38050481e-03 1.85740646e-03 3.97836370e-03 2.15860759e-03
      2.26026289e-02 5.43416897e-03 1.88250653e-03 1.25500432e-03
      1.26755447e-03 1.98290683e-03 5.14551811e-03 8.91053118e-04
      2.13350751e-03 1.10816890e-02 6.01147115e-03 2.68570939e-03
      1.46835507e-03 8.77248030e-03 3.91561352e-03 9.14898142e-03
      4.12896415e-03 7.15352478e-04 4.68116626e-03 8.08222778e-03
      6.06167130e-03 2.79865973e-03 7.02802441e-04 3.31321149e-03
      5.55966934e-03 1.25500439e-02 1.33030466e-03 4.84431675e-03
      4.51801578e-03 1.83230639e-03 1.14079900e-02 7.06567476e-03
      9.16153193e-04 3.47636221e-03 6.23737182e-03 1.50600530e-03
      1.00400345e-03 3.84031329e-03 5.89852035e-03 1.36795477e-03
      3.46381217e-03 5.15806815e-03 1.62899569e-02 3.01201059e-03
      1.06298868e-02 7.51747610e-03 3.13751097e-03 6.65152329e-04
      5.72281983e-03 3.89051344e-03 2.76100961e-03 2.12095748e-03
      3.58931255e-03 2.24645785e-03 2.59785913e-03 3.20026116e-03
      4.44271555e-03 3.82776326e-03 2.09585740e-03 3.77756311e-03
      2.37195822e-03 3.99091374e-03 1.56875548e-03 2.58530909e-03
      2.69825943e-03 3.22536123e-03 1.66915578e-03 8.25792830e-03
      9.85178445e-03 4.96981712e-03 1.10440387e-03 7.61787640e-03
      2.07075733e-03 7.29157543e-03 1.54365541e-03 3.02456063e-03
      2.79865973e-03 7.40452553e-04 7.11587491e-03 4.15406469e-03
      2.72335950e-03 2.92416010e-03 1.14832902e-02 5.94872050e-03
      5.48436912e-03 1.55620545e-03 6.46327250e-03 3.46381217e-03
      7.29157543e-03 3.47636221e-03 6.38797227e-03 2.71080947e-03
      2.98691052e-03 6.77702366e-04 4.88196686e-03 4.54311585e-03
      3.17516108e-03 1.28010446e-02 2.28410796e-03 2.49745860e-03
      7.81867746e-03 3.89051362e-04 1.06926374e-02 1.92015665e-03
      7.61787640e-03 3.28811142e-03 4.41761548e-03 3.15006101e-03</_>
    <_>
      3.42987804e-03 3.04878037e-03 6.85975607e-03 2.28658528e-03
      4.57317056e-03 3.04878037e-03 9.52743832e-03 1.90548773e-03
      3.42987804e-03 1.52439019e-03 1.14329264e-03 7.62195094e-03
      5.71646309e-03 3.04878037e-03 3.81097547e-03 3.42987804e-03
      4.57317056e-03 5.71646309e-03 3.81097547e-03 3.42987804e-03
      4.95426822e-03 1.52439019e-03 3.42987804e-03 5.33536542e-03
      8.38414580e-03 2.28658528e-03 1.52439019e-03 3.42987804e-03
      1.52439019e-03 5.33536542e-03 2.66768271e-03 3.04878037e-03
      2.66768271e-03 3.04878037e-03 6.09756075e-03 5.71646309e-03
      8.38414580e-03 6.47865841e-03 8.38414580e-03 1.52439019e-03
      4.57317056e-03 2.28658528e-03 7.62195094e-03 6.09756075e-03
      3.81097547e-03 3.42987804e-03 7.24085327e-03 2.28658528e-03
      5.71646309e-03 5.71646309e-03 1.90548773e-03 2.28658528e-03
      3.04878037e-03 1.14329264e-03 3.04878037e-03 1.14329264e-03
      1.90548773e-03 7.24085327e-03 2.28658528e-03 3.42987804e-03
      4.57317056e-03 6.09756075e-03 4.95426822e-03 4.95426822e-03
      7.24085327e-03 4.95426822e-03 3.04878037e-03 3.81097547e-03
      3.04878037e-03 5.71646309e-03 5.33536542e-03 1.14329264e-03
      6.47865841e-03 3.04878037e-03 4.19207290e-03 5.71646309e-03
      2.66768271e-03 3.42987804e-03 2.66768271e-03 4.19207290e-03
      2.66768271e-03 3.81097547e-03 3.04878037e-03 7.62195094e-03
      2.66768271e-03 3.42987804e-03 3.81097547e-03 6.09756075e-03
      4.57317056e-03 3.81097547e-03 4.57317056e-03 3.42987804e-03
      4.95426822e-03 1.90548773e-03 5.71646309e-03 1.90548773e-03
      6.47865841e-03 3.42987804e-03 2.66768271e-03 4.19207290e-03
      3.04878037e-03 2.66768271e-03 1.90548773e-03 2.66768271e-03
      1.52439019e-03 4.57317056e-03 4.95426822e-03 5.71646309e-03
      4.57317056e-03 2.28658528e-03 2.28658528e-03 3.81097547e-03
      2.66768271e-03 5.33536542e-03 3.04878037e-03 2.66768271e-03
      4.19207290e-03 6.47865841e-03 2.66768271e-03 3.81097547e-03
      7.62195094e-03 5.33536542e-03 3.42987804e-03 3.81097547e-03
      4.95426822e-03 5.71646309e-03 5.33536542e-03 3.81097547e-03
      1.90548773e-03 6.47865841e-03 4.19207290e-03 7.62195094e-03
      4.57317056e-03 1.52439019e-03 7.62195094e-04 4.19207290e-03
      1.90548773e-03 7.24085327e-03 4.19207290e-03 4.19207290e-03
      3.04878037e-03 6.09756075e-03 4.57317056e-03 4.95426822e-03
      7.24085327e-03 3.04878037e-03 3.42987804e-03 3.42987804e-03
      1.90548773e-03 3.04878037e-03 5.33536542e-03 6.09756075e-03
      3.81097547e-03 3.42987804e-03 6.09756075e-03 4.57317056e-03
      1.52439019e-03 1.18140243e-02 4.19207290e-03 3.04878037e-03
      1.90548773e-03 3.04878037e-03 4.57317056e-03 3.81097547e-03
      6.47865841e-03 2.66768271e-03 1.52439019e-03 2.28658528e-03
      3.81097547e-03 5.71646309e-03 2.28658528e-03 5.71646309e-03
      4.19207290e-03 3.04878037e-03 4.57317056e-03 4.57317056e-03
      9.52743832e-03 5.71646309e-03 5.71646309e-03 4.19207290e-03
      3.81097547e-03 6.09756075e-03 7.24085327e-03 6.47865841e-03
      2.28658528e-03 2.28658528e-03 3.81097547e-03 1.90548773e-03
      2.66768271e-03 1.14329264e-03 4.95426822e-03 3.81097547e-03
      2.28658528e-03 1.52439019e-03 4.57317056e-03 3.04878037e-03
      4.57317056e-03 7.24085327e-03 4.19207290e-03 3.04878037e-03
      4.19207290e-03 3.42987804e-03 5.71646309e-03 6.47865841e-03
      4.19207290e-03 3.04878037e-03 4.19207290e-03 3.81097547e-03
      4.95426822e-03 7.62195094e-04 3.04878037e-03 4.57317056e-03
      2.28658528e-03 3.42987804e-03 3.81097547e-03 6.09756075e-03
      6.85975607e-03 6.09756075e-03 4.19207290e-03 4.19207290e-03
      2.66768271e-03 4.19207290e-03 3.42987804e-03 2.28658528e-03
      5.71646309e-03 7.62195094e-03 1.52439019e-03 5.33536542e-03
      4.57317056e-03 7.24085327e-03 4.19207290e-03 5.71646309e-03
      6.47865841e-03 0. 3.42987804e-03 7.24085327e-03 5.71646309e-03
      3.81097547e-03 4.95426822e-03 3.81097547e-03</_>
    <_>
      1.37174211e-03 4.11522621e-03 2.05761311e-03 6.85871055e-04
      2.74348422e-03 4.45816200e-03 3.08641978e-03 2.74348422e-03
      3.42935533e-03 4.80109733e-03 2.05761311e-03 1.37174211e-03
      2.74348422e-03 7.88751710e-03 5.48696844e-03 5.82990376e-03
      5.14403312e-03 4.80109733e-03 4.11522621e-03 2.74348422e-03
      4.80109733e-03 7.54458178e-03 1.37174211e-03 4.11522621e-03
      1.30315498e-02 6.85871055e-04 1.71467767e-03 2.05761311e-03
      1.02880655e-03 2.40054866e-03 1.37174211e-03 1.02880655e-03
      2.05761311e-03 6.85871055e-04 1.02880655e-03 3.42935533e-03
      5.14403312e-03 5.14403312e-03 3.42935533e-03 1.71467767e-03
      5.14403312e-03 1.02880655e-03 6.85871055e-04 3.77229089e-03
      8.23045243e-03 2.74348422e-03 7.20164599e-03 8.91632400e-03
      5.82990376e-03 2.05761311e-03 2.40054866e-03 1.02880655e-03
      4.45816200e-03 1.02880655e-03 7.54458178e-03 2.40054866e-03
      3.42935533e-03 3.77229089e-03 6.51577488e-03 8.57338775e-03
      5.14403312e-03 6.17283955e-03 8.23045243e-03 3.08641978e-03
      6.85871067e-03 2.74348422e-03 1.71467767e-03 2.40054866e-03
      3.08641978e-03 6.51577488e-03 4.45816200e-03 2.05761311e-03
      1.02880655e-03 5.48696844e-03 2.05761311e-03 5.48696844e-03
      2.05761311e-03 7.20164599e-03 2.05761311e-03 2.40054866e-03
      1.37174211e-03 1.02880655e-03 6.85871055e-04 2.40054866e-03
      1.71467767e-03 4.11522621e-03 2.05761311e-03 4.11522621e-03
      9.60219465e-03 4.45816200e-03 8.57338775e-03 4.80109733e-03
      6.85871067e-03 1.37174211e-03 6.85871067e-03 2.40054866e-03
      2.74348422e-03 3.77229089e-03 4.80109733e-03 4.11522621e-03
      3.77229089e-03 1.71467767e-03 4.80109733e-03 2.74348422e-03
      5.14403312e-03 1.37174211e-03 1.13168722e-02 1.71467767e-03
      2.74348422e-03 4.11522621e-03 3.77229089e-03 3.77229089e-03
      2.74348422e-03 4.80109733e-03 6.17283955e-03 1.23456791e-02
      6.51577488e-03 6.51577488e-03 2.40054866e-03 5.82990376e-03
      2.05761311e-03 3.77229089e-03 6.85871067e-03 5.14403312e-03
      9.60219465e-03 1.37174211e-03 3.42935533e-03 4.45816200e-03
      2.74348422e-03 7.88751710e-03 3.42935533e-03 1.02880662e-02
      1.13168722e-02 2.40054866e-03 4.80109733e-03 4.80109733e-03
      1.37174211e-03 4.80109733e-03 2.05761311e-03 1.37174211e-03
      1.02880655e-03 4.45816200e-03 1.37174211e-03 2.05761311e-03
      6.17283955e-03 9.60219465e-03 7.20164599e-03 6.85871067e-03
      2.05761311e-03 3.08641978e-03 5.82990376e-03 6.51577488e-03
      3.77229089e-03 7.54458178e-03 2.40054866e-03 7.20164599e-03
      5.82990376e-03 4.45816200e-03 3.08641978e-03 4.80109733e-03
      1.71467767e-03 0. 1.13168722e-02 4.45816200e-03 7.88751710e-03
      3.42935527e-04 5.82990376e-03 1.37174211e-03 5.14403312e-03
      7.20164599e-03 2.74348422e-03 6.51577488e-03 3.77229089e-03
      4.45816200e-03 3.42935533e-03 5.82990376e-03 1.37174211e-03
      6.51577488e-03 2.74348422e-03 4.45816200e-03 4.80109733e-03
      1.71467767e-03 4.45816200e-03 3.42935533e-03 1.37174211e-03
      1.02880655e-03 1.37174211e-03 3.42935527e-04 5.14403312e-03
      5.48696844e-03 9.94512998e-03 2.05761311e-03 4.45816200e-03
      5.82990376e-03 5.82990376e-03 1.71467767e-03 5.14403312e-03
      1.37174211e-03 2.40054866e-03 5.14403312e-03 2.74348422e-03
      2.05761311e-03 3.42935533e-03 9.25925933e-03 3.77229089e-03
      1.37174211e-03 3.77229089e-03 3.08641978e-03 9.60219465e-03 0.
      2.40054866e-03 7.88751710e-03 5.48696844e-03 4.45816200e-03
      2.74348422e-03 9.94512998e-03 5.14403312e-03 1.37174211e-03
      1.71467767e-03 1.37174211e-03 4.45816200e-03 3.08641978e-03
      1.71467767e-03 3.42935527e-04 5.82990376e-03 6.85871067e-03
      1.06310016e-02 2.40054866e-03 5.48696844e-03 8.23045243e-03
      5.14403312e-03 8.91632400e-03 5.48696844e-03 6.85871055e-04
      3.42935533e-03 3.42935533e-03 3.42935533e-03 4.45816200e-03
      6.17283955e-03 4.11522621e-03</_>
    <_>
      5.35905687e-03 1.07181130e-03 2.50089308e-03 1.78635225e-03
      3.57270450e-03 2.85816356e-03 2.50089308e-03 7.14540901e-03
      4.64451592e-03 2.85816356e-03 5.00178616e-03 2.85816356e-03
      7.50267925e-03 1.07181130e-03 6.43086806e-03 2.14362261e-03
      5.35905687e-03 2.14362261e-03 7.14540889e-04 5.00178616e-03
      5.71632711e-03 1.42908178e-03 4.28724522e-03 2.14362261e-03
      3.21543403e-03 1.78635225e-03 4.64451592e-03 1.78635225e-03
      3.92997498e-03 3.21543403e-03 5.00178616e-03 3.21543403e-03
      3.21543403e-03 7.14540889e-04 3.92997498e-03 4.28724522e-03
      5.35905687e-03 2.50089308e-03 3.92997498e-03 1.21471947e-02
      7.85994995e-03 1.78635225e-03 3.21543403e-03 2.14362261e-03
      4.64451592e-03 6.07359735e-03 6.07359735e-03 1.07181130e-03
      8.21722019e-03 6.78813830e-03 2.50089308e-03 7.50267925e-03
      7.14540901e-03 8.93176068e-03 2.85816356e-03 5.71632711e-03
      1.00035723e-02 1.78635225e-03 1.07181130e-03 2.85816356e-03
      3.92997498e-03 7.85994995e-03 5.71632711e-03 1.17899245e-02
      8.21722019e-03 5.71632711e-03 7.50267925e-03 4.64451592e-03
      3.57270450e-03 2.50089308e-03 4.28724522e-03 2.85816356e-03
      3.57270445e-04 3.57270450e-03 6.07359735e-03 5.71632711e-03
      3.57270450e-03 3.57270450e-03 2.85816356e-03 4.64451592e-03
      3.57270450e-03 2.50089308e-03 7.14540889e-04 2.50089308e-03
      5.35905687e-03 1.42908178e-03 5.71632711e-03 1.07181137e-02
      1.78635225e-03 2.85816356e-03 7.14540889e-04 5.00178616e-03
      6.07359735e-03 3.57270450e-03 5.71632711e-03 3.57270450e-03
      3.21543403e-03 3.21543403e-03 4.28724522e-03 5.35905687e-03
      1.42908178e-03 2.50089308e-03 1.21471947e-02 8.21722019e-03
      6.07359735e-03 6.43086806e-03 1.42908178e-03 1.39335478e-02
      2.14362261e-03 2.50089308e-03 7.14540901e-03 6.43086806e-03
      5.71632711e-03 3.21543403e-03 1.78635225e-03 1.78635225e-03
      3.21543403e-03 1.78635225e-03 1.78635225e-03 2.50089308e-03
      3.57270450e-03 3.92997498e-03 2.50089308e-03 7.14540901e-03
      4.28724522e-03 7.14540901e-03 4.28724522e-03 5.00178616e-03
      7.14540889e-04 2.85816356e-03 6.43086806e-03 5.00178616e-03
      1.00035723e-02 7.14540901e-03 5.71632711e-03 7.14540901e-03
      1.42908178e-03 2.85816356e-03 3.57270450e-03 4.64451592e-03
      3.57270450e-03 1.10753840e-02 5.35905687e-03 1.42908178e-03
      3.92997498e-03 4.28724522e-03 3.92997498e-03 3.92997498e-03
      1.42908178e-03 5.00178616e-03 7.85994995e-03 5.00178616e-03
      5.35905687e-03 3.92997498e-03 5.71632711e-03 2.50089308e-03
      1.07181130e-03 8.93176068e-03 2.85816356e-03 5.35905687e-03
      3.57270450e-03 2.14362261e-03 5.00178616e-03 4.28724522e-03
      3.92997498e-03 3.57270450e-03 3.57270450e-03 1.42908178e-03
      1.42908178e-03 3.92997498e-03 3.92997498e-03 1.42908178e-03
      1.42908178e-03 1.78635225e-03 5.35905687e-03 3.57270445e-04
      5.35905687e-03 3.57270450e-03 5.00178616e-03 3.21543403e-03
      1.78635225e-03 6.07359735e-03 2.50089308e-03 2.50089308e-03
      3.57270450e-03 3.57270450e-03 4.28724522e-03 7.85994995e-03
      7.14540889e-04 3.92997498e-03 7.85994995e-03 5.00178616e-03
      4.28724522e-03 2.14362261e-03 3.92997498e-03 1.42908178e-03
      2.14362261e-03 2.85816356e-03 1.07181130e-03 3.57270450e-03
      5.35905687e-03 3.57270450e-03 4.28724522e-03 2.50089308e-03
      1.78635225e-03 3.21543403e-03 5.00178616e-03 4.28724522e-03
      1.42908178e-03 3.57270445e-04 6.43086806e-03 3.57270445e-04
      1.78635225e-03 3.21543403e-03 8.21722019e-03 4.28724522e-03
      5.00178616e-03 2.50089308e-03 3.92997498e-03 2.50089308e-03
      6.78813830e-03 3.21543403e-03 7.50267925e-03 3.21543403e-03
      5.00178616e-03 5.35905687e-03 2.85816356e-03 2.14362261e-03
      3.21543403e-03 8.93176068e-03 2.14362261e-03 5.71632711e-03
      5.00178616e-03 3.57270445e-04 1.03608426e-02 1.07181130e-03
      3.92997498e-03 5.00178616e-03 2.50089308e-03 6.07359735e-03</_>
    <_>
      2.07220856e-03 3.34741385e-03 8.04973301e-03 8.76703649e-04
      4.22411738e-03 1.35490566e-03 6.93392893e-03 5.10082114e-03
      7.65123172e-03 6.69482769e-03 4.54291888e-03 6.53542718e-03
      5.57902316e-03 1.99250830e-03 4.30381764e-03 1.99250830e-03
      5.10082114e-03 1.59400655e-03 1.83310756e-03 1.99250830e-03
      4.62261913e-03 2.39100982e-03 8.04973301e-03 7.09332945e-03
      5.33992192e-03 3.66621511e-03 6.61512744e-03 5.57902327e-04
      4.06471686e-03 2.86921184e-03 2.47071031e-03 4.54291888e-03
      6.05722517e-03 1.27520529e-03 2.15190882e-03 2.70981132e-03
      2.63011083e-03 6.37602620e-03 8.20913445e-03 6.93392893e-03
      3.58651485e-03 4.78201982e-04 1.27520529e-03 3.66621511e-03
      5.10082114e-03 6.85422821e-03 3.34741385e-03 4.94142063e-03
      6.05722517e-03 8.76703672e-03 6.69482769e-03 2.31130957e-03
      6.37602620e-03 2.55041057e-03 2.23160931e-03 1.91280793e-03
      5.18052140e-03 4.70231939e-03 2.15190882e-03 6.61512744e-03
      3.34741385e-03 6.85422821e-03 4.70231939e-03 5.18052140e-03
      3.58651485e-03 9.72344074e-03 4.62261913e-03 2.15190882e-03
      4.06471686e-03 3.34741385e-03 6.61512744e-03 3.26771359e-03
      1.59400655e-03 3.82561586e-03 6.13692543e-03 5.73842367e-03
      5.10082114e-03 2.23160931e-03 6.85422821e-03 9.40463878e-03
      1.51430629e-03 3.98501661e-03 1.19550491e-03 3.18801310e-03
      1.77731737e-02 2.94891233e-03 4.86172037e-03 4.46321862e-03
      1.19550491e-03 1.59400655e-03 2.63011083e-03 5.18052140e-03
      4.78201965e-03 3.58651485e-03 2.23160931e-03 1.67370692e-03
      3.66621511e-03 3.18801310e-03 4.30381764e-03 6.45572692e-03
      2.47071031e-03 1.27520529e-03 4.14441712e-03 2.63011083e-03
      6.53542718e-03 2.31130957e-03 5.02112089e-03 6.29632594e-03
      4.14441712e-03 1.67370692e-03 8.28883424e-03 5.26022166e-03
      6.21662568e-03 2.94891233e-03 1.83310756e-03 5.10082114e-03
      4.62261913e-03 2.07220856e-03 8.76703649e-04 3.10831284e-03
      4.22411738e-03 9.08583775e-03 1.91280793e-03 7.73093197e-03
      4.62261913e-03 6.61512744e-03 3.66621511e-03 6.61512744e-03
      1.27520529e-03 5.73842367e-03 7.17302971e-03 6.13692543e-03
      1.67370692e-03 4.94142063e-03 4.70231939e-03 5.73842367e-03
      1.11580465e-03 2.70981132e-03 4.62261913e-03 5.41962264e-03
      9.32493899e-03 4.14441712e-03 5.73842367e-03 3.18801310e-03
      7.73093197e-03 2.47071031e-03 1.75340730e-03 5.57902316e-03
      1.99250830e-03 3.74591560e-03 8.36853497e-03 3.26771359e-03
      3.98501661e-03 4.46321862e-03 3.90531612e-03 3.74591560e-03
      2.63011083e-03 4.14441712e-03 2.86921184e-03 7.57153146e-03
      4.62261913e-03 6.61512744e-03 2.63011083e-03 2.86921184e-03
      5.18052140e-03 1.99250830e-03 1.67370692e-03 4.06471686e-03
      2.31130957e-03 4.86172037e-03 7.41213094e-03 4.38351836e-03
      7.17302959e-04 2.07220856e-03 6.53542718e-03 1.03610428e-03
      2.15190882e-03 2.78951158e-03 3.74591560e-03 2.78951158e-03
      2.15190882e-03 2.78951158e-03 3.34741385e-03 2.70981132e-03
      3.26771359e-03 1.09986458e-02 3.18801310e-03 1.75340730e-03
      1.51430629e-03 3.66621511e-03 4.22411738e-03 1.51430629e-03
      5.02112089e-03 2.07220856e-03 4.62261913e-03 5.57902327e-04
      3.58651485e-03 7.01362919e-03 1.51430629e-03 3.10831284e-03
      5.18052140e-03 5.18052140e-03 3.34741385e-03 1.75340730e-03
      1.03610428e-03 6.53542718e-03 5.89782465e-03 2.23160931e-03
      3.66621511e-03 5.57902327e-04 8.92643724e-03 5.26022166e-03
      1.11580465e-03 3.50681460e-03 9.64374002e-03 2.39100982e-03
      2.47071031e-03 4.62261913e-03 1.02813430e-02 2.47071031e-03
      5.10082114e-03 4.22411738e-03 4.78201965e-03 2.23160931e-03
      2.86921184e-03 3.02861258e-03 5.49932290e-03 2.31130957e-03
      2.78951158e-03 3.42711410e-03 1.99250830e-03 2.39100982e-03
      4.30381764e-03 1.59400661e-04 4.22411738e-03 5.65872341e-03
      7.33243022e-03 4.54291888e-03 5.97752491e-03 4.86172037e-03</_>
    <_>
      1.49142428e-03 2.23713648e-03 1.49142428e-03 2.23713648e-03
      8.20283312e-03 1.49142428e-03 3.72856064e-03 2.23713648e-03
      5.96569711e-03 2.23713648e-03 4.47427295e-03 1.11856824e-02
      2.23713648e-03 7.45712128e-03 5.21998480e-03 4.47427295e-03
      2.98284856e-03 2.23713648e-03 1.49142428e-03 0. 5.96569711e-03
      1.26771061e-02 2.23713648e-03 7.45712139e-04 2.98284856e-03 0.
      7.45712139e-04 7.45712139e-04 2.98284856e-03 9.69425775e-03
      4.47427295e-03 3.72856064e-03 1.49142428e-03 1.49142428e-03
      9.69425775e-03 5.96569711e-03 8.20283312e-03 3.72856064e-03
      2.98284856e-03 7.45712139e-04 1.49142428e-03 1.49142428e-03
      8.20283312e-03 5.21998480e-03 3.72856064e-03 1.49142428e-03
      1.34228189e-02 1.49142428e-03 2.23713648e-03 2.98284856e-03
      1.49142428e-03 0. 3.72856064e-03 0. 2.23713648e-03 2.23713648e-03
      2.23713648e-03 4.47427295e-03 2.23713648e-03 5.96569711e-03
      4.47427295e-03 5.21998480e-03 1.49142428e-03 2.23713648e-03
      3.72856064e-03 7.45712128e-03 7.45712139e-04 1.49142428e-03
      2.98284856e-03 5.21998480e-03 7.45712139e-04 1.34228189e-02
      5.21998480e-03 1.26771061e-02 4.47427295e-03 3.72856064e-03
      3.72856064e-03 0. 5.21998480e-03 8.94854590e-03 4.47427295e-03
      3.72856064e-03 2.23713648e-03 1.49142426e-02 1.04399696e-02
      5.96569711e-03 4.47427295e-03 1.49142428e-03 2.23713648e-03
      2.23713648e-03 2.23713648e-03 7.45712139e-04 1.41685307e-02
      7.45712139e-04 2.98284856e-03 7.45712128e-03 7.45712128e-03
      9.69425775e-03 5.21998480e-03 0. 4.47427295e-03 7.45712139e-04
      1.49142428e-03 7.45712139e-04 2.98284856e-03 1.41685307e-02
      1.49142428e-03 0. 9.69425775e-03 5.21998480e-03 4.47427295e-03
      2.23713648e-03 3.72856064e-03 2.98284856e-03 0. 4.47427295e-03
      5.21998480e-03 7.45712139e-04 1.11856824e-02 1.49142428e-03
      2.23713648e-03 1.49142428e-03 3.72856064e-03 5.21998480e-03
      2.23713648e-03 3.72856064e-03 2.23713648e-03 3.72856064e-03 0.
      4.47427295e-03 2.23713648e-03 5.21998480e-03 2.23713648e-03
      1.49142428e-03 4.47427295e-03 4.47427295e-03 1.49142428e-03
      5.21998480e-03 7.45712139e-04 8.20283312e-03 2.98284856e-03
      1.49142428e-03 5.21998480e-03 5.21998480e-03 1.49142428e-03 0.
      2.23713648e-03 5.21998480e-03 2.98284856e-03 5.96569711e-03
      5.21998480e-03 7.45712139e-04 7.45712139e-04 3.72856064e-03
      8.20283312e-03 2.98284856e-03 7.45712139e-04 2.75913496e-02
      3.72856064e-03 8.94854590e-03 2.98284856e-03 8.94854590e-03 0.
      2.98284856e-03 3.72856064e-03 3.72856064e-03 2.23713648e-03
      2.23713648e-03 2.98284856e-03 2.98284856e-03 0. 2.98284856e-03
      2.23713648e-03 2.16256529e-02 7.45712139e-04 3.72856064e-03
      2.01342274e-02 1.49142428e-03 3.72856064e-03 5.96569711e-03
      1.49142428e-03 1.93885155e-02 4.47427295e-03 4.47427295e-03
      1.49142428e-03 2.23713648e-03 3.72856064e-03 1.56599544e-02
      1.49142428e-03 2.98284856e-03 3.72856064e-03 8.20283312e-03
      2.23713648e-03 1.04399696e-02 9.69425775e-03 2.23713648e-03
      2.23713648e-03 4.47427295e-03 7.45712139e-04 0. 2.98284856e-03
      7.45712139e-04 7.45712128e-03 3.72856064e-03 1.49142428e-03
      1.49142428e-03 3.72856064e-03 1.71513800e-02 3.72856064e-03
      2.23713648e-03 3.72856064e-03 1.49142428e-03 3.72856064e-03
      5.96569711e-03 8.94854590e-03 3.72856064e-03 2.23713648e-03
      4.47427295e-03 0. 7.45712139e-04 1.49142428e-03 3.72856064e-03
      3.72856064e-03 7.45712139e-04 2.23713648e-03 1.26771061e-02
      1.49142428e-03 3.72856064e-03 7.45712139e-04 2.23713648e-03
      2.23713648e-03 1.56599544e-02 2.23713648e-03 0. 7.45712139e-04
      5.96569711e-03 6.71140943e-03 7.45712139e-04 1.49142428e-03 0.</_>
    <_>
      9.48302262e-03 4.12970362e-03 4.74151131e-03 1.42245339e-02
      2.90608755e-03 1.52951980e-04 4.12970362e-03 2.29427963e-03
      3.82379955e-03 2.90608755e-03 3.21199163e-03 4.74151131e-03
      4.43560723e-03 7.03579094e-03 2.29427963e-03 3.67084751e-03
      2.90608755e-03 5.20036742e-03 4.43560723e-03 4.12970362e-03
      3.05903959e-03 8.87121446e-03 3.21199163e-03 3.05903959e-03
      4.43560723e-03 2.90608755e-03 4.28265519e-03 1.05536869e-02
      1.07066380e-03 3.51789547e-03 9.17711877e-04 3.67084751e-03
      4.58855927e-03 4.43560723e-03 1.52951980e-03 7.95350317e-03
      3.36494343e-03 4.12970362e-03 3.05903959e-03 1.37656787e-03
      3.67084751e-03 5.65922307e-03 2.29427963e-03 3.05903959e-03
      1.52951980e-03 3.05903959e-04 4.43560723e-03 4.43560723e-03
      1.83542375e-03 3.36494343e-03 2.60018371e-03 1.22361584e-03
      3.36494343e-03 0. 4.74151131e-03 3.97675158e-03 3.21199163e-03
      2.90608755e-03 2.90608755e-03 4.89446335e-03 7.18874298e-03
      4.58855927e-03 3.21199163e-03 1.68247172e-03 2.44723167e-03
      4.28265519e-03 3.82379955e-03 9.02416650e-03 1.37656787e-03
      3.97675158e-03 3.21199163e-03 7.64759909e-03 3.51789547e-03
      5.20036742e-03 4.43560723e-03 1.83542375e-03 4.28265519e-03
      2.29427963e-03 3.82379955e-03 5.65922307e-03 3.67084751e-03
      9.02416650e-03 3.67084751e-03 9.48302262e-03 6.11807918e-03
      2.29427963e-03 6.72988687e-03 2.44723167e-03 1.83542375e-03
      1.00948308e-02 3.05903959e-03 4.89446335e-03 3.21199163e-03
      1.22361584e-03 3.05903959e-03 2.35546045e-02 8.10645521e-03
      6.72988687e-03 3.05903959e-03 3.67084751e-03 6.42398326e-03
      1.23891104e-02 1.07066380e-03 7.95350317e-03 1.83542375e-03
      2.44723167e-03 1.37656787e-03 1.98837579e-03 3.05903959e-03
      5.04741538e-03 1.68247172e-03 1.98837579e-03 5.50627150e-03
      2.60018371e-03 2.14132760e-03 1.98837579e-03 4.74151131e-03
      2.14132760e-03 1.94249023e-02 3.97675158e-03 5.20036742e-03
      3.21199163e-03 2.14132760e-03 1.98837579e-03 1.07066380e-03
      2.14132760e-03 3.97675158e-03 4.43560723e-03 6.72988687e-03
      2.44723167e-03 3.97675158e-03 6.11807918e-03 1.52951980e-03
      4.58855927e-03 3.36494343e-03 2.90608755e-03 1.23891104e-02
      4.43560723e-03 1.22361584e-03 8.10645521e-03 2.60018371e-03
      1.83542375e-03 2.90608755e-03 1.83542375e-03 4.28265519e-03
      1.07066380e-03 3.21199163e-03 2.29427963e-03 2.14132760e-03
      6.42398326e-03 2.14132760e-03 2.14132760e-03 1.37656787e-03
      2.14132760e-03 3.97675158e-03 4.28265519e-03 2.75313575e-03
      1.11654941e-02 4.89446335e-03 3.51789547e-03 4.74151131e-03
      2.44723167e-03 1.22361584e-03 2.60018371e-03 2.90608755e-03
      4.89446335e-03 6.88283890e-03 6.57693530e-03 1.98837579e-03
      3.21199163e-03 2.14132760e-03 3.51789547e-03 4.28265519e-03
      1.45304380e-02 2.44723167e-03 1.00948308e-02 5.04741538e-03
      1.68247172e-03 3.97675158e-03 8.10645521e-03 2.14132760e-03
      2.44723167e-03 6.27103122e-03 4.12970362e-03 2.90608755e-03
      3.05903959e-03 6.88283890e-03 6.27103122e-03 2.90608755e-03
      2.75313575e-03 4.12970362e-03 2.90608755e-03 2.90608755e-03
      3.67084751e-03 3.21199163e-03 1.39186298e-02 3.97675158e-03
      3.05903959e-03 7.80055113e-03 1.83542375e-03 2.60018371e-03
      1.37656787e-03 3.51789547e-03 1.22361584e-03 2.75313575e-03
      3.36494343e-03 3.21199163e-03 5.04741538e-03 3.05903959e-03
      1.07066389e-02 1.52951980e-03 1.22361584e-03 1.05536869e-02
      1.98837579e-03 7.64759898e-04 1.52951980e-03 5.96512714e-03
      3.67084751e-03 1.83542375e-03 5.65922307e-03 3.21199163e-03
      2.75313575e-03 3.21199163e-03 5.81217511e-03 1.83542375e-03
      3.36494343e-03 1.52951980e-03 4.12970362e-03 3.97675158e-03
      1.98837579e-03 1.98837579e-03 4.74151131e-03 2.44723167e-03
      1.68247186e-02 4.74151131e-03 3.82379955e-03 2.60018371e-03
      2.90608755e-03 4.58855927e-03 1.98837579e-03</_>
    <_>
      1.21951215e-02 6.09756098e-04 1.82926829e-03 2.31707320e-02
      4.87804879e-03 0. 3.04878037e-03 6.09756098e-04 6.09756098e-04
      2.43902439e-03 1.82926829e-03 2.43902439e-03 0. 4.87804879e-03
      6.09756098e-04 9.14634112e-03 1.82926829e-03 2.43902439e-03
      1.82926829e-03 5.48780477e-03 6.09756098e-04 1.52439028e-02
      1.82926829e-03 4.26829280e-03 1.82926829e-03 3.65853659e-03
      2.43902439e-03 1.40243899e-02 2.43902439e-03 6.09756075e-03
      2.43902439e-03 7.92682916e-03 1.21951220e-03 9.14634112e-03
      7.92682916e-03 1.15853660e-02 3.65853659e-03 3.65853659e-03 0.
      6.09756098e-04 1.21951220e-03 1.15853660e-02 9.75609757e-03
      1.82926829e-03 6.09756098e-04 6.09756098e-04 4.87804879e-03
      2.43902439e-03 1.21951220e-03 1.82926829e-03 6.09756098e-04
      6.09756098e-04 0. 0. 0. 4.26829280e-03 1.21951220e-03
      1.21951220e-03 1.21951220e-03 4.26829280e-03 3.04878037e-03
      1.82926829e-03 1.82926829e-03 6.09756098e-04 1.21951220e-03
      3.65853659e-03 2.43902439e-03 1.28048779e-02 2.43902439e-03
      2.43902439e-03 2.43902439e-03 3.65853659e-03 5.48780477e-03
      3.04878037e-03 3.65853659e-03 1.82926829e-03 2.43902439e-03
      1.82926829e-03 3.04878037e-03 1.82926829e-03 4.87804879e-03
      2.01219507e-02 8.53658561e-03 1.28048779e-02 3.04878037e-03
      1.21951220e-03 6.09756098e-04 1.21951220e-03 1.21951220e-03
      3.65853659e-03 6.09756098e-04 1.21951220e-03 6.09756075e-03 0.
      1.82926829e-03 3.17073166e-02 1.03658540e-02 1.21951220e-03
      4.26829280e-03 6.09756098e-04 6.70731720e-03 1.09756095e-02 0.
      2.43902439e-03 0. 7.92682916e-03 6.09756098e-04 1.82926829e-03
      4.87804879e-03 2.43902439e-03 1.21951220e-03 1.21951220e-03
      1.82926829e-03 2.43902439e-03 1.21951220e-03 1.21951220e-03
      2.43902439e-03 1.21951220e-03 3.41463424e-02 2.43902439e-03
      6.09756075e-03 6.09756098e-04 5.48780477e-03 1.82926829e-03
      1.82926829e-03 2.43902439e-03 1.82926829e-03 4.87804879e-03
      1.58536583e-02 1.21951220e-03 3.65853659e-03 4.87804879e-03
      1.21951220e-03 6.09756098e-04 2.43902439e-03 3.65853659e-03
      2.31707320e-02 3.04878037e-03 6.09756098e-04 3.65853659e-03
      3.04878037e-03 1.21951220e-03 3.04878037e-03 2.43902439e-03
      4.87804879e-03 6.09756098e-04 2.43902439e-03 6.09756098e-04
      3.04878037e-03 6.09756098e-04 1.21951220e-03 6.09756098e-04
      1.21951220e-03 2.43902439e-03 3.65853659e-03 2.43902439e-03
      2.43902439e-03 1.70731712e-02 1.82926829e-03 3.65853659e-03
      3.04878037e-03 3.65853659e-03 1.82926829e-03 2.43902439e-03
      3.65853659e-03 4.87804879e-03 5.48780477e-03 1.40243899e-02 0.
      6.09756098e-04 0. 4.87804879e-03 4.26829280e-03 1.09756095e-02 0.
      1.82926822e-02 2.19512191e-02 6.09756098e-04 3.04878037e-03
      1.21951220e-03 3.04878037e-03 1.34146344e-02 7.31707318e-03
      1.21951220e-03 3.65853659e-03 0. 3.04878037e-03 6.70731720e-03
      1.21951220e-03 1.21951220e-03 4.87804879e-03 4.26829280e-03
      1.82926829e-03 6.70731720e-03 5.48780477e-03 1.76829267e-02
      2.43902439e-03 1.21951220e-03 1.95121951e-02 6.09756098e-04
      1.21951220e-03 1.21951220e-03 7.92682916e-03 1.21951220e-03
      1.21951220e-03 6.09756098e-04 4.87804879e-03 5.48780477e-03
      6.09756098e-04 2.74390243e-02 0. 6.09756098e-04 8.53658561e-03
      1.21951220e-03 0. 1.82926829e-03 6.09756098e-04 3.04878037e-03
      6.09756098e-04 4.26829280e-03 6.09756098e-04 1.21951220e-03
      1.21951220e-03 1.03658540e-02 1.21951220e-03 5.48780477e-03
      1.82926829e-03 6.70731720e-03 3.04878037e-03 0. 6.09756098e-04
      7.92682916e-03 0. 3.04878056e-02 6.09756098e-04 6.09756098e-04
      1.21951220e-03 1.82926829e-03 0. 6.09756098e-04</_>
    <_>
      2.35825870e-03 5.20782126e-03 3.53738805e-03 2.25999788e-03
      4.02869191e-03 5.89564675e-04 6.09216839e-03 5.10956068e-03
      3.04608420e-03 5.99390781e-03 3.63564887e-03 3.43912747e-03
      2.84956256e-03 2.06347648e-03 2.65304116e-03 2.94782338e-03
      5.79738617e-03 3.73390969e-03 2.25999788e-03 2.55478034e-03
      5.50260395e-03 2.94782338e-04 5.99390781e-03 4.91303904e-03
      5.99390781e-03 4.61825682e-03 2.75130197e-03 1.76869403e-03
      7.66434101e-03 3.83217051e-03 1.27739017e-03 3.14434501e-03
      5.01130009e-03 9.82607831e-04 2.84956256e-03 3.14434501e-03
      9.82607831e-04 3.34086665e-03 9.33477469e-03 3.53738805e-03
      5.20782126e-03 1.57217251e-03 2.25999788e-03 7.86086265e-03
      5.30608231e-03 6.19042944e-03 3.24260583e-03 3.83217051e-03
      3.63564887e-03 5.50260395e-03 5.69912512e-03 1.67043332e-03
      2.84956256e-03 7.86086253e-04 8.05738382e-03 1.67043332e-03
      3.83217051e-03 7.56607996e-03 4.91303904e-03 6.28869003e-03
      3.24260583e-03 3.34086665e-03 2.55478034e-03 4.71651740e-03
      5.01130009e-03 2.45651952e-03 4.51999577e-03 2.75130197e-03
      4.81477845e-03 4.42173518e-03 6.77999388e-03 4.32347460e-03
      1.08086865e-03 5.30608231e-03 4.02869191e-03 4.91303904e-03
      3.63564887e-03 4.81477845e-03 3.34086665e-03 3.24260583e-03
      9.82607831e-04 2.06347648e-03 1.76869403e-03 3.14434501e-03
      4.22521355e-03 5.40434290e-03 6.19042944e-03 3.34086665e-03
      6.19042944e-03 2.45651952e-03 7.76260160e-03 4.42173518e-03
      4.02869191e-03 7.27129774e-03 5.01130009e-03 2.45651952e-03
      1.67043332e-03 5.40434290e-03 4.71651740e-03 7.56607996e-03
      3.04608420e-03 2.06347648e-03 3.73390969e-03 2.55478034e-03
      6.48521166e-03 2.65304116e-03 4.12695296e-03 4.91303904e-03
      3.63564887e-03 7.17303716e-03 3.24260583e-03 6.68173330e-03
      3.83217051e-03 5.50260395e-03 6.58347225e-03 4.32347460e-03
      7.07477611e-03 3.83217051e-03 1.86695484e-03 4.71651740e-03
      3.43912747e-03 5.50260395e-03 5.50260395e-03 3.93043132e-03
      4.51999577e-03 4.12695296e-03 5.89564675e-03 5.10956068e-03
      9.82607831e-04 4.91303904e-03 4.32347460e-03 8.05738382e-03
      6.58347225e-03 2.45651952e-03 4.61825682e-03 4.02869191e-03
      1.57217251e-03 4.61825682e-03 6.19042944e-03 2.94782338e-03
      6.68173330e-03 2.25999788e-03 4.51999577e-03 6.68173330e-03
      8.05738382e-03 6.28869003e-03 8.15564487e-03 2.65304116e-03
      1.67043332e-03 4.12695296e-03 3.43912747e-03 6.19042944e-03
      5.89564675e-03 5.30608231e-03 2.84956256e-03 3.83217051e-03
      6.77999388e-03 2.25999788e-03 4.12695296e-03 4.81477845e-03
      4.51999577e-03 3.24260583e-03 4.42173518e-03 3.73390969e-03
      5.89564675e-03 4.02869191e-03 2.65304116e-03 2.94782338e-03
      2.94782338e-03 5.79738617e-03 6.48521166e-03 5.99390781e-03
      2.16173730e-03 3.93043127e-04 3.24260583e-03 2.25999788e-03
      3.53738805e-03 7.07477611e-03 5.30608231e-03 3.83217051e-03
      3.63564887e-03 3.34086665e-03 4.22521355e-03 4.32347460e-03
      2.35825870e-03 6.19042944e-03 2.55478034e-03 2.06347648e-03
      6.19042944e-03 4.12695296e-03 4.71651740e-03 2.16173730e-03
      2.84956256e-03 2.45651952e-03 6.38695061e-03 1.57217251e-03
      5.10956068e-03 6.58347225e-03 9.82607831e-04 4.42173518e-03
      3.14434501e-03 5.79738617e-03 3.73390969e-03 6.48521166e-03
      2.94782338e-03 3.43912747e-03 4.32347460e-03 3.34086665e-03
      5.10956068e-03 9.82607831e-04 3.53738805e-03 4.51999577e-03
      1.67043332e-03 5.10956068e-03 2.94782338e-03 8.45042709e-03
      4.02869191e-03 2.35825870e-03 5.69912512e-03 2.55478034e-03
      4.32347460e-03 5.89564675e-03 5.30608231e-03 2.35825870e-03
      4.12695296e-03 3.93043132e-03 5.10956068e-03 3.04608420e-03
      3.83217051e-03 4.12695296e-03 3.93043132e-03 4.61825682e-03
      6.19042944e-03 3.93043127e-04 5.60086453e-03 8.54868814e-03
      2.25999788e-03 5.10956068e-03 6.77999388e-03 3.24260583e-03</_>
    <_>
      1.31357769e-02 2.30343011e-03 2.73921434e-03 1.53146973e-02
      3.67303728e-03 0. 4.23333095e-03 3.61078233e-03 1.12058758e-03
      5.47842868e-03 3.92205687e-03 4.66911495e-03 2.30343011e-03
      4.79362486e-03 2.67695938e-03 9.46274027e-03 1.99215580e-03
      5.66519285e-03 5.22940885e-03 4.66911495e-03 2.73921434e-03
      5.78970276e-03 9.33823059e-04 2.49019475e-03 3.67303728e-03
      3.42401769e-03 1.05833274e-03 9.77401435e-03 1.99215580e-03
      1.68088148e-03 5.04264422e-03 6.16323203e-03 1.43186201e-03
      1.10191116e-02 2.11666548e-03 1.48789138e-02 2.92597874e-03
      3.79754696e-03 3.36176297e-03 4.10882151e-03 6.03872212e-03
      1.13926409e-02 6.59901602e-03 5.35391876e-03 1.92990096e-03
      1.18284253e-03 1.24509737e-03 3.36176297e-03 1.43186201e-03
      2.24117516e-03 8.71568162e-04 1.55637169e-03 1.61862653e-03
      8.09313264e-04 2.73921434e-03 4.73137014e-03 2.17892043e-03
      4.35784087e-03 2.36568507e-03 2.11666548e-03 6.66127075e-03
      4.23333095e-03 2.42793979e-03 2.24117516e-03 3.48627265e-03
      3.73529224e-03 3.98431160e-03 7.84411374e-03 3.92205687e-03
      1.55637169e-03 2.17892043e-03 7.90636800e-03 3.67303728e-03
      2.55244970e-03 1.61862653e-03 1.74313632e-03 5.91421267e-03
      6.16323203e-03 2.42793979e-03 5.72744804e-03 6.28774194e-03
      8.65342654e-03 1.59995016e-02 1.45053845e-02 1.86764612e-03
      2.98823370e-03 1.24509737e-03 5.16715413e-03 2.86372402e-03
      5.16715413e-03 1.49411685e-03 3.29950801e-03 2.73921434e-03
      1.49411685e-03 3.73529224e-03 2.11044010e-02 5.97646739e-03
      1.49411685e-03 2.61470443e-03 2.24117516e-03 8.15538783e-03
      9.08921100e-03 3.05048865e-03 8.65342654e-03 4.29558614e-03
      1.55637169e-03 2.73921434e-03 3.42401769e-03 3.54852760e-03
      1.36960717e-03 1.86764612e-03 2.98823370e-03 6.28774194e-03
      2.49019475e-03 1.49411685e-03 3.29950801e-03 4.17107623e-03
      1.12058758e-03 2.09798906e-02 3.29950801e-03 6.59901602e-03
      2.61470443e-03 2.42793979e-03 1.55637169e-03 1.99215580e-03
      9.33823059e-04 1.68088148e-03 1.74313632e-03 7.40832929e-03
      2.17892043e-03 4.42009559e-03 3.17499833e-03 3.85980192e-03
      5.66519285e-03 1.36960717e-03 2.24117516e-03 1.64352860e-02
      2.67695938e-03 1.74313632e-03 5.47842868e-03 1.99215580e-03
      1.74313632e-03 4.23333095e-03 3.05048865e-03 2.67695938e-03
      2.17892043e-03 2.30343011e-03 2.17892043e-03 4.23333095e-03
      3.48627265e-03 2.98823370e-03 2.61470443e-03 4.60686022e-03
      2.05441075e-03 1.36960717e-03 6.28774194e-03 1.74313632e-03
      1.55637169e-03 1.80539116e-03 3.23725305e-03 4.04656632e-03
      4.35784087e-03 3.79754696e-03 5.22940885e-03 2.61470443e-03
      5.91421267e-03 4.73137014e-03 7.28381984e-03 1.43186201e-03
      3.79754696e-03 9.33823059e-04 2.92597874e-03 3.48627265e-03
      6.03872212e-03 1.12058758e-03 8.40440765e-03 3.11274338e-03
      2.98823370e-03 3.73529224e-03 2.80146906e-03 3.67303728e-03
      1.36960717e-03 6.84803538e-03 1.86764612e-03 4.60686022e-03
      2.42793979e-03 1.12058762e-02 1.26377381e-02 2.67695938e-03
      3.54852760e-03 3.85980192e-03 1.86764612e-03 3.17499833e-03
      3.67303728e-03 2.73921434e-03 1.02097988e-02 5.54068340e-03
      2.36568507e-03 1.19529348e-02 4.35784087e-03 8.71568162e-04
      2.11666548e-03 3.54852760e-03 1.30735221e-03 1.55637169e-03
      1.86764612e-03 2.55244970e-03 1.18284253e-03 3.11274338e-03
      2.12289095e-02 1.12058758e-03 3.05048865e-03 8.34215246e-03
      2.67695938e-03 2.11666548e-03 1.86764612e-03 5.54068340e-03
      4.23333095e-03 1.30735221e-03 8.21764302e-03 3.42401769e-03
      3.92205687e-03 2.73921434e-03 5.66519285e-03 3.67303728e-03
      1.92990096e-03 2.80146906e-03 4.17107623e-03 7.34607456e-03
      1.30735221e-03 1.30735221e-03 2.36568507e-03 1.80539116e-03
      1.43186199e-02 4.17107623e-03 3.48627265e-03 1.30735221e-03
      2.92597874e-03 3.11274338e-03 4.17107623e-03</_>
    <_>
      1.84065220e-03 3.68130440e-03 6.83670817e-03 6.57375809e-03
      3.68130440e-03 2.62950314e-04 1.31475157e-03 0. 1.84065220e-03
      2.36655283e-03 5.52195683e-03 7.09965825e-03 2.10360251e-03
      3.94425448e-03 2.10360251e-03 2.62950314e-03 1.31475157e-03
      1.84065220e-03 2.62950314e-04 3.94425448e-03 7.88850943e-04
      2.49802805e-02 3.68130440e-03 3.41835408e-03 4.20720503e-03
      5.25900628e-04 3.15540377e-03 1.57770189e-03 2.10360251e-03
      1.07809631e-02 7.88850896e-03 3.94425448e-03 4.99605574e-03
      4.73310566e-03 9.99211147e-03 1.05180126e-02 1.97212733e-02
      2.36655283e-03 2.62950314e-03 1.84065220e-03 1.31475157e-03
      2.62950314e-04 2.07730755e-02 1.57770189e-03 1.05180126e-03
      1.31475157e-03 4.47015557e-03 1.84065220e-03 1.31475157e-03
      3.94425448e-03 3.94425448e-03 3.41835408e-03 2.62950314e-03
      7.88850943e-04 2.36655283e-03 1.31475162e-02 7.88850943e-04
      1.84065220e-03 3.15540377e-03 3.41835408e-03 2.10360251e-03
      4.20720503e-03 2.89245346e-03 7.88850943e-04 1.31475157e-03
      4.99605574e-03 2.62950314e-03 1.05180126e-03 2.36655283e-03
      1.02550620e-02 1.84065220e-03 1.52511187e-02 1.18327644e-02
      3.94425448e-03 5.78490691e-03 7.88850943e-04 5.52195683e-03
      5.25900628e-04 3.94425448e-03 6.04785699e-03 4.99605574e-03
      8.15145951e-03 4.20720503e-03 8.41441005e-03 3.94425448e-03
      2.62950314e-03 6.57375809e-03 7.88850943e-04 1.57770189e-03
      3.68130440e-03 3.68130440e-03 2.62950314e-03 7.88850896e-03
      2.89245346e-03 2.62950314e-03 7.36260880e-03 3.15540377e-03
      3.94425448e-03 7.88850943e-04 7.88850943e-04 1.84065220e-03
      1.57770189e-03 1.31475157e-03 2.10360251e-03 2.10360251e-03
      1.13068633e-02 5.52195683e-03 1.31475157e-03 3.68130440e-03
      2.10360251e-03 2.36655283e-03 2.10360251e-03 6.04785699e-03
      7.36260880e-03 4.47015557e-03 3.15540377e-03 1.84065220e-03
      7.09965825e-03 1.84065220e-03 2.36655283e-03 7.88850896e-03
      2.10360251e-03 1.05180126e-03 2.62950314e-03 5.78490691e-03
      1.31475157e-03 1.84065220e-03 2.62950314e-03 3.68130440e-03
      6.04785699e-03 2.36655283e-03 1.05180126e-03 9.20326076e-03
      1.05180126e-03 6.04785699e-03 4.20720503e-03 7.36260880e-03
      7.09965825e-03 2.89245346e-03 7.36260880e-03 2.36655283e-03
      2.10360251e-03 2.36655283e-03 3.68130440e-03 3.68130440e-03
      2.62950314e-04 2.36655283e-03 1.05180126e-03 2.36655283e-03
      3.15540377e-03 3.68130440e-03 5.25900628e-04 2.10360251e-03
      4.99605574e-03 1.13068633e-02 1.05180126e-03 1.31475157e-03
      2.07730755e-02 3.94425448e-03 3.68130440e-03 1.31475157e-03
      4.20720503e-03 1.05180126e-03 4.20720503e-03 4.20720503e-03
      2.62950314e-03 7.88850943e-04 3.94425448e-03 7.62555934e-03
      3.15540377e-03 2.36655283e-03 2.62950314e-03 1.31475157e-03
      6.83670817e-03 2.62950314e-04 3.15540377e-03 4.57533561e-02 0.
      1.05180126e-03 4.73310566e-03 5.25900628e-04 9.46621131e-03
      6.04785699e-03 3.94425448e-03 1.57770189e-03 1.31475157e-03
      1.31475157e-03 3.26058380e-02 7.88850943e-04 2.36655283e-03
      5.25900628e-03 1.60399694e-02 1.31475157e-03 1.84065220e-03
      4.99605574e-03 1.31475157e-03 1.84065220e-03 4.47015557e-03
      4.20720503e-03 2.62950314e-04 2.62950314e-03 2.36655283e-03
      2.36655283e-03 4.20720503e-03 9.46621131e-03 1.84065220e-03
      2.62950314e-03 7.36260880e-03 2.10360251e-03 2.36655283e-03
      5.25900628e-04 3.68130440e-03 2.62950314e-03 7.62555934e-03
      3.41835408e-03 1.84065220e-03 4.47015557e-03 6.83670817e-03
      1.31475157e-03 1.05180126e-03 1.31475157e-03 1.84065220e-03
      7.88850943e-04 1.57770189e-03 1.31475157e-03 9.72916186e-03
      4.47015557e-03 7.62555934e-03 1.84065220e-03 1.05180126e-03
      4.47015557e-03 9.99211147e-03 3.68130440e-03 9.72916186e-03
      7.88850943e-04 1.31475157e-03 3.15540377e-03 1.31475157e-03
      1.84065220e-03 1.57770189e-03</_>
    <_>
      4.69116494e-03 1.72009377e-03 6.25488628e-03 1.26661453e-02
      2.18921015e-03 1.25097728e-03 2.18921015e-03 1.72009377e-03
      4.22204845e-03 1.56372157e-03 1.26661453e-02 8.28772411e-03
      1.25097728e-03 8.13135225e-03 2.34558247e-03 3.75293195e-03
      4.22204845e-03 2.18921015e-03 1.87646598e-03 2.03283806e-03
      1.56372157e-03 3.44018755e-03 5.00390911e-03 7.81860761e-03
      2.03283806e-03 5.94214210e-03 5.31665329e-03 2.50195456e-03
      2.65832664e-03 6.41125860e-03 1.09460508e-03 9.69507359e-03
      2.65832664e-03 4.06567613e-03 7.97498040e-03 9.06958524e-03
      2.03283806e-03 5.00390911e-03 2.81469896e-03 6.25488639e-04
      2.18921015e-03 3.90930381e-03 9.38232988e-03 1.56372157e-03
      2.18921015e-03 3.12744314e-03 3.90930381e-03 3.28381546e-03
      2.81469896e-03 5.94214210e-03 6.09851442e-03 2.97107105e-03
      4.84753679e-03 1.56372157e-03 1.09460508e-03 1.72009377e-03
      3.75293195e-03 1.72009377e-03 4.69116494e-03 2.34558247e-03
      8.75684060e-03 2.50195456e-03 3.90930381e-03 1.09460508e-03
      9.38232988e-04 7.03674741e-03 3.59655963e-03 5.00390911e-03
      2.81469896e-03 5.94214210e-03 4.53479262e-03 1.12587959e-02
      7.03674741e-03 1.72009377e-03 4.22204845e-03 2.03283806e-03
      1.56372157e-03 3.12744320e-04 7.34949159e-03 8.28772411e-03
      5.94214210e-03 7.03674741e-03 6.09851442e-03 1.21970288e-02
      4.22204845e-03 1.40734948e-03 2.34558247e-03 7.81860785e-04
      4.69116494e-04 3.12744314e-03 3.59655963e-03 1.87646598e-03
      7.34949159e-03 3.44018755e-03 2.18921015e-03 1.23534007e-02
      2.03283806e-03 1.25097728e-03 1.25097728e-03 2.50195456e-03
      8.60046875e-03 3.90930381e-03 6.25488639e-04 1.72009377e-03
      9.38232988e-04 9.85144638e-03 4.69116494e-03 2.65832664e-03
      4.53479262e-03 1.40734948e-03 1.40734948e-03 1.09460508e-03
      2.03283806e-03 7.19311927e-03 2.18921015e-03 5.00390911e-03
      2.50195456e-03 5.62939793e-03 6.41125860e-03 6.41125860e-03
      1.03205629e-02 2.18921015e-03 7.19311927e-03 2.03283806e-03
      5.62939793e-03 2.50195456e-03 1.72009377e-03 3.75293195e-03
      7.19311927e-03 7.34949159e-03 4.37842030e-03 2.18921015e-03
      1.56372160e-04 9.53870174e-03 7.34949159e-03 6.25488628e-03
      8.75684060e-03 5.94214210e-03 4.84753679e-03 1.40734948e-03
      2.81469896e-03 1.87646598e-03 4.06567613e-03 3.12744314e-03
      4.22204845e-03 9.38232988e-04 6.25488639e-04 1.40734948e-03
      2.18921015e-03 2.50195456e-03 5.31665329e-03 1.56372157e-03
      1.87646598e-03 7.34949159e-03 5.94214210e-03 1.87646598e-03
      2.81469896e-03 1.00078182e-02 3.28381546e-03 4.37842030e-03
      1.15715396e-02 6.88037509e-03 6.25488639e-04 3.59655963e-03
      2.81469896e-03 3.75293195e-03 1.40734948e-03 3.75293195e-03
      8.44409689e-03 2.18921015e-03 7.34949159e-03 1.40734948e-03
      2.18921015e-03 4.37842030e-03 2.65832664e-03 6.72400277e-03
      6.56763092e-03 2.03283806e-03 3.59655963e-03 2.34558247e-03
      2.65832664e-03 7.19311927e-03 9.22595710e-03 7.81860785e-04
      3.28381546e-03 4.06567613e-03 2.65832664e-03 7.81860761e-03
      1.25097728e-03 4.69116494e-03 3.28381546e-03 2.34558247e-03
      2.34558247e-03 4.69116494e-03 4.53479262e-03 3.12744314e-03
      1.87646598e-03 2.97107105e-03 3.12744314e-03 1.25097728e-03
      3.59655963e-03 5.16028143e-03 2.34558247e-03 1.72009377e-03
      4.37842030e-03 6.41125860e-03 5.94214210e-03 2.97107105e-03
      2.03283806e-03 5.00390911e-03 2.65832664e-03 5.31665329e-03
      5.62939793e-03 8.13135225e-03 1.25097728e-03 9.38232988e-04
      2.34558247e-03 1.06333066e-02 4.53479262e-03 1.03205629e-02
      6.41125860e-03 2.50195456e-03 2.65832664e-03 7.03674741e-03
      5.94214210e-03 6.88037509e-03 4.37842030e-03 7.19311927e-03
      1.25097728e-03 1.40734948e-03 5.94214210e-03 9.22595710e-03
      1.56372157e-03 3.44018755e-03 3.28381546e-03 2.81469896e-03
      1.72009377e-03 1.56372157e-03 1.03205629e-02 4.53479262e-03</_>
    <_>
      8.74401070e-03 3.25277192e-03 6.75037596e-03 2.00412720e-02
      2.20349059e-03 4.19712509e-04 3.70746036e-03 3.28774797e-03
      4.30205325e-03 3.07789166e-03 1.42702246e-02 8.46420228e-03
      1.78377808e-03 4.12717275e-03 1.71382597e-03 4.09219693e-03
      4.47693327e-03 1.36406557e-03 4.86166961e-03 7.34496862e-04
      3.46262800e-03 1.95865822e-03 4.19712486e-03 5.66611858e-03
      2.30841874e-03 5.73607069e-03 7.65975285e-03 7.41492072e-03
      2.69315508e-03 3.28774797e-03 1.05977403e-02 1.25563992e-02
      2.27344269e-03 1.54594099e-02 4.16214904e-03 2.08457205e-02
      5.84099907e-03 5.24640596e-03 2.55325111e-03 1.15420937e-03
      1.04928121e-03 1.25563992e-02 1.20667340e-02 1.43401767e-03
      2.48329900e-03 2.34339479e-03 2.20349059e-03 2.90301139e-03
      2.41334690e-03 5.63114276e-03 2.30841874e-03 3.14784382e-04
      1.50396978e-03 3.14784382e-04 1.71382597e-03 1.36056803e-02
      1.81875413e-03 1.71382597e-03 2.27344269e-03 2.34339479e-03
      6.71540014e-03 3.25277192e-03 2.51827505e-03 1.64387398e-03
      9.79329110e-04 1.23815183e-02 1.64387398e-03 4.65181330e-03
      4.40698117e-03 2.62320298e-03 2.44832295e-03 1.21017098e-02
      8.07946548e-03 1.46899372e-03 5.73607069e-03 1.74880202e-03
      2.72813113e-03 2.16851453e-03 5.52621437e-03 1.31160151e-02
      5.28138224e-03 1.28711835e-02 1.18219024e-02 1.68234762e-02
      1.04928119e-02 8.46420228e-03 1.88870623e-03 8.74401012e-04
      1.08425727e-03 3.49760405e-04 1.74880202e-03 1.32908951e-03
      5.80602279e-03 1.64387398e-03 5.24640607e-04 1.66835710e-02
      3.28774797e-03 2.27344269e-03 2.37837085e-03 2.23846664e-03
      9.51348338e-03 5.80602279e-03 9.09377064e-04 1.32908951e-03
      1.85373018e-03 4.09219693e-03 1.85373018e-03 1.22416147e-03
      5.10650221e-03 1.64387398e-03 1.95865822e-03 1.36406557e-03
      2.93798745e-03 1.81875413e-03 1.95865822e-03 2.58822716e-03
      4.16214904e-03 2.27344269e-03 7.24004069e-03 4.30205325e-03
      1.11573571e-02 2.93798745e-03 2.97296350e-03 1.78377808e-03
      1.81875413e-03 2.62320298e-03 2.62320298e-03 2.37837085e-03
      8.49917810e-03 3.07789166e-03 4.37200535e-03 2.65817903e-03
      5.24640607e-04 3.28774797e-03 4.23210114e-03 3.14784376e-03
      6.82032807e-03 3.00793955e-03 1.78377808e-03 3.53258010e-03
      3.60253220e-03 7.69472914e-04 5.03655011e-03 3.70746036e-03
      3.04291560e-03 1.81875413e-03 1.92368228e-03 3.25277192e-03
      4.05722065e-03 1.53894583e-03 2.37837085e-03 2.09856243e-03
      7.69472914e-04 2.41334690e-03 3.67248431e-03 4.19712486e-03
      2.02861032e-03 4.47693327e-03 2.34339479e-03 6.12080703e-03
      3.98726854e-03 6.33066334e-03 1.29411358e-03 9.44353116e-04
      2.27344269e-03 5.56119066e-03 3.63750826e-03 6.78535178e-03
      1.53894583e-03 2.79808324e-03 3.77741246e-03 5.77104697e-03
      5.70109487e-03 5.31635806e-03 1.60889793e-03 2.02861032e-03
      5.59616648e-03 2.51827505e-03 1.92368228e-03 1.60889793e-03
      3.28774797e-03 3.11286771e-03 1.14021897e-02 2.90301139e-03
      4.54688538e-03 3.91731644e-03 5.80602279e-03 1.42352488e-02
      2.48329900e-03 3.70746036e-03 2.97296350e-03 2.69315508e-03
      1.43401767e-03 4.58186120e-03 4.09219693e-03 6.89028017e-03
      4.79171751e-03 2.20349059e-03 2.90301139e-03 1.92368228e-03
      1.99363427e-03 2.09856243e-03 2.23846664e-03 1.11923332e-03
      1.53894583e-03 3.32272402e-03 3.00793955e-03 1.99363427e-03
      1.95865822e-03 1.02829561e-02 2.27344269e-03 2.23846664e-03
      1.85373018e-03 1.92368228e-03 2.09856243e-03 1.60889793e-03
      1.36406557e-03 1.64037626e-02 4.23210114e-03 7.44989701e-03
      3.04291560e-03 2.48329900e-03 2.62320298e-03 1.03878845e-02
      4.44195746e-03 2.97296350e-03 1.60889793e-03 3.18281981e-03
      1.78377808e-03 1.43401767e-03 2.13353848e-03 4.26707696e-03
      1.99363427e-03 9.96817183e-03 1.32908951e-03 2.97296350e-03
      2.93798745e-03 2.48329900e-03 3.53258010e-03 2.55325111e-03</_>
    <_>
      4.86250827e-03 5.19785378e-03 3.52112669e-03 4.19181725e-03
      3.85647197e-03 3.35345394e-04 4.86250827e-03 2.34741764e-03
      6.20388985e-03 2.85043591e-03 4.52716276e-03 4.52716276e-03
      4.52716276e-03 5.86854434e-03 3.35345394e-03 2.17974512e-03
      8.38363450e-03 3.68879922e-03 3.35345394e-03 3.52112669e-03
      7.37759843e-03 2.01207236e-03 7.54527142e-03 2.85043591e-03
      6.20388985e-03 2.01207236e-03 1.37491608e-02 1.84439961e-03
      3.85647197e-03 5.53319883e-03 4.52716276e-03 4.35949024e-03
      5.53319883e-03 3.01810866e-03 1.50905433e-03 1.50905433e-03
      1.17370882e-03 4.52716276e-03 6.03621732e-03 4.35949024e-03
      2.68276315e-03 4.86250827e-03 1.50905433e-03 5.19785378e-03
      4.02414473e-03 4.35949024e-03 3.35345394e-03 4.19181725e-03
      5.03018079e-03 6.37156237e-03 6.53923536e-03 2.01207236e-03
      5.70087181e-03 1.67672697e-04 2.68276315e-03 3.85647197e-03
      3.52112669e-03 4.35949024e-03 4.02414473e-03 5.70087181e-03
      3.52112669e-03 6.37156237e-03 3.18578118e-03 4.52716276e-03
      3.68879922e-03 5.36552630e-03 4.52716276e-03 5.19785378e-03
      2.85043591e-03 4.86250827e-03 7.20992591e-03 1.00603618e-03
      2.01207236e-03 6.53923536e-03 8.55130795e-03 5.36552630e-03
      2.51509040e-03 3.68879922e-03 8.55130795e-03 4.52716276e-03
      2.01207236e-03 5.53319883e-03 1.67672697e-03 2.85043591e-03
      1.12340711e-02 3.18578118e-03 2.68276315e-03 2.51509040e-03
      3.68879922e-03 2.34741764e-03 3.52112669e-03 4.52716276e-03
      8.71898048e-03 3.52112669e-03 4.19181725e-03 5.53319883e-03
      1.67672697e-03 5.36552630e-03 3.35345394e-03 4.69483528e-03
      3.35345394e-03 3.68879922e-03 3.35345394e-03 2.85043591e-03
      3.01810866e-03 1.84439961e-03 4.86250827e-03 3.52112669e-03
      5.19785378e-03 4.52716276e-03 4.86250827e-03 3.85647197e-03
      1.67672697e-03 3.85647197e-03 5.19785378e-03 4.02414473e-03
      5.70087181e-03 3.01810866e-03 5.70087181e-03 3.68879922e-03
      2.68276315e-03 5.36552630e-03 3.35345394e-03 6.03621732e-03
      4.35949024e-03 6.03621732e-03 4.19181725e-03 5.19785378e-03
      3.35345394e-03 6.37156237e-03 4.35949024e-03 6.03621732e-03
      3.35345394e-03 2.01207236e-03 9.55734402e-03 6.03621732e-03
      4.52716276e-03 3.68879922e-03 3.68879922e-03 2.51509040e-03
      1.05633801e-02 1.34138158e-03 4.35949024e-03 5.03018079e-03
      6.37156237e-03 2.34741764e-03 2.34741764e-03 4.69483528e-03
      2.85043591e-03 3.18578118e-03 6.03621732e-03 3.01810866e-03
      2.85043591e-03 2.51509040e-03 6.20388985e-03 3.18578118e-03
      3.01810866e-03 1.50905433e-03 2.68276315e-03 3.68879922e-03
      5.03018079e-03 3.85647197e-03 3.18578118e-03 2.85043591e-03
      5.86854434e-03 3.85647197e-03 2.34741764e-03 6.87458040e-03
      3.68879922e-03 4.35949024e-03 8.04828946e-03 4.35949024e-03
      3.68879922e-03 2.01207236e-03 4.35949024e-03 4.52716276e-03
      8.38363485e-04 3.85647197e-03 3.85647197e-03 2.01207236e-03
      2.51509040e-03 2.85043591e-03 4.02414473e-03 3.01810866e-03
      3.01810866e-03 7.71294395e-03 4.35949024e-03 1.17370882e-03
      3.52112669e-03 3.35345394e-03 4.86250827e-03 4.19181725e-03
      5.03018079e-03 3.52112669e-03 7.88061693e-03 1.84439961e-03
      5.19785378e-03 5.70087181e-03 4.52716276e-03 3.85647197e-03
      5.19785378e-03 3.35345394e-03 2.51509040e-03 4.19181725e-03
      2.68276315e-03 5.36552630e-03 3.85647197e-03 3.35345394e-03
      5.36552630e-03 2.17974512e-03 5.19785378e-03 4.02414473e-03
      2.34741764e-03 2.51509040e-03 5.19785378e-03 4.19181725e-03
      3.68879922e-03 3.35345394e-03 8.38363450e-03 2.85043591e-03
      4.19181725e-03 3.85647197e-03 3.52112669e-03 2.68276315e-03
      3.85647197e-03 3.85647197e-03 3.35345394e-03 3.52112669e-03
      5.86854434e-03 4.35949024e-03 3.18578118e-03 6.03621732e-03
      4.52716276e-03 2.34741764e-03 3.01810866e-03 5.70087181e-03
      5.86854434e-03 3.18578118e-03 5.36552630e-03 3.18578118e-03</_>
    <_>
      1.05509963e-02 3.90777655e-04 3.51699884e-03 1.40679954e-02
      3.90777655e-04 0. 1.17233302e-03 3.90777644e-03 2.73544365e-03
      2.73544365e-03 5.08010946e-03 2.73544365e-03 7.81555311e-04
      1.17233293e-02 1.56311062e-03 4.29855427e-03 7.81555311e-04
      3.12622124e-03 1.13325519e-02 3.90777644e-03 1.95388822e-03
      1.52403284e-02 1.95388822e-03 1.56311062e-03 3.51699884e-03
      4.68933210e-03 2.34466605e-03 1.25048850e-02 1.17233302e-03
      1.17233302e-03 1.95388822e-03 4.29855427e-03 3.12622124e-03
      1.05509963e-02 2.34466605e-03 1.09417746e-02 3.90777644e-03
      7.03399768e-03 2.34466605e-03 1.95388822e-03 3.12622124e-03
      7.81555288e-03 1.13325519e-02 1.17233302e-03 1.17233302e-03 0.
      3.90777644e-03 5.08010946e-03 3.12622124e-03 3.12622124e-03
      1.56311062e-03 3.90777655e-04 3.90777655e-04 1.17233302e-03
      4.29855427e-03 3.90777644e-03 2.73544365e-03 3.90777655e-04
      3.90777644e-03 1.56311062e-03 9.76944156e-03 1.95388822e-03
      5.47088729e-03 3.90777655e-04 1.17233302e-03 8.20633117e-03
      2.34466605e-03 8.59710854e-03 1.95388822e-03 3.51699884e-03
      7.81555311e-04 2.14927718e-02 2.34466605e-03 1.56311062e-03
      2.73544365e-03 7.81555311e-04 1.95388822e-03 3.12622124e-03
      2.34466605e-03 5.86166466e-03 5.47088729e-03 7.42477551e-03
      7.81555288e-03 1.21141076e-02 1.21141076e-02 1.95388822e-03
      2.73544365e-03 3.90777655e-04 2.34466605e-03 6.64322032e-03
      2.34466605e-03 7.81555311e-04 0. 1.95388822e-03 5.47088729e-03
      3.39976549e-02 1.01602189e-02 1.95388822e-03 3.12622124e-03
      1.56311062e-03 9.37866420e-03 1.01602189e-02 1.56311062e-03
      2.73544365e-03 1.17233302e-03 7.81555311e-04 3.90777655e-04
      1.95388822e-03 1.56311062e-03 1.95388822e-03 0. 7.81555311e-04
      2.34466605e-03 2.34466605e-03 1.95388822e-03 1.56311062e-03
      1.56311062e-03 5.08010946e-03 2.18835492e-02 4.29855427e-03
      8.98788590e-03 1.95388822e-03 1.95388822e-03 1.95388822e-03
      1.95388822e-03 3.90777655e-04 1.56311062e-03 3.12622124e-03
      8.20633117e-03 3.90777655e-04 3.90777644e-03 2.34466605e-03
      1.17233302e-03 4.68933210e-03 1.56311062e-03 3.12622124e-03
      1.56311058e-02 1.95388822e-03 4.68933210e-03 1.56311062e-03
      1.56311062e-03 1.56311062e-03 3.51699884e-03 5.08010946e-03
      1.17233302e-03 3.90777655e-04 1.95388822e-03 3.12622124e-03
      4.29855427e-03 1.95388822e-03 1.95388822e-03 3.12622124e-03
      1.56311062e-03 1.17233302e-03 2.73544365e-03 3.90777644e-03
      2.73544365e-03 8.59710854e-03 7.81555311e-04 6.25244249e-03
      3.12622124e-03 3.90777644e-03 7.81555311e-04 4.68933210e-03
      1.17233302e-03 3.90777644e-03 3.51699884e-03 8.20633117e-03
      5.86166466e-03 3.90777655e-04 1.17233302e-03 4.68933210e-03
      7.42477551e-03 2.57913247e-02 7.81555311e-04 8.20633117e-03
      1.95388822e-03 3.90777655e-04 2.34466605e-03 0. 3.90777644e-03
      3.12622124e-03 7.81555288e-03 2.34466605e-03 5.86166466e-03
      3.12622124e-03 5.47088729e-03 1.01602189e-02 1.95388822e-03
      4.68933210e-03 3.51699884e-03 8.20633117e-03 1.17233302e-03
      8.59710854e-03 1.17233302e-03 1.32864406e-02 2.34466605e-03
      1.56311062e-03 1.09417746e-02 3.51699884e-03 1.95388822e-03
      1.95388822e-03 7.81555311e-04 1.56311062e-03 5.86166466e-03
      3.12622124e-03 1.95388822e-03 2.34466605e-03 1.56311062e-03
      1.79757718e-02 1.56311062e-03 1.95388822e-03 1.21141076e-02
      2.34466605e-03 1.56311062e-03 7.81555311e-04 4.68933210e-03
      5.08010946e-03 3.90777655e-04 7.42477551e-03 2.34466605e-03
      7.81555311e-04 2.34466605e-03 5.08010946e-03 3.12622124e-03
      4.29855427e-03 1.56311062e-03 1.56311058e-02 1.56311062e-03
      1.17233302e-03 5.86166466e-03 3.51699884e-03 2.73544365e-03
      1.75849944e-02 1.95388822e-03 2.34466605e-03 5.86166466e-03
      1.95388822e-03 2.34466605e-03 1.56311062e-03</_>
    <_>
      2.05690786e-03 8.91326740e-03 4.79945168e-03 5.82790561e-03
      6.17072359e-03 0. 4.45663370e-03 3.42817977e-03 4.11381572e-03
      1.71408989e-03 6.51354156e-03 2.05690786e-03 6.85635954e-04
      8.91326740e-03 2.39972584e-03 1.37127191e-03 2.74254382e-03
      2.39972584e-03 2.74254382e-03 3.42817977e-04 4.79945168e-03
      2.19403505e-02 3.08536179e-03 4.45663370e-03 4.79945168e-03
      3.42817977e-03 6.51354156e-03 2.39972584e-03 3.77099775e-03
      1.02845393e-02 9.59890336e-03 3.42817977e-03 2.74254382e-03
      5.14226966e-03 8.91326740e-03 4.11381572e-03 8.22763145e-03
      2.05690786e-03 3.77099775e-03 0. 1.37127191e-03 7.19917752e-03
      5.14226966e-03 7.88481347e-03 2.74254382e-03 4.79945168e-03
      8.57044943e-03 6.85635954e-04 2.05690786e-03 3.77099775e-03
      2.74254382e-03 1.02845393e-03 1.02845393e-03 3.42817977e-04
      7.88481347e-03 1.13129932e-02 6.85635954e-04 5.48508763e-03
      5.14226966e-03 5.48508763e-03 4.79945168e-03 5.48508763e-03
      1.71408989e-03 0. 6.85635954e-04 4.45663370e-03 1.71408989e-03
      1.71408989e-03 3.42817977e-03 4.45663370e-03 5.14226966e-03
      3.42817977e-03 2.05690786e-03 9.59890336e-03 5.48508763e-03
      2.05690786e-03 3.77099775e-03 1.02845393e-03 3.42817977e-03
      1.71408989e-03 6.51354156e-03 2.05690786e-03 1.02845393e-03
      4.45663370e-03 6.85635954e-03 9.25608538e-03 3.77099775e-03
      6.85635954e-04 3.77099775e-03 3.42817977e-03 2.74254382e-03
      3.77099775e-03 1.47411730e-02 7.88481347e-03 2.05690786e-03
      4.11381572e-03 2.05690786e-03 6.51354156e-03 1.71408989e-03
      1.71408989e-03 3.42817977e-03 0. 3.42817977e-04 1.02845393e-03
      2.74254382e-03 8.22763145e-03 3.42817977e-04 3.42817977e-04
      4.45663370e-03 7.19917752e-03 1.71408989e-03 1.71408989e-03
      3.77099775e-03 5.48508763e-03 8.22763145e-03 3.77099775e-03
      5.14226966e-03 6.51354156e-03 2.39972584e-03 6.85635954e-03
      3.77099775e-03 4.11381572e-03 4.45663370e-03 2.39972584e-03
      1.71408989e-03 1.71408989e-03 3.42817977e-03 7.88481347e-03
      2.74254382e-03 6.17072359e-03 1.37127191e-03 7.54199550e-03
      2.05690786e-03 6.85635954e-04 7.54199550e-03 5.48508763e-03
      5.82790561e-03 7.19917752e-03 3.42817977e-03 3.42817977e-03
      2.74254382e-03 3.42817977e-04 2.74254382e-03 7.88481347e-03
      7.54199550e-03 4.11381572e-03 1.71408989e-03 4.11381572e-03
      1.37127191e-03 4.79945168e-03 1.71408989e-03 2.39972584e-03
      1.71408989e-03 2.39972584e-03 6.51354156e-03 5.14226966e-03
      5.14226966e-03 1.16558112e-02 6.85635954e-03 2.05690786e-03
      4.79945168e-03 5.82790561e-03 1.02845393e-03 1.02845393e-03
      6.17072359e-03 4.45663370e-03 3.42817977e-04 1.71408989e-03
      4.11381572e-03 3.42817977e-03 1.71408989e-03 1.13129932e-02
      1.37127191e-03 2.94823460e-02 1.02845393e-03 3.77099775e-03
      5.82790561e-03 2.74254382e-03 1.71408989e-03 3.42817977e-03
      2.74254382e-03 1.13129932e-02 4.79945168e-03 4.11381572e-03
      2.74254382e-03 4.11381572e-03 3.08536179e-03 3.08536179e-03
      7.88481347e-03 1.02845393e-03 4.45663370e-03 6.17072359e-03
      2.74254382e-03 1.13129932e-02 6.51354156e-03 2.39972584e-03
      3.42817977e-03 2.74254382e-03 4.79945168e-03 1.37127191e-03
      3.42817977e-03 3.42817977e-03 7.88481347e-03 1.37127191e-03
      4.79945168e-03 2.39972584e-03 5.82790561e-03 9.25608538e-03
      2.05690786e-03 1.02845393e-03 2.39972584e-03 3.08536179e-03
      3.42817977e-03 3.77099775e-03 3.42817977e-03 4.79945168e-03
      3.77099775e-03 4.45663370e-03 2.74254382e-03 2.74254382e-03
      1.02845393e-03 3.42817977e-03 3.42817977e-03 2.39972584e-03
      3.77099775e-03 8.22763145e-03 1.71408989e-03 6.85635954e-04
      5.82790561e-03 1.71408989e-03 4.45663370e-03 8.91326740e-03
      3.08536179e-03 1.02845393e-03 0. 5.48508763e-03 5.48508763e-03
      3.77099775e-03 4.79945168e-03 3.08536179e-03</_>
    <_>
      1.49901081e-02 4.56551526e-04 8.37011146e-04 9.96804144e-03
      2.51103332e-03 7.60919211e-05 1.90229807e-03 2.89149303e-03
      3.04367684e-04 2.81540118e-03 6.84827275e-04 1.52183836e-03
      5.32643462e-04 1.97078083e-02 3.04367684e-04 1.07289609e-02
      3.80459591e-04 7.53309997e-03 8.97884648e-03 6.61999732e-03
      5.32643462e-04 4.56551509e-03 6.84827275e-04 3.42413643e-03
      7.60919182e-04 8.14183522e-03 7.60919211e-05 2.29797605e-02
      9.89194959e-04 3.04367684e-04 1.17181558e-02 3.34804459e-03
      2.28275763e-04 2.15340145e-02 6.08735369e-04 4.79379110e-03
      1.59793033e-03 9.89194959e-04 4.56551526e-04 8.37011146e-04
      7.60919182e-04 2.73930915e-02 2.89149303e-03 3.72850406e-03
      1.06528692e-03 3.80459591e-04 2.58712540e-03 1.11855119e-02
      6.84827275e-04 1.36965455e-03 2.28275763e-04 1.14137877e-03
      4.56551526e-04 1.52183842e-04 1.97838992e-03 6.77218102e-03
      2.35884963e-03 1.52183836e-03 7.38091627e-03 7.60919182e-04
      8.82666279e-03 1.82620611e-03 9.13103053e-04 4.56551526e-04
      9.13103053e-04 6.84827275e-04 3.95677984e-03 1.65119469e-02
      4.18505585e-03 6.08735369e-04 5.32643462e-04 6.84827275e-04
      7.76137598e-03 3.27195250e-03 3.04367684e-04 6.08735369e-04
      1.82620611e-03 8.59838724e-03 3.80459591e-04 9.89194959e-04
      1.10333283e-02 1.62836704e-02 1.33160865e-02 4.94597480e-03 0.
      2.96758488e-03 3.04367684e-04 8.37011146e-04 5.63080236e-03
      1.06528690e-02 3.50022828e-03 2.28275763e-04 4.56551526e-04
      1.06528692e-03 2.05448177e-03 1.90990716e-02 4.10896353e-03
      6.08735369e-04 2.51103332e-03 1.06528692e-03 9.43539850e-03
      1.52944764e-02 3.04367684e-04 7.98965152e-03 2.20666570e-03
      7.60919182e-04 1.14137877e-03 8.37011146e-04 1.21747074e-03
      1.36965455e-03 7.60919211e-05 9.13103053e-04 2.05448177e-03
      1.90229807e-03 8.37011146e-04 4.41333139e-03 1.67402229e-03
      1.52183842e-04 2.02404503e-02 3.50022828e-03 5.70689421e-03
      5.32643462e-04 6.16344577e-03 2.28275763e-04 7.60919182e-04
      2.28275763e-04 6.08735369e-04 3.80459591e-04 2.83061955e-02 0.
      3.80459614e-03 1.06528692e-03 1.44574651e-03 5.09815849e-03 0.
      5.32643462e-04 1.73489582e-02 1.59793033e-03 7.60919182e-04
      1.21747074e-03 0. 2.28275763e-04 3.11976881e-03 5.32643450e-03
      5.32643462e-04 1.29356270e-03 1.82620611e-03 4.56551526e-04
      8.67447909e-03 3.80459591e-04 1.52183842e-04 2.58712540e-03
      1.21747074e-03 3.57632036e-03 3.04367684e-04 5.47861820e-03
      6.69608917e-03 1.90229807e-03 5.32643462e-04 2.20666570e-03
      2.73930910e-03 3.19586066e-03 1.82620611e-03 3.72850406e-03
      1.52183842e-04 1.49901081e-02 1.33921783e-02 1.88707970e-02
      2.28275763e-04 2.58712540e-03 3.04367684e-04 2.96758488e-03
      9.51149035e-03 9.13103018e-03 7.60919211e-05 1.30878100e-02
      1.52183842e-04 3.65241221e-03 3.72850406e-03 4.56551526e-04
      6.84827287e-03 1.59793033e-03 6.31562946e-03 6.84827275e-04
      5.55471005e-03 3.80459591e-04 1.49901081e-02 1.75011414e-03
      1.37726376e-02 7.07654888e-03 1.97838992e-03 4.79379110e-03
      3.04367684e-04 2.10774615e-02 1.06528692e-03 2.10774615e-02
      4.18505585e-03 6.84827275e-04 1.76533256e-02 9.13103018e-03
      3.04367684e-04 5.32643462e-04 1.59793033e-03 7.60919182e-04
      7.60919182e-04 8.37011146e-04 1.06528692e-03 3.19586066e-03
      1.97838992e-03 1.62836704e-02 1.52183842e-04 5.02206665e-03
      1.50661999e-02 1.75011414e-03 3.04367684e-04 1.21747074e-03
      5.17425081e-03 9.89194959e-04 3.04367684e-04 8.29401985e-03
      3.19586066e-03 4.10896353e-03 1.52183836e-03 1.17181558e-02
      3.72850406e-03 7.60919211e-05 9.89194959e-04 4.10896353e-03
      9.35930666e-03 2.28275763e-04 1.59793033e-03 1.75011414e-03
      7.60919182e-04 1.26312589e-02 2.43494147e-03 3.27195250e-03
      1.52183842e-04 1.29356270e-03 1.67402229e-03 3.88068799e-03</_>
    <_>
      3.03490134e-03 2.32675765e-03 9.40819457e-03 1.01163378e-03
      1.82094087e-03 7.08143634e-04 4.55235224e-03 4.04653512e-03
      1.05209919e-02 6.27212971e-03 6.27212971e-03 8.09307024e-03
      4.04653512e-03 3.23722814e-03 2.93373805e-03 4.04653512e-03
      6.47445628e-03 3.74304503e-03 2.93373805e-03 3.33839143e-03
      8.49772431e-03 1.11279718e-03 4.75467881e-03 6.87910989e-03
      4.55235224e-03 3.13606486e-03 1.31512396e-02 1.51745067e-03
      2.83257454e-03 3.84420832e-03 1.11279718e-03 3.64188175e-03
      2.93373805e-03 9.10470437e-04 3.03490134e-03 4.55235224e-03
      1.61861407e-03 9.40819457e-03 4.75467881e-03 3.13606486e-03
      3.94537160e-03 1.41628727e-03 1.31512398e-03 4.65351529e-03
      4.95700538e-03 5.05816890e-03 1.41628727e-03 3.23722814e-03
      7.99190719e-03 5.36165899e-03 4.75467881e-03 2.93373805e-03
      1.16337882e-02 1.01163378e-03 1.21396058e-03 1.01163378e-03
      4.24886215e-03 3.54071823e-03 4.35002521e-03 3.84420832e-03
      4.14769864e-03 4.14769864e-03 6.77794637e-03 4.24886215e-03
      3.74304503e-03 1.35558927e-02 2.42792116e-03 2.12443108e-03
      2.93373805e-03 4.35002521e-03 5.66514907e-03 1.41628727e-03
