<?xml version="1.0"?>
<opencv_storage>
<opencv_ml_svm>
  <format>3</format>
  <svmType>C_SVC</svmType>
  <kernel>
    <type>RBF</type>
    <gamma>1.5382999999999999e+01</gamma></kernel>
  <C>50.</C>
  <term_criteria><epsilon>1.1920928955078125e-07</epsilon>
    <iterations>1000</iterations></term_criteria>
  <var_count>240</var_count>
  <class_count>8</class_count>
  <class_labels type_id="opencv-matrix">
    <rows>8</rows>
    <cols>1</cols>
    <dt>i</dt>
    <data>
      1 2 3 4 5 6 7 8</data></class_labels>
  <sv_total>1094</sv_total>
  <support_vectors>
    <_>
      0. 0. 7.63358781e-03 1.90839695e-03 3.81679391e-03 1.90839695e-03
      1.71755720e-02 0. 0. 0. 7.63358781e-03 1.90839695e-03
      1.52671756e-02 0. 1.90839695e-03 1.90839695e-03 3.81679391e-03 0.
      1.90839695e-03 0. 5.72519097e-03 0. 0. 1.90839695e-03
      3.81679391e-03 0. 0. 0. 5.72519097e-03 3.81679391e-03
      2.09923666e-02 3.81679391e-03 1.90839695e-03 7.63358781e-03
      1.90839695e-03 5.72519097e-03 7.63358781e-03 3.81679391e-03
      1.90839695e-03 0. 0. 0. 2.67175566e-02 0. 5.72519097e-03 0. 0.
      5.72519097e-03 1.14503819e-02 1.90839695e-03 5.72519097e-03
      5.72519097e-03 3.81679391e-03 1.90839695e-03 1.33587783e-02
      7.63358781e-03 0. 3.81679391e-03 3.81679391e-03 5.72519097e-03
      1.14503819e-02 1.90839695e-03 5.72519097e-03 3.81679391e-03
      1.90839695e-03 0. 0. 1.90839695e-03 1.90839695e-03 1.90839695e-03
      7.63358781e-03 0. 9.54198465e-03 1.90839695e-03 0. 3.81679391e-03
      5.72519097e-03 3.81679391e-03 1.90839695e-03 2.86259539e-02
      3.81679391e-03 0. 0. 0. 1.90839695e-03 3.81679391e-03
      3.81679391e-03 1.90839695e-03 0. 1.71755720e-02 3.81679391e-03 0.
      7.63358781e-03 5.72519097e-03 0. 3.81679391e-03 7.63358781e-03
      2.48091612e-02 0. 3.81679391e-03 1.90839695e-03 0. 0.
      3.81679391e-03 0. 5.72519097e-03 3.81679391e-03 3.81679391e-03 0.
      1.90839695e-03 9.54198465e-03 3.81679391e-03 9.54198465e-03 0. 0.
      0. 1.90839695e-03 0. 3.81679391e-03 0. 0. 3.81679391e-03
      1.90839695e-03 1.90839695e-03 1.90839695e-03 0. 7.63358781e-03
      5.72519097e-03 5.72519097e-03 1.90839695e-03 3.81679391e-03
      1.90839695e-03 1.90839695e-03 1.52671756e-02 5.72519097e-03 0.
      1.33587783e-02 0. 5.72519097e-03 5.72519097e-03 0. 3.81679391e-03
      1.90839695e-03 3.81679391e-03 0. 1.90839695e-03 0. 3.81679391e-03
      5.72519097e-03 1.90839695e-03 1.90839695e-03 7.63358781e-03
      1.90839695e-03 0. 3.81679391e-03 0. 0. 0. 1.90839695e-03
      5.72519097e-03 1.90839693e-02 0. 5.72519097e-03 5.53435124e-02 0.
      1.90839695e-03 1.90839695e-03 3.81679391e-03 1.90839695e-03 0.
      1.90839695e-03 2.48091612e-02 1.14503819e-02 3.81679391e-03
      1.90839695e-03 3.81679391e-03 3.81679391e-03 3.81679391e-03
      5.72519097e-03 0. 0. 0. 7.63358781e-03 3.81679391e-03
      1.14503819e-02 1.90839695e-03 5.72519097e-03 3.81679391e-03
      7.63358781e-03 5.72519097e-03 0. 0. 3.81679391e-03 1.90839695e-03
      0. 1.90839695e-03 0. 0. 1.90839695e-03 0. 1.33587783e-02 0.
      5.72519097e-03 1.90839693e-02 0. 7.63358781e-03 9.54198465e-03
      1.90839695e-03 0. 5.72519097e-03 0. 0. 1.90839695e-03 0.
      2.67175566e-02 7.63358781e-03 7.63358781e-03 3.81679391e-03
      1.90839695e-03 0. 1.90839695e-03 7.63358781e-03 7.63358781e-03 0.
      0. 3.81679391e-03 1.90839695e-03 1.90839695e-03 5.72519097e-03
      1.90839695e-03 1.33587783e-02 7.63358781e-03 0. 3.81679391e-03
      1.90839695e-03 1.90839695e-03 0. 1.90839695e-03 0. 7.63358781e-03</_>
    <_>
      1.10230211e-03 6.78339740e-04 1.44995116e-02 4.19722730e-03
      5.29952906e-03 1.14469836e-03 3.51888733e-03 2.88294395e-03
      9.75113362e-04 1.18709449e-03 6.35943515e-03 8.90320924e-04
      3.47649120e-03 1.69584935e-03 1.95022672e-03 1.14469836e-03
      2.96773645e-03 3.51888733e-03 5.21473680e-03 7.63132237e-04
      2.75575509e-03 2.45898147e-03 2.92534009e-03 1.90783048e-03
      7.63132237e-04 5.93547244e-04 3.51888733e-03 7.71611463e-03
      1.27188698e-03 3.94284958e-03 2.54377403e-04 1.37363793e-02
      8.05528427e-04 2.45898147e-03 4.23962338e-04 4.66358569e-03
      7.20735989e-04 6.78339740e-04 1.18709449e-03 5.51151019e-03
      3.39169870e-04 1.10230204e-02 8.90320924e-04 7.20735989e-04
      1.05990586e-03 6.35943492e-04 9.24237911e-03 2.37418897e-03
      3.22211371e-03 3.85805732e-03 6.35943492e-04 6.35943492e-04
      7.46173691e-03 3.90045345e-03 1.48386816e-02 9.03039798e-03
      7.63132237e-04 8.05528427e-04 5.00275567e-03 6.10505790e-03
      1.00903036e-02 2.96773645e-03 3.81566118e-04 2.75575509e-03
      4.62118955e-03 3.13732121e-03 9.41196363e-03 1.10230211e-03
      3.60367983e-03 2.50137784e-03 3.01013258e-03 1.44147198e-03
      2.59888917e-02 9.75113362e-04 8.90320924e-04 4.36681230e-03
      1.05990586e-03 5.12994407e-03 9.32717114e-04 4.83317068e-03
      1.82303810e-03 1.40331537e-02 1.39907573e-03 7.67371850e-03
      1.61105685e-03 5.93547244e-04 1.63225494e-02 1.64921358e-02
      1.56866061e-03 8.47924687e-03 1.10230211e-03 4.07003844e-03
      1.55594181e-02 2.05621738e-02 5.51151054e-04 1.47962859e-02
      1.12350015e-02 2.11981169e-04 1.69584935e-04 2.07741535e-03
      3.60367983e-03 1.06414547e-02 6.78339740e-04 1.48386823e-03
      5.08754805e-04 8.47924675e-04 2.20460421e-03 1.73824560e-03
      1.65345310e-03 2.62856646e-03 3.01013258e-03 3.94284958e-03
      9.96311475e-03 1.35667948e-03 3.81566118e-04 2.37418897e-03
      4.11243457e-03 1.95022672e-03 2.45898147e-03 1.05990586e-03
      2.91262120e-02 4.53639682e-03 2.54377403e-04 1.27188698e-03
      5.08754805e-04 1.14469836e-03 1.28036626e-02 1.53050404e-02
      1.86543423e-03 8.47924675e-04 6.35943492e-04 2.33179284e-03
      4.96035954e-03 9.32717114e-04 8.05528427e-04 2.45898147e-03
      1.23373037e-02 4.79077455e-03 2.33179284e-03 2.22156271e-02
      7.63132237e-04 3.01013258e-03 2.96773622e-04 2.62856646e-03
      6.65620854e-03 1.18709449e-03 1.18709449e-03 2.33179294e-02
      1.66193228e-02 6.35943492e-04 1.01750961e-03 5.25713293e-03
      1.61105685e-03 3.43409483e-03 3.34930257e-03 1.39907573e-03
      1.22949074e-03 5.51151054e-04 1.14469836e-03 5.34192566e-03
      5.51151054e-04 2.79815146e-03 3.09492508e-03 1.39907573e-03
      1.22949074e-03 3.43409483e-03 4.23962343e-03 1.27188701e-04
      5.34192566e-03 3.81566118e-04 8.47924675e-04 4.66358557e-04
      1.10230211e-03 5.51151054e-04 8.90320924e-04 5.08754805e-04
      9.75113362e-04 3.09492508e-03 1.82303810e-03 3.64607619e-03
      4.23962338e-04 4.66358557e-04 7.20735989e-04 2.03501922e-03
      1.27188701e-04 1.48386823e-03 2.71759853e-02 1.52626447e-03
      2.88294395e-03 8.90320912e-03 8.56403913e-03 5.12994407e-03
      5.17234067e-03 1.22949074e-03 1.39907573e-03 6.48662355e-03
      1.61105685e-03 1.69584935e-03 1.35667948e-03 8.98800138e-03
      6.78339740e-03 2.33179284e-03 1.90783048e-03 3.94284958e-03
      7.63132237e-04 1.45843048e-02 1.39907573e-03 2.50137784e-03
      2.67096283e-03 1.06414547e-02 1.18709449e-03 1.56866061e-03
      4.32441570e-03 3.39169870e-04 2.96773622e-04 1.73400603e-02
      7.97049236e-03 8.90320924e-04 7.63132237e-04 8.47924675e-04
      2.41658534e-03 1.90783048e-03 2.54377397e-03 2.50137784e-03
      7.20735989e-04 1.56866061e-03 2.67096283e-03 1.82303810e-03
      4.72294055e-02 9.75113362e-04 5.08754805e-04 3.98524618e-03
      7.37694465e-03 1.90783048e-03 3.09492508e-03 9.58154909e-03
      1.73824560e-03 5.51151054e-04 5.51151019e-03 1.90783048e-03</_>
    <_>
      4.07124683e-03 3.05343512e-03 5.08905854e-03 1.01781171e-03
      4.07124683e-03 3.56234098e-03 2.54452927e-03 2.54452927e-03
      5.08905854e-03 5.08905854e-04 3.05343512e-03 6.61577610e-03
      1.01781171e-03 1.01781171e-02 8.14249367e-03 4.58015269e-03
      3.56234098e-03 4.58015269e-03 1.52671756e-03 1.01781171e-03
      2.54452927e-03 8.14249367e-03 3.56234098e-03 6.61577610e-03
      3.05343512e-03 1.01781171e-03 4.07124683e-03 6.61577610e-03
      5.59796439e-03 3.56234098e-03 2.79898215e-02 2.54452927e-03
      4.58015269e-03 5.59796439e-03 3.05343512e-03 5.08905854e-03
      4.58015269e-03 1.52671756e-03 1.01781171e-03 1.01781171e-02
      1.52671756e-03 2.54452927e-03 5.08905854e-03 3.05343512e-03
      3.56234098e-03 0. 3.56234098e-03 3.05343512e-03 3.05343512e-03
      4.07124683e-03 3.05343512e-03 1.52671756e-03 3.56234098e-03
      5.59796439e-03 2.54452927e-03 4.58015269e-03 3.56234098e-03
      3.05343512e-03 3.56234098e-03 1.01781171e-03 6.10687025e-03
      4.07124683e-03 1.01781171e-03 5.08905854e-04 4.58015269e-03
      4.07124683e-03 3.56234098e-03 5.59796439e-03 3.05343512e-03
      3.56234098e-03 2.54452927e-03 4.58015269e-03 1.22137405e-02
      2.03562342e-03 5.08905854e-04 3.56234098e-03 1.52671756e-03
      9.66921076e-03 1.52671756e-03 1.17048342e-02 1.17048342e-02
      2.54452927e-03 6.10687025e-03 1.17048342e-02 6.61577610e-03
      4.07124683e-03 4.07124683e-03 7.12468196e-03 6.61577610e-03
      3.05343512e-03 2.03562342e-03 2.54452927e-03 1.01781171e-03
      1.11959288e-02 4.07124683e-03 2.54452927e-03 2.03562342e-03
      3.05343512e-03 3.56234098e-03 4.07124683e-03 5.08905854e-04
      5.59796439e-03 5.08905854e-03 1.37404576e-02 5.59796439e-03
      3.56234098e-03 4.07124683e-03 4.07124683e-03 6.10687025e-03
      5.08905854e-03 5.08905854e-04 3.56234098e-03 2.13740468e-02
      2.54452927e-03 0. 2.54452927e-03 5.08905854e-04 2.03562342e-03
      2.54452927e-03 4.07124683e-03 4.58015269e-03 4.58015269e-03
      1.52671756e-03 1.01781171e-03 1.52671756e-03 4.58015269e-03
      3.56234098e-03 1.52671756e-03 4.07124683e-03 2.54452927e-03
      3.56234098e-03 3.56234098e-03 4.07124683e-03 6.61577610e-03
      1.01781171e-03 4.58015269e-03 2.03562342e-03 2.03562342e-03
      2.03562342e-03 7.63358781e-03 0. 2.03562342e-03 5.08905854e-04
      1.52671756e-03 5.08905854e-03 3.05343512e-03 5.59796439e-03
      1.52671756e-03 3.05343512e-03 5.08905854e-03 3.56234098e-03
      2.03562342e-03 3.05343512e-03 3.56234098e-03 1.01781171e-03
      3.56234098e-03 3.05343512e-03 7.12468196e-03 1.52671756e-03
      1.52671756e-03 4.07124683e-03 3.05343512e-03 3.05343512e-03
      1.27226468e-02 4.58015269e-03 4.58015269e-03 1.01781171e-03 0.
      5.08905854e-03 1.52671756e-03 4.58015269e-03 1.42493639e-02
      1.52671756e-03 4.07124683e-03 2.03562342e-03 3.05343512e-03
      4.58015269e-03 6.10687025e-03 3.05343512e-03 6.10687025e-03 0.
      4.07124683e-03 9.16030537e-03 1.01781171e-03 6.10687025e-03
      3.56234098e-03 8.14249367e-03 1.52671756e-02 7.12468196e-03
      7.12468196e-03 4.58015269e-03 1.52671756e-03 2.54452927e-03
      5.08905854e-04 5.59796439e-03 2.54452927e-03 3.05343512e-03
      2.54452927e-03 5.08905854e-04 8.14249367e-03 3.56234098e-03 0.
      4.07124683e-03 1.42493639e-02 2.03562342e-03 7.12468196e-03
      5.59796439e-03 2.54452927e-03 2.54452927e-03 4.58015269e-03
      5.08905854e-03 4.07124683e-03 5.08905854e-04 1.01781171e-03
      4.58015269e-03 1.57760810e-02 2.54452927e-03 6.10687025e-03
      3.56234098e-03 2.54452927e-03 5.08905854e-03 5.08905854e-03
      4.58015269e-03 0. 6.10687025e-03 4.07124683e-03 4.58015269e-03
      6.10687025e-03 2.54452927e-03 2.54452927e-03 1.01781171e-02
      2.54452927e-03 5.59796439e-03 5.08905854e-04 2.03562342e-03
      1.01781171e-03 3.05343512e-03 6.10687025e-03 1.01781171e-03
      1.52671756e-03</_>
    <_>
      6.44329877e-04 1.28865975e-03 1.22422678e-02 1.93298957e-03
      5.15463902e-03 4.51030908e-03 1.93298957e-03 1.93298957e-03
      3.86597915e-03 1.28865975e-03 2.57731951e-03 7.73195829e-03
      3.22164944e-03 7.08762882e-03 1.22422678e-02 2.57731951e-03
      7.08762882e-03 8.37628823e-03 6.44329877e-04 3.86597915e-03 0.
      7.08762882e-03 2.57731951e-03 2.38402057e-02 1.28865975e-03
      3.86597915e-03 7.08762882e-03 1.28865975e-03 3.86597915e-03
      6.44329877e-04 2.57731951e-03 1.93298957e-03 0. 6.44329877e-04
      7.08762882e-03 6.44329877e-04 3.22164944e-03 2.57731951e-03 0.
      1.48195876e-02 0. 6.44329877e-04 2.57731951e-03 1.93298957e-03
      4.51030908e-03 0. 0. 1.93298957e-03 7.73195829e-03 2.57731951e-03
      2.57731951e-03 1.93298957e-03 5.15463902e-03 7.08762882e-03
      9.02061816e-03 1.28865978e-02 2.57731951e-03 5.15463902e-03
      3.86597915e-03 0. 3.86597915e-03 3.86597915e-03 6.44329877e-04
      3.22164944e-03 5.79896895e-03 2.57731951e-03 2.57731951e-03
      1.22422678e-02 7.73195829e-03 6.44329877e-04 3.22164944e-03
      8.37628823e-03 5.15463902e-03 1.28865975e-03 2.57731951e-03
      2.57731951e-03 1.28865975e-03 3.22164944e-03 1.93298957e-03
      1.93298957e-03 1.35309277e-02 1.28865975e-03 6.44329889e-03
      1.99742261e-02 6.44329889e-03 6.44329877e-04 7.08762882e-03
      1.54639166e-02 4.51030908e-03 1.93298957e-03 6.44329889e-03
      1.28865975e-03 1.93298957e-03 1.93298957e-03 3.22164944e-03
      6.44329877e-04 7.08762882e-03 2.57731951e-03 7.08762882e-03
      2.57731951e-03 4.51030908e-03 5.79896895e-03 5.15463902e-03
      5.15463902e-03 1.28865975e-03 4.51030908e-03 5.79896895e-03
      1.28865975e-03 1.03092780e-02 2.57731951e-03 6.44329877e-04
      3.22164944e-03 1.41752576e-02 1.28865975e-03 0. 3.22164944e-03 0.
      3.86597915e-03 6.44329889e-03 7.73195829e-03 1.28865975e-03
      6.44329889e-03 0. 1.28865975e-03 0. 6.44329877e-04 1.93298957e-03
      1.93298957e-03 1.28865975e-03 0. 7.08762882e-03 6.44329889e-03
      3.86597915e-03 2.57731951e-03 1.28865975e-03 2.57731951e-03
      3.22164944e-03 5.79896895e-03 1.28865975e-03 1.48195876e-02
      6.44329877e-04 2.57731951e-03 1.93298957e-03 4.51030908e-03
      1.93298957e-03 3.86597915e-03 3.22164944e-03 1.93298957e-03
      2.57731955e-02 5.79896895e-03 9.66494810e-03 1.93298957e-03 0.
      2.57731951e-03 3.22164944e-03 1.28865975e-03 6.44329877e-04
      2.57731951e-03 5.15463902e-03 1.93298957e-03 5.79896895e-03
      8.37628823e-03 3.22164944e-03 5.79896895e-03 5.79896895e-03
      8.37628823e-03 1.93298957e-03 0. 5.79896895e-03 1.93298957e-03
      4.51030908e-03 6.44329877e-04 0. 9.66494810e-03 1.28865975e-03
      6.44329877e-04 7.08762882e-03 6.44329877e-04 0. 3.86597915e-03
      6.44329877e-04 3.86597915e-03 5.15463902e-03 1.28865975e-03
      1.28865975e-03 1.93298957e-03 1.61082465e-02 8.37628823e-03
      3.22164944e-03 5.15463902e-03 1.03092780e-02 3.22164944e-03
      7.73195829e-03 0. 6.44329877e-04 1.28865975e-03 1.15979379e-02
      6.44329877e-04 6.44329877e-04 1.35309277e-02 6.44329889e-03 0.
      5.15463902e-03 1.93298957e-03 1.28865975e-03 6.44329889e-03
      1.93298957e-03 3.86597915e-03 2.57731951e-03 5.15463902e-03
      5.79896895e-03 1.15979379e-02 5.15463902e-03 6.44329877e-04
      6.44329889e-03 3.22164944e-03 9.66494810e-03 3.22164944e-03
      6.44329877e-04 1.28865975e-03 1.03092780e-02 3.22164944e-03
      6.44329889e-03 0. 7.08762882e-03 6.44329877e-04 5.15463902e-03
      9.02061816e-03 5.15463902e-03 5.15463902e-03 0. 5.15463902e-03
      1.28865975e-03 6.44329877e-04 5.15463902e-03 5.79896895e-03
      4.51030908e-03 1.28865975e-03 2.57731951e-03 6.44329877e-04</_>
    <_>
      0. 3.93391028e-03 8.26121215e-03 3.93391034e-04 5.50747430e-03
      1.57356414e-03 7.08103878e-03 2.36034626e-03 1.57356414e-03
      2.36034626e-03 1.06215579e-02 8.26121215e-03 4.72069252e-03
      2.75373715e-03 5.50747430e-03 4.72069252e-03 5.11408364e-03
      3.54051939e-03 3.93391028e-03 1.18017313e-03 3.93391028e-03
      2.36034626e-03 6.29425654e-03 4.32730140e-03 3.93391028e-03
      6.29425654e-03 1.57356414e-03 2.36034626e-03 5.11408364e-03
      8.26121215e-03 7.47442944e-03 7.47442944e-03 7.86782068e-04
      2.75373715e-03 4.32730140e-03 6.29425654e-03 6.68764766e-03
      1.18017313e-03 7.86782068e-04 3.93391028e-03 1.96695514e-03
      4.32730140e-03 3.54051939e-03 3.93391034e-04 4.32730140e-03 0.
      2.75373715e-03 2.36034626e-03 5.50747430e-03 2.36034626e-03
      2.75373715e-03 1.57356414e-03 3.14712827e-03 7.08103878e-03
      3.54051939e-03 3.14712827e-03 4.72069252e-03 1.18017313e-03
      1.96695514e-03 3.54051939e-03 7.08103878e-03 7.08103878e-03
      1.57356414e-03 3.14712827e-03 6.29425654e-03 1.57356414e-03
      1.96695514e-03 5.90086542e-03 5.11408364e-03 2.36034626e-03
      8.65460280e-03 2.75373715e-03 8.26121215e-03 2.75373715e-03
      7.86782068e-04 1.21951224e-02 4.32730140e-03 3.14712827e-03
      3.14712827e-03 9.44138505e-03 6.68764766e-03 5.90086542e-03
      5.90086542e-03 9.04799346e-03 4.72069252e-03 4.32730140e-03
      6.68764766e-03 1.21951224e-02 1.18017313e-03 1.21951224e-02
      3.93391034e-04 2.36034626e-03 5.11408364e-03 9.04799346e-03
      6.68764766e-03 4.32730140e-03 4.72069252e-03 7.86782068e-04
      2.36034626e-03 3.14712827e-03 6.29425654e-03 9.83477570e-03
      5.90086542e-03 4.72069252e-03 4.32730140e-03 5.50747430e-03
      7.86782068e-04 3.93391028e-03 1.18017313e-03 5.11408364e-03
      2.36034626e-03 1.18017313e-03 1.37686860e-02 3.54051939e-03
      3.93391034e-04 4.72069252e-03 7.86782068e-04 3.93391028e-03
      6.29425654e-03 2.36034626e-03 6.29425654e-03 7.08103878e-03 0.
      2.75373715e-03 0. 3.54051939e-03 7.08103878e-03 5.50747430e-03
      3.54051939e-03 0. 3.93391028e-03 2.75373715e-03 1.14083402e-02
      1.57356414e-03 1.96695514e-03 1.18017313e-03 6.68764766e-03
      7.86782056e-03 3.14712827e-03 1.10149486e-02 2.36034626e-03
      4.32730140e-03 0. 3.54051939e-03 2.75373715e-03 3.93391028e-03
      3.14712827e-03 4.32730140e-03 6.29425654e-03 6.29425654e-03
      1.57356414e-03 9.04799346e-03 1.96695514e-03 8.65460280e-03
      7.08103878e-03 4.72069252e-03 4.32730140e-03 7.86782068e-04
      7.47442944e-03 2.36034626e-03 3.54051939e-03 2.75373715e-03
      5.50747430e-03 2.75373715e-03 2.36034626e-03 6.29425654e-03
      3.54051939e-03 0. 8.26121215e-03 1.57356414e-03 9.04799346e-03
      1.18017313e-03 2.36034626e-03 2.36034626e-03 1.18017313e-03
      3.14712827e-03 5.11408364e-03 3.93391028e-03 4.72069252e-03
      3.93391028e-03 1.57356414e-03 2.36034626e-03 5.50747430e-03
      6.29425654e-03 2.75373715e-03 3.93391028e-03 1.49488589e-02
      2.75373715e-03 6.68764766e-03 6.68764766e-03 3.54051939e-03
      4.32730140e-03 5.90086542e-03 3.93391034e-04 2.36034626e-03
      2.36034626e-03 8.65460280e-03 1.18017313e-03 7.86782068e-04
      1.96695514e-03 4.32730140e-03 0. 1.96695514e-03 8.26121215e-03 0.
      1.33752953e-02 3.54051939e-03 2.75373715e-03 1.18017313e-03
      7.86782056e-03 4.32730140e-03 4.72069252e-03 2.36034626e-03
      1.18017313e-03 7.86782068e-04 1.33752953e-02 6.68764766e-03
      3.54051939e-03 1.57356414e-03 1.57356414e-03 5.90086542e-03
      7.86782056e-03 4.72069252e-03 0. 4.32730140e-03 7.86782068e-04
      1.96695514e-03 3.54051939e-03 7.86782056e-03 4.72069252e-03 0.
      3.54051939e-03 2.36034626e-03 1.18017313e-03 2.75373715e-03
      1.96695514e-03 7.86782068e-04 0. 6.68764766e-03 2.75373715e-03</_>
    <_>
      9.75800119e-03 2.73224036e-03 3.12256045e-03 6.63544098e-03
      7.80640112e-04 1.56128022e-03 3.12256045e-03 3.51288053e-03
      2.34192028e-03 3.12256045e-03 5.07416064e-03 3.90320062e-03
      7.02576106e-03 2.34192028e-03 3.12256045e-03 3.51288053e-03
      2.73224036e-03 5.07416064e-03 3.12256045e-03 1.56128022e-03
      2.73224036e-03 3.12256045e-03 3.12256045e-03 6.24512089e-03
      7.80640123e-03 8.19672085e-03 5.85480081e-03 7.80640123e-03
      3.90320062e-03 7.41608115e-03 2.73224036e-03 1.56128022e-03
      5.85480081e-03 7.02576106e-03 1.95160031e-03 2.73224036e-03
      2.34192028e-03 1.17096014e-03 2.73224036e-03 4.68384055e-03
      4.29352047e-03 1.95160031e-03 4.68384055e-03 3.51288053e-03
      3.51288053e-03 7.80640112e-04 5.07416064e-03 2.73224036e-03
      1.95160031e-03 7.80640112e-04 1.56128022e-03 5.07416064e-03
      1.56128022e-03 2.73224036e-03 3.12256045e-03 3.12256045e-03
      3.90320062e-03 1.95160031e-03 1.95160031e-03 3.12256045e-03
      3.51288053e-03 1.56128022e-03 2.34192028e-03 1.17096014e-03
      3.12256045e-03 2.73224036e-03 5.07416064e-03 3.90320062e-03
      2.34192028e-03 7.41608115e-03 4.68384055e-03 2.73224036e-03
      7.41608115e-03 3.51288053e-03 8.97736102e-03 2.73224036e-03
      4.68384055e-03 1.17096014e-03 1.95160031e-03 9.75800119e-03
      3.12256045e-03 4.68384055e-03 3.12256045e-03 1.20999217e-02
      3.12256045e-03 2.73224036e-03 2.34192028e-03 6.63544098e-03
      1.56128022e-03 4.68384055e-03 3.12256045e-03 7.02576106e-03
      1.95160031e-03 7.02576106e-03 3.12256045e-03 1.95160031e-03
      1.95160031e-03 1.56128022e-03 5.07416064e-03 3.12256045e-03
      7.80640123e-03 1.95160031e-03 4.29352047e-03 3.12256045e-03
      1.17096014e-03 4.29352047e-03 2.34192028e-03 1.05386414e-02
      4.29352047e-03 4.29352047e-03 5.46448072e-03 1.56128022e-03
      1.83450431e-02 2.73224036e-03 1.95160031e-03 2.73224036e-03
      1.24902418e-02 3.90320062e-03 1.56128022e-03 0. 6.63544098e-03
      4.29352047e-03 2.34192028e-03 2.73224036e-03 4.68384055e-03
      1.95160031e-03 4.29352047e-03 1.17096014e-03 1.95160031e-03
      5.46448072e-03 3.12256045e-03 2.34192028e-03 3.12256045e-03
      7.80640123e-03 3.90320062e-03 4.68384055e-03 1.56128022e-03
      4.29352047e-03 3.90320062e-03 3.12256045e-03 3.51288053e-03
      3.12256045e-03 1.17096014e-03 3.90320062e-03 4.29352047e-03
      6.24512089e-03 1.17096014e-03 2.34192028e-03 4.68384055e-03
      4.29352047e-03 3.90320062e-03 2.73224036e-03 7.02576106e-03
      3.12256045e-03 2.73224036e-03 8.58704094e-03 3.12256045e-03
      4.68384055e-03 3.12256045e-03 3.90320062e-03 2.73224036e-03
      7.02576106e-03 5.85480081e-03 3.90320062e-03 6.24512089e-03
      3.90320062e-03 1.17096014e-03 2.73224036e-03 5.07416064e-03
      4.29352047e-03 1.56128022e-03 8.58704094e-03 2.73224036e-03
      3.90320056e-04 1.17096014e-03 8.97736102e-03 3.51288053e-03
      2.73224036e-03 1.17096014e-03 1.17096014e-03 1.05386414e-02
      2.06869636e-02 3.12256045e-03 4.68384055e-03 7.80640112e-04
      3.90320056e-04 4.68384055e-03 1.95160031e-03 4.29352047e-03
      6.24512089e-03 3.51288053e-03 3.51288053e-03 3.12256045e-03
      2.34192028e-03 1.13192815e-02 2.34192028e-03 4.68384055e-03
      2.34192028e-03 3.12256045e-03 7.41608115e-03 4.29352047e-03
      1.95160031e-03 2.34192028e-03 7.80640123e-03 1.01483213e-02
      2.34192028e-03 1.95160031e-03 3.51288053e-03 5.07416064e-03
      3.51288053e-03 4.29352047e-03 3.90320062e-03 7.41608115e-03
      3.51288053e-03 5.85480081e-03 6.24512089e-03 3.51288053e-03
      2.73224036e-03 2.34192028e-03 1.13192815e-02 7.80640123e-03
      3.12256045e-03 1.56128022e-03 5.46448072e-03 7.80640112e-04
      1.28805619e-02 3.51288053e-03 7.80640112e-04 5.07416064e-03
      2.34192028e-03 1.24902418e-02 7.80640123e-03 2.73224036e-03
      1.09289614e-02 1.95160031e-03 2.73224036e-03 2.34192028e-03
      1.71740819e-02 3.90320056e-04 7.80640112e-04</_>
    <_>
      0. 1.10497242e-02 1.38121552e-03 2.76243105e-03 0. 4.14364645e-03
      1.38121552e-03 0. 4.14364645e-03 0. 1.10497242e-02 5.52486209e-03
      1.10497242e-02 6.90607773e-03 5.52486209e-03 4.14364645e-03
      2.76243105e-03 4.14364645e-03 0. 0. 2.76243105e-03 4.14364645e-03
      8.28729291e-03 6.90607773e-03 1.51933711e-02 1.38121552e-03
      6.90607773e-03 2.76243105e-03 1.10497242e-02 4.14364645e-03 0.
      4.14364645e-03 4.14364645e-03 8.28729291e-03 1.38121552e-03 0.
      8.28729291e-03 6.90607773e-03 0. 4.14364645e-03 5.52486209e-03 0.
      3.03867422e-02 0. 1.38121552e-03 0. 0. 5.52486209e-03
      5.52486209e-03 0. 9.66850854e-03 1.38121552e-03 4.14364645e-03
      2.76243105e-03 0. 1.38121552e-03 5.52486209e-03 0. 2.76243105e-03
      0. 2.76243105e-03 0. 8.28729291e-03 4.14364645e-03 4.14364645e-03
      5.52486209e-03 0. 5.52486209e-03 1.38121552e-03 2.76243105e-03
      9.66850854e-03 1.38121552e-03 4.14364645e-03 0. 0. 2.76243105e-03
      0. 9.66850854e-03 1.38121552e-03 1.93370171e-02 1.38121552e-03 0.
      2.76243105e-03 5.52486209e-03 0. 1.38121552e-03 0. 2.76243105e-03
      2.76243105e-03 4.14364645e-03 4.14364645e-03 0. 0. 1.38121552e-03
      5.52486209e-03 0. 0. 4.14364645e-03 1.38121552e-03 0.
      1.38121552e-03 9.66850854e-03 6.90607773e-03 4.14364645e-03
      8.28729291e-03 6.90607773e-03 2.76243105e-03 6.90607773e-03
      4.14364645e-03 5.52486209e-03 4.14364645e-03 2.76243105e-03
      8.28729291e-03 4.14364645e-03 1.38121552e-03 2.76243105e-03 0. 0.
      2.76243105e-03 8.28729291e-03 0. 4.14364645e-03 0. 2.76243105e-03
      0. 1.93370171e-02 1.65745858e-02 1.10497242e-02 2.76243105e-03
      2.76243105e-03 2.76243105e-03 0. 1.51933711e-02 6.90607773e-03
      9.66850854e-03 0. 6.90607773e-03 1.38121552e-03 0. 4.14364645e-03
      0. 2.76243105e-03 0. 4.14364645e-03 0. 1.38121552e-03
      1.38121552e-03 0. 1.38121552e-03 1.38121552e-03 4.14364645e-03
      1.51933711e-02 0. 2.76243105e-03 2.76243105e-03 1.38121552e-03
      4.14364645e-03 0. 2.76243105e-03 1.38121552e-03 6.90607773e-03
      8.28729291e-03 5.52486209e-03 2.34806631e-02 6.90607773e-03
      6.90607773e-03 2.76243105e-03 5.52486209e-03 6.90607773e-03 0.
      8.28729291e-03 9.66850854e-03 8.28729291e-03 4.14364645e-03
      4.14364645e-03 4.14364645e-03 2.76243105e-03 1.38121552e-03 0.
      6.90607773e-03 0. 8.28729291e-03 8.28729291e-03 6.90607773e-03
      8.28729291e-03 9.66850854e-03 1.38121552e-03 1.38121552e-03
      1.38121552e-03 1.10497242e-02 2.76243105e-03 0. 6.90607773e-03 0.
      2.76243105e-03 0. 4.14364645e-03 1.38121552e-03 1.38121552e-03
      1.10497242e-02 8.28729291e-03 0. 2.76243105e-03 2.62430944e-02
      4.14364645e-03 4.14364645e-03 4.14364645e-03 2.76243105e-03
      6.90607773e-03 4.14364645e-03 0. 1.38121552e-03 1.38121552e-03 0.
      9.66850854e-03 2.48618796e-02 1.38121552e-03 4.14364645e-03
      1.38121552e-03 4.14364645e-03 5.52486209e-03 4.14364645e-03
      4.14364645e-03 1.38121552e-03 1.24309398e-02 0. 4.14364645e-03
      1.38121552e-03 0. 0. 6.90607773e-03 6.90607773e-03 1.38121552e-03
      1.38121552e-03 4.14364645e-03 1.38121552e-03 2.76243105e-03
      1.38121552e-03 0. 1.38121552e-03</_>
    <_>
      4.31344379e-03 0. 7.18907267e-03 0. 4.31344379e-03 3.59453633e-03
      2.15672189e-03 2.87562911e-03 7.18907267e-03 1.43781456e-03
      2.15672189e-03 1.15025165e-02 2.15672189e-03 8.62688757e-03
      7.90798012e-03 2.87562911e-03 7.90798012e-03 2.87562911e-03
      1.43781456e-03 2.87562911e-03 7.18907278e-04 3.59453633e-03 0.
      4.31344379e-03 7.18907278e-04 0. 2.87562911e-03 3.59453633e-03
      4.31344379e-03 1.43781456e-03 1.43781456e-03 5.03235077e-03
      7.18907278e-04 2.15672189e-03 2.15672189e-03 2.15672189e-03
      1.22214239e-02 1.72537751e-02 0. 3.59453633e-03 0. 1.43781456e-03
      5.75125823e-03 0. 5.03235077e-03 0. 0. 0. 9.34579503e-03
      2.15672189e-03 7.18907267e-03 0. 7.18907267e-03 5.75125823e-03
      5.03235077e-03 2.87562911e-03 3.59453633e-03 1.86915901e-02
      1.43781456e-03 0. 9.34579503e-03 2.87562911e-03 0. 7.18907278e-04
      2.15672189e-03 5.75125823e-03 7.18907278e-04 5.03235077e-03
      5.75125823e-03 7.18907278e-04 5.03235077e-03 1.94104966e-02
      1.22214239e-02 0. 2.15672189e-03 4.31344379e-03 0. 8.62688757e-03
      0. 1.50970528e-02 1.50970528e-02 0. 2.87562911e-03 3.09130121e-02
      2.87562911e-03 2.15672189e-03 8.62688757e-03 6.47016568e-03
      9.34579503e-03 7.18907278e-04 5.75125823e-03 0. 1.43781456e-03
      4.31344379e-03 7.18907278e-04 7.18907278e-04 4.31344379e-03
      7.18907278e-04 7.18907278e-04 2.15672189e-03 0. 1.50970528e-02
      4.31344379e-03 7.18907267e-03 1.86915901e-02 2.15672189e-03
      1.00647015e-02 1.43781456e-03 5.75125823e-03 7.18907278e-04 0.
      3.59453633e-03 2.08483115e-02 0. 0. 7.90798012e-03 0.
      3.59453633e-03 5.03235077e-03 5.75125823e-03 5.03235077e-03
      4.31344379e-03 0. 0. 0. 5.75125823e-03 1.22214239e-02
      2.15672189e-03 0. 7.18907278e-04 5.75125823e-03 5.03235077e-03
      7.18907267e-03 7.18907278e-04 0. 7.18907278e-04 3.59453633e-03
      4.31344379e-03 7.18907278e-04 1.07836090e-02 0. 0. 0.
      4.31344379e-03 2.15672189e-03 1.43781456e-03 5.75125823e-03
      3.59453633e-03 7.90798012e-03 7.18907267e-03 5.03235077e-03
      4.31344379e-03 1.43781456e-03 7.18907267e-03 2.87562911e-03
      7.18907278e-04 2.15672189e-03 7.18907267e-03 2.15672189e-03
      1.43781456e-03 2.15672189e-03 7.18907267e-03 6.47016568e-03
      2.87562911e-03 2.87562911e-03 5.75125823e-03 3.59453633e-03
      1.43781456e-03 3.59453633e-03 7.18907278e-04 1.15025165e-02
      2.15672189e-03 7.18907278e-04 1.43781453e-02 7.18907278e-04
      1.43781456e-03 1.43781456e-03 7.18907278e-04 2.15672189e-03
      4.31344379e-03 0. 0. 1.22214239e-02 5.03235077e-03 7.18907278e-04
      2.15672189e-03 1.22214239e-02 4.31344379e-03 1.43781456e-03
      4.31344379e-03 5.03235077e-03 4.31344379e-03 1.50970528e-02 0. 0.
      2.15672189e-03 2.87562911e-03 7.18907278e-04 7.18907278e-04
      1.94104966e-02 4.31344379e-03 0. 7.90798012e-03 1.43781456e-03
      7.18907278e-04 7.90798012e-03 4.31344379e-03 3.59453633e-03
      7.18907278e-04 2.15672189e-03 3.59453633e-03 7.18907278e-04
      2.15672189e-03 1.43781456e-03 1.43781456e-03 2.80373842e-02
      7.90798012e-03 7.18907278e-04 7.18907278e-04 1.43781456e-03
      1.29403314e-02 2.87562911e-03 2.87562911e-03 1.43781456e-03
      2.15672189e-03 7.18907278e-04 3.59453633e-03 7.90798012e-03
      5.75125823e-03 7.90798012e-03 7.18907278e-04 1.43781456e-03
      2.87562911e-03 1.43781456e-03 5.03235077e-03 5.03235077e-03
      5.03235077e-03 2.15672189e-03 2.87562911e-03 0.</_>
    <_>
      1.43973678e-02 7.81571399e-03 2.05676677e-03 3.70218023e-03
      1.64541346e-03 8.22706730e-04 2.87947361e-03 8.22706730e-04
      8.63842107e-03 6.99300738e-03 6.17030030e-03 2.05676677e-03
      4.93624061e-03 6.58165384e-03 5.75894723e-03 4.11353353e-03
      8.22706730e-04 4.52488707e-03 0. 1.02838343e-02 2.46812031e-03
      2.46812031e-03 2.46812031e-03 1.19292475e-02 8.22706707e-03
      2.87947357e-02 1.64541346e-03 8.22706730e-04 6.17030030e-03
      2.46812031e-03 1.02838343e-02 8.22706730e-04 7.40436045e-03
      3.70218023e-03 4.93624061e-03 2.46812031e-03 1.64541346e-03
      3.70218023e-03 3.29082692e-03 4.11353353e-03 9.46112722e-03
      2.46812031e-03 6.58165384e-03 6.58165384e-03 4.52488707e-03
      8.22706730e-04 1.64541346e-03 4.11353365e-04 1.64541346e-03
      2.87947361e-03 3.70218023e-03 7.40436045e-03 3.29082692e-03
      1.64541346e-03 8.22706730e-04 2.87947361e-03 4.93624061e-03
      4.52488707e-03 4.11353365e-04 1.23406015e-03 2.87947361e-03
      1.64541346e-03 6.17030030e-03 5.34759369e-03 2.87947361e-03
      1.64541346e-03 1.23406015e-03 5.75894723e-03 1.23406015e-03
      2.05676677e-03 8.22706730e-04 9.87248123e-03 4.52488707e-03
      4.11353365e-04 1.93336084e-02 8.22706730e-04 8.22706730e-04
      1.27519546e-02 3.29082692e-03 5.34759369e-03 8.22706707e-03
      1.23406015e-03 2.46812031e-03 6.99300738e-03 8.22706730e-04
      2.46812031e-03 0. 8.22706730e-04 2.87947361e-03 3.29082692e-03
      2.05676677e-03 1.64541346e-03 1.23406015e-03 2.46812031e-03
      4.11353365e-04 8.22706730e-04 8.22706730e-04 4.77169901e-02
      6.58165384e-03 2.46812031e-03 4.11353353e-03 2.05676677e-03
      3.29082692e-03 5.34759369e-03 5.75894723e-03 4.52488707e-03
      2.46812031e-03 2.05676677e-03 4.52488707e-03 1.23406015e-03
      3.70218023e-03 1.64541346e-03 8.63842107e-03 3.29082692e-03
      5.34759369e-03 4.11353365e-04 4.11353365e-04 3.29082692e-03
      2.87947361e-03 2.46812031e-03 3.29082692e-03 6.17030030e-03
      5.34759369e-03 1.64541346e-03 2.87947361e-03 1.23406015e-03
      1.23406015e-03 1.23406015e-03 3.29082692e-03 2.05676677e-03
      3.29082692e-03 8.22706730e-04 1.64541346e-03 7.40436045e-03
      3.70218023e-03 8.22706730e-04 2.46812031e-03 2.46812031e-03
      2.87947361e-03 8.22706730e-04 2.05676677e-03 2.87947361e-03
      2.87947361e-03 2.05676677e-03 4.11353365e-04 2.87947361e-03
      4.52488707e-03 3.29082692e-03 1.64541346e-03 2.46812031e-03
      1.23406006e-02 4.52488707e-03 1.23406006e-02 0. 8.22706730e-04
      9.46112722e-03 2.87947361e-03 6.99300738e-03 2.46812031e-03
      8.22706730e-04 2.13903747e-02 4.11353353e-03 1.23406015e-03
      6.58165384e-03 2.46812031e-03 1.23406015e-03 1.23406015e-03
      1.64541346e-03 2.05676677e-03 8.22706730e-04 2.46812031e-03
      3.70218023e-03 3.29082692e-03 7.40436045e-03 3.29082692e-03
      9.46112722e-03 0. 2.05676677e-03 1.23406015e-03 8.22706730e-04
      1.43973678e-02 1.39860148e-02 4.93624061e-03 1.64541346e-03
      7.81571399e-03 8.22706730e-04 2.46812031e-03 4.93624061e-03
      2.05676677e-03 5.34759369e-03 8.22706730e-04 4.11353365e-04
      8.22706730e-04 4.11353365e-04 5.34759369e-03 1.64541346e-03
      2.05676677e-03 2.46812031e-03 8.22706730e-04 1.64541346e-03
      4.52488707e-03 8.22706730e-04 4.11353353e-03 3.29082692e-03
      1.02838343e-02 2.05676677e-03 4.52488707e-03 2.46812031e-03
      1.64541346e-03 2.87947361e-03 4.11353353e-03 1.64541346e-03
      8.22706730e-04 1.06951874e-02 2.71493215e-02 8.22706730e-04
      1.23406015e-03 8.22706730e-04 3.70218023e-03 1.60427820e-02
      2.87947361e-03 2.46812031e-03 4.52488707e-03 8.22706730e-04
      3.70218023e-03 5.34759369e-03 1.64541346e-03 9.46112722e-03
      8.22706730e-04 2.05676677e-03 9.04977415e-03 2.46812031e-03
      2.05676677e-03 1.15178945e-02 4.11353365e-04 2.46812031e-03
      1.64541346e-03 1.85109023e-02 8.22706730e-04 5.34759369e-03</_>
    <_>
      9.08090267e-03 1.10071548e-03 8.25536624e-03 0. 1.65107322e-03
      3.02696764e-03 5.50357718e-03 1.37589430e-03 8.25536612e-04
      3.57732526e-03 2.75178859e-03 2.20143097e-03 1.37589430e-03
      4.12768312e-03 7.15465052e-03 6.87947171e-03 3.02696764e-03
      3.30214645e-03 2.75178859e-03 2.75178859e-03 2.20143097e-03
      3.85250431e-03 9.63126030e-03 6.60429290e-03 5.50357741e-04
      5.77875646e-03 4.12768312e-03 3.85250431e-03 1.18326917e-02
      1.45844799e-02 3.85250431e-03 3.30214645e-03 1.10071548e-03
      9.35608149e-03 3.85250431e-03 5.77875646e-03 3.57732526e-03
      7.15465052e-03 1.65107322e-03 5.77875646e-03 4.95321956e-03
      2.75178871e-04 1.92625215e-03 3.02696764e-03 2.75178859e-03
      6.05393527e-03 4.40286193e-03 3.57732526e-03 3.30214645e-03
      4.95321956e-03 3.30214645e-03 1.37589430e-03 3.30214645e-03
      3.02696764e-03 3.30214645e-03 5.22839837e-03 4.12768312e-03
      1.92625215e-03 2.75178859e-03 1.92625215e-03 5.50357741e-04
      3.57732526e-03 5.50357741e-04 3.30214645e-03 5.77875646e-03
      5.22839837e-03 7.70500861e-03 6.05393527e-03 1.92625215e-03
      2.75178859e-03 2.75178871e-04 3.85250431e-03 1.92625215e-03
      1.65107322e-03 6.32911408e-03 3.02696764e-03 1.10071548e-03
      8.25536612e-04 2.75178871e-04 1.92625215e-03 6.05393527e-03
      3.30214645e-03 5.22839837e-03 1.18326917e-02 2.75178859e-03
      4.40286193e-03 2.20143097e-03 4.67804074e-03 4.12768312e-03
      3.02696764e-03 6.05393527e-03 4.67804074e-03 1.37589430e-03
      6.32911408e-03 3.02696764e-03 1.10071548e-03 5.77875646e-03
      6.60429290e-03 1.65107322e-03 7.42982933e-03 1.10071548e-03
      2.20143097e-03 4.67804074e-03 1.51348375e-02 1.01816179e-02
      1.65107322e-03 3.85250431e-03 2.47660978e-03 9.08090267e-03
      9.90643911e-03 1.65107322e-03 2.20143097e-03 1.84369851e-02
      3.57732526e-03 5.50357718e-03 4.67804074e-03 8.53054505e-03
      3.85250431e-03 1.92625215e-03 4.67804074e-03 1.37589434e-02
      1.37589430e-03 1.37589430e-03 8.25536612e-04 7.42982933e-03
      5.22839837e-03 2.75178859e-03 3.02696764e-03 6.32911408e-03
      3.02696764e-03 6.05393527e-03 2.47660978e-03 1.37589430e-03
      1.37589430e-03 5.50357741e-04 5.22839837e-03 5.50357741e-04
      1.65107322e-03 4.12768312e-03 3.85250431e-03 4.40286193e-03
      3.02696764e-03 1.65107322e-03 3.57732526e-03 3.85250431e-03
      4.12768312e-03 6.87947171e-03 2.20143097e-03 1.92625215e-03
      2.20143097e-03 2.20143097e-03 2.75178859e-03 1.32085858e-02
      1.92625215e-03 2.20143097e-03 7.98018742e-03 2.75178859e-03
      3.02696764e-03 3.57732526e-03 7.98018742e-03 5.77875646e-03
      5.50357718e-03 1.37589430e-03 2.47660978e-03 1.65107322e-03
      1.37589430e-03 8.25536612e-04 8.25536612e-04 1.65107322e-03
      1.92625215e-03 8.25536612e-04 4.12768312e-03 1.07319755e-02
      1.92625215e-03 2.75178859e-03 5.22839837e-03 1.92625215e-03
      7.15465052e-03 1.92625215e-03 4.12768312e-03 3.85250431e-03
      7.42982933e-03 4.67804074e-03 1.65107322e-03 2.47660978e-03
      1.10071548e-03 5.77875646e-03 1.01816179e-02 3.57732526e-03
      1.10071548e-03 1.04567967e-02 4.40286193e-03 1.37589430e-03
      1.10071548e-03 7.15465052e-03 3.02696764e-03 8.25536624e-03
      3.30214645e-03 5.50357741e-04 1.23830494e-02 1.65107322e-03
      7.15465052e-03 2.47660978e-03 2.75178859e-03 1.92625215e-03
      3.85250431e-03 9.63126030e-03 3.57732526e-03 1.37589430e-03
      3.57732526e-03 6.05393527e-03 4.12768312e-03 1.65107322e-03
      4.40286193e-03 3.57732526e-03 1.10071548e-03 1.92625215e-03
      5.77875646e-03 2.75178859e-03 1.01816179e-02 7.42982933e-03
      4.12768312e-03 4.12768312e-03 1.10071548e-03 4.95321956e-03
      1.15575129e-02 1.10071548e-03 3.02696764e-03 1.67859104e-02
      3.85250431e-03 4.95321956e-03 2.47660978e-03 4.67804074e-03
      1.92625215e-03 1.65107322e-03 2.75178859e-03 2.75178871e-04
      1.32085858e-02 8.25536612e-04 7.70500861e-03</_>
    <_>
      1.45348837e-03 1.09011624e-02 5.81395347e-03 1.45348837e-03
      1.45348837e-03 7.26744183e-04 4.36046533e-03 7.26744160e-03
      6.54069753e-03 2.18023267e-03 3.63372080e-03 1.45348837e-03
      1.09011624e-02 3.63372080e-03 7.99418613e-03 2.18023267e-03
      7.26744183e-04 2.90697673e-03 5.81395347e-03 3.63372080e-03
      1.45348837e-03 2.90697673e-03 1.45348837e-03 5.81395347e-03
      9.44767427e-03 9.44767427e-03 5.08720940e-03 4.36046533e-03
      6.54069753e-03 4.36046533e-03 5.81395347e-03 7.26744183e-04
      1.01744188e-02 9.44767427e-03 5.81395347e-03 2.18023267e-03
      2.18023267e-03 3.63372080e-03 5.08720940e-03 3.63372080e-03
      1.45348837e-03 2.18023267e-03 8.72093067e-03 1.16279069e-02
      4.36046533e-03 0. 4.36046533e-03 1.45348837e-03 2.18023267e-03
      4.36046533e-03 7.26744183e-04 3.63372080e-03 7.26744183e-04
      7.26744183e-04 7.26744183e-04 2.18023267e-03 7.26744183e-04
      6.54069753e-03 7.26744183e-04 1.45348837e-03 3.63372080e-03
      2.18023267e-03 7.26744183e-04 2.90697673e-03 7.26744183e-04
      1.45348837e-03 2.90697673e-03 4.36046533e-03 1.45348837e-03
      3.63372080e-03 2.90697673e-03 7.99418613e-03 2.90697673e-03
      1.09011624e-02 5.08720940e-03 2.18023267e-03 2.90697673e-03
      5.81395347e-03 2.18023267e-03 1.16279069e-02 6.54069753e-03
      2.18023267e-03 5.08720940e-03 7.26744160e-03 5.08720940e-03
      5.08720940e-03 7.26744183e-04 7.26744160e-03 9.44767427e-03
      7.26744160e-03 2.90697673e-03 5.81395347e-03 0. 3.63372080e-03
      5.08720940e-03 2.18023267e-03 2.18023267e-03 3.63372080e-03
      2.90697673e-03 7.26744183e-04 4.36046533e-03 2.18023267e-03
      7.26744160e-03 4.36046533e-03 7.99418613e-03 4.36046533e-03
      7.26744183e-04 2.90697673e-03 5.81395347e-03 6.54069753e-03
      5.08720940e-03 2.18023267e-03 2.90697673e-03 1.09011624e-02
      7.26744160e-03 1.45348837e-03 7.26744160e-03 4.36046533e-03
      2.90697673e-03 7.26744183e-04 4.36046533e-03 7.26744183e-04
      1.45348837e-03 1.45348837e-03 1.52616277e-02 3.63372080e-03
      2.90697673e-03 4.36046533e-03 7.26744183e-04 2.90697673e-03
      7.26744183e-04 0. 2.90697673e-03 5.08720940e-03 5.81395347e-03
      7.26744160e-03 4.36046533e-03 7.26744183e-04 6.54069753e-03
      7.26744183e-04 1.30813951e-02 5.81395347e-03 7.26744183e-04
      1.45348837e-03 4.36046533e-03 6.54069753e-03 2.90697673e-03
      2.18023267e-03 2.18023267e-03 1.45348837e-03 5.08720940e-03
      5.81395347e-03 5.08720940e-03 2.18023267e-03 5.08720940e-03
      4.36046533e-03 1.45348837e-03 4.36046533e-03 2.18023267e-03
      3.63372080e-03 2.90697673e-03 7.26744183e-04 3.63372080e-03
      1.30813951e-02 4.36046533e-03 7.26744183e-04 2.90697673e-03
      4.36046533e-03 1.45348837e-03 2.90697673e-03 2.18023267e-03
      1.88953485e-02 2.90697673e-03 2.90697673e-03 1.45348837e-03
      1.45348837e-03 2.90697673e-03 1.01744188e-02 4.36046533e-03 0.
      4.36046533e-03 9.44767427e-03 2.90697673e-03 7.26744183e-04
      7.26744183e-04 2.18023267e-03 2.90697673e-03 2.18023267e-03
      4.36046533e-03 5.81395347e-03 5.81395347e-03 2.18023267e-03
      2.18023267e-03 7.26744160e-03 8.72093067e-03 8.72093067e-03
      9.44767427e-03 3.63372080e-03 0. 3.63372080e-03 2.90697673e-03
      4.36046533e-03 1.45348837e-03 1.09011624e-02 5.81395347e-03
      3.63372080e-03 4.36046533e-03 1.45348837e-03 1.45348837e-03
      7.26744183e-04 1.45348837e-03 7.99418613e-03 7.99418613e-03
      5.81395347e-03 1.45348837e-03 5.08720940e-03 2.18023267e-03
      1.45348837e-03 2.90697673e-03 7.99418613e-03 0. 5.08720940e-03
      4.36046533e-03 3.63372080e-03 3.63372080e-03 1.09011624e-02 0.
      5.08720940e-03 3.63372080e-03 5.08720940e-03 5.81395347e-03
      5.81395347e-03 8.72093067e-03 8.72093067e-03 3.63372080e-03
      1.45348837e-03 6.54069753e-03 6.54069753e-03 3.63372080e-03
      4.36046533e-03</_>
    <_>
      9.18695470e-04 2.75608641e-03 3.21543403e-03 4.13412973e-03
      5.97152067e-03 3.67478188e-03 5.97152067e-03 4.59347758e-03
      4.59347735e-04 0. 4.13412973e-03 3.67478188e-03 3.21543403e-03
      1.37804321e-03 9.18695470e-04 5.51217282e-03 2.75608641e-03
      4.59347758e-03 7.34956376e-03 0. 5.05282497e-03 1.37804321e-03
      4.59347758e-03 9.18695470e-04 5.05282497e-03 0. 5.05282497e-03
      9.18695517e-03 8.26825947e-03 6.43086806e-03 5.51217282e-03
      5.97152067e-03 6.43086806e-03 5.51217282e-03 9.18695470e-04
      4.13412973e-03 1.37804321e-03 9.18695470e-04 2.75608641e-03
      4.59347758e-03 9.18695470e-04 1.01056499e-02 5.05282497e-03
      5.97152067e-03 4.13412973e-03 0. 1.01056499e-02 2.29673879e-03
      2.29673879e-03 8.26825947e-03 3.21543403e-03 1.37804321e-03
      5.97152067e-03 7.34956376e-03 7.80891161e-03 1.10243456e-02
      1.83739094e-03 0. 1.01056499e-02 8.26825947e-03 9.64630209e-03
      5.05282497e-03 4.59347735e-04 4.13412973e-03 5.51217282e-03
      7.34956376e-03 1.14836935e-02 4.59347735e-04 2.75608641e-03
      3.21543403e-03 3.67478188e-03 4.59347735e-04 5.05282497e-03
      1.37804321e-03 9.18695470e-04 7.80891161e-03 9.18695470e-04
      5.05282497e-03 3.21543403e-03 4.59347758e-03 1.37804321e-03
      9.18695517e-03 4.59347735e-04 9.18695470e-04 1.37804321e-03
      2.29673879e-03 5.51217282e-03 9.64630209e-03 8.26825947e-03
      7.80891161e-03 1.83739094e-03 1.05649978e-02 6.89021591e-03
      1.74552146e-02 3.67478188e-03 6.89021591e-03 1.14836935e-02
      9.18695470e-04 4.59347735e-04 1.83739094e-03 2.75608641e-03
      1.37804321e-03 4.59347758e-03 1.42397797e-02 4.59347735e-04
      1.83739094e-03 2.29673879e-03 4.59347735e-04 1.37804321e-03
      1.01056499e-02 1.14836935e-02 5.97152067e-03 4.59347758e-03
      2.75608641e-03 1.83739094e-03 2.75608641e-03 4.59347758e-03
      1.37804321e-03 1.37804321e-03 1.37804321e-03 1.83739103e-02
      3.21543403e-03 0. 9.18695470e-04 1.83739094e-03 9.18695470e-04
      6.89021591e-03 8.26825947e-03 2.29673879e-03 3.21543403e-03
      1.37804321e-03 1.83739094e-03 2.29673879e-03 3.67478188e-03
      4.59347758e-03 4.13412973e-03 1.10243456e-02 2.29673879e-03
      3.67478188e-03 5.51217282e-03 9.18695470e-04 3.21543403e-03
      4.59347735e-04 4.13412973e-03 4.13412973e-03 1.83739094e-03 0.
      1.28617361e-02 4.59347758e-03 3.21543403e-03 4.59347735e-04
      5.51217282e-03 3.21543403e-03 1.83739094e-03 3.21543403e-03
      1.37804321e-03 5.51217282e-03 3.21543403e-03 1.37804321e-03
      6.43086806e-03 1.37804321e-03 2.29673879e-03 2.29673879e-03
      3.21543403e-03 1.37804321e-03 1.37804321e-03 1.83739094e-03 0.
      2.29673879e-03 1.83739094e-03 1.83739094e-03 7.34956376e-03
      6.89021591e-03 1.37804321e-03 5.51217282e-03 8.26825947e-03
      2.75608641e-03 2.29673879e-03 5.05282497e-03 7.80891161e-03
      2.29673879e-03 6.43086806e-03 3.21543403e-03 2.75608641e-03
      2.75608641e-03 1.83739094e-03 7.80891161e-03 9.18695517e-03
      5.51217282e-03 7.80891161e-03 2.29673879e-03 6.43086806e-03
      9.18695470e-04 6.43086806e-03 1.83739094e-03 9.18695517e-03 0.
      1.37804321e-03 4.59347735e-04 5.51217282e-03 1.83739094e-03 0.
      3.21543403e-03 6.43086806e-03 9.18695517e-03 4.59347758e-03
      4.59347758e-03 3.21543403e-03 2.75608641e-03 7.80891161e-03
      4.59347735e-04 9.18695470e-04 4.13412973e-03 4.59347735e-04
      3.21543403e-03 1.83739094e-03 5.05282497e-03 2.29673879e-03
      6.43086806e-03 0. 0. 1.83739094e-03 4.13412973e-03 1.69958659e-02
      0. 2.29673879e-03 2.29673879e-03 4.59347735e-04 2.02112999e-02
      2.75608641e-03 5.97152067e-03 4.13412973e-03 5.05282497e-03
      9.18695517e-03 2.75608641e-03 8.26825947e-03 5.51217282e-03 0.
      2.29673879e-03 7.34956376e-03</_>
    <_>
      6.79172063e-03 9.70245805e-04 6.14489010e-03 4.52781375e-03
      1.94049161e-03 3.23415268e-03 5.82147483e-03 3.55756795e-03
      6.46830536e-03 1.00258738e-02 4.20439849e-03 2.58732215e-03
      5.17464429e-03 8.40879697e-03 3.23415268e-03 1.29366107e-03
      2.91073741e-03 3.55756795e-03 4.52781375e-03 5.17464429e-03
      5.49805956e-03 8.73221271e-03 6.46830536e-03 1.19663645e-02
      3.55756795e-03 5.17464429e-03 9.05562751e-03 1.06727034e-02
      4.20439849e-03 1.61707634e-03 0. 3.88098322e-03 3.23415268e-04
      3.88098322e-03 1.29366107e-03 6.14489010e-03 1.61707634e-03
      3.88098322e-03 2.26390688e-03 1.03492886e-02 6.46830536e-04
      4.52781375e-03 1.94049161e-03 9.70245805e-04 2.58732215e-03
      5.82147483e-03 7.76196644e-03 2.91073741e-03 1.94049161e-03
      2.58732215e-03 6.46830536e-04 2.91073741e-03 4.52781375e-03
      5.17464429e-03 6.14489010e-03 7.76196644e-03 1.29366107e-03
      1.61707634e-03 2.91073741e-03 2.58732215e-03 2.91073741e-03
      2.91073741e-03 2.26390688e-03 4.85122902e-03 5.82147483e-03
      4.20439849e-03 5.17464429e-03 2.26390688e-03 1.61707634e-03
      3.55756795e-03 3.23415268e-03 2.91073741e-03 3.23415268e-03
      3.55756795e-03 3.23415268e-03 4.20439849e-03 9.70245805e-04
      1.29366107e-03 9.70245805e-04 1.94049161e-03 4.20439849e-03
      1.48771023e-02 2.91073741e-03 7.11513590e-03 3.55756795e-03 0.
      4.85122902e-03 8.08538124e-03 6.14489010e-03 2.91073741e-03
      4.85122902e-03 1.29366107e-03 2.91073741e-03 1.03492886e-02
      3.23415268e-04 4.20439849e-03 1.32600255e-02 4.52781375e-03
      6.79172063e-03 3.55756795e-03 1.29366107e-03 2.91073741e-03
      6.79172063e-03 6.46830536e-03 2.26390688e-03 5.17464429e-03
      1.94049161e-03 3.23415268e-03 5.49805956e-03 8.73221271e-03
      1.61707634e-03 2.58732215e-03 2.68434677e-02 2.91073741e-03
      5.17464429e-03 2.26390688e-03 3.55756795e-03 3.55756795e-03
      1.61707634e-03 4.20439849e-03 1.61707625e-02 1.29366107e-03
      9.70245805e-04 2.91073741e-03 6.46830536e-03 9.70245805e-04
      3.88098322e-03 3.23415268e-03 1.29366107e-03 1.29366107e-03
      3.23415268e-03 4.20439849e-03 2.91073741e-03 2.91073741e-03
      2.26390688e-03 2.58732215e-03 3.88098322e-03 6.79172063e-03
      2.91073741e-03 6.14489010e-03 4.20439849e-03 4.85122902e-03
      4.85122902e-03 3.55756795e-03 6.14489010e-03 4.20439849e-03
      2.58732215e-03 6.14489010e-03 1.29366107e-03 1.29366107e-03
      1.35834413e-02 5.82147483e-03 6.79172063e-03 1.29366107e-03
      3.23415268e-03 4.52781375e-03 1.29366107e-03 4.85122902e-03 0.
      2.91073741e-03 7.11513590e-03 6.46830536e-04 1.29366107e-03
      3.23415268e-03 6.14489010e-03 1.94049161e-03 9.70245805e-04
      5.49805956e-03 1.61707634e-03 3.88098322e-03 1.61707634e-03
      6.46830536e-04 1.29366107e-03 4.52781375e-03 9.70245805e-04
      8.73221271e-03 3.55756795e-03 2.26390688e-03 6.14489010e-03
      4.20439849e-03 9.70245805e-04 1.00258738e-02 2.58732215e-03
      1.94049161e-03 3.23415268e-04 1.29366107e-03 7.76196644e-03
      3.23415268e-03 5.49805956e-03 2.26390688e-03 1.29366107e-02
      7.76196644e-03 1.61707634e-03 3.23415268e-03 3.55756795e-03
      6.46830536e-03 6.46830536e-03 3.23415268e-04 1.94049161e-03
      1.29366107e-02 2.58732215e-03 6.14489010e-03 1.94049161e-03
      1.29366107e-03 3.55756795e-03 1.29366107e-03 5.17464429e-03
      2.58732215e-03 3.23415268e-04 4.20439849e-03 3.88098322e-03
      4.52781375e-03 5.82147483e-03 7.11513590e-03 7.11513590e-03
      9.70245805e-04 3.23415268e-03 2.26390688e-03 9.70245805e-04
      1.09961191e-02 9.05562751e-03 1.94049161e-03 6.46830536e-04
      9.70245805e-04 6.46830536e-04 5.17464429e-03 1.94049161e-03
      3.55756795e-03 2.49029752e-02 4.52781375e-03 3.23415268e-04
      2.91073741e-03 7.11513590e-03 3.88098322e-03 2.26390688e-03
      5.49805956e-03 1.61707634e-03 0. 6.46830536e-04 2.26390688e-03</_>
    <_>
      2.02839752e-03 0. 1.35226501e-03 3.38066253e-03 6.76132506e-04
      2.02839752e-03 6.08519278e-03 7.43745733e-03 1.01419874e-02
      3.38066253e-03 1.35226501e-03 2.02839752e-03 4.05679503e-03
      5.40906005e-03 6.76132506e-04 5.40906005e-03 8.11359007e-03
      3.38066253e-03 4.05679503e-03 1.08181201e-02 5.40906005e-03
      4.73292731e-03 1.35226501e-03 1.82555784e-02 0. 4.73292731e-03
      6.08519278e-03 7.43745733e-03 2.70453002e-03 9.46585461e-03 0.
      2.70453002e-03 0. 2.70453002e-03 4.73292731e-03 2.02839752e-03
      5.40906005e-03 1.35226501e-03 4.73292731e-03 8.78972281e-03
      1.35226501e-03 3.38066253e-03 6.76132506e-04 1.75794456e-02
      6.76132506e-04 0. 1.01419874e-02 3.38066253e-03 2.02839752e-03
      3.38066253e-03 2.02839752e-03 2.02839752e-03 6.08519278e-03
      2.70453002e-03 2.02839752e-03 4.05679503e-03 1.35226501e-03 0.
      5.40906005e-03 6.08519278e-03 2.02839752e-03 4.73292731e-03 0.
      2.70453002e-03 6.76132506e-03 5.40906005e-03 4.73292731e-03
      8.11359007e-03 6.76132506e-04 6.76132506e-03 1.35226501e-03
      6.08519278e-03 2.02839752e-03 4.05679503e-03 1.21703856e-02
      6.08519278e-03 6.76132506e-04 0. 1.35226501e-03 6.76132506e-04
      4.73292731e-03 6.76132506e-03 6.08519278e-03 4.73292731e-03
      6.76132506e-04 5.40906005e-03 2.70453002e-03 1.35226501e-03
      2.50169020e-02 6.76132506e-03 3.38066253e-03 2.02839747e-02
      1.35226501e-03 4.73292731e-03 2.70453002e-03 2.70453002e-03
      2.02839752e-03 0. 2.02839752e-03 6.08519278e-03 1.35226501e-03
      1.35226501e-03 2.02839752e-03 3.38066253e-03 1.35226501e-03
      3.38066253e-03 4.05679503e-03 6.76132506e-04 1.35226501e-02
      3.38066253e-03 6.76132506e-03 4.05679503e-03 1.01419874e-02
      1.55510474e-02 2.70453002e-03 2.02839752e-03 6.76132506e-03
      2.70453002e-03 6.76132506e-04 1.35226501e-03 6.08519278e-03
      1.35226501e-03 2.70453002e-03 1.35226501e-03 2.02839752e-03
      4.05679503e-03 6.76132506e-04 6.08519278e-03 4.73292731e-03
      4.05679503e-03 3.38066253e-03 3.38066253e-03 1.35226501e-03
      6.76132506e-04 0. 9.46585461e-03 3.38066253e-03 3.38066253e-03
      2.02839752e-03 3.38066253e-03 7.43745733e-03 3.38066253e-03
      4.05679503e-03 4.05679503e-03 1.28465174e-02 1.48749147e-02
      2.70453002e-03 6.08519278e-03 4.73292731e-03 0. 6.76132506e-03
      6.08519278e-03 1.21703856e-02 0. 2.02839752e-03 3.38066253e-03
      2.70453002e-03 3.38066253e-03 6.76132506e-04 6.08519278e-03 0.
      4.05679503e-03 1.35226501e-03 6.76132506e-04 4.73292731e-03
      3.38066253e-03 0. 4.73292731e-03 6.76132506e-04 4.73292731e-03 0.
      0. 8.11359007e-03 1.35226501e-03 6.76132506e-04 6.76132506e-03
      4.73292731e-03 2.02839752e-03 6.08519278e-03 2.02839752e-03
      3.38066253e-03 1.82555784e-02 1.35226501e-03 4.05679503e-03 0.
      6.76132506e-04 2.02839752e-03 2.02839752e-03 6.08519278e-03
      6.76132506e-04 4.73292731e-03 6.08519278e-03 6.76132506e-04
      5.40906005e-03 9.46585461e-03 1.41987829e-02 3.38066253e-03
      7.43745733e-03 4.05679503e-03 8.78972281e-03 1.35226501e-03
      1.01419874e-02 4.05679503e-03 0. 2.02839752e-03 1.35226501e-03
      4.73292731e-03 2.02839752e-03 1.01419874e-02 2.02839752e-03
      2.70453002e-03 2.02839752e-03 3.38066253e-03 3.38066253e-03
      6.76132506e-04 1.35226501e-03 1.35226501e-03 1.35226501e-03
      2.70453002e-03 2.70453002e-03 2.70453002e-03 2.70453002e-03
      6.76132506e-04 4.05679503e-03 6.08519278e-03 5.40906005e-03
      1.35226501e-03 7.43745733e-03 9.46585461e-03 3.38066253e-03 0.
      2.70453002e-03 1.28465174e-02 2.02839752e-03 4.05679503e-03
      1.48749147e-02 2.02839752e-03 4.05679503e-03 0. 6.76132506e-03</_>
    <_>
      6.07020361e-03 3.95882828e-03 1.16125634e-02 3.69490637e-03
      2.63921893e-03 3.43098445e-03 2.63921893e-03 2.37529702e-03
      3.69490637e-03 1.34600159e-02 7.12589081e-03 1.31960947e-03
      5.80628170e-03 2.11137510e-03 1.58353127e-03 1.58353127e-03
      1.84745318e-03 5.01451595e-03 4.48667211e-03 5.01451595e-03
      3.43098445e-03 4.48667211e-03 2.63921893e-03 4.22275020e-03
      3.43098445e-03 1.58353127e-03 5.80628170e-03 8.44550040e-03
      2.63921893e-03 1.63631570e-02 1.31960947e-03 7.91765656e-03
      2.90314085e-03 2.13776734e-02 3.16706253e-03 2.37529702e-03
      2.63921893e-03 2.37529702e-03 1.84745318e-03 3.69490637e-03
      9.50118806e-03 2.37529702e-03 4.22275020e-03 3.43098445e-03
      2.90314085e-03 1.74188446e-02 4.22275020e-03 2.11137510e-03
      3.69490637e-03 3.95882828e-03 1.58353127e-03 9.23726615e-03
      3.95882828e-03 1.31960947e-03 3.95882828e-03 3.43098445e-03
      3.16706253e-03 1.31960947e-03 1.31960947e-03 3.16706253e-03
      2.63921893e-03 1.84745318e-03 3.69490637e-03 1.31960947e-03
      3.16706253e-03 1.31960947e-03 6.86196890e-03 1.84745318e-03
      1.05568755e-03 2.90314085e-03 2.37529702e-03 2.90314085e-03
      4.75059403e-03 1.58353127e-03 1.84745318e-03 2.90314085e-03
      2.37529702e-03 3.43098445e-03 3.16706253e-03 3.69490637e-03
      3.16706253e-03 1.08207976e-02 2.63921887e-04 6.86196890e-03
      2.63921887e-04 2.37529702e-03 1.84745318e-03 1.39878597e-02
      1.84745318e-03 7.12589081e-03 1.58353127e-03 2.63921893e-03
      2.90314085e-03 5.54235978e-03 4.22275020e-03 2.90314085e-03
      3.43098445e-03 3.16706253e-03 3.69490637e-03 1.58353127e-03
      2.90314085e-03 3.95882828e-03 3.16706253e-03 4.75059403e-03
      1.84745318e-03 4.48667211e-03 5.01451595e-03 1.13486415e-02
      2.11137510e-03 3.43098445e-03 1.58353127e-03 5.27843775e-04
      1.55713912e-02 2.63921893e-03 7.65373465e-03 4.48667211e-03
      3.03510167e-02 3.95882828e-03 3.16706253e-03 1.84745318e-03
      4.75059403e-03 2.11137510e-03 2.11137510e-03 2.37529702e-03
      7.12589081e-03 1.84745318e-03 3.43098445e-03 3.43098445e-03
      2.63921893e-03 7.91765633e-04 2.11137510e-03 2.37529702e-03
      5.27843775e-04 1.29321720e-02 3.69490637e-03 1.05568755e-03
      8.44550040e-03 1.84745318e-03 5.54235978e-03 8.18157848e-03
      5.54235978e-03 1.58353127e-03 2.63921893e-03 6.86196890e-03
      2.37529702e-03 4.48667211e-03 3.69490637e-03 4.75059403e-03
      2.37529702e-03 1.31960947e-03 1.58353127e-03 2.90314085e-03
      8.70942231e-03 1.58353127e-03 3.43098445e-03 2.03219857e-02
      5.27843775e-04 2.90314085e-03 3.16706253e-03 2.90314085e-03
      3.95882828e-03 1.58353127e-03 2.11137510e-03 3.43098445e-03
      4.22275020e-03 3.43098445e-03 1.84745318e-03 1.58353127e-03
      2.63921893e-03 5.54235978e-03 1.84745318e-03 7.38981273e-03
      2.11137510e-03 0. 7.91765633e-04 3.95882828e-03 3.16706253e-03
      1.63631570e-02 4.75059403e-03 2.37529702e-03 3.43098445e-03
      1.39878597e-02 3.16706253e-03 3.69490637e-03 2.37529702e-03
      2.90314085e-03 7.65373465e-03 1.05568755e-03 3.43098445e-03
      2.63921893e-03 3.69490637e-03 3.43098445e-03 2.11137510e-03
      9.23726615e-03 5.01451595e-03 4.22275020e-03 2.63921887e-04
      1.58353127e-03 1.05568755e-03 4.75059403e-03 2.11137510e-03
      8.97334423e-03 1.31960947e-03 4.48667211e-03 6.59804698e-03
      2.37529702e-03 2.63921893e-03 1.31960947e-03 5.27843775e-04
      3.95882828e-03 1.58353127e-03 1.31960947e-03 6.33412506e-03
      2.90314085e-03 5.80628170e-03 3.69490637e-03 2.37529702e-03
      2.63921893e-03 0. 7.12589081e-03 1.58353127e-03 2.37529702e-03
      2.11137510e-03 2.37529702e-03 7.12589081e-03 9.76510998e-03
      2.37529702e-03 2.63921893e-03 6.59804698e-03 3.16706253e-03
      1.00290319e-02 5.80628170e-03 4.48667211e-03 1.60992350e-02
      2.90314085e-03 1.31960947e-03 2.90314085e-03 1.31960947e-03
      1.84745318e-03 2.11137510e-03</_>
    <_>
      6.79347839e-04 6.79347850e-03 4.75543505e-03 6.79347850e-03
      8.15217383e-03 6.11413037e-03 7.47282617e-03 2.71739135e-03
      2.71739135e-03 1.35869568e-03 3.39673925e-03 6.11413037e-03
      4.75543505e-03 2.71739135e-03 6.79347839e-04 2.71739135e-03
      4.07608692e-03 5.43478271e-03 4.75543505e-03 1.35869568e-03
      6.11413037e-03 1.35869568e-03 9.51087009e-03 1.35869568e-03
      4.07608692e-03 6.79347839e-04 5.43478271e-03 5.43478271e-03
      8.15217383e-03 8.15217383e-03 4.75543505e-03 7.47282617e-03
      2.03804346e-03 3.39673925e-03 4.07608692e-03 6.79347850e-03
      6.79347850e-03 0. 4.07608692e-03 1.29076093e-02 6.79347839e-04
      5.43478271e-03 7.47282617e-03 4.07608692e-03 2.71739135e-03
      6.79347839e-04 2.03804346e-03 6.79347839e-04 8.15217383e-03
      6.11413037e-03 2.71739135e-03 4.75543505e-03 6.79347850e-03
      6.79347850e-03 4.75543505e-03 7.47282617e-03 6.79347839e-04
      5.43478271e-03 2.71739135e-03 9.51087009e-03 9.51087009e-03
      2.71739135e-03 2.03804346e-03 4.07608692e-03 4.07608692e-03
      2.71739135e-03 4.75543505e-03 6.79347839e-04 6.79347850e-03
      4.75543505e-03 4.75543505e-03 6.79347839e-04 5.43478271e-03
      3.39673925e-03 2.71739135e-03 9.51087009e-03 1.35869568e-03
      4.07608692e-03 0. 6.11413037e-03 6.79347839e-04 7.47282617e-03
      2.71739135e-03 1.35869570e-02 2.03804346e-03 6.79347839e-04
      8.15217383e-03 1.22282607e-02 1.35869568e-03 7.47282617e-03
      6.79347839e-04 6.11413037e-03 8.15217383e-03 6.79347850e-03
      1.35869568e-03 9.51087009e-03 1.15489131e-02 2.03804346e-03
      6.79347839e-04 5.43478271e-03 5.43478271e-03 8.15217383e-03
      1.35869568e-03 4.07608692e-03 6.79347839e-04 3.39673925e-03 0.
      2.71739135e-03 6.79347839e-04 2.71739135e-03 3.39673925e-03
      4.07608692e-03 1.42663047e-02 0. 1.35869568e-03 4.07608692e-03 0.
      2.71739135e-03 6.11413037e-03 1.35869568e-03 1.49456523e-02
      7.47282617e-03 2.03804346e-03 6.79347839e-04 2.03804346e-03
      2.71739135e-03 1.01902178e-02 4.75543505e-03 5.43478271e-03
      2.71739135e-03 4.75543505e-03 4.07608692e-03 5.43478271e-03 0.
      4.07608692e-03 3.39673925e-03 8.83152150e-03 4.75543505e-03
      6.79347850e-03 1.01902178e-02 0. 2.71739135e-03 6.79347839e-04
      5.43478271e-03 8.15217383e-03 4.07608692e-03 1.35869568e-03
      1.01902178e-02 6.11413037e-03 2.71739135e-03 2.03804346e-03
      4.07608692e-03 1.35869568e-03 3.39673925e-03 4.07608692e-03
      1.35869568e-03 2.03804346e-03 6.79347839e-04 2.03804346e-03
      4.75543505e-03 2.03804346e-03 1.35869568e-03 6.11413037e-03
      5.43478271e-03 4.75543505e-03 3.39673925e-03 3.39673925e-03
      2.71739135e-03 6.79347850e-03 3.39673925e-03 6.11413037e-03
      6.79347850e-03 2.03804346e-03 1.35869568e-03 6.79347839e-04 0.
      2.03804346e-03 5.43478271e-03 7.47282617e-03 1.35869568e-03
      3.39673925e-03 6.79347839e-04 1.35869568e-03 1.35869568e-03
      2.71739135e-03 6.79347839e-04 1.63043477e-02 2.71739135e-03
      7.47282617e-03 4.75543505e-03 6.11413037e-03 4.07608692e-03
      6.11413037e-03 3.39673925e-03 6.79347839e-04 4.07608692e-03
      2.71739135e-03 2.71739135e-03 2.03804346e-03 1.15489131e-02
      5.43478271e-03 0. 6.79347839e-04 4.75543505e-03 1.35869568e-03
      9.51087009e-03 3.39673925e-03 3.39673925e-03 1.35869568e-03
      8.15217383e-03 6.79347839e-04 2.71739135e-03 4.07608692e-03
      6.79347839e-04 1.35869568e-03 9.51087009e-03 5.43478271e-03 0.
      1.35869568e-03 6.79347839e-04 6.79347839e-04 3.39673925e-03
      4.75543505e-03 6.79347839e-04 2.03804346e-03 1.35869568e-03
      6.79347850e-03 2.03804346e-03 1.83423925e-02 6.79347839e-04
      1.35869568e-03 2.71739135e-03 4.75543505e-03 2.03804346e-03
      3.39673925e-03 8.83152150e-03 6.79347839e-04 3.39673925e-03 0.
      6.11413037e-03</_>
    <_>
      4.06504050e-03 0. 6.77506812e-03 6.43631443e-03 6.43631443e-03
      3.04878061e-03 2.71002715e-03 2.37127370e-03 1.69376703e-03
      2.03252025e-03 2.37127370e-03 2.03252025e-03 2.37127370e-03
      2.03252025e-03 6.77506812e-03 5.08130109e-03 8.13008100e-03
      4.74254740e-03 8.13008100e-03 1.69376703e-03 2.03252025e-03
      3.72628728e-03 5.08130109e-03 5.42005431e-03 1.35501358e-03
      2.37127370e-03 6.43631443e-03 7.79132824e-03 2.71002715e-03
      2.37127370e-03 0. 3.04878061e-03 0. 1.35501358e-03 5.75880753e-03
      8.13008100e-03 2.37127370e-03 6.77506812e-03 1.35501358e-03
      9.82384849e-03 6.77506789e-04 1.21951224e-02 1.01626012e-03
      6.77506789e-04 3.72628728e-03 0. 6.43631443e-03 4.40379418e-03
      4.06504050e-03 5.08130109e-03 3.04878061e-03 3.38753394e-04
      8.13008100e-03 4.40379418e-03 5.75880753e-03 5.08130109e-03
      4.74254740e-03 2.37127370e-03 4.74254740e-03 6.77506812e-03
      6.09756121e-03 4.74254740e-03 1.69376703e-03 2.71002715e-03
      9.82384849e-03 6.77506812e-03 6.77506812e-03 2.71002715e-03
      3.72628728e-03 2.03252025e-03 3.38753406e-03 5.08130109e-03
      9.14634205e-03 6.77506789e-04 2.71002715e-03 5.75880753e-03
      3.38753406e-03 1.01626012e-03 1.01626012e-03 2.37127370e-03
      4.06504050e-03 3.72628728e-03 4.40379418e-03 8.13008100e-03
      3.72628728e-03 4.40379418e-03 4.74254740e-03 3.38753406e-03
      6.43631443e-03 6.77506812e-03 4.74254740e-03 6.77506812e-03
      9.82384849e-03 1.18563687e-02 2.71002715e-03 6.09756121e-03
      9.14634205e-03 4.40379418e-03 1.69376703e-03 5.42005431e-03
      3.72628728e-03 5.08130109e-03 3.72628728e-03 4.74254740e-03
      5.08130109e-03 3.04878061e-03 5.08130109e-03 1.35501358e-03
      8.13008100e-03 2.03252025e-03 4.74254740e-03 7.11382134e-03
      1.18563687e-02 3.72628728e-03 3.38753406e-03 6.43631443e-03
      1.69376703e-03 3.72628728e-03 1.69376703e-03 1.69376703e-03
      7.79132824e-03 4.40379418e-03 6.77506789e-04 4.40379418e-03
      2.03252025e-03 3.72628728e-03 6.43631443e-03 6.09756121e-03
      3.38753406e-03 2.03252025e-03 3.04878061e-03 9.48509481e-03
      5.42005431e-03 2.71002715e-03 3.38753394e-04 6.43631443e-03
      9.14634205e-03 1.69376703e-03 2.03252025e-03 6.09756121e-03
      1.35501358e-03 4.74254740e-03 3.38753394e-04 5.08130109e-03
      6.77506812e-03 2.71002715e-03 2.37127370e-03 7.11382134e-03
      6.09756121e-03 6.09756121e-03 4.40379418e-03 3.38753406e-03
      3.72628728e-03 4.06504050e-03 2.03252025e-03 1.35501358e-03
      3.72628728e-03 2.71002715e-03 4.74254740e-03 9.14634205e-03
      2.03252025e-03 6.77506812e-03 1.35501358e-03 2.37127370e-03
      2.71002715e-03 5.42005431e-03 7.79132824e-03 2.37127370e-03
      5.08130109e-03 2.71002715e-03 4.06504050e-03 6.77506789e-04 0.
      3.72628728e-03 3.04878061e-03 0. 3.04878061e-03 3.72628728e-03
      3.38753394e-04 5.08130109e-03 0. 1.69376703e-03 3.04878061e-03
      3.38753406e-03 0. 3.38753406e-03 1.08401086e-02 3.72628728e-03
      4.06504050e-03 5.42005431e-03 5.75880753e-03 5.08130109e-03
      2.37127370e-03 6.77506789e-04 4.06504050e-03 1.05013549e-02
      3.72628728e-03 1.69376703e-03 3.04878061e-03 1.15176151e-02
      2.71002715e-03 2.37127370e-03 6.09756121e-03 6.77506789e-04
      3.38753394e-04 2.03252025e-03 3.04878061e-03 3.04878061e-03
      3.38753406e-03 7.79132824e-03 6.09756121e-03 5.42005431e-03
      3.72628728e-03 2.71002715e-03 5.42005431e-03 4.74254740e-03
      2.71002715e-03 4.06504050e-03 2.71002715e-03 1.35501358e-03
      3.38753406e-03 1.35501358e-03 2.71002715e-03 3.72628728e-03
      3.72628728e-03 5.42005431e-03 7.45257456e-03 3.04878061e-03
      1.38888890e-02 0. 3.38753394e-04 1.69376703e-03 1.01626022e-02
      6.77506789e-04 7.11382134e-03 8.46883468e-03 3.72628728e-03
      2.37127370e-03 5.75880753e-03 6.09756121e-03</_>
    <_>
      0. 4.15541232e-04 4.15541232e-03 3.94764170e-03 6.85643032e-03
      3.53210047e-03 5.19426540e-03 3.53210047e-03 2.28547677e-03
      1.24662369e-03 4.98649478e-03 2.07770616e-03 8.72636586e-03
      1.86993554e-03 2.07770616e-03 4.15541232e-03 5.60980663e-03
      3.94764170e-03 2.90878862e-03 6.23311847e-04 4.15541232e-03
      3.53210047e-03 3.53210047e-03 1.05963014e-02 2.28547677e-03
      2.07770616e-04 1.03885308e-02 5.81757724e-03 2.07770616e-03
      2.90878862e-03 3.32432985e-03 9.55744833e-03 5.19426540e-03
      5.19426540e-03 5.40203601e-03 7.47974217e-03 1.45439431e-03
      4.77872416e-03 2.07770616e-03 1.18429251e-02 6.23311847e-04
      1.05963014e-02 2.49324739e-03 4.15541232e-04 3.73987108e-03 0.
      5.40203601e-03 2.07770616e-03 4.98649478e-03 4.57095355e-03
      6.23311847e-04 4.15541232e-04 1.20506957e-02 6.23311847e-03
      1.05963014e-02 7.89528340e-03 1.86993554e-03 6.64865971e-03
      3.11655924e-03 5.81757724e-03 7.89528340e-03 6.02534786e-03
      6.23311847e-04 2.90878862e-03 1.10118426e-02 7.06420094e-03
      6.02534786e-03 1.66216493e-03 4.36318293e-03 2.90878862e-03
      3.94764170e-03 2.07770616e-04 1.08040720e-02 1.03885308e-03
      2.07770616e-04 6.23311847e-03 3.11655924e-03 3.94764170e-03
      2.90878862e-03 2.07770616e-03 6.23311847e-04 6.02534786e-03
      2.28547677e-03 8.72636586e-03 2.70101801e-03 2.90878862e-03
      1.10118426e-02 5.40203601e-03 8.31082463e-04 9.34967771e-03
      3.53210047e-03 2.90878862e-03 7.89528340e-03 8.72636586e-03
      1.45439431e-03 5.40203601e-03 8.51859525e-03 7.47974217e-03
      8.31082463e-04 4.15541232e-03 3.73987108e-03 4.98649478e-03
      2.49324739e-03 6.23311847e-04 6.44088909e-03 4.77872416e-03
      6.64865971e-03 2.90878862e-03 4.15541232e-04 5.19426540e-03
      4.15541232e-03 5.60980663e-03 1.22584663e-02 1.03885308e-03
      2.07770616e-04 8.51859525e-03 1.03885308e-03 2.70101801e-03
      2.49324739e-03 2.49324739e-03 8.51859525e-03 7.27197155e-03
      8.31082463e-04 3.53210047e-03 2.07770616e-04 2.07770616e-03
      7.47974217e-03 7.47974217e-03 2.70101801e-03 2.07770616e-03
      3.32432985e-03 4.77872416e-03 6.85643032e-03 1.12196133e-02
      3.73987108e-03 4.36318293e-03 7.06420094e-03 6.02534786e-03
      3.32432985e-03 7.47974217e-03 2.07770616e-04 5.40203601e-03
      4.15541232e-04 4.57095355e-03 3.94764170e-03 3.53210047e-03
      3.73987108e-03 9.55744833e-03 1.22584663e-02 3.11655924e-03
      3.32432985e-03 6.02534786e-03 8.31082463e-04 2.49324739e-03
      4.57095355e-03 2.07770616e-04 2.28547677e-03 2.07770616e-04
      2.49324739e-03 3.53210047e-03 1.32973194e-02 1.45439431e-03
      3.53210047e-03 2.07770616e-03 2.90878862e-03 3.53210047e-03
      3.94764170e-03 2.07770616e-04 3.94764170e-03 1.03885308e-03
      1.66216493e-03 1.24662369e-03 6.23311847e-04 3.94764170e-03
      8.31082463e-04 1.86993554e-03 3.53210047e-03 2.07770616e-03
      4.77872416e-03 3.53210047e-03 0. 2.07770616e-04 1.24662369e-03
      2.07770616e-03 1.66216493e-03 3.11655924e-03 7.68751279e-03
      1.03885308e-03 3.11655924e-03 3.32432985e-03 9.76521894e-03
      6.23311847e-03 4.15541232e-03 4.15541232e-04 8.31082463e-04
      2.49324739e-03 6.44088909e-03 3.11655924e-03 1.24662369e-03
      1.14273839e-02 4.77872416e-03 0. 8.10305402e-03 3.53210047e-03
      1.45439431e-03 9.55744833e-03 2.49324739e-03 4.77872416e-03
      1.66216493e-03 1.08040720e-02 4.36318293e-03 2.90878862e-03
      4.15541232e-03 2.07770616e-04 8.93413648e-03 1.20506957e-02
      8.93413648e-03 2.49324739e-03 2.49324739e-03 2.07770616e-04
      2.90878862e-03 1.86993554e-03 6.44088909e-03 2.28547677e-03
      3.11655924e-03 2.07770616e-04 4.77872416e-03 2.07770616e-04
      1.32973194e-02 2.70101801e-03 4.36318293e-03 6.23311847e-03
      1.86993554e-03 3.11655924e-03 5.60980663e-03 8.51859525e-03
      2.49324739e-03 0. 3.73987108e-03 4.98649478e-03</_>
    <_>
      3.94866755e-03 9.87166888e-04 7.89733510e-03 8.88450164e-03 0.
      9.87166888e-04 0. 3.94866755e-03 3.94866755e-03 4.93583456e-03
      1.97433378e-03 1.97433378e-03 9.87166888e-04 0. 9.87166888e-04
      2.96150055e-03 5.92300110e-03 1.08588357e-02 1.97433378e-03
      3.94866755e-03 4.93583456e-03 8.88450164e-03 4.93583456e-03
      3.94866755e-03 2.96150055e-03 2.17176713e-02 2.96150055e-03
      2.96150055e-03 0. 7.89733510e-03 0. 1.97433378e-03 0.
      3.94866755e-03 6.91016810e-03 6.91016810e-03 2.96150055e-03
      1.08588357e-02 1.97433378e-03 5.92300110e-03 1.97433378e-03
      6.91016810e-03 9.87166888e-04 4.93583456e-03 7.89733510e-03
      1.18460022e-02 2.96150055e-03 0. 9.87166888e-04 2.96150055e-03 0.
      5.92300110e-03 9.87166911e-03 6.91016810e-03 0. 3.94866755e-03
      1.97433378e-03 1.97433382e-02 3.94866755e-03 1.97433378e-03
      2.96150055e-03 9.87166888e-04 9.87166888e-04 0. 2.96150055e-03
      4.93583456e-03 2.96150055e-03 0. 1.97433378e-03 1.97433378e-03 0.
      4.93583456e-03 2.96150055e-03 9.87166888e-04 1.08588357e-02
      9.87166888e-04 1.97433378e-03 9.87166888e-04 2.96150055e-03
      9.87166888e-04 9.87166888e-04 4.93583456e-03 1.97433378e-03
      9.87166888e-04 4.93583456e-03 9.87166888e-04 2.96150055e-03
      2.96150055e-03 9.87166888e-04 6.91016810e-03 2.96150055e-03
      1.97433378e-03 8.88450164e-03 1.97433378e-03 9.87166888e-04
      9.87166888e-04 1.97433378e-03 3.55380066e-02 1.38203362e-02
      1.97433378e-03 3.94866755e-03 9.87166888e-04 4.93583456e-03
      1.97433378e-03 8.88450164e-03 0. 5.92300110e-03 0. 5.92300110e-03
      2.96150055e-03 0. 3.94866755e-03 1.97433378e-03 6.91016810e-03
      9.87166888e-04 6.91016810e-03 4.93583456e-03 1.97433378e-03 0.
      1.97433378e-03 1.97433378e-03 1.97433378e-03 9.87166888e-04
      9.87166888e-04 6.91016810e-03 4.93583456e-03 2.96150055e-03 0.
      1.97433378e-03 0. 2.96150055e-03 9.87166888e-04 3.94866755e-03
      6.91016810e-03 0. 1.97433378e-03 0. 2.96150055e-03 1.97433378e-03
      5.92300110e-03 2.96150055e-03 0. 2.96150055e-03 7.89733510e-03
      2.96150055e-03 9.87166888e-04 9.87166888e-04 4.93583456e-03
      9.87166911e-03 9.87166888e-04 1.38203362e-02 2.96150055e-03
      1.48075037e-02 9.87166888e-04 9.87166888e-04 1.18460022e-02
      1.97433378e-03 3.94866755e-03 0. 6.91016810e-03 3.45508419e-02 0.
      0. 1.97433378e-03 3.94866755e-03 9.87166888e-04 4.93583456e-03
      9.87166888e-04 4.93583456e-03 9.87166888e-04 0. 9.87166888e-04 0.
      6.91016810e-03 9.87166888e-04 1.77690033e-02 0. 2.27048378e-02
      1.97433378e-03 2.96150055e-03 1.97433378e-03 1.57946702e-02
      9.87166888e-04 9.87166888e-04 0. 0. 1.67818367e-02 9.87166888e-04
      1.97433378e-03 1.97433378e-03 8.88450164e-03 5.92300110e-03 0.
      3.94866755e-03 5.92300110e-03 7.89733510e-03 9.87166888e-04 0. 0.
      9.87166888e-04 1.97433378e-03 5.92300110e-03 5.92300110e-03
      9.87166888e-04 9.87166888e-04 9.87166888e-04 9.87166888e-04
      9.87166888e-04 2.96150055e-03 8.88450164e-03 9.87166888e-04
      1.97433378e-03 4.93583456e-03 2.46791728e-02 3.94866765e-02
      1.97433378e-03 3.94866755e-03 0. 0. 2.27048378e-02 0.
      1.97433378e-03 4.93583456e-03 9.87166888e-04 9.87166888e-04
      3.94866755e-03 1.97433378e-03 0. 9.87166911e-03 9.87166888e-04 0.
      5.92300110e-03 2.96150055e-03 9.87166888e-04 5.92300110e-03
      4.93583456e-03 0. 8.88450164e-03 9.87166888e-04 7.89733510e-03</_>
    <_>
      6.63716812e-03 7.74336280e-03 5.53097343e-03 0. 0. 0. 0.
      2.21238937e-03 1.10619469e-03 5.53097343e-03 1.10619469e-03
      5.53097343e-03 0. 1.54867256e-02 7.74336280e-03 0. 0.
      1.10619469e-03 1.10619469e-03 7.74336280e-03 0. 2.21238937e-03 0.
      5.53097343e-03 1.10619469e-02 1.32743362e-02 1.10619469e-03
      1.10619469e-03 2.21238937e-03 1.32743362e-02 9.95575264e-03 0.
      7.74336280e-03 9.95575264e-03 8.84955749e-03 1.10619469e-03
      4.42477874e-03 3.31858406e-03 8.84955749e-03 0. 4.42477874e-03 0.
      9.95575264e-03 1.10619469e-02 3.31858406e-03 4.42477874e-03
      3.31858406e-03 3.31858406e-03 0. 4.42477874e-03 0. 3.31858406e-03
      0. 2.21238937e-03 1.10619469e-03 1.10619469e-03 1.10619469e-03
      3.31858406e-03 0. 2.21238937e-03 0. 1.10619469e-03 2.21238937e-03
      3.31858406e-03 0. 0. 0. 1.10619469e-02 0. 3.31858406e-03
      4.42477874e-03 2.65486725e-02 0. 1.10619469e-03 1.43805314e-02 0.
      3.31858406e-03 0. 1.10619469e-03 5.53097343e-03 2.21238937e-02
      2.21238937e-03 6.63716812e-03 5.53097343e-03 2.21238937e-03 0.
      1.10619469e-03 2.21238937e-03 4.42477874e-03 0. 1.10619469e-03
      5.53097343e-03 1.10619469e-03 0. 1.10619469e-03 2.21238937e-03 0.
      8.84955749e-03 3.31858406e-03 1.10619469e-03 2.21238937e-03
      1.10619469e-03 0. 6.63716812e-03 4.42477874e-03 8.84955749e-03 0.
      2.21238937e-03 6.63716812e-03 1.10619469e-03 2.21238937e-03 0.
      6.63716812e-03 0. 4.42477874e-03 0. 2.21238937e-03 1.10619469e-03
      0. 1.10619469e-03 0. 0. 6.63716812e-03 0. 3.31858406e-03
      5.53097343e-03 1.10619469e-03 0. 1.10619469e-03 7.74336280e-03 0.
      0. 1.10619469e-03 2.65486725e-02 2.21238937e-03 0. 0.
      3.31858406e-03 6.63716812e-03 1.10619469e-03 8.84955749e-03
      1.10619469e-03 1.21681411e-02 3.31858406e-03 5.53097343e-03
      6.63716812e-03 3.31858406e-03 0. 1.10619469e-03 0. 0.
      1.10619469e-03 2.65486725e-02 2.21238937e-03 0. 1.99115053e-02
      1.10619469e-03 7.74336280e-03 0. 0. 6.63716812e-03 2.21238937e-03
      7.74336280e-03 4.42477874e-03 3.31858406e-03 0. 0. 3.31858406e-03
      1.10619469e-03 9.95575264e-03 0. 2.21238937e-02 6.63716812e-03 0.
      1.10619469e-03 1.21681411e-02 3.31858406e-03 3.31858406e-03 0. 0.
      7.74336280e-03 3.87168154e-02 0. 3.31858406e-03 1.10619469e-03 0.
      0. 1.10619469e-03 4.42477874e-03 1.10619469e-03 0. 2.21238937e-03
      0. 5.53097343e-03 2.32300889e-02 1.10619469e-03 0. 4.42477874e-03
      2.21238937e-03 3.31858406e-03 0. 1.43805314e-02 0. 6.63716812e-03
      4.42477874e-03 1.10619469e-03 5.53097343e-03 0. 0. 0.
      2.21238937e-03 3.31858406e-03 1.10619469e-03 1.21681411e-02
      1.21681411e-02 0. 0. 0. 4.42477874e-03 1.76991150e-02
      3.31858406e-03 1.10619469e-02 0. 1.10619469e-03 3.31858406e-03
      3.20796445e-02 0. 1.43805314e-02 0. 2.21238937e-03 1.54867256e-02
      1.10619469e-03 4.42477874e-03 4.42477874e-03 0. 0. 1.10619469e-03
      3.65044251e-02 0. 0.</_>
    <_>
      2.78862251e-04 5.57724480e-03 9.76017863e-03 3.06748482e-03
      5.15895151e-03 2.92805373e-03 5.29838260e-03 4.18293383e-03
      2.23089801e-03 2.50976020e-03 5.71667636e-03 1.95203582e-03
      4.32236493e-03 1.22699393e-02 3.76464031e-03 2.09146691e-03
      2.23089801e-03 7.66871171e-03 2.50976020e-03 1.11544901e-03
      4.04350273e-03 1.53374241e-03 4.18293383e-03 5.01952041e-03
      3.34634702e-03 3.34634702e-03 3.20691592e-03 8.64472985e-03
      8.22643656e-03 5.29838260e-03 1.81260461e-03 3.90407164e-03
      6.55326294e-03 6.97155623e-03 3.62520921e-03 8.36586766e-03
      4.46179602e-03 4.32236493e-03 2.09146691e-03 3.48577811e-03
      3.90407164e-03 2.37032911e-03 5.15895151e-03 1.25488010e-03
      2.23089801e-03 1.25488010e-03 5.71667636e-03 1.95203582e-03
      6.27440074e-03 2.64919130e-03 2.23089801e-03 4.04350273e-03
      2.09146691e-03 2.92805373e-03 3.34634702e-03 4.74065822e-03
      2.23089801e-03 3.20691592e-03 2.37032911e-03 3.20691592e-03
      1.40825436e-02 2.37032911e-03 1.53374241e-03 2.50976020e-03
      1.95203582e-03 3.90407164e-03 5.99553855e-03 1.67317351e-03
      4.32236493e-03 1.39431120e-03 3.20691592e-03 3.06748482e-03
      8.92359205e-03 1.39431120e-03 4.18293377e-04 3.76464031e-03
      2.50976020e-03 9.76017863e-03 2.37032911e-03 7.38984952e-03
      2.09146691e-03 3.20691592e-03 3.06748482e-03 2.92805373e-03
      1.11544901e-03 3.62520921e-03 4.04350273e-03 9.20245424e-03
      1.53374241e-03 5.85610745e-03 2.92805373e-03 4.60122712e-03
      4.60122712e-03 1.08756274e-02 4.88008931e-03 5.85610745e-03
      2.92805373e-03 2.63524819e-02 2.92805373e-03 2.78862240e-03
      4.32236493e-03 5.99553855e-03 3.62520921e-03 3.62520921e-03
      2.50976020e-03 3.34634702e-03 2.23089801e-03 2.23089801e-03
      2.09146691e-03 3.20691592e-03 1.81260461e-03 3.90407164e-03
      6.27440074e-03 1.25488010e-03 3.76464031e-03 3.48577811e-03
      3.48577811e-03 6.97155599e-04 5.01952041e-03 1.53374241e-03
      1.42219746e-02 1.81260461e-03 8.36586754e-04 2.50976020e-03
      1.39431120e-03 1.81260461e-03 1.05967652e-02 4.46179602e-03
      3.48577811e-03 1.39431120e-03 3.06748482e-03 2.37032911e-03
      1.53374241e-03 5.01952041e-03 4.04350273e-03 3.06748482e-03
      5.15895151e-03 1.81260461e-03 1.53374241e-03 1.03179030e-02
      1.25488010e-03 5.01952041e-03 9.76017909e-04 5.29838260e-03
      1.75683219e-02 1.53374241e-03 2.37032911e-03 7.25041842e-03
      7.25041842e-03 1.39431120e-03 5.01952041e-03 4.60122712e-03
      2.37032911e-03 3.90407164e-03 2.92805373e-03 4.32236493e-03
      1.11544901e-03 8.36586754e-04 3.76464031e-03 3.48577811e-03
      5.43781370e-03 1.67317351e-03 2.64919130e-03 9.34188534e-03
      8.36586754e-04 2.50976020e-03 2.37032911e-03 2.92805373e-03
      4.04350273e-03 3.06748482e-03 1.81260461e-03 4.74065822e-03
      5.15895151e-03 2.78862240e-03 1.53374241e-03 1.25488010e-03
      2.64919130e-03 4.88008931e-03 3.62520921e-03 2.64919130e-03
      2.92805373e-03 3.62520921e-03 5.15895151e-03 4.46179602e-03
      2.78862240e-03 1.39431120e-03 1.15727838e-02 4.18293383e-03
      1.67317351e-03 6.69269403e-03 4.18293383e-03 9.76017909e-04
      4.04350273e-03 1.95203582e-03 2.37032911e-03 8.92359205e-03
      5.29838260e-03 1.95203582e-03 1.67317351e-03 2.78862240e-03
      8.78416095e-03 1.67317351e-03 1.39431120e-03 8.78416095e-03
      6.13496965e-03 8.50529876e-03 5.71667636e-03 2.50976020e-03
      6.97155599e-04 4.88008931e-03 1.81260461e-03 3.76464031e-03
      2.64919130e-03 1.39431120e-03 8.08700547e-03 1.04573341e-02
      5.43781370e-03 3.62520921e-03 2.23089801e-03 3.48577811e-03
      1.81260461e-03 3.06748482e-03 2.64919130e-03 1.39431120e-03
      5.29838260e-03 4.18293383e-03 1.53374241e-03 2.92805373e-03
      2.45398786e-02 3.34634702e-03 4.18293383e-03 7.94757437e-03
      2.16118246e-02 8.22643656e-03 1.67317351e-03 3.06748482e-03
      3.20691592e-03 8.36586754e-04 3.62520921e-03 2.92805373e-03</_>
    <_>
      1.32743362e-02 8.04505253e-04 0. 1.60901051e-03 4.02252626e-04
      1.60901051e-03 2.81576836e-03 5.63153671e-03 4.02252609e-03
      9.65406280e-03 3.62027367e-03 4.02252626e-04 2.01126304e-03
      2.81576836e-03 5.22928406e-03 3.21802101e-03 0. 1.20675785e-03
      2.81576836e-03 9.25181061e-03 1.60901051e-03 2.01126304e-03
      4.02252626e-04 8.04505253e-04 1.20675785e-03 1.60901051e-03
      8.04505253e-04 2.01126304e-03 2.41351570e-03 2.49396637e-02 0. 0.
      4.02252626e-04 5.63153671e-03 3.62027367e-03 8.04505253e-04
      4.02252626e-04 1.60901051e-03 4.82703140e-03 2.01126304e-03
      3.21802101e-03 1.20675785e-03 0. 7.64279999e-03 1.20675785e-03
      4.50522937e-02 4.02252609e-03 4.02252626e-04 0. 1.20675785e-03
      8.04505253e-04 3.21802101e-03 8.04505253e-04 3.21802101e-03
      4.02252626e-04 2.01126304e-03 4.02252626e-04 4.02252626e-04
      4.02252626e-04 4.02252626e-04 8.04505253e-04 2.01126304e-03
      2.01126304e-03 8.04505253e-04 4.02252626e-04 4.02252626e-04
      2.41351570e-03 3.21802101e-03 0. 1.20675785e-03 8.04505253e-04
      1.00563159e-02 4.02252626e-04 3.21802101e-03 1.00563159e-02
      4.02252626e-04 4.02252626e-04 0. 0. 8.04505253e-04 7.64279999e-03
      8.04505253e-04 2.01126304e-03 3.21802101e-03 4.82703140e-03
      1.20675785e-03 4.02252626e-04 4.02252626e-04 1.72968637e-02
      1.20675785e-03 1.20675785e-03 3.21802101e-03 0. 1.20675785e-03
      3.21802101e-03 0. 2.01126304e-03 1.20675785e-03 8.04505253e-04
      1.60901051e-03 8.04505253e-04 0. 4.42477874e-03 7.64279999e-03
      4.02252626e-04 2.41351570e-03 0. 5.63153671e-03 9.25181061e-03
      1.60901051e-03 1.20675785e-03 4.02252626e-04 8.84955749e-03
      2.01126304e-03 2.21238937e-02 1.20675785e-03 5.22928424e-02
      2.41351570e-03 0. 4.02252626e-04 6.83829468e-03 2.41351570e-03
      6.43604202e-03 8.04505253e-04 3.53982300e-02 1.60901051e-03 0.
      2.01126304e-03 8.04505253e-04 2.01126304e-03 2.41351570e-03
      1.20675785e-03 8.04505253e-04 1.20675785e-03 1.60901051e-03
      6.43604202e-03 1.60901051e-03 8.04505253e-04 8.04505253e-04 0.
      1.24698319e-02 3.62027367e-03 2.41351570e-03 4.02252626e-04
      2.41351570e-03 3.62027367e-03 1.60901051e-03 1.20675785e-03
      4.02252626e-04 4.02252626e-04 2.01126304e-03 1.20675785e-03
      6.07401468e-02 8.04505253e-04 8.04505253e-04 1.72968637e-02
      3.21802101e-03 1.40788415e-02 4.02252626e-04 2.81576836e-03
      8.04505253e-04 2.41351570e-03 8.04505253e-04 0. 1.60901051e-03
      4.02252626e-04 4.02252626e-04 0. 8.04505253e-04 9.25181061e-03 0.
      2.81576836e-03 3.62027367e-03 8.04505253e-04 8.04505253e-04
      8.04505253e-04 2.41351570e-03 2.81576836e-03 2.41351570e-03 0.
      4.02252626e-04 1.24698319e-02 0. 4.02252626e-04 0. 4.02252626e-04
      1.60901051e-03 5.63153671e-03 2.81576836e-03 8.04505253e-04
      2.41351570e-03 2.01126304e-03 0. 3.09734531e-02 2.05148831e-02
      6.03378937e-03 4.42477874e-03 1.60901051e-03 3.21802101e-03
      4.02252609e-03 0. 9.81496423e-02 0. 2.81576836e-03 8.04505253e-04
      4.02252626e-04 2.01126304e-03 8.04505253e-04 2.41351570e-03
      4.02252626e-04 1.20675785e-03 2.41351570e-03 1.60901051e-03
      1.76991150e-02 0. 1.20675785e-03 0. 4.02252626e-04 2.01126304e-03
      5.22928406e-03 2.81576836e-03 8.04505253e-04 8.04505253e-04
      2.81576836e-03 1.60901051e-03 5.47063574e-02 0. 5.22928406e-03 0.
      1.20675785e-03 2.01126304e-03 8.04505253e-04 4.02252609e-03
      4.02252609e-03 8.04505253e-04 2.01126304e-03 0. 1.40788415e-02 0.
      3.21802101e-03</_>
    <_>
      1.01214577e-03 1.77125516e-03 3.79554671e-03 2.53036444e-04
      4.30161972e-03 1.77125516e-03 1.26518216e-03 2.53036432e-03
      1.77125516e-03 7.59109331e-04 3.03643732e-03 2.53036432e-03
      2.78340094e-03 5.06072887e-04 4.04858310e-03 1.26518216e-03
      2.02429155e-03 3.28947371e-03 2.53036432e-03 7.59109331e-04
      4.04858310e-03 3.79554671e-03 3.79554671e-03 4.30161972e-03
      2.78340094e-03 2.53036432e-03 4.55465587e-03 3.03643732e-03
      1.51821866e-03 6.07287465e-03 3.23886648e-02 3.79554671e-03
      8.35020281e-03 6.07287465e-03 8.35020281e-03 4.30161972e-03
      4.80769249e-03 1.44230770e-02 7.59109331e-04 7.08502065e-03 0.
      7.59109331e-04 3.03643732e-03 2.53036444e-04 6.57894742e-03
      5.06072887e-04 4.04858310e-03 1.26518216e-03 3.28947371e-03
      3.03643732e-03 4.55465587e-03 1.26518216e-03 1.51821866e-03
      4.04858310e-03 3.03643732e-03 2.78340094e-03 2.27732793e-03
      1.39170047e-02 1.77125516e-03 1.51821866e-03 9.10931174e-03
      2.78340094e-03 3.03643732e-03 1.77125516e-03 6.32591126e-03
      6.07287465e-03 2.27732793e-03 2.02429155e-03 4.04858310e-03
      1.01214577e-03 6.07287465e-03 3.28947371e-03 8.85627512e-03
      1.77125516e-03 1.77125516e-03 4.04858310e-03 7.59109331e-04
      3.28947371e-03 1.26518216e-03 9.36234836e-03 5.31376526e-03
      5.81983803e-03 1.01214577e-03 1.26518225e-02 2.78340094e-03
      4.55465587e-03 4.04858310e-03 7.84412958e-03 3.54251033e-03
      4.55465587e-03 3.03643732e-03 1.01214577e-03 2.53036432e-03
      7.33805681e-03 1.01214577e-03 1.51821866e-03 2.27732793e-03
      5.56680188e-03 2.53036432e-03 1.26518216e-03 3.03643732e-03
      7.84412958e-03 1.26518216e-03 6.07287465e-03 1.31578948e-02
      2.53036432e-03 1.59412958e-02 3.28947371e-03 3.28947371e-03
      1.77125516e-03 0. 2.53036432e-03 2.42914986e-02 7.59109331e-04
      1.51821866e-03 7.08502065e-03 2.02429155e-03 1.26518216e-03
      3.79554671e-03 3.03643732e-03 1.01214573e-02 4.30161972e-03
      5.06072887e-04 1.77125516e-03 1.51821866e-03 3.79554671e-03
      7.84412958e-03 2.27732793e-03 2.53036444e-04 0. 3.54251033e-03
      4.04858310e-03 6.83198404e-03 7.84412958e-03 2.53036432e-03
      7.59109331e-04 7.08502065e-03 1.51821866e-03 5.81983803e-03
      8.09716620e-03 3.54251033e-03 2.02429155e-03 5.06072887e-04
      2.02429155e-03 2.53036432e-03 3.79554671e-03 1.26518216e-03
      4.55465587e-03 7.59109342e-03 6.07287465e-03 1.77125516e-03
      2.53036432e-03 2.53036432e-03 7.08502065e-03 4.04858310e-03
      2.53036432e-03 0. 5.06072887e-04 5.31376526e-03 1.26518216e-03
      1.99898798e-02 2.02429155e-03 7.08502065e-03 4.04858310e-03
      2.27732793e-03 2.53036432e-03 6.57894742e-03 0. 8.09716620e-03
      5.06072887e-04 1.01214577e-03 2.30263155e-02 7.59109331e-04
      1.41700413e-02 1.01214577e-03 1.77125516e-03 2.27732793e-03
      5.81983803e-03 1.51821866e-03 4.80769249e-03 3.54251033e-03
      2.27732793e-03 2.53036432e-03 4.04858310e-03 2.17611343e-02
      3.28947371e-03 1.01214573e-02 6.32591126e-03 2.27732793e-03
      9.86842159e-03 7.08502065e-03 4.04858310e-03 7.59109342e-03
      1.26518216e-03 1.77125516e-03 3.03643732e-03 5.06072887e-04
      2.53036444e-04 2.53036444e-04 1.39170047e-02 5.56680188e-03
      1.51821866e-03 1.08805671e-02 8.35020281e-03 1.51821866e-03
      7.59109342e-03 5.56680188e-03 7.59109331e-04 2.53036444e-04
      2.53036432e-03 1.77125516e-03 1.01214577e-03 1.77125516e-03
      3.03643732e-03 3.79554671e-03 1.11336038e-02 5.31376526e-03
      3.54251033e-03 2.53036444e-04 3.54251033e-03 3.03643732e-03
      5.56680188e-03 4.80769249e-03 5.06072887e-04 2.27732793e-03
      3.54251033e-03 2.53036432e-03 3.03643732e-03 8.60323943e-03
      3.03643732e-03 5.06072864e-03 2.53036432e-03 2.78340094e-03
      1.77125516e-03 4.80769249e-03 2.02429155e-03 5.81983803e-03
      3.28947371e-03 5.31376526e-03 1.01214577e-03</_>
    <_>
      1.35574839e-03 8.13449034e-04 1.05748372e-02 2.16919743e-03
      1.62689807e-03 1.08459871e-03 8.40563979e-03 2.16919743e-03
      2.98264646e-03 1.89804775e-03 8.94793961e-03 1.35574839e-03
      9.21908952e-03 9.21908952e-03 2.71149678e-03 2.44034710e-03
      1.35574839e-03 5.42299356e-03 6.77874219e-03 1.62689807e-03
      3.79609549e-03 2.16919743e-03 2.71149678e-03 8.13448988e-03
      1.89804775e-03 0. 5.15184365e-03 6.50759228e-03 1.62689807e-03
      7.59219099e-03 1.35574839e-03 9.76138841e-03 8.13449034e-04
      3.52494582e-03 1.62689807e-03 4.06724494e-03 1.62689807e-03
      1.35574839e-03 2.71149678e-03 5.42299356e-03 1.35574839e-03
      8.40563979e-03 3.25379614e-03 2.16919743e-03 5.42299356e-04
      5.42299356e-04 7.04989163e-03 2.16919743e-03 4.06724494e-03
      3.52494582e-03 5.42299356e-04 2.44034710e-03 4.88069421e-03
      3.52494582e-03 7.86334090e-03 2.98264646e-03 2.71149678e-04
      1.89804775e-03 3.79609549e-03 4.60954476e-03 9.49023850e-03
      2.16919743e-03 8.13449034e-04 1.89804775e-03 1.89804775e-03
      1.08459871e-03 1.13882869e-02 2.98264646e-03 3.52494582e-03
      4.88069421e-03 5.69414347e-03 5.42299356e-03 1.49132321e-02
      3.52494582e-03 0. 4.88069421e-03 2.44034710e-03 4.60954476e-03
      1.08459871e-03 7.59219099e-03 2.16919743e-03 1.95227768e-02
      3.79609549e-03 3.52494582e-03 2.71149678e-03 0. 7.86334090e-03
      7.59219099e-03 8.94793961e-03 8.67678970e-03 1.62689807e-03
      5.69414347e-03 8.67678970e-03 2.46746205e-02 2.71149678e-04
      1.62689798e-02 9.21908952e-03 0. 1.08459871e-03 1.08459871e-03
      8.40563979e-03 4.60954476e-03 2.44034710e-03 1.89804775e-03
      1.08459871e-03 5.42299356e-04 8.13449034e-04 3.79609549e-03
      4.33839485e-03 2.44034710e-03 1.03036873e-02 4.06724494e-03
      7.32104108e-03 2.71149678e-03 1.62689807e-03 1.89804775e-03
      3.79609549e-03 1.89804775e-03 2.71149678e-03 8.13449034e-04
      1.73535794e-02 1.08459871e-03 1.35574839e-03 1.89804775e-03
      5.42299356e-04 0. 1.27440346e-02 1.70824304e-02 1.62689807e-03
      1.35574839e-03 1.62689807e-03 8.13449034e-04 2.98264646e-03
      8.13449034e-04 1.35574839e-03 4.60954476e-03 2.27765739e-02
      2.98264646e-03 3.79609549e-03 7.32104108e-03 8.13449034e-04
      3.79609549e-03 1.08459871e-03 4.88069421e-03 1.54555319e-02
      4.60954476e-03 2.71149678e-04 1.62689798e-02 5.42299356e-03
      1.89804775e-03 4.88069421e-03 1.22017357e-02 1.35574839e-03
      2.98264646e-03 3.52494582e-03 2.71149678e-03 8.13449034e-04
      4.06724494e-03 3.79609549e-03 4.60954476e-03 8.13449034e-04
      2.16919743e-03 4.33839485e-03 6.23644236e-03 1.89804775e-03
      2.98264646e-03 1.08459871e-03 8.13449034e-04 3.25379614e-03
      5.42299356e-04 8.13449034e-04 4.33839485e-03 1.89804775e-03
      2.71149678e-03 1.08459871e-03 3.79609549e-03 1.89804775e-03
      5.42299356e-03 2.44034710e-03 4.88069421e-03 8.13449034e-04
      4.33839485e-03 2.71149678e-03 2.98264646e-03 2.71149678e-04
      5.42299356e-04 1.19305858e-02 8.13449034e-04 8.94793961e-03
      6.77874219e-03 3.52494582e-03 4.33839485e-03 2.98264646e-03
      2.16919743e-03 2.16919743e-03 6.23644236e-03 2.71149678e-04
      8.13449034e-04 1.62689807e-03 2.44034710e-03 7.59219099e-03
      1.08459871e-03 2.71149678e-04 7.04989163e-03 2.16919743e-03
      1.46420822e-02 2.71149678e-03 1.89804775e-03 1.89804775e-03
      1.30151846e-02 1.89804775e-03 1.62689807e-03 5.69414347e-03
      1.62689807e-03 2.71149678e-04 1.13882869e-02 1.00325383e-02
      1.08459871e-03 8.13449034e-04 8.13449034e-04 1.35574839e-03
      4.33839485e-03 2.98264646e-03 1.35574839e-03 5.42299356e-04
      2.16919743e-03 5.42299356e-04 7.59219099e-03 2.30477229e-02
      5.42299356e-04 2.71149678e-04 5.69414347e-03 1.22017357e-02
      5.42299356e-03 1.62689807e-03 5.15184365e-03 8.13449034e-04
      1.08459871e-03 2.16919743e-03 2.71149678e-03</_>
    <_>
      9.05797165e-03 0. 5.79710165e-03 2.89855083e-03 3.62318847e-03
      2.53623188e-03 1.08695659e-03 1.44927541e-03 4.71014529e-03
      2.89855083e-03 7.24637706e-04 5.07246377e-03 7.24637706e-04
      1.44927541e-03 3.98550741e-03 3.98550741e-03 1.01449275e-02
      1.81159424e-03 0. 5.07246377e-03 3.62318853e-04 7.24637706e-04
      2.17391318e-03 9.05797165e-03 3.62318853e-04 4.71014529e-03
      4.34782635e-03 7.24637706e-04 7.24637706e-04 1.44927541e-03
      4.34782635e-03 5.07246377e-03 0. 3.62318853e-04 1.01449275e-02
      7.24637706e-04 6.88405801e-03 1.26811601e-02 1.44927541e-03
      2.53623188e-03 1.44927541e-03 1.81159424e-03 1.44927541e-03
      4.34782635e-03 1.23188412e-02 3.98550741e-03 2.89855083e-03
      1.08695659e-03 3.62318847e-03 0. 9.78260860e-03 1.08695659e-03
      2.89855083e-03 3.26086977e-03 2.89855083e-03 4.71014529e-03
      6.88405801e-03 2.35507246e-02 1.44927541e-03 1.08695659e-03
      7.24637695e-03 3.62318847e-03 4.34782635e-03 3.26086977e-03
      7.24637695e-03 6.52173953e-03 3.98550741e-03 3.98550741e-03
      3.98550741e-03 1.44927541e-03 2.89855083e-03 5.79710165e-03
      9.78260860e-03 0. 6.15942059e-03 1.08695659e-03 5.79710165e-03
      3.62318847e-03 2.89855083e-03 1.44927541e-03 3.26086977e-03
      1.08695659e-03 3.62318847e-03 3.98550741e-03 3.62318853e-04
      5.79710165e-03 5.43478271e-03 6.15942059e-03 4.71014529e-03
      1.08695659e-03 9.78260860e-03 1.81159424e-03 5.07246377e-03
      5.43478271e-03 5.43478271e-03 3.98550741e-03 5.07246377e-03
      2.89855083e-03 3.98550741e-03 3.62318853e-04 2.53623188e-03
      7.60869589e-03 1.08695659e-03 1.08695659e-03 1.37681160e-02
      3.62318847e-03 2.68115960e-02 3.62318853e-04 2.17391318e-03
      4.34782635e-03 3.62318853e-04 7.60869589e-03 6.15942059e-03
      7.24637695e-03 4.34782635e-03 1.70289855e-02 7.60869589e-03
      2.17391318e-03 3.26086977e-03 2.53623188e-03 4.71014529e-03
      4.34782635e-03 7.24637706e-04 5.79710165e-03 1.08695659e-03
      1.15942033e-02 3.98550741e-03 4.34782635e-03 3.26086977e-03
      1.08695659e-03 3.26086977e-03 8.33333377e-03 4.34782635e-03
      7.24637706e-04 3.62318853e-04 3.62318853e-04 5.43478271e-03
      3.98550741e-03 2.17391318e-03 7.97101483e-03 1.81159424e-03
      1.08695659e-03 0. 1.44927541e-03 3.62318853e-04 3.26086977e-03
      3.98550741e-03 4.34782635e-03 1.23188412e-02 1.19565222e-02
      5.43478271e-03 2.89855083e-03 7.97101483e-03 4.34782635e-03
      1.44927541e-03 1.08695659e-03 1.08695659e-03 4.71014529e-03
      4.71014529e-03 7.24637706e-04 1.01449275e-02 4.71014529e-03
      2.17391318e-03 2.17391318e-03 1.08695659e-03 5.07246377e-03
      3.98550741e-03 3.62318847e-03 4.34782635e-03 0. 5.79710165e-03
      1.15942033e-02 2.53623188e-03 1.70289855e-02 2.17391318e-03
      1.44927541e-03 2.89855083e-03 7.24637706e-04 1.44927541e-03
      3.62318847e-03 1.44927541e-03 1.37681160e-02 4.71014529e-03
      3.98550741e-03 0. 1.08695659e-03 8.69565271e-03 2.53623188e-03 0.
      5.43478271e-03 5.07246377e-03 1.81159424e-03 5.07246377e-03
      1.44927541e-03 2.89855083e-03 7.24637706e-04 9.05797165e-03
      2.17391318e-03 0. 3.98550741e-03 4.71014529e-03 6.15942059e-03
      1.88405812e-02 7.24637706e-04 1.44927541e-03 6.52173953e-03
      3.62318853e-04 1.44927541e-03 1.81159424e-03 3.98550741e-03
      5.07246377e-03 4.71014529e-03 1.44927541e-03 2.53623188e-03
      4.34782635e-03 9.05797165e-03 7.24637695e-03 5.07246377e-03
      1.44927541e-03 4.71014529e-03 1.81159424e-03 5.43478271e-03
      9.42029059e-03 3.62318853e-04 5.43478271e-03 3.62318847e-03
      3.98550741e-03 3.62318847e-03 9.42029059e-03 1.08695659e-03
      2.53623188e-03 2.89855083e-03 7.24637706e-04 1.08695659e-03
      5.79710165e-03 3.26086977e-03 1.81159424e-03 9.78260860e-03
      9.05797165e-03 1.08695659e-03</_>
    <_>
      1.37693633e-03 3.44234082e-04 4.13080910e-03 1.03270225e-02
      1.37693633e-03 1.37693633e-03 4.81927721e-03 7.57314963e-03
      2.75387266e-03 4.81927721e-03 4.47504316e-03 1.37693633e-03
      7.57314963e-03 2.40963860e-03 3.09810671e-03 2.06540455e-03
      2.40963860e-03 7.57314963e-03 1.20481933e-02 1.03270228e-03
      4.81927721e-03 3.78657482e-03 1.72117038e-03 2.40963860e-03
      1.72117038e-03 1.03270228e-03 3.09810671e-03 9.29431990e-03
      3.44234082e-04 1.06712561e-02 0. 6.88468153e-03 3.44234082e-04
      6.19621342e-03 2.40963860e-03 3.09810671e-03 1.03270228e-03
      2.06540455e-03 2.06540455e-03 7.22891558e-03 2.40963860e-03
      1.37693631e-02 6.88468164e-04 2.06540455e-03 2.75387266e-03 0.
      2.68502589e-02 1.37693633e-03 1.03270228e-03 4.81927721e-03
      2.06540455e-03 1.03270228e-03 8.95008631e-03 3.09810671e-03
      6.19621342e-03 4.81927721e-03 2.75387266e-03 1.03270228e-03
      1.03270228e-03 6.88468153e-03 3.44234076e-03 2.40963860e-03
      1.03270228e-03 1.72117038e-03 4.13080910e-03 2.06540455e-03
      3.23580019e-02 1.37693633e-03 0. 3.09810671e-03 1.03270228e-03
      1.72117038e-03 8.95008631e-03 2.06540455e-03 2.06540455e-03
      3.09810671e-03 0. 1.03270228e-03 1.03270228e-03 2.40963860e-03
      1.03270228e-03 3.95869203e-02 1.72117038e-03 2.75387266e-03
      2.06540455e-03 5.16351126e-03 5.50774531e-03 1.03270228e-03
      5.50774531e-03 3.44234076e-03 4.13080910e-03 1.37693631e-02
      3.78657482e-03 2.65060235e-02 3.78657482e-03 7.91738369e-03
      5.16351126e-03 1.03270228e-03 2.06540455e-03 1.03270228e-03
      5.85197937e-03 1.37693633e-03 2.75387266e-03 6.19621342e-03
      3.78657482e-03 1.72117038e-03 2.40963860e-03 2.06540455e-03
      5.16351126e-03 2.75387266e-03 8.26161820e-03 2.06540455e-03
      2.06540455e-03 4.47504316e-03 3.09810671e-03 1.37693633e-03
      2.75387261e-02 2.75387266e-03 3.44234076e-03 1.37693633e-03
      3.30464728e-02 2.06540455e-03 1.72117038e-03 3.09810671e-03
      3.44234082e-04 2.75387266e-03 4.47504316e-03 8.95008631e-03
      1.03270228e-03 2.75387266e-03 1.72117038e-03 2.40963860e-03
      2.40963860e-03 2.06540455e-03 2.75387266e-03 7.22891558e-03
      6.19621342e-03 1.37693633e-03 1.37693633e-03 4.13080910e-03
      1.03270228e-03 3.44234076e-03 1.03270228e-03 1.03270225e-02
      1.34251295e-02 5.50774531e-03 2.40963860e-03 1.51462993e-02
      1.37693633e-03 3.44234076e-03 3.09810671e-03 6.19621342e-03
      4.81927721e-03 3.44234082e-04 3.44234082e-04 3.78657482e-03
      6.88468164e-04 2.06540455e-03 7.57314963e-03 5.85197937e-03
      5.16351126e-03 1.37693633e-03 6.88468164e-04 1.03270228e-03
      1.37693633e-03 3.09810671e-03 1.03270228e-03 2.06540455e-03 0.
      5.16351126e-03 6.88468164e-04 2.06540455e-03 3.78657482e-03
      3.09810671e-03 3.44234082e-04 5.16351126e-03 5.16351126e-03
      1.06712561e-02 2.75387266e-03 6.88468164e-04 4.47504316e-03
      3.09810671e-03 1.03270228e-03 1.72117038e-03 6.88468164e-04 0.
      1.72117038e-03 2.40963860e-03 7.57314963e-03 1.03270228e-03
      4.47504316e-03 6.19621342e-03 3.44234082e-04 7.57314963e-03
      2.75387266e-03 1.92771088e-02 2.75387266e-03 3.44234076e-03
      2.75387266e-03 2.06540455e-03 4.13080910e-03 2.75387266e-03
      6.88468164e-04 2.06540455e-03 3.44234082e-04 2.06540455e-03 0.
      2.40963860e-03 3.44234076e-03 4.47504316e-03 2.06540455e-03
      2.40963860e-03 9.29431990e-03 1.37693633e-03 1.37693633e-03
      6.88468164e-04 2.40963860e-03 2.06540455e-03 1.03270228e-03 0.
      3.44234082e-04 1.37693633e-03 1.37693633e-03 5.85197937e-03
      4.47504316e-03 8.60585179e-03 6.88468164e-04 3.09810671e-03
      2.96041314e-02 3.09810671e-03 3.44234082e-04 3.78657482e-03
      1.06712561e-02 2.40963860e-03 3.44234082e-04 7.22891558e-03
      3.44234082e-04 1.37693633e-03 3.44234082e-04 5.50774531e-03</_>
    <_>
      2.48447200e-03 0. 2.48447200e-03 7.45341601e-03 2.48447200e-03 0.
      2.48447200e-03 9.93788801e-03 0. 1.24223600e-03 2.48447200e-03
      2.48447200e-03 1.24223600e-03 1.24223605e-02 1.49068320e-02
      4.96894401e-03 3.72670800e-03 1.24223600e-03 0. 0. 3.72670800e-03
      1.49068320e-02 2.48447200e-03 2.98136640e-02 1.24223600e-03 0. 0.
      3.72670800e-03 1.24223600e-03 3.72670800e-03 0. 1.24223600e-03 0.
      3.72670800e-03 1.24223600e-03 2.48447200e-03 1.24223600e-03
      2.48447200e-03 2.48447200e-03 9.93788801e-03 0. 4.96894401e-03
      1.24223600e-03 1.24223600e-03 1.24223600e-03 1.24223600e-03 0.
      9.93788801e-03 7.45341601e-03 6.21118024e-03 0. 0. 0.
      1.24223600e-03 2.48447200e-03 0. 1.24223600e-03 6.21118024e-03
      1.24223600e-03 4.96894401e-03 7.45341601e-03 1.24223600e-03 0.
      4.96894401e-03 7.45341601e-03 3.72670800e-03 1.24223600e-03
      1.24223605e-02 1.24223600e-03 2.48447200e-03 2.48447200e-03
      6.21118024e-03 4.96894401e-03 1.24223600e-03 0. 2.48447200e-03 0.
      6.21118024e-03 0. 2.48447200e-03 7.45341601e-03 0. 3.72670800e-03
      1.24223605e-02 7.45341601e-03 3.72670800e-03 2.48447200e-03
      8.69565178e-03 3.72670800e-03 1.24223605e-02 6.21118024e-03
      1.98757760e-02 2.48447200e-03 9.93788801e-03 2.48447200e-03
      2.48447200e-03 2.48447200e-03 1.24223600e-03 0. 1.24223605e-02
      4.96894401e-03 8.69565178e-03 1.24223605e-02 2.48447200e-03
      8.69565178e-03 3.72670800e-03 8.69565178e-03 0. 3.72670800e-03
      4.96894401e-03 4.96894401e-03 4.96894401e-03 4.59627323e-02 0. 0.
      8.69565178e-03 1.24223600e-03 7.45341601e-03 2.48447200e-03
      7.45341601e-03 2.48447200e-03 0. 4.96894401e-03 2.48447200e-03
      1.24223600e-03 1.24223600e-03 7.45341601e-03 3.72670800e-03
      1.24223600e-03 3.72670800e-03 4.96894401e-03 3.72670800e-03 0. 0.
      7.45341601e-03 6.21118024e-03 7.45341601e-03 3.72670800e-03
      1.24223600e-03 7.45341601e-03 0. 4.96894401e-03 7.45341601e-03
      1.24223600e-03 2.48447200e-03 9.93788801e-03 4.96894401e-03 0.
      1.24223600e-03 0. 1.24223605e-02 3.72670800e-03 2.48447200e-03
      1.24223600e-03 0. 1.24223600e-03 4.96894401e-03 2.48447200e-03
